function [Y,Xf,Af] = A60Neurons(X,~,~)
%MYNEURALNETWORKFUNCTION neural network simulation function.
%
% Auto-generated by MATLAB, 28-Oct-2021 13:26:40.
%
% [Y] = myNeuralNetworkFunction(X,~,~) takes these arguments:
%
%   X = 1xTS cell, 1 inputs over TS timesteps
%   Each X{1,ts} = Qx24 matrix, input #1 at timestep ts.
%
% and returns:
%   Y = 1xTS cell of 1 outputs over TS timesteps.
%   Each Y{1,ts} = Qx3 matrix, output #1 at timestep ts.
%
% where Q is number of samples (or series) and TS is the number of timesteps.

%#ok<*RPMT0>

% ===== NEURAL NETWORK CONSTANTS =====

% Input 1
x1_step1.xoffset = [2.29876814651784;1.92330523977809;1.91229124278308;1.72653296462627;1.81205946686068;1.82105595507533;1.8649475129729;2.25027350217209;2.30830270408982;1.96818317409976;1.89815387976471;1.72636860823448;1.81135707598602;1.81842575081049;1.87201622586289;2.25114570026467;2.30715300043489;2.04725386391614;1.91426389986531;1.72686177023192;1.81859014047522;1.82220665412756;1.87892048364954;2.25076665866927];
x1_step1.gain = [2.64253568890864;3.01086653037222;3.8957115528526;4.37166135929834;2.01404344493195;2.94955785000306;2.47533938135408;4.0991448751936;2.72358057888568;3.2290214826281;3.92461591263955;4.74691243081053;2.04279030112406;2.94298699193037;2.56240407673749;4.1555781226894;2.43812481365412;3.33963298864794;3.39935786788494;3.7854165774567;1.89697520776141;2.72298649497869;2.35237039048001;3.60161504127776];
x1_step1.ymin = -1;

% Layer 1
b1 = [-4.7206307836384207022;-6.4954540990226421471;4.1428559430251405971;-4.6852144307329322004;-6.9025806475349043012;-0.05361869527154149162;0.60475236724812087008;-1.0171056526774109319;-5.8181893952076180199;-9.6451516862235493477;1.1525001582039531289;-0.074280987691946978591;-1.6746510134835981276;4.9631599305021856239;-0.145402358588705094;-0.96362253239348238942;4.9655651078120932596;-0.68520537070391884793;-1.9034754500382728981;-7.3540308887188912124;-13.46411045723410993;0.68295496543883504881;-0.090357461384015499983;-2.8412176021073816123;-3.2763138079741853659;-1.2147948785434927732;-1.5029365413315762812;1.3341266605186723471;-1.416255994306442112;0.68819257889092633196;1.5567794672461678918;-1.405827113436560083;0.054987064723262445154;0.88092147539374987542;0.13062685241350069365;1.0515802680677557301;0.80964433975352578798;-7.529338269143068807;3.7482241367780906316;2.7101186507948114013;-3.1612954922266340851;-1.7096409893392769952;2.1175748053613738797;5.6652369903320138889;8.896013195655454453;3.3295571726955577319;-2.4720216856092709357;5.3291803278780651709;1.2171831562137398475;6.6556352108586169791;-0.017778188479368219055;1.5542497738578948674;1.7601388951270662275;-1.5471345985946030055;-2.9933642172464858255;-1.0920530693662189314;2.2409251809147501255;-0.63099552578352302579;3.2609216790327164581;-8.398304052992957125];
IW1_1 = [-1.8666489399775438862 2.9017503385851504127 0.017225412941221707186 2.5616991041140604324 3.1223958815665104893 5.0289746759706446255 6.0768344620366248066 6.6938319593721171685 1.3424940398342652959 -1.0694590593334010187 -1.0297941014980442898 -1.5182719465505425394 2.3016691932827484379 -1.9308604964225253298 1.948842300496541613 -0.34642939570383018966 0.64348255444581980989 -3.6733552185050517558 -1.0906169154668710064 -0.4687690448128160603 -8.3704408151217482015 -5.722040824445690177 -9.1051357007363371565 -0.29938368504615359145;4.6627747632083602625 -2.9474755963279659632 0.58022823647486421184 1.5307601823449155098 -6.7739591038251658617 -3.3734722292697143509 -3.3660779163033720529 -0.27891118495029498803 3.2433771153882018368 3.2230339304938988576 0.043146105002174001131 -0.47353201386816357044 10.154724164695387856 4.9206093838819944253 2.5058207170418205223 -0.55714626628015051502 -6.2506050405454134378 0.67184661368652198732 -0.060388654992007351208 -2.6853896802070664762 -1.8444802672082010186 -2.2119002874282980287 -0.69607584163448743553 -0.2991336669387344438;0.37232905891345652316 -2.3004256610780866588 -2.0120520503338976681 -1.8603627460073994815 -9.0282769968678309169 0.86170902141141303421 1.1262267791024496155 5.5586676448846983334 0.11312456596927614183 1.9413057647207629941 1.3270470310849871165 1.6632650791866894213 -3.6482808019096357732 -0.75936193120842099269 -1.7868665623504416118 -7.7750089326615521301 -0.75201500656368835962 0.56213432733041102107 0.64291129724568440995 -0.088444123270756624944 13.758964800316347166 -0.47777305689921695242 0.58941634349472038501 2.9719163641404238163;1.07628503264904829 -2.5427717750132514674 3.5921121095325458938 1.8871300251043916507 -2.4258565131655682734 0.19459146177149186374 2.9296980581592348969 -2.1507389947101165362 2.9297743468614094731 3.5385057409991915733 0.28354703863943930831 0.61110030911746748838 7.0382562664454564327 -4.3977286393618451044 -4.3394550521986641201 2.1591191528948026068 -2.043382533574193971 -0.86962712028143274168 -3.4741088167289868593 -1.3981369716659690638 -7.5268303112338941219 1.2863738739377807985 0.0371463516090212581 -0.22153595841816281498;-2.5056028440944908553 -1.0431224140848076587 5.3802345013462717915 1.5873697691803574372 12.810427138277432846 1.7927812173544610541 -0.59046629841895736934 0.95074556301698343042 1.6073175749567436554 1.9099994370401933708 0.67583694743408440075 3.9590323951882404607 -2.1138788574701616874 2.058795262821597305 -0.40257229879260558736 -2.1311231453568844074 -2.9654189957495944441 -5.4491936139528736049 -5.2025053698523651136 -3.1767244967159147251 -3.9668738415536055619 -1.6515882531555365897 -2.6441958406630523548 -3.225272564235451167;0.041908806675648918594 -0.087248756159862578263 0.60041446978375245802 1.2770489047772872748 3.2922767037673152934 -1.7382624963892356895 -0.90613855985109970081 0.33207887772089672573 0.63464725320104520279 -0.032603087898431873382 -0.59101136669912113231 -0.92337406376420261278 -1.0657127990910950643 2.4885338745701446328 0.94181405111125593432 -0.088536349308046477513 -0.56861886683778484208 0.50873944709206797565 0.17226803002408846988 -0.77032588138418278678 -1.5311015499282953911 -0.64524273997418635229 0.019025402029825631833 -0.26582835762063111718;-0.9281514576758552737 -1.5818410914087694952 0.11630114941752772717 -0.053758883281054853365 3.1219724114239317814 0.57118232619213971102 0.87931410859708536432 1.511591341174496117 1.4176548686264196508 1.4337202792305963062 0.61844590231073170994 -0.31928110412681920405 -0.75910774174945616632 0.71334428431617358246 0.019009756956643572567 -1.4362741535459393472 -1.8259116150089027553 0.56825648387543314932 -0.33504284022200980786 -0.0042920538438105532153 -1.163755563177335528 -0.23219489712792701352 -0.14311910785926662548 -0.088399882608620874991;-0.82053379590967701063 -1.3776921676857030175 -1.4646737943195682341 0.00041442817964856826229 0.83434795573713771422 0.53182118741900308301 0.68044463251586539965 0.36854119832541165636 -0.031008120495110549908 1.039796316788344166 1.6986963689285410339 0.095324512776192554808 0.10972252825024086942 0.0014692356785913254346 0.090176666507975816733 -0.25426938819490840782 0.3549088717301412399 -0.089011705935241547394 -0.14367548165677490601 -0.26397037391691652308 -0.87632045873186925622 -0.32585215510849951936 -0.35096724825681147042 -0.21646579697877632587;1.1778841311372942879 1.5669721924960808845 -0.32522933343721627253 -1.8764371971755537949 -11.698482370527726104 0.46750033055602246979 2.0169685309798390804 -1.4192174483255202144 0.96642067441710777231 -0.12504397435556802165 0.41329626537324420932 1.9342948397160455443 29.232401940838943943 1.1338232363716349571 2.7777379520795064671 3.0516029103746036277 -2.2539370205631699129 -1.3097265829016835337 0.090793953424863224622 -0.30542543679500089304 -19.42149824430764582 -1.8109921040431979922 -5.7030851835811819939 -2.0734167781139496434;-0.28525529472358368555 0.78769823630507629364 -7.3249248652326901521 0.77092082117729732182 9.6956704202812229454 -3.4966509718884863922 5.9870569717233603768 0.40478064399184232602 0.75804495518302572599 8.0306181649638066489 8.5723755455468939601 -4.2823986216842921948 4.4284458485171382947 3.5990412209738371629 2.2219067192392674137 5.450858475242779555 -3.3334058912140527298 -5.8008458099841480049 6.6295631333606239721 -1.0983220944455296397 -8.0346745257118890038 -6.8848186940473201645 -5.0935072786909225684 -2.6046346574879652991;-0.66848798153859623206 -1.255354077089487097 -0.96379533157280794509 0.15581687913212141638 1.9535726825905359583 -0.42911703949425472615 0.10421439270723750758 2.2480073651806016244 0.91745295354523581643 1.296209709687004219 0.5637090962455826304 -0.29262594612173564723 -0.89819961412284454738 -0.86130381624813034946 0.42713386550264142993 -0.926565436773005624 -0.89105747842080040844 0.011926292318920698673 0.21448323838567631694 1.0436147878454817839 -0.33277199362455350817 0.70536425987880413402 -0.39967517855124468085 -1.1896903129174289937;-0.43868634918875620832 0.12653365075373590454 0.44330493929404668485 0.54632240724473879467 0.87341757710836087636 -0.59681517022760577351 0.42016462771380391761 -0.70619792578934181826 0.5963174786134125549 -0.11686382030365093099 0.060014019290743153556 -0.62415679762734499469 -2.3105552135282318993 0.3402605582813729157 -0.83877839935389741921 0.17110994724927461319 0.10298484409306746246 0.21708524322506345117 -0.4091126194948903616 0.24248393773634291382 1.3074326005018053198 0.35889766173537762661 0.29273779660881482645 0.46787224825667789174;-2.5227657381479655641 3.7165286278475520021 2.5958405381985771854 0.93738988375530940544 -2.0665848880290322853 1.6144168688575943893 -0.2038223863508736855 0.10517151397355650744 3.4195840565923241172 -0.89739537298582761071 -3.5656054609387037857 -0.13030092580680896486 0.74121676788446988482 -1.1645394259417045646 -1.5454527948412646321 -0.52728066816056351485 1.3203332458581886755 -0.49531165165549645435 -1.7496090770117020963 -0.49739181873012694446 1.9592743556395815219 -0.74485915405729541394 0.82401466852869742485 1.0084825779085360153;-0.18569847227161201397 -2.5355047752033312847 -2.5592960464647780405 -0.94471967594178329897 -6.5725106631173746408 -2.7654922301885975777 -3.3324604508128867764 1.6904856367003837647 0.34945663248483194163 2.0379342143863463654 -0.61587279074139011925 -1.6954521832351812094 -1.462472022171626973 -0.94427329448228880526 2.4289847803558766159 -1.0808092000222533358 2.686221097784472267 4.1327094852014010229 2.0354831252121763363 0.86081122098694362599 3.1353713206190536589 2.1144403795776023358 3.0152775892294894078 2.5316696831924798694;1.8722538062735123443 -1.7111314184279100559 -2.3740963340817504701 -1.3581454757009381318 7.6996076211341328843 4.5815840249780848126 3.1370882558224031378 2.0886474452140046942 -0.80471237791848437837 1.5543327532695614401 1.4234375826342267057 0.67272000798497044727 -7.2815680554028574534 0.017507285848253673066 -1.1690661109105962012 1.5053506211761178424 -1.4922166917324581892 1.1776253615420526621 0.3845145225822231283 -1.0591985102499226201 -0.72728706409607568606 -1.3190174673618983991 -0.34575311404653763514 0.68223602117564041691;-1.9114138174038364237 6.653769013326922277 0.89485675300700318058 -5.8177122536183230039 5.4948373814603872489 2.2822091936657091793 0.27672030659938512409 -1.819887779846841358 0.23023248760069142671 -5.7532572256366067975 -1.2010622442938441168 8.7947969023955838708 -8.7015759225256559262 -1.258786383414447041 -2.5084732489577183934 0.10080822127603858429 1.5567719855510211424 -0.28061467699550213251 1.4673333522703086995 -3.8245111670937803616 1.4863908038707294157 -0.022306089910373978757 0.62796446315145937334 1.2323771544102459785;-7.8606928006755021343 -9.6968319745102924401 0.84079820260467774684 -0.27290889867518297596 0.019976714803159961731 5.2057398398108754023 1.819160794474590892 0.37212100042928031307 12.08547130649930601 -6.9688301304688407001 2.6947968864289175706 -0.82598059499667531025 -2.0471389817639202846 -3.414224342678514823 -2.2908171949634152931 -1.2537457357065071584 -5.239187623688778217 17.25655553302636136 -3.6753747643189775829 1.3169645122279498572 1.7060150084789673652 -1.1869184798161280803 1.1556207496331358797 1.3473730271271000536;0.0097176598133060648754 -0.17406240208953183135 -0.49515774692293701431 -0.7584272806466845207 -1.293125264813823172 0.37433484423678398123 1.4522883668579700256 2.4599576555847884052 0.75086125037157203099 -0.2865597182782458896 0.16564059942792280777 0.85887048451849179465 -8.3401374922587621086 -2.6006418762440244308 -2.3610865536850345059 5.2533167980123689489 -0.97219546234853282396 0.20357363138092390842 0.20701525670747658592 0.057794988603601743504 11.139726870597540298 2.450024937740119757 0.70800227479191868429 -9.1893832926961120933;-2.70013195258280847 0.40562030488343725487 -0.1956868213679724966 1.3256241257028764657 1.7617202964869187465 2.6355678325194795697 -1.1296446615657660395 1.6518029384003378723 1.3141565053384642869 -0.084215703608255587653 -0.18849160297020611798 -0.067760961764388699669 0.04933631573500135703 -1.4927974232441305613 2.0272924277688191275 0.02182796981311802692 0.4503524870636598787 -0.79379224219961852516 0.24118052281689766891 -0.43306614279673483203 -1.8289832233934359973 -2.0633410501600932818 -1.6113053142774287352 -0.14482657013556515802;0.86446614499544782717 3.5794323694202723196 1.6462758258771408304 1.0782852589440024005 -1.5488223354731631698 -1.5325433594255228886 -2.5972796137185003573 2.113683357027334786 1.8015151138108360662 -0.19174240439672030067 -0.34486805520722518814 0.95270695650817338596 10.717048147447357564 1.7232863041852592989 2.5673382873873773491 6.6542708357945521414 -2.8569572148008015589 -2.6425145863747530051 -0.92191212803109678919 -2.308284239799309745 -9.0895977567775059214 -0.37730271007331833699 -2.7690008455059604842 -11.199672288992843505;-2.8647063411400863764 0.50993753302764566193 -4.5202506282334935506 -46.555116011893126426 -2.1677059663646951471 0.30626807190530419556 -0.53733841365827395009 -0.56959361595217805618 6.0186112496187824661 1.7944895405278289413 10.017509461096702594 68.954868933440621959 2.0169179057334796212 -0.49540796231570594088 0.60507892288615638954 0.74904084739178922181 -3.553151417565324266 -2.1591391920247677838 -6.5981276740173262496 -32.802215203995281456 -0.25833158303733044781 0.014891676767824555197 -0.19676179102651486508 -0.31218051708499322539;2.2580023766610604063 1.953593928583486683 0.20421259454478057904 3.5836794934655973321 0.00096105473261728913137 1.3451046726656936681 -0.46606276388725897952 -1.2274800537287222646 -3.5075594191950232315 -1.7279013151034847695 -0.99400765508175836782 -4.8634630006879628894 -1.929730508228581165 0.78352730667688930133 -0.97561111717869852811 -1.0767063607910665191 2.5402702660238976051 0.95271625887045974235 1.6257431608053889427 -0.22060207747924059918 0.83049850584512696638 -1.0588481937926517151 1.7980780784059238187 2.0094724244980688432;1.4533209512610980596 -1.4383795974488713387 -2.2263316824527472626 -1.1457989797228189666 6.7082240993811366181 4.1342487355240749025 2.6976310045615461419 1.9003283751896904441 -0.5905833561840971857 1.2977841018782132476 1.3528986569217487101 0.53175932594059138747 -6.290446960623877537 -0.047486176497968282662 -0.9568647202894353665 1.3153308359742910127 -1.1854214097858435384 0.98707795594092384572 0.33931391807638922042 -0.89974380805051856758 -0.76097610733120535365 -1.2575051894532041086 -0.34949891006405220395 0.52802801760029116629;7.2140239291336829552 2.8393161964755999627 -0.56502665250119066265 -1.9785569058328238423 -0.73262313000776002614 3.1563403663539313371 -3.4917094316322310199 -2.5495593002261696114 12.828991182206628707 -2.1930098567198341719 0.16917693297341476755 -0.88792255807323861028 -2.6376616049090988447 -3.6500723547642155431 2.3982358661566127722 2.7675394672831394871 -23.151767413278577123 -0.34723412818656179679 -1.194041192352807812 3.0266137745416905602 1.7199325137164309663 -0.074995131139711235235 2.0793715277761775084 0.14210398064532414608;0.16675070836396485574 5.5237687861552799973 -0.028396812455032116596 1.2552684939511820073 4.2391524482210858338 1.1924208728673346691 3.5199973992175852544 0.25225888375848554146 1.5533656234433264043 -0.93790442489984626739 -0.18615353521363528499 -0.18928535265686641242 2.4471821554637234186 -0.34737546149475656554 -2.6308954247652791558 0.51765610718972121518 -0.91760617979126557486 -2.115780527768466257 -1.5797944093755134087 -1.2099681840497944485 -7.9536344070679216856 -1.2797400332898360986 -1.4477333250374411211 -1.9956756079121864556;4.9585431680834206603 -1.1490525651030047971 0.96910737751887421343 10.012640704127374391 2.1165198660304120892 -0.32017345208977071591 0.56670488114364137022 2.3859651444977170165 -6.9551824358149429983 -0.27822611564299998266 -1.0949729997534269899 -2.6597528323355872359 -0.15586023889793199082 1.0282204529791403314 -0.24504390036228834715 -1.5025644097083925566 2.4144257630758678701 1.8132752575053994182 0.017205969843496107807 -8.4255192670029561697 -1.5286157562493689621 -1.108043209397060469 -0.61678777417372032676 -1.2982311466040243886;0.12475891846197498247 0.0039870299837573008883 4.516669756762190957 -2.665383922647596826 -4.3074729612552600244 -5.2188501010264243263 -2.6554986838271092964 -7.5840450306149946869 0.49741926474724862395 5.7313212808210431959 0.26613595937448808471 4.8513760832305026227 -7.9462082770731417014 6.1481351414678320211 7.855510483120237808 4.5062202960696566834 -1.6218170796457600513 0.43045008463173639601 -0.817582499845921018 1.7594808499894141196 6.4612899334840578902 2.2779943571370919742 -2.1955322907398913124 0.14610933366500875041;-3.5957743816964939931 0.69506828172610957139 4.6074070985536330625 0.77552876088674316257 0.51112049787143176705 1.7025166141808596443 4.1359619335276542884 -1.8432780433107505136 4.1142902250049351309 0.20837348582618914206 -3.0593933429680486569 1.4545953307508991958 -3.805083295485115702 -1.2491905220020476097 -7.5366106269593275968 -0.25209314762655715692 -0.13389276393750321192 1.6183607647695725795 -1.2273828535132060846 -0.32273994831943864092 3.7191234348676629473 -0.99800774046940610162 2.816142969978653543 1.9274537833920903918;6.6231986013820929315 2.3065421181211802626 -1.4692368253184397986 -6.2360672977549516105 -4.1879997223336253853 -2.0302064663096546226 -1.8922285529768057 -2.7388656102964601402 -4.3599285669381044883 -2.7657456868520839954 2.105687626976811444 5.7222165903529704778 3.3159586726480321239 0.8710863122175137585 2.1386649793616929749 2.88918087130125123 -1.8546840725663875649 -1.0717433571033176953 0.24214156004918346854 -1.0491720257418770679 -0.64108085161728656232 1.7040073624040659173 -0.96124326598430087643 -0.50269099091372493326;-2.1185395074579829178 4.0702728160357475318 -0.85762540916375606947 8.3321571249524737368 3.1262443170882456833 0.95983488341115041909 1.6080579532660543851 -1.1857983639452525093 0.05281174975490270096 -7.5920317236312016007 3.8487190640102979522 -9.7193237644906904649 -2.1266507243694201534 -0.30906051730150357892 -1.309889053429352801 1.2449872025443569079 2.0733522690881995842 4.3012884125536157143 -3.6422100892530009375 2.769862775144531053 -1.4196898459806817083 0.00073818560669826338572 -0.51003764154452435609 0.24932719537584410729;0.29567408369425968173 -0.79834181106163437658 -1.5648276340158200348 -13.323781944034939428 -1.4527352072144097406 0.92844604220181792265 0.42686120858061493699 -2.3178657973758509669 3.3741715856438760923 0.48363250653603701013 1.4009573421000058868 3.4531653755406148676 0.3602843683827328114 -1.6040470982060675009 0.23933818642321086356 1.5083707426486285819 -5.5020877409577426675 -0.10554500672416124163 0.36925256165395869967 10.824088803129617631 0.41247543212847381788 2.1172043723668227955 0.17402177355574088846 1.718237437916939836;-0.35559765318305336379 3.4008347882532299344 2.4336332100667887879 -0.081587637292999851124 0.3168890720601237887 -0.16795981617082061943 1.3788133215216999972 -0.3567930899711979631 1.6864444234134432499 -0.56705434485239014641 -0.36208579451690947604 -1.8332766943811145133 -2.1715711749558161969 0.07958011055504103648 -1.3420744143482172817 1.4235492591196310386 -1.5400341607266163635 -3.1143360081522546423 -2.7992218742340058135 1.722763114582584576 1.0890289774396426647 -0.26379734883530414624 -1.0791377170006741792 -1.3306335373963680269;-0.68186206768318635696 0.1353393716383142209 0.097708722405462425376 0.40451471598624277881 1.4077876004520051278 -0.864718308003287639 0.42071288100306242219 -0.44589148331558103866 0.65754689697670165582 -0.26718419086503975013 0.15359717995372995647 -0.52262908800541452159 -1.9761815853335065185 1.0761999455684072569 -0.77784600919135726826 0.21192340348626284574 0.26537971893788675493 0.27455571497143482773 -0.072163135148518811612 0.13079788115707843832 0.51432974942925546724 -0.29037602681581847763 0.18501070004193256868 0.19347480158271515571;0.2097211095122314406 -2.2060678345218320828 0.15930720280208407469 1.9185567454490337624 1.5775608113359189666 0.75286172417061958395 0.15734757266893845129 -0.44166071055497996278 0.603010422795850487 1.7719827297842030145 0.47689554491146091131 -1.9818686168539545456 -1.9163212796750441758 0.42250148606116572081 -0.30667772161289830191 0.025352305287961368618 -0.43243310772907206374 0.1790706554228992109 0.16358012468267335571 0.34508422580764197551 -1.2122848246899100566 0.34771869553629153327 -0.11264961493162511941 0.1916892330917962517;-2.0518984574350414007 0.26702571501185690117 0.7686592762835813275 3.6935334111470674578 -2.1262880061255482467 1.3683517771156818998 1.2613312154578317781 0.064725028279837337752 0.73173852891121815567 -0.34248498541022387442 -1.2474358801920870654 -5.1438193813149375444 2.0151035557188818892 -0.70087698674803422527 -1.0191764298514955911 -0.83520717155886670113 1.0034748531704473784 0.72400235264284829029 0.26248968254777682585 1.3016983658508436417 0.60428087783699502289 0.12946095289299211495 0.21198238181802522839 0.9517727741331762914;-0.15850996051356505689 1.4539203170096799411 1.5734380873697881853 -0.28887039884236109799 -2.0842696929849524601 -1.0372337427809574795 -1.162964717265106307 -0.41023675313706847723 0.77588107349207402486 -1.0490147637295559324 -2.0565246554935110446 -0.11472266948983073087 -0.044489624318991671803 -0.25490841323809027008 -0.24507193298828058858 0.47714084066725248601 0.3978186576935531793 -0.12287555665408070316 0.53978258542296519984 0.43736264312462891368 1.3631498043699563638 0.50579173432580948333 0.59144950506146465319 0.23747563387408154867;19.082260315757988423 -4.1487220447876440588 -1.3895965685080857721 -1.2220179512186677417 2.4263645875612391833 0.99156121871701419224 1.1057518371435932636 -1.7933257153303194809 -46.301761826905838859 11.868417109590604142 2.7490664085437739317 1.793475401080700582 -3.9941474081747507796 -1.510162017105545651 -1.7707285034718485139 1.1433862405365706749 32.203939793357264421 -8.3409757269172271066 -1.4948254161920417893 -0.6997176093923550555 0.90639428050108483692 0.74289689527465296859 0.48048902694518891288 0.72648149394224548203;-2.6350242093160547441 9.4379118813193834114 -7.6294072615199324261 -5.9556199200556045881 -0.99114284096568627813 1.9246191954737903451 -6.0197259622013286062 -1.0410053254292244151 1.9374012728936729211 -7.2533134553916456255 -1.0616468135180781029 1.0615775824415529804 -1.2214080684221901851 -7.0967461545668317768 10.527543774463133275 4.7893900300990654983 -8.9116415951028979947 1.7439341904619944934 2.2829319839345068033 1.2869954099824716387 -3.3764303473386609866 -5.7279825524373499945 -1.4563110153652256695 -2.5412411684619717889;-5.9869646010308432693 0.97916033646492683928 -0.33795416025629532175 -6.0761171212380924445 3.0588329229373258933 2.9693420619634447455 5.3127715447180738906 2.7562466416968720573 -1.1045154359929945098 -2.4856564184467515588 -0.93899792125042769175 -5.758669776846272903 -2.2560505031433364387 0.26818428315627945713 -2.1124504699673583019 -5.1982238519264409859 3.9715399457731814792 1.7789953917268876982 1.2137131185631511165 11.647670417536140519 0.3253680550001066818 -1.5049722784251089447 1.0235027095851612078 4.6819994434465419531;-1.5022634962867666975 -2.635081517300848386 1.2133400781843999283 0.76382469455861712326 -5.8826684047666333299 0.65297851643799043053 -2.6349546117356239527 4.0366153113941010133 -0.34011615015701290865 2.6533456868740481482 -0.61644953867125751312 -0.035095845407366710322 10.218466612031246399 -2.6982356512623009159 -12.048161071861116511 -14.979428797111435046 2.7870520074414737444 1.6364671620209543246 -0.76239699815592465448 -0.75586336314463575814 -6.0851389635915689169 1.7290791521826385235 16.14591281368563358 12.799992918213010995;0.96413489054399947875 4.0057596670318655896 5.5252705899906322529 1.6194294049884945252 -3.589580203125436686 3.3251843459147725213 0.68692620444662855217 -7.5521253388217779445 3.2236046727898401976 -0.34327844746922736574 -0.46548304559514153134 2.2121441826791161667 0.23694953638667512474 -1.1121165270611348408 -0.46788673626051840992 7.2487113908402101004 -4.1944341857648304028 -4.1062779646522455934 -5.8963442085982062935 -6.5611090540764562817 0.41509921220468948277 -1.1472744506944179133 -1.1937353600377169638 0.11431138306544402772;0.55338553803162582323 -3.6953168324695173652 0.68695787100384875234 1.1321028046539898249 1.1899994712162003108 2.1974655678755947719 -0.82902438398409750153 1.1494484508171953774 -0.28527401656223894122 3.475110915963012026 -1.0583377669665849918 0.9794802735931635862 -0.73493912554052598374 -2.272986183442599728 0.74103548940508023879 0.40202186331028849642 -1.3920764812957011625 0.35780995284375227694 -0.068984226694421030279 0.64294805006848609885 -0.90392593161325862638 -0.5575850829210092785 -1.0501113435600917256 -1.719469103999156534;-2.6648649892007014728 -2.0773399303344302069 -5.57084793019482305 0.29867229167244063737 -6.7174889071157615206 7.3858777247675044819 -10.544088076779226881 -1.8773788633627987998 -1.1745825561398641756 4.2006477386439122768 1.8024512682997431146 5.500885629039695246 -2.7548801577554429265 -6.4753553844486022584 10.179335328322242304 4.9910109502968831308 7.2257646004308444532 0.45903092570798048611 -0.054735667478696924115 -1.43583979902976 3.3320681353647767509 1.9695496415169206905 4.1264394205084515832 -3.068351788750124598;-0.68650022308939129267 -1.6691527215324701849 -0.53714389409084561944 -0.6014205224142186168 0.075201001267865441591 0.14503036807387564844 -1.8427344796060580734 41.086662750047587167 -0.16412877100627509819 0.98035652670707307266 0.18972850681858235977 0.31286628749042588726 1.7710316428533283695 1.2533214491162218973 -13.039467187637242773 -65.196376460569538835 0.98911006746335927708 0.83822133089507433468 0.38961335773342192779 0.040330085390622674724 -2.319762502744563637 -1.7378396493145713553 16.867370869980426562 28.662421306887839734;-1.064710027939235637 -2.6749656661532799085 3.998423802199405408 33.75104164777582838 -0.30397747637759481298 -0.63733249845608674899 -0.044824964442329147396 0.33293860512984208011 1.7829633520218159948 5.4861891428300282314 -9.4059073838426598968 -52.113911067986919079 0.61301906938819383797 0.41658669742135423508 -0.028999115771145916876 -0.46441737915359498912 -0.87831958854106306767 -3.1190768419834271619 6.6806563430270866633 26.539642899485492933 0.0070268184042108147724 0.23992676404855056704 0.051362736834357915205 0.10610088265217397507;-26.067141589886784203 11.000901574221206403 0.055884466008390254466 3.2451905106264851142 -3.152005517932559453 -0.66912619635231540549 -2.2451179342753855295 0.14430425664244039829 44.457373178334727015 -28.427829226446121424 -5.0539663323747552326 -6.9637922153147142623 2.3425288047800720825 0.95071054530181964282 1.6936033740493565691 -0.076231477505156977625 -21.829942705757062527 18.668410850343164498 6.3258483699804584077 5.1751799707799124306 1.2506822515241777793 -0.41239718960360194355 0.68160699250115919234 -0.002875985628543326067;-0.11925264423578535444 3.4663189291714364693 0.53003495680790435607 -3.446494587251458519 2.3474055189336331395 0.35335710436107947707 -0.46323107785413064619 -0.54938224831918081037 -3.7623602153816317895 -5.2148944815882236625 -3.5688397874691775158 -2.3714136769516906966 -0.5865405678787267707 -1.5892958035251958382 3.4698580928216276043 3.5060675918627204339 0.10970075938925047399 1.0269987545051031397 1.3724935152618791268 4.0009289539028722871 -3.4778422225264260526 -1.9206418250735688424 -1.6716295225905117849 -2.2823982269263773937;8.6027682239691518618 26.768970772718716944 -0.95241421017220506684 1.2544544776676067599 4.2936758172928417565 0.71878669020884811136 1.5985743972285091363 0.19752932925492458494 -22.924147663835018562 -36.742885419451340567 -1.0613985676218291587 -4.8057708337876263727 -3.5270964743300412536 -1.2555767254382148579 -1.9313600220057534074 0.19646715241725756784 17.050513529657056466 11.956690603107087867 2.5602294312099660445 5.0425549365374751076 -1.2673216658846373495 0.13025816934136538738 -0.19806658999417792177 -0.40648411971206627191;-0.54171114737930781136 0.54462153861123119292 1.8107682685144532719 0.78098038394333502143 -15.982522343726904168 5.8902636464920217207 -1.8953165750222566999 -0.74319093250738599288 0.43108766204096515828 -0.4725009849458476352 -1.4364747473109056308 -0.91633767649817254863 -3.6757282547885070656 -8.4837245515555892439 1.0141065261773383188 3.0117431323138408317 0.13887341811372400091 0.16159288189135656566 -1.3742358456681020851 0.9939305585055908665 21.213662663583555457 2.3721286784485542398 0.99877843713583325247 -2.3307466175046460677;-0.60526677279043794577 -0.73575957626313681637 -0.053513442897500484996 -0.28583936718764568763 -1.0406472403459101628 0.79450662762109114379 -2.4599422612668813137 49.48850871716303601 0.65314178730613980939 0.51329047692498797062 -0.13544964552628524501 0.24885308657529231491 -2.1587016278561779181 -2.4858725009795450411 -9.9904833579909784191 -73.925092770115895746 -0.12228925279869071185 0.29101833055300718733 0.088790519244142232513 -0.11616949930845654748 3.602394808365895873 1.773962940121453169 14.038864617015462954 28.984370228090423183;-6.0075446798140781368 -0.13639772707937569685 2.8257431838064088758 -1.6732413500909881776 0.60038260120148390087 1.3203776711181487435 -9.9520078241939078367 2.9041873433766283163 0.43389831659574334966 2.0267749501365082132 -4.0877426413411726003 4.34908538399995237 -0.67763431943026219972 1.9910106758597336807 10.395468530315508104 -1.930035559965251668 4.7153494672174414148 -2.3841240802336631788 -0.15979141758107645588 -0.5849199805247717876 -2.4012040134630803223 -5.1992736773407850492 1.1496650842035054385 0.46729655965055161282;1.9258470347014660096 -0.045641805753639103083 -2.08066531311682823 -2.8625524555668624416 -4.8622889864061660248 1.5958106410291186261 -1.2013491171617980413 -0.75219599630023914472 -2.4081255568141397561 -2.9577825173303033957 1.6496091346985586323 2.5634885794721400387 2.3606608368166939194 -2.2414439704666446751 0.3293673281758704996 0.94643529473178211742 1.5649339133636808175 2.2633597232417246303 -0.3522003955116476126 0.41009787052825186215 1.1152131462920991112 0.58487158437808450806 0.59520578695812953463 0.24197739180139390958;-1.2678200198002451682 -5.5409462607671349232 -0.9937941645940859825 -1.9257486650221287139 4.8447680942559694373 7.162697908566431515 3.9937513437004765748 -0.7346592006769068206 -0.066856552775657995813 2.572305548676926179 0.19889125208100635889 2.0260727261643012298 -1.501778438346011324 -3.2146437589556446923 -2.2425375673419574163 1.3022874752146433863 -1.0154374028698933685 1.9074742855306541234 2.1331751527874782681 0.82697352045970451417 -1.4093181166242128022 -3.1998089445258579566 -3.9046664326762492436 -1.597271453462253854;-6.6368760988429329473 0.24173948576290515966 2.3565670596421899319 -0.043493771647715645523 7.0815270618350103504 2.623844106933117537 -0.70954857368396762052 2.4659681133736093273 4.2925939117462661443 0.68718150696035151803 -2.677928336433062384 -0.87673885823890240765 2.3433089774622803958 -3.9243899340974404133 -1.2716834688086895433 -0.68138169454775254774 1.4256766715799609191 1.0584084288968067522 0.50986042724674607296 1.8118617253904447661 -11.798288047596086514 2.8542371406717528259 1.8924445843405841572 -2.9634428390651121887;0.00091223496014186666869 -0.93189040800425182454 -0.83626143605294633865 1.4984948585450856839 1.9001870913215279657 0.85192925197909952217 -13.431816316973705483 3.1750232599152594659 0.16022092507398361105 0.95139657385879072837 0.40296619570776603947 -0.80258048495054479243 -0.60996993182688807877 -0.96871858143616496051 16.690007166318928 1.6881027938986508108 -0.18821504994835597246 -0.26189110878935112359 0.22897389043008131715 -0.47592892768532379932 -1.0730472948508458231 0.31383062070677841815 -4.1207973418715324598 -6.3967229059073389408;-0.53147052758622970181 0.30448436647384657938 3.42574941753321216 -2.1434057983226950661 -2.0679315918183691636 -3.9448069024988976494 -0.77143970308313525308 -6.3159768508026816747 0.73665413595162121396 3.7499544167618599211 -0.053995434038225542661 3.4428840485501521762 -6.9874484625579373898 4.3547153820306938599 4.6051776230586281002 3.582773923446247899 -0.84934243409584286866 0.48289455869740055549 -0.42222079948218971257 1.8585357962411803712 4.602711371865439105 1.6861423274983775578 -1.6429187139457377409 0.12227560116854323258;-0.15225946690595529298 3.4190586919031988877 -0.63949902954487403139 -1.4674650854234323472 -1.8310378195602632356 -1.6581714265364213556 -1.3069357190905961374 -1.3236195353655895168 0.54092153454266989066 -3.3004204147624727206 1.853265553880536487 -0.097845320122276854824 0.9742780427915121999 1.4008067780522477364 -0.7879539373335834318 -1.0810701671771636434 -0.37573011502688097307 -0.52123638938307848001 -0.065007640374401320926 -1.3798161389672234378 2.8392443045352777631 0.87802905959941990321 2.7829315247939012679 3.8398254162130025513;0.16642138034249109868 -0.21540329162660523665 -0.67975831237982475841 -0.79087889372584219139 -0.98120681430984202365 0.14006921979035638626 1.5941445253634760615 2.4877944103756126637 0.65105856483273050195 -0.23183205055807873385 0.32382114366730996302 0.90114916707033942966 -8.6179162995005782477 -2.1295880244962765993 -2.3275542830347837331 5.0008694700784692699 -1.0632554902679551834 0.15175590704404295916 0.26471105705653485973 -0.018586986943355698898 11.151934339584512301 2.1804879584679173199 0.5078987536868395658 -8.9158259113128348616;3.8630955029065114914 0.016657506198984262102 -0.59414066778137353264 -0.48155267835898152295 -1.6508463658634184856 0.18917356823618139416 -1.1014970239500891935 -0.85057725684263962851 -7.7768055619212042018 -2.0804147680740010529 -0.5862254039184265908 -1.1316072146354263506 1.0197771677811680036 0.35002681573925298331 1.052802047367360716 0.64546551574348931535 4.6702617431617401422 1.8244566964305719559 1.4364605215524484105 1.8536497433471061935 0.69980765704737624144 -0.25664347397738213052 0.28578530080054664886 0.30756539650175762635;-7.313520595660417456 -1.0867784069896009314 5.1356980779235170687 5.2778616731643746007 1.9114494740903904546 1.5895034378632411087 -0.21049242590271879938 1.5456652719366019699 13.563737326954967699 3.2431694820533514267 0.112440058632139947 -6.3646878570659337626 -1.9148230305870435064 -3.0133261817899974488 -0.94612456043323944765 -2.8154847697974947351 -2.6513851015955198775 -1.7545630895899002599 -2.361186564115623554 -3.2057475553361962639 -3.1305878338122616888 -0.32284766824503452476 -5.1573395925330149936 -0.49418363366820672322];

% Layer 2
b2 = [3.4719717599876340763;-2.3495161114502352007;0.22892516379217686673];
LW2_1 = [0.030364445181182753153 -0.24542072232962794387 0.14053128321965729919 -5.4005711475638333852 -0.028142164533832961237 0.27422555650016539053 -0.26915791559746066186 0.086253500172008334967 0.47095302330317800887 0.023317723339990065884 0.47975921028132278989 -0.13106307159768110226 -0.040846013462158908824 -0.030449716473812973166 0.33928959025244675995 0.020609790512689359077 -0.17217036303912602868 0.02963850679858614362 -0.13565237138946653617 -1.1360695514286272001 -0.90356379866886205043 -0.15333457042406364867 -0.36248232516734624209 0.15326771832168772924 0.0024533121280492730353 -0.35753520947571826305 -0.19814292195415350584 0.049852627852030213795 0.011098563295529096512 -0.27657928052539626496 -0.22762428544046756085 -0.25405927511224374316 0.1937087981890446009 0.2545041210565396339 0.43603530131174611517 0.10975182029473712353 0.74266257780806910205 -0.074952058553775652294 0.069552906927528412862 -0.011681315290936399379 0.1418641018116182928 0.22973230366628996646 -0.026932998996217268062 0.0066833273843637918538 -0.90714382827124118158 0.41045741752243469769 0.083315334130137363999 -0.3596229930533196284 -0.03892479274582065496 -0.0071790271980456130466 0.0036826276109210541454 0.080937985679205348699 0.034032436760177753321 -0.059043482005975971016 0.099039272181756538016 0.20985551047296288618 0.12198383488072037095 -0.0057423432416295779046 -6.6142677763573942684 3.8553814075098138403;-0.33944983636939085603 -5.029396449600670671 -5.0497609389999471574 0.57954307436073604354 0.27434245736516688075 -1.4904883156428951896 0.83411796175997532377 -3.1341892431035738298 7.7163492454520481445 -0.096268223025073304533 -0.61461921355463799976 -3.8506100207786024825 0.22010856570044889935 0.36326418220891559807 1.5023381776034381296 -0.17878096038425489445 0.068095383676152324015 -5.9916908943581193014 1.1403376170928045674 -4.6414000629488798566 -0.034363415175605163676 0.23520158314115854892 -1.6978415155834820638 -0.07644915173651981033 -0.21121785469425274906 0.12926308794604357555 0.42974256534394766893 -0.26920095625134671247 -0.26820185144694941304 0.086435834971046413 0.17307787353564071942 -0.044928494174296777774 4.7345711262744920589 0.15615500112558411416 -0.49488679831004234178 -1.109415461504599687 -0.10738338488174690999 0.1808206160356231329 -0.18718954395439901806 0.25752545871542520395 0.027974570265587167528 -1.7441365611087833454 0.069396851326931741077 -1.1294376533647680905 -0.034413422336171728411 -0.06797550315428087242 -0.22457027821069264206 0.027779934636591684799 0.3559336000724779292 1.1777179871591045845 0.12929702456874542227 -0.37955740342028082557 -0.15903688238978236358 0.17527429483483800143 -0.66411753801270934083 -0.49507085190644983808 -1.6442263540117660892 6.0635617537234978158 1.0144189436211523692 -1.9729371662541348442;-0.13967608603170106329 -0.32363147286907084643 -1.1652968362435420779 0.3760594848226246345 0.069691608045196487553 -0.44403236399150253222 -0.13516395415759954735 -0.20066868388930653166 1.2624282581894639144 -0.048875736487486512449 -0.11745813214364247967 -0.19713674489731242145 0.029283731810654127503 0.13040204552634440671 0.55419779965541726696 0.13265400244488906312 0.086201911651265353265 0.15463736547213186023 0.20724354370638123357 -0.90331003495301342987 0.44298900010780645209 0.1027844644615465014 -0.66648279908171215169 -0.055482681465842301205 -0.22368852258311977543 0.42626897023875820469 -0.10697573335805127259 -0.10766037813287925029 -0.043818707678049115262 0.1048824706338811058 0.52917947240645035745 -0.2422481672934409247 1.0877874498488047106 -0.21430966651294253156 0.18493094215403424463 0.23758383448555489559 0.30086881073964921729 0.12075072575109116468 -0.060279805112820411539 0.070273893225906408633 -0.22530461139045693253 0.026945509347482729523 0.054880132830911018682 -0.022958671193958540141 0.35272874992124175764 0.28096067304099481277 -0.066635280987881323478 -0.12845625706464150473 -0.10839915263128009626 0.061453563828281099202 0.021950055220036457371 -0.01287559269612347998 -0.074472747582901524521 0.18795433819794779562 0.24104888471060612054 0.10968235132855433389 0.30125778289985083447 0.11186989886376327852 2.1565580903125338708 0.13267846111805636777];

% Output 1
y1_step1.ymin = -1;
y1_step1.gain = [0.0579907784443565;0.0580193524621837;2];
y1_step1.xoffset = [0.00676588355559854;0.00129117419649116;0.5];

% ===== SIMULATION ========

% Format Input Arguments
isCellX = iscell(X);
if ~isCellX
    X = {X};
end

% Dimensions
TS = size(X,2); % timesteps
if ~isempty(X)
    Q = size(X{1},1); % samples/series
else
    Q = 0;
end

% Allocate Outputs
Y = cell(1,TS);

% Time loop
for ts=1:TS
    
    % Input 1
    X{1,ts} = X{1,ts}';
    Xp1 = mapminmax_apply(X{1,ts},x1_step1);
    
    % Layer 1
    a1 = tansig_apply(repmat(b1,1,Q) + IW1_1*Xp1);
    
    % Layer 2
    a2 = repmat(b2,1,Q) + LW2_1*a1;
    
    % Output 1
    Y{1,ts} = mapminmax_reverse(a2,y1_step1);
    Y{1,ts} = Y{1,ts}';
end

% Final Delay States
Xf = cell(1,0);
Af = cell(2,0);

% Format Output Arguments
if ~isCellX
    Y = cell2mat(Y);
end
end

% ===== MODULE FUNCTIONS ========

% Map Minimum and Maximum Input Processing Function
function y = mapminmax_apply(x,settings)
y = bsxfun(@minus,x,settings.xoffset);
y = bsxfun(@times,y,settings.gain);
y = bsxfun(@plus,y,settings.ymin);
end

% Sigmoid Symmetric Transfer Function
function a = tansig_apply(n,~)
a = 2 ./ (1 + exp(-2*n)) - 1;
end

% Map Minimum and Maximum Output Reverse-Processing Function
function x = mapminmax_reverse(y,settings)
x = bsxfun(@minus,y,settings.ymin);
x = bsxfun(@rdivide,x,settings.gain);
x = bsxfun(@plus,x,settings.xoffset);
end
