function [Y,Xf,Af] = B100NeuronsRawData(X,~,~)
%MYNEURALNETWORKFUNCTION neural network simulation function.
%
% Auto-generated by MATLAB, 14-Oct-2021 13:00:53.
%
% [Y] = myNeuralNetworkFunction(X,~,~) takes these arguments:
%
%   X = 1xTS cell, 1 inputs over TS timesteps
%   Each X{1,ts} = Qx80 matrix, input #1 at timestep ts.
%
% and returns:
%   Y = 1xTS cell of 1 outputs over TS timesteps.
%   Each Y{1,ts} = Qx3 matrix, output #1 at timestep ts.
%
% where Q is number of samples (or series) and TS is the number of timesteps.

%#ok<*RPMT0>

% ===== NEURAL NETWORK CONSTANTS =====

% Input 1
x1_step1.xoffset = [2.68343845041323;2.99018970044347;2.88070599056039;2.79538771662691;2.80590865461014;3.02372528441717;3.26669435983779;2.74886546142042;2.68409600803936;2.99002531036469;2.88037721089741;2.79571649591676;2.80623743394569;3.02635552696483;3.26685875057496;2.74952301960082;2.69543887795928;2.99265555167041;2.88021282106646;2.79588088556223;2.80508670627753;3.02504040567883;3.27063973764192;2.74935863005519;2.69839788777427;2.99134043100549;2.88021282106646;2.79637405450075;2.80656621328267;3.02717747778094;3.27146169138054;2.75050935688196;2.69478132023784;2.99314872192598;2.88119916005761;2.79670283379488;2.806401823614;3.02750625811005;3.27047534689541;2.75116691507643;2.68343845041323;2.99101165084303;2.88103477022484;2.79620966485422;2.80590865461014;3.03079406148493;3.26998217465833;2.75067374643005;2.66091710504046;2.99249116158598;2.88119916005761;2.79653844414764;2.80590865461014;3.02619113680274;3.26718753205052;2.75133130462592;2.6906715846042;2.99249116158598;2.88021282106646;2.79637405450075;2.80623743394569;3.02816381877284;3.26965339316897;2.75100252552728;2.67998627296654;2.99314872192598;2.88103477022484;2.79637405450075;2.80623743394569;3.02701308761696;3.26899583019512;2.75116691507643;2.68015066236531;2.99265555167041;2.88152793972425;2.79653844414764;2.80673060295169;3.02701308761696;3.26850265796899;2.75100252552728];
x1_step1.gain = [4.67571080155399;5.54266637400562;5.15952907016618;4.59969001765825;3.92330593708017;4.09220817113279;5.16826640100512;4.15086452674268;4.77667850752541;5.56803334961385;5.17709349814203;4.61889908806982;3.93727243171055;4.18223973635473;5.18147324211699;4.18081928370144;4.8528914392615;5.58849449674783;5.18592063393224;4.63473535187103;3.93982255245948;4.18080261779923;5.24400814471351;4.11575896068941;4.8625892957007;5.55532080380832;5.2058921428243;4.62768358968738;3.95776577414853;4.03922100368456;5.25987844797377;4.12133582301348;4.81829651383323;5.58849445638854;5.23726645275623;4.65602002680391;3.84761882908647;4.09772120683554;5.28960836840507;3.9398255484172;4.74315790179441;5.85756104804571;5.43861030130587;4.98001753533709;4.13674737583405;4.47778340743774;5.49011763725182;4.34817209206968;4.50934095305587;5.86320677759817;5.46548579275892;5.00048620025173;4.15086119995155;4.42244196192068;5.46545420447312;4.37317959366154;4.33887143207218;5.70912868718946;5.44347714328235;5.00665966905804;3.80192819127363;4.18367781230282;5.4361485236018;3.91699325936499;3.85983261330655;4.61538147162223;4.54300404135768;3.87334376855866;3.23310176267586;3.40501679530396;4.18798271160495;3.13803710564806;3.83307878381437;4.69916815591016;4.58408631806698;3.92837371239626;3.3195534235617;3.51723815697846;4.29897211670301;3.27752486533736];
x1_step1.ymin = -1;

% Layer 1
b1 = [1.4835530663742433344;1.6347201880762041171;1.4422050391320861973;-0.78822159590877161062;-0.92642433628504905485;1.3592403443336671387;-1.9492201719835191565;1.0770309707256850995;1.4659662251377965081;-1.0922594308745001701;1.2723005938801330572;0.78604622542131252771;1.1124692725242422142;1.1943211875502559582;-1.0971915635595328453;0.88750527023186898123;-1.2143189004271424114;-0.67951246021747968573;0.41550944074227985636;0.80542931323633093488;-1.1389126906239088743;1.2315851200305656388;-0.74348859289715008014;-0.53948581343601575977;0.93056298711323748307;-0.95930576846202897379;1.0181301453684334923;-0.89115289657593621531;-0.98080886914884835015;-0.84077940088264002672;0.49057133593622959111;-0.5888871516132270223;0.61467952616319254666;0.3924562363621767469;-0.28792546550778108649;0.47983180039976558451;-0.19561121244957183074;-0.7607718231328840508;1.0373030703413785858;0.24280708536269635101;0.35456940707255590883;-0.12115464923327226576;-0.28996612064244203788;-0.10433313090785475974;0.43410931402943797597;-0.19052342844450009807;-0.058159186873695832565;-0.090313596840180962455;0.71543860047698804028;0.035394585668445936733;0.3342793544804961714;-0.47862448554921965815;0.25300941550034222738;-0.22069463900043345683;0.31285819169836387443;-0.014156235443717198053;0.43140664164548420123;-0.20320667848891940666;0.6550171734650733768;0.5260844056186858575;1.0165692950433009578;0.66790685179130349081;-0.59699803931009365332;-0.73551394518296020486;-0.62069950198760970306;-0.33138841406335450834;0.50379245604175626472;0.84740761712790424465;-0.89412237901490432268;0.81473991960047331684;-0.73865794096072912023;-0.7418878509817805611;-0.93672648910189137972;0.74560717698061707015;-0.67989251479005485823;-0.90603222223431989502;-0.92238073864187519746;-1.1368111611560618446;-0.89977746548082560007;-0.84606257397573947365;1.2191693015988189774;1.1276157651968097273;-0.77963864036853880446;-0.59014553887651211017;1.2110786772884956086;-1.1689462222838298278;-0.84954031932292106699;-1.0687247343847425807;1.0521011966566791163;1.0866828772147552051;1.2396448205690993039;0.67881437985962056469;1.4402500783049543287;-1.5640561747383061597;-1.2652833549039896877;1.444876208908402182;1.4646356846159511722;1.6058718818780663984;-0.99455039694779789894;1.2415116748296155524];
IW1_1 = [-0.27033035113573983255 0.13304259643506344268 -0.22303589213261390545 -0.10825067750858009819 -0.27389060654850527765 -0.13201204758436213549 -0.031471939621088310113 0.1114031621912964648 -0.1497050672404568461 -0.023140662550166592182 -0.20796007280174313991 -0.11585350317151534016 -0.25462429004446252012 0.33336269180019317826 -0.051051845238620441325 0.15652314578296172565 0.14360909596971632718 0.073271414295263195826 -0.23781730744977860881 -0.041062278036414788518 -0.021224566677669341047 0.14166774960146938378 -0.065467422102220118596 0.053781887538842623742 -0.049112305816398145464 0.22242999238280308782 0.23010234969283596684 -0.19236115344969587082 -0.14175941618069240469 -0.040434136456526235948 -0.30501178091997366293 -0.21726468818036132058 -0.061201527376142192405 -0.038649773271659568219 0.28293505221440135022 0.11623121510667841494 -0.015002658867200318812 -0.19416881800122168245 -0.18515034215975306742 -0.39226100984650374981 0.18452843525931586499 -0.14486668895295362613 -0.089819124312763787277 0.077449682345377232617 -0.19684843470937346543 0.023795098956009091973 -0.030778459115321087081 0.0015737026308892242826 -0.12568593071881078993 0.030224726376847314141 -0.037884981352752422623 0.17565562455254865593 -0.03993889787613032899 0.49044325514147552036 -0.1875794402112919701 -0.27323325983484952895 0.18069034291545041371 0.16166130339810391714 0.15246918078575430466 0.052725482970522444259 0.2369347590764294964 0.079350938425327519066 -0.059867974784123804965 -0.33757314999954118884 0.058891297587230245769 -0.22592800782100394552 0.11063962131457291682 -0.18564668173122045314 0.36218001780750908036 -0.34032796110740909379 -0.33532314421634318302 -0.19364116867304950742 0.23572437716713448563 -0.020723917197422652564 0.14753424487752228589 -0.16485722420321974324 0.24394847695875240823 -0.53772240086173306306 -0.17409053953822428706 0.0085457515283512731907;-0.26757250861924231078 0.19626189960712117633 0.22773553776829708051 0.085511559559522415386 -0.33304602287934653715 -0.11502051718054129292 -0.043377555328099524912 0.43592139738963331386 -0.18056193947894061402 0.24309992500473931454 0.25269945055078074647 -0.22624413609019666804 -0.3734223972851479223 0.041634171558778694522 0.22975394442357394142 0.10781976604586133994 -0.19504624054456193294 -0.23360202816769684575 0.36676668324986527736 0.11655431197097454454 -0.39523000991461709752 -0.099563542855737138804 0.37157668835110491123 0.17945732527213112406 -0.44121958175390235679 0.15064075239126545336 0.087978895609400753486 -0.4649517170393672183 0.1625502403030646692 0.26028708285802271138 0.2677334779090538297 0.024686669182043659287 -0.24493340798911214518 0.20837035191472186302 0.077325122683362196296 -0.021136099501943124424 0.026292602596103817336 -0.068057520121175801853 -0.22862515257685975256 -0.1850369330993267003 0.11443270373602863754 0.081876049923554572452 -0.099192289009124620658 0.032021290336382512987 -0.19393298259810298756 -0.046145823202222373272 0.15842062814949933736 0.38466222381195647184 -0.16138580850851497184 0.0090377952013186314134 -0.14799840455669777128 0.018843753654843895667 -0.39842795997870839031 -0.318185816964108803 0.030254815147619802673 0.45114959912459717817 -0.065437160913391995143 -0.29725890479351657625 -0.15060613141144574278 -0.0098618691114725036406 -0.011676646386329935651 -0.22045016060180697148 0.13959465386084471406 -0.60206270520997573481 -0.12099377277124631624 -0.032063101271729115005 -0.33338532258732084257 0.18276795634631276544 0.2300859477652227314 -0.15423181532184959686 -0.21060228590321683484 -0.49746154358178390487 0.053292647717948234132 -0.081901579113157318979 -0.10583877780731604235 0.38558939358584415347 0.01054511023882836844 -0.14527688040119693391 0.051511384555254079165 -0.53032271419541876512;-0.12262983764674287301 0.32347373350851266194 0.051658301341391321682 0.09017981725528903536 0.011247584981721027095 -0.44001850108743728596 -0.087051638772242659337 0.055163220479472661884 0.04680018126111214205 0.21706768266719983496 -0.12808124825480984854 -0.15449779023219945007 -0.027707100999708248606 -0.15416407228164435983 -0.00037764705952573595499 0.26429334026725970208 0.16816583222234629535 0.073845438814225783375 -0.35520624142485351937 0.19245174600468434312 0.16277324951333682623 -0.32152697628179510714 -0.28914156023929032946 -0.048500766534033193378 -0.062828531045144603295 -0.20750653500436835874 -0.29696610205553641837 0.22321804541804673994 0.044751704716215048863 -0.38819007726020987592 0.092247741922712164775 -0.19313724586709513087 0.017021539680536514755 -0.084300482403559029443 -0.25041312392538839227 -0.37119267613068523959 -0.12254545534024668951 -0.33941966862004852024 0.014195277286385862142 0.10082784827402141437 -0.07323457370494157459 0.23440651102109894 -0.26374242275449388817 -0.021942236949202675172 -0.33603260040163168698 0.02663950602466221354 -0.0022958265990344062235 -0.21646142511454480317 -0.05569644519291595125 0.14545109977970646642 -0.22858832651521743262 -0.09868570202600462915 -0.20393083158131666832 -0.4683161278266212979 -0.058922103901319973496 0.19575083291388306606 0.095711445527292965396 0.19778477869307853343 0.054335025003990081172 -0.38249955695078613482 0.012511294451311223697 -0.10510580983847556125 -0.030318519665841099642 0.026548520377310973195 -0.18536138220905587493 0.11248766155298331459 -0.12353364342610081983 0.35097580803628597446 -0.057695032033959876838 -0.076559884911931289087 -0.139802282194154609 -0.048968365865852764296 -0.072626994213826456814 -0.020645277337437289988 -0.25760017857279876585 0.19461197387885312282 0.29485421323047228404 0.15379970602004944258 -0.056137440351225913193 -0.082109044201018235865;-0.24466524075944229288 -0.1322407992124918219 -0.050066833006820632423 0.17568589584862101538 -0.094298138048457838534 -0.048347131303825348347 -0.25289699489009215272 -0.16829505056931501339 -0.16816763655731459259 0.15455844757020387181 0.0033309787787527116859 -0.24066681172826898116 0.18697190680054970313 0.21475861833171455695 -0.16539861367752473065 -0.22531535350945969265 -0.038459428972621528819 -0.23865843442129702767 -0.22580537242697304445 0.041067532255174343803 -0.22131942216578845417 0.094163504417480600739 -0.071892781396666494143 -0.25649345790629640707 0.20171482426616429984 -0.059392239659483925251 -0.20517813314550864545 0.24826222458651495129 -0.19197652960325403693 0.47131671326119839449 -0.02091425376313626322 0.23484929384852407108 -0.25438580308557440235 -0.21986973905667472895 -0.092054785434235772423 0.034807614555865971917 0.067373421259321455978 0.061647331981816877455 -0.44538537820419626945 0.029519650374039335672 -0.22981107754221410944 -0.087395110814984897085 0.14807488704004773128 -0.36905188751244527579 0.092849081174873115962 0.15251846237508390192 -0.038696965363432402063 -0.23643696551287077257 0.20194982173265399461 0.18465345909320227125 -0.047220823715249625463 -0.13293061571147876676 -0.25447942788467897701 0.096657074377703031121 0.024020236181606379605 0.0071600637515054398399 -0.043450489771196497413 0.17499755334751812552 0.12317426948334976589 -0.54870254434468013205 -0.23163554384442047729 -0.25975384140220958429 0.14694179574195057048 0.19984160016856311604 0.49742423106658945064 0.079435251108769616701 0.3437452198210758092 -0.053244301379388528361 -0.46438685490683750956 0.015677422737500064376 0.051944284015093780682 0.66848604104189901509 0.39947964916289796511 -0.059936338829862240152 0.43049658532028356461 -0.11487426380328076558 -0.049477877735422517991 -0.25034854677699774905 0.086357986280712631388 0.40007621259057152274;-0.17784753617087270539 -0.26662134439435580813 -0.10106691410961454736 -0.53024898782212737114 0.14575531943465080964 -0.15680925745904622515 0.11869726249689373232 -0.035036347583104685 -0.073033231041513796411 0.06134922781108643336 0.14648969212359649883 -0.62697884776731693801 -0.28219386872359919494 0.38585808606672256094 -0.24796620465281241086 -0.16880705859668460045 -0.04836004991820035126 -0.057808952967055703132 0.22273292479563433499 -0.33768389261804199197 -0.14036674798030790434 0.053795945343548805251 0.19865581067987864161 -0.071659219377717270349 0.47484654947667631619 0.038848949608194710548 0.41758350916779390927 0.3449075838091488766 0.12127142587341259439 0.33280850218561830456 0.34712001826174776475 -0.36189387284827101432 -0.20086673093030602 0.28145385804730466139 -0.027750700241268376478 -0.39398225577261397623 -0.18353767901235726323 -0.32699613977586594604 -0.036608594928147560055 0.68583767259805072936 0.0342137980330808264 0.095798688022811245846 0.32820912453272788056 -0.44574032591768325551 -0.027133130001528095454 -0.22519706597001734605 -0.16342751609432037974 0.090177974450025885633 -0.10031030626094857017 0.18011948614288947335 0.013402754073262301837 -0.2948419054636037262 -0.37134865595809130046 -0.10044940685088936394 -0.079891797929284177893 -0.079987035166262057673 0.22005940706366508564 -0.3144359137059232201 -0.49072046782901584949 1.038174718546548414 -0.38180925648614133516 0.3724073018385729017 0.58779449259250104998 0.029550105583691983757 0.12378330294564163228 0.12403442585222196337 -0.14909991554971452343 0.12559194719086663738 0.19968683013132232373 -0.17098310271038874575 -0.093435583903739349854 -0.2744562467735921496 0.038054448925173567364 0.16129901226174206408 0.18670023307817751324 0.47842029422198345534 -0.061363458549728369662 0.12971329451450444581 -0.40863099749101089442 -0.10248375182968948172;-0.076460550407128874406 0.28591940907884466627 0.0011874613053450512254 -0.098878871262834844291 -0.38688927548220863883 -0.059561506925132040591 -0.18505965773883037429 -0.15832258284212327726 0.004760947338184383891 0.10265664337076935153 0.28852878314937002724 -0.16483479990822674788 -0.15105765619201427796 -0.082860734571892483147 0.30172537530809295792 -0.14330940409700959615 -0.23212509875043088603 0.14525351141727491089 0.046359638060451804908 -0.031753840378392544919 0.062739934289579996074 -0.13667177656226986437 -0.022495507950651041917 -0.22888156564686643057 0.081611209287477684549 -0.16746835227348602637 -0.32742969978247898899 -0.26164810567486318504 -0.11639105677871146305 -0.23753903905763468218 0.05517885390940217849 -0.31920065084003579337 -0.065204623146911624976 -0.061031562649963240486 -0.37839101005360809005 -0.12282539832321734408 0.03761941824305416876 -0.2426868076289028231 0.042244200953349769767 -0.10193454488509302858 -0.011959944032406730208 -0.32829533689499457161 -0.019979760067132961571 0.47226538805788459419 -0.29897675531448147934 -0.11758516074258457129 -0.034110616933381514293 0.29682294600180147981 0.13026139479147344491 -0.13300174494051070218 0.016856403467812176855 -0.0097836160339909682138 -0.17656315569539510202 0.12405772234904591245 -0.1436086168906405558 -0.18910093115695084109 0.090512258884510116141 0.086583959695175460869 0.15353774307148121414 -0.053214740928071976866 0.28213521837336180687 0.23790602145521497213 -0.16215604078590670212 -0.17019580040182341607 0.21640659937139339331 -0.094371854664829557535 -0.18042635725679379011 -0.077099290804138909117 0.12280736633796981994 -0.067943714844585056944 0.25884609965529303821 0.40623106954834986571 0.27109936655355409973 -0.42408683159594545709 -0.21754984708705424334 0.1338751827304446862 0.32526634877810123303 0.33071131024389838204 0.18589899283579250366 -0.028580699095512630131;-0.093370434971508584066 0.18889763285485935973 0.17521391460878277258 0.18505611915294090108 -0.011986228459566653642 -0.11765582953084771645 -0.020888346363401665007 -0.20494273333477155963 0.22757835596411402079 0.20313662612275373842 -0.19852992288405388321 -0.039503563078164119493 0.31318888218887663832 0.045915979692200264983 0.17981468519411686335 -0.04300876805667570163 -0.1685148530941361078 0.27249608707478639724 -0.20472496668582443324 -0.04747042301272839937 -0.13446830752024896416 0.29019383053607683554 0.16945227415700539475 0.011505612379464518966 -0.36661753460978913077 0.17588222434735684141 0.2560880465333847944 0.03422927389351244909 -0.017676901130775680288 -0.15360895181252423591 0.21805726591114987789 -0.021226933800593449087 0.16709464138604598893 0.34264621688073265693 0.10275426335338241901 -0.16922728952863935747 0.031627582328166703451 -0.22519984960838121402 -0.087615967367823663348 0.064998667030822340762 -0.096992697694146257081 0.041398647763396710653 0.079319219786441630404 -0.00059297389565970146444 -0.48847212089903058185 -0.41512512832054715428 -0.010219109204299380023 -0.17265998139660443389 0.21342548682437148533 -0.094562464052376130064 -0.32255753619936300414 0.11730630008205196468 -0.090467869499739658745 0.15329975041014448633 0.18895272710684821171 -0.055292345369758785778 -0.085864579372033733584 0.10238198190889127859 0.22052774691210985658 0.078018691701702100327 -0.19328147688945540583 0.028728712273156015167 -0.23661970519198580187 -0.51210089210028297835 -0.0031847285536567068037 0.39520414149032784268 -0.16109695997084824692 0.40613734034441101306 0.032070341556558981666 0.17892519122462963166 0.02660651936122722383 -0.25843207526306266608 0.25506433677040307728 0.13424076612628954575 0.13882388272840001653 0.16088686620676873051 -0.036849314875299500616 0.098225267596613360932 -0.07533693952671854932 -0.17341469038744397602;-0.17983917957973874491 -0.54140565518863004169 0.11950892961033326989 0.084327524408308235371 -0.23824141067632870206 -0.36030866626445567924 -0.22082578264012486802 0.095454243722480291989 -0.30935858111758418598 -0.50030730230284925497 0.28123164842811543274 -0.50192304563292133857 -0.068529989612739455884 -0.21114929468310697502 0.23521789561064496143 0.13607692062642290365 0.2148267614106474932 0.11302586829417064773 0.83230508653902646188 -0.6220129847827452485 0.080699936738355515509 -0.15619451318797536454 -0.28875816758549516239 -0.066587122774123957969 0.16366013641426291336 -0.12170236459062487577 -0.19682121556894399683 -0.092755077674522373732 -0.27961434650754679598 -0.062517526126136646614 0.097056263534509204516 0.096703018935113252419 -0.30886405114620718582 -0.078218965198596751565 -0.77507635661373541769 -0.2461815572962613996 -0.14022384818764160874 0.11777571330009672934 0.61405851462538652008 0.39975329543842574864 0.27128226643937247697 -0.30161657471423020116 -0.43024929762680469425 0.53897649098235655973 0.20257154060402826623 0.060108082582238805958 -0.67078546469023914156 -0.56879858360043689114 -0.12457989844839570392 -0.26667233005361123954 -0.14979524431543164709 0.5448368429125788337 0.28561172452271510469 0.11666749617188763855 -0.59468406491664305147 -0.3146558494268467121 -0.099405276149217000614 0.34197827242386136248 -0.16815074763954981907 0.20398526379316073154 -0.089456609021146799021 -0.42832747700004830671 0.30786426215377588056 -0.017143991546476784749 0.4914657033551823595 0.53784352108901634093 0.47792435790499881998 0.016785523656906831125 0.10832947340063378561 0.16753402277704523837 0.19707776552446465423 -0.12387226969953564482 0.0092181082552216485337 0.2604434151970366762 0.72427112730301845822 0.21113238842066006651 -0.052962393750353962962 0.046581100520370753715 0.097348627633763909484 -0.1660701521840688144;-0.45430017108234077572 -0.2752932912830913792 0.44724175650211916988 0.061258550782889678588 -0.063512055226704777766 -0.065598898064858926493 -0.30261478421497123303 0.53444227058067461655 -0.55536660255206748982 -0.34615657050709897069 0.16377095997017965257 -0.33458835817310128569 -0.31923195474207871625 -0.4431361546300142118 0.052291285835281274552 0.197595366353987556 -0.30784945902749016877 0.29613918387349025263 0.26346773936303330421 0.0048231897486190810839 -0.59245754662648097977 -0.094348871255939464886 0.021206506573418295453 0.2649542724715174824 0.43265197647420072791 0.37363368860340323563 0.21114522635247826021 0.54235331587302071377 -0.044888037591256979564 0.21605682121414965247 -0.26419208186984688425 -0.013307426980639991757 0.36028189383783731925 0.078477612527078161042 -0.55513038234664657811 -0.25611067174664153834 0.83877922147553019006 0.093205876158970565881 -0.47013135333108646563 -0.34053133864047901991 -0.62509024824073255999 0.15924886887035652472 -0.27723649350102341771 -0.0053656164631709843404 -0.71306150564776749068 -0.14698764529075830643 0.33689656015641800124 -0.23722581164426465028 -0.49288228918083043517 -0.1513482652165283604 0.0010820909583531979764 -0.12113132271072327151 -0.3194318777075665361 -0.63883510223100015146 0.34387708408970762974 -0.35311114505174823197 0.89607677373399274856 -0.11603272613727441676 -0.33618211047639251499 0.24417470115233008698 0.38849904771993798436 -0.31357973371443365052 -0.16189193686560540697 -0.058781651025500640528 0.24086912529624632251 0.054611182972282588943 -0.15842333282676634987 0.0087269351582495435782 0.37763987369721457865 0.87336297024362297137 0.13799282003129201279 0.066280706046101853235 0.65058904782221826935 0.26324740132626994749 0.086124919697067703339 0.26386078026225001647 0.46214460986679545274 0.53885124835220898909 0.13720865576053775658 -0.35104621165343430356;0.25346995145396572502 0.13728404610086739068 0.33645851611632765499 0.19177838585322051768 0.40073908132337815458 0.13843886724180623493 0.15787639682074899872 0.38057044438019888011 -0.14634138078531919169 0.23166596403383957203 0.12142155762543302422 0.19786819468140509626 0.10502647733735406832 0.19533541637464527096 0.19450155979521602245 -0.28279061703042435161 -0.40080109651532641601 0.29558684012108399353 -0.18830622527093696106 0.45983185413379917827 0.45076335900424419068 0.47012309904641946812 0.2547936652199760954 -0.29520058732029386128 -0.0001053999590925162877 0.11658649909559061497 -0.030207188136779646037 0.1451722548560906989 0.012377852073794125276 0.27198248285969872651 0.038635346601581077586 -0.39940908918630524393 0.56805133452248424142 -0.3663610672156640824 -0.14773629054358919377 -0.56962798855520080377 0.072218540949912132798 -0.17924899549243344943 0.0067796593715362223065 0.28925785625303856996 -0.16131653978314194897 -0.0982877844170955417 0.40747038971908700056 0.39892438855824585708 -0.28565089912996743937 -0.0081207841871018884849 -0.12759933797330905159 0.22842023601476363348 0.17085972320638798116 0.097156894124650131084 0.31720627505986043193 0.29375702004224785169 -0.42916215053718836936 -0.0054664402012299904976 -0.24711034506411780343 0.17029097231240139521 -0.3104354027507010283 0.24418891444830873039 -0.13872475149325402821 -0.62563493426484462212 -0.062871069302494725362 -0.59753235535023441205 -0.59181911779102303051 -0.121436949147404466 -0.22779019571733175042 -0.13244269472512010255 -0.14205067404781729357 -0.45993310109036655842 -0.32877151995117093186 -0.14766913679212448351 0.23164523118897073495 0.24047649227926856663 -0.28975427764748107329 -0.24500347660638482905 -0.0058166591720762370055 0.25840814677348344919 -0.27897880260890828286 0.33132445748167121957 -0.22328724185400172786 0.013341108277849145561;-0.18922012841504992631 -0.54317909801383068569 0.072516692557354919813 0.33606528162055460118 0.2595943538466227718 -0.095153215797244408702 -0.19997418610861861232 -0.1129127375841267461 -0.49394749135477228341 -0.38260688804998205237 -0.061536027644071421283 -0.1350052917981819367 -0.055379495283418997409 -0.011943375985657027349 0.014204878277853097077 -0.44955150153837603044 0.13400108657921261379 -0.2652292824622849432 -0.065044994667267236332 -0.21549444351343982618 -0.1730858532306038533 -0.18572099375641593078 0.31107322820405819419 -0.29851178290793556336 -0.51442538572175511291 0.33095192095577025126 0.1117026635981245436 0.25372068507506267965 0.23928448645483432755 -0.47271295050997602649 0.54493036159225238801 -0.15722966059415061091 0.23716632906949913773 0.23148521691888190865 -0.21481662876975171628 0.15588044046582658075 -0.032722651577533595768 -0.042333472485716783229 0.13935661919578429258 0.18282731276165786749 -0.010918021998667979885 0.0047473211931642750327 0.16293718335053250512 -0.11021517627708338205 -0.20852621377076502318 0.22063271676734272364 0.22937825195434696779 0.42778331118442397552 0.2289096105712564444 0.29538981407890479991 -0.054906112364304121565 -0.25297693841344665033 0.078200077949745011585 0.062951008780069719895 2.587776525833597116e-05 0.2624082702417533941 -0.19988027513913142474 -0.040528616691233733393 -0.30077606651914118308 -0.18645112224212723184 -0.39176422702635305129 -0.39010366565247167614 0.10189908686432425089 -0.25106462718994038141 -0.099637490228186784136 -0.023094511384053488523 0.36043486985985312421 0.27203626658553003992 -0.28990364987533767671 -0.18664292394710116363 -0.49964720078289898142 0.045258664351949279281 -0.23658969995450726542 0.40108253017995310064 0.045789361620062189739 0.2096932119802103478 -0.44791152341791867775 0.07657884199051219476 -0.063854403240099291694 0.23677834194641519949;-0.17153340281930215538 0.17570774268647956773 -0.05503009879357917411 -0.3625834460924194369 -0.33330570566190043102 0.065528298902198106601 -0.05892504965154026636 -0.13851867494343314546 0.49840516640128734727 -0.0034338148004120299349 -0.099437931896173017976 -0.47416889487441771234 0.02296054838571912407 0.44917050952622689097 0.03716146068328783636 -0.39014190588326780329 0.22987617081699943111 -0.18920312242105055689 -0.24608465127202006073 -0.43536500467222982724 -0.054715196310468748597 -0.24296200301745651817 0.11253255233403237912 0.15431084912958270561 0.087247671092235079549 0.37039803688548850191 -0.026278688334052224818 0.22248476969395550307 0.13465855056525130595 0.40323690075492879537 -0.15654827667006726566 0.12314244598693532828 -0.30585184056897946059 -0.039720241451577695257 0.1643169367108135992 0.042790397839927205026 -0.1997321976265667709 -0.29389869193066159303 -0.075303422469146730212 -0.1642964170008586744 0.11856690034784239662 0.083995234586640279972 0.027127513290830927717 -0.10411569415155748353 -0.10550319142275613182 -0.35233171389438128207 0.20391069384927648644 0.37327963659131746521 0.55750575586643602577 -0.086482201028736604975 -0.39944971019844849325 -0.60575180509426007625 -0.16827501781468340303 0.19302284499125602069 -0.14767558518564177783 0.5986983984445245488 -0.63347863193125175663 -0.065080266949184478742 0.13733469393386321666 0.14339155192450350751 -0.0010256425376723654012 -0.045142333136360471291 -0.1579342947383228779 -0.48516247063249035021 -0.12224498133998093485 0.12935061309711032296 0.11948312570222086038 0.25408080301068464157 -0.14362337214830023235 -0.12200995223704222403 -0.1493227902956262565 0.48565402604541446641 -0.16708206010440324052 0.18021507733465305656 0.38661402004628181439 0.30820259329894977851 0.0088034496753122311319 0.20592873115290313835 -0.17969020598091273166 0.17667673090747371134;-0.26898137307778352545 -0.072801307879392679334 0.14773859440672915122 0.24978859982984707999 0.36987112960837109643 0.026899452789546807185 -0.49800867951234478737 -0.24820918029597943688 0.31272046258727137502 0.21602990537058761045 0.1815850303625472506 0.31696907038501209719 0.19032543506192989291 -0.026514795799113026475 -0.31073748999676925608 0.013797447082020387887 0.45392677207830067765 0.10046690474126745984 -0.10951407135775503843 -0.17306220824800844227 0.14031730759524180252 0.1166740894040159543 -0.10590311261593732262 -0.404649566800115712 -0.26816101184430696236 -0.057370245785959554652 0.065721039954170959452 0.54522507811510034781 -0.14882961583442874676 -0.16806255090664135032 0.28160032248048266768 0.1917672690924441814 -0.019760834445677881444 -0.15730865484722100778 0.19889717030671932863 0.19819754233859215864 -0.47877735103351615198 -0.061567188232390601677 -0.10112454125020971241 0.82630653398273590238 0.25634670735786385665 0.17839070567528542144 0.0078678870062760444121 -0.37643884285890349961 -0.22168061400401520289 -0.13869131699859427176 -0.2005138894558624596 -0.37998150391941554194 0.38176287291696142656 -0.021613432840677529456 -0.18688749316375799503 -0.36306796490008358402 -0.32498233864021247586 -0.18935181135370640626 -0.42924442504703558265 -0.29416437938337502978 -0.91158848279988891061 0.36084594885637066852 0.27342258315672957059 0.049980581692134332106 0.47738634023602610768 0.19988509400643644787 0.35752314420634523362 -0.098331329498980865611 -0.33995137571983591318 -0.035723470206184861075 -0.074619945388466266123 -0.12511318992286826757 0.16959723069755885949 -0.13433072757864361613 0.16720937489146805999 0.17147925604908600961 -0.076389669879686511456 0.29035036683915266265 -0.14331807905905014078 -0.28204308629438257228 0.054753271211233245364 0.084953254755769633255 0.31616314160110753351 0.49473522952206200332;-0.032818943183366228178 0.0041156887643390965142 0.16072828526068277943 0.17856302845360783049 -0.1008816154150379979 -0.040876253517178620656 -0.11653331650341058889 0.14559851943423088305 -0.22163017293017764353 -0.063021610784266365868 0.43441373472035771375 0.16217801682716798117 -0.075165197879277195758 -0.11620469007687593554 -0.18541813210416194235 -0.094147115697917116428 -0.18169548721422998372 0.35803301017576399934 -0.0020648616652892744922 -0.49286345043957863199 -0.17033755960697327669 -0.19442354877465878316 0.124196542118619635 0.08599854133673245915 0.14751272302521836743 0.31992371836401922724 -0.057129411918428310568 -0.34893024248271053978 -0.30893472088503526329 0.043415212327659657987 -0.048271402318023064193 0.12774690072984057343 -0.051914682728799489697 -0.28418464931560516451 0.18699774900421475832 -0.1665073501997729466 -0.069414999202896093822 -0.37812979604960517133 0.074302049460251998192 0.32734163636727930946 0.1853731949845057736 -0.0047383593300069741516 0.38623373936202093359 -0.075780331731247277394 -0.096565862763175164263 0.067759951494864315014 -0.22465157032294486017 0.12154652362417357747 -0.34435379230141272 -0.1230322842971158237 0.17219702137875669834 0.10176441256717368156 -0.15769645927142994513 0.063072700380325197322 -0.061715055740302636467 0.089811129044913132202 0.079283210208387619455 0.32246550303924531589 0.3183708862435760123 0.047193646899725286148 -0.12795716174433599543 -0.11267452326857205214 -0.23218951321121381048 0.23773117537560065071 -0.28338630666783615197 -0.1791290780601122179 -0.30356884941025852331 0.098255830593187196143 -0.28533617098338937002 0.13426617035539697986 0.11924853718153843873 0.42414177008050329976 0.062146086534511806032 -0.045719989923939746701 -0.080067836386611190846 0.19814299915951771869 -0.16882715708255724429 -0.25684741921361498029 -0.074498462645272572891 0.016151407690682240137;0.30369871355340155583 -0.2045206799125079411 -0.30519570044164184841 -0.14907174821343682769 -0.20021302752072206443 -0.27615056063428639055 -0.099541071973105826887 0.19251952209765432755 -0.25064962767995280224 0.29094245024852227743 0.23735455059818863499 0.045788182567044456717 -0.39507829513019276924 -0.079600270262862593551 0.076641891283232968513 0.34775427791924778953 -0.09596952817939598257 0.3163666549570852693 0.2114461140741941414 -0.15997422299520866473 -0.24178666193325529243 0.068457588930507379255 -0.59549008890655596993 0.54870524569447631791 -0.041509391122214946146 0.1519068953441159997 -0.15437709170620034227 -0.090235814213936019201 0.082776424618928673427 -0.098726101704550886518 0.12100571757810932305 0.2714445809744452931 -0.16176086798732700056 0.34372443086775517074 -0.075219375162604448781 -0.1517883589130003541 0.2518944136637161213 -0.02531179189816605557 0.74005911809970525983 -0.14723294188225810597 0.18399709449665427319 -0.0051275113856452834635 -0.43347039022189992608 -0.015044681671723989652 0.48917382023378175315 0.0018679080723269705228 -0.50996994300850784221 -0.042016446172216226351 0.018626707688608516722 0.047025028894625224563 -0.23922723099481632558 -0.081905811857192992176 0.16786701795259312275 -0.29615173550737172725 -0.37268854210939583727 0.0030187539928022760413 0.010980492170034546889 -0.2396426262651329131 0.18151762562488571451 0.080938479792144205072 -0.024056584685746243424 0.13569610807803761388 0.24572359673527868762 -0.87939404701633250294 0.22345957849589856425 -0.39302644727953450765 -0.060630310525938799215 0.0094798402776507563472 -0.084288781161102457884 0.15627944056123774241 0.17638920706906158209 -0.16795952903823380131 0.089144519461029400609 -0.17326630807655771238 0.21137693393061479652 -0.07173989234694710948 -0.17946555086211979368 0.22443438945911892146 0.24441016596921852355 -0.19764683577133695946;-0.24803661033031268457 0.33844665742616569792 -0.096917137412297141297 0.090554861458038440891 -0.18276980241047399711 0.25636086018928422314 0.05802962429274821643 0.25670182146258230249 0.069290188873968053263 0.2137013130310708442 0.090945808687479826049 0.077222140660095861531 -0.22801134932688649215 0.034117121139425873877 -0.14797882481439636471 0.31469124937349285398 0.18043602252248988616 -0.060815394851399626197 0.17587134660712375189 0.11150038646254721575 0.024690031225498766665 -0.13610786410718062056 0.10058361026287117312 0.34934356403389066337 -0.16304269840018983939 -0.20109306354811981588 0.11483232534889878385 0.13934918939416349182 0.15388693410781001392 -0.1538584495962962706 -0.033426150877371642312 0.24249258064790693568 0.079840715362962513812 0.26980104501580948195 0.10311888112594280731 -0.1290292083534883838 0.04149701658245762842 0.030411770027299334096 0.27254725910469440597 -0.016428153103087456133 -0.060718173403079458983 -0.056635202216995292335 0.029814071036734324932 0.10980610219108678793 0.19540412961802203218 0.27794579514750827887 0.22051706419832919903 -0.20472929661693364811 0.24640730468578778134 -0.21606103071856486153 0.015846662682369602737 -0.10832948132108609351 -0.058941971340328420947 0.022381546266663970846 0.1903920965818235167 -0.076432871793864001764 0.035830190867595257398 0.0092285077978747319383 0.068544090947780300649 -0.10667690298253208747 -0.32524467710545112986 -0.21830956351708935559 -0.14131734976959131611 0.29522813116642948605 -0.17434339058975245607 -0.16850616652986227795 -0.28839623136682118743 -0.22080297856328059969 -0.035133866295997420726 -0.28458705733382472225 -0.20334708087567054946 -0.41584977820500901302 0.25384415102113705442 -0.14481944981706718067 -0.12860932986786741128 -0.093680003664472072389 -0.37238483076588529963 -0.30498238714389019899 -0.22651442067559571236 -0.022709571563754339663;0.278872388867060228 0.2412608426853736221 0.064132864916870813143 -0.013907823838941499317 0.20711893340139020392 -0.51280635279850539376 0.018542936248162791846 0.056162143655898055794 0.10966860142185518023 -0.38583094217827895722 -0.12140360077552000972 0.24772573665418376465 -0.37746179695567055878 -0.094743497471203169669 0.26774541293651138441 0.2844798783790488117 -0.23610247205368664614 -0.12520219064939239195 -0.5390762696354264305 0.094329281286504640391 -0.24924456638655156926 0.01952117172530169753 -0.017316444926200654647 -0.42228940533828379644 0.25530101230079499386 0.32666513216121229046 -0.4006564634599841801 -0.11968803422328945507 -0.030248878536984647597 -0.056373883611735772781 -0.18164491974359753268 0.12712087206259192751 -0.021064632916379635169 -0.18285242646985941373 0.13592581025143579687 0.34121709303046204864 -0.19696919965606740632 0.22138166021499028346 0.51417472169572409069 0.3722903102228923844 -0.43147272484615351029 -0.20346811837892855857 -0.16867689903507890326 -0.039510687791320879547 0.51406667268322669972 0.092005370355592072662 0.085430511113042673088 -0.39813091843878611886 -0.4719652338840589767 -0.28897011189568116984 0.023426660502131466807 -0.42288141605617401986 0.17377663039960161706 0.48605606281420998815 0.27581661011975622255 -0.15325364276528480323 0.44333175561339743798 0.1651505746282880549 -0.046323958339665453898 0.031636121029062706789 0.013665681855963476149 -0.2137135661573574541 0.039788753443400382004 -0.033199293004714344746 0.022990382302362621231 -0.10424394969243194753 -0.091060562176223644459 0.16569968507540547287 -0.16314940629471830214 -0.32267756320438167883 -0.42770859064758715018 -0.14659816135075520727 0.10827224039218688589 0.036202678929758258519 -0.20168164190221293808 0.12880714514187066588 -0.27570634423986478678 -0.39249733772901856943 -0.46700878541495344232 -0.017626933856738000866;0.090748889272144875329 0.11959774597364175586 -0.30348676758153886324 -0.11073520866004966934 0.053030684541318054426 -0.20527881322990612634 -0.33107918362579319416 0.0056283277724409400133 -0.085778428724974833952 0.17108463432366438628 -0.31828688817544570355 -0.076195220557305320952 -0.12332361223310922549 -0.2345090351254462413 -0.11941910603364754018 0.26802194836859083438 0.056699270531082125724 -0.081898604786417750212 -0.029480951212747158463 0.02857436949835153589 -0.14056783264223438046 -0.024293530452291788035 0.13584079271585172699 0.35541412011819800698 -0.21452440931204166952 0.14439814264133546406 -0.17937267487720565118 0.13835670845300221399 0.041141124781693926005 -0.15068013475148878122 0.32812893916894880775 0.29829449865476470594 -0.094650699367682278318 0.13016973589116581644 -0.1113145422285848618 -0.065879373551391784414 0.071806212326437704463 0.29410962693229342202 -0.05260702249727874924 0.070054086191342193612 -0.24767841340776333703 0.20930257690224779443 0.021531112427365908107 0.31578324823151426859 0.029331159783946285369 0.03907205662694047954 -0.11125366887288379303 -0.087294230629722774362 -0.094498402230028505366 -0.076085974356768101834 0.036195493338778479686 -0.088750333602380201969 0.15722860349806477842 -0.13028209383334093951 0.12771244335390355418 0.23485339291331555622 0.36135970053949340031 0.013805088799727588053 -0.14945900908813655739 0.21262747120782923838 -0.081602358298167296247 0.019740334267081417752 -0.25916676217345419042 0.029074114913664093895 -0.15738286410319143882 -0.14308375567621861579 0.33703928238489588853 0.15126189473568019128 -0.039629486340798061872 0.043811682444239330447 0.30513507998360905882 0.23119248411217732664 -0.095927326478568719637 0.16412409661821056317 0.0064439513755561424538 -0.35742479022242951148 0.16836400718495603268 0.26413307351177839344 0.17653949934628834773 0.31430252312997236652;0.25428256656952230585 -0.19190845790493224476 0.11093206653086487568 0.20060366564449169657 0.1180498592674508046 0.2795016779818822461 0.01441452195082274651 -0.13808251524028203328 0.13139547137695789525 0.12041201321501204813 0.26068602115119854368 -0.38027762239003654043 -0.10385506616696722759 0.034549599721043926237 0.11874377012943775067 0.22299394271458358729 0.17754798652501965761 0.29934629832205938982 -0.27380949213522171037 -0.70299421862923194837 -0.17623147090939658699 0.0012998529849359702348 -0.48333472495601448315 0.65282175581314916268 -0.76889363531521037753 -0.19175687195303148247 0.27591823949971833185 0.22553618379192585941 0.01193742118099120654 -0.34135311779591731574 -0.13331433287147870237 -0.55799955538869638882 0.16117162360450390524 -0.25070277069940150039 0.026335657021578948861 -0.24976356372820657237 0.41687608692505007113 0.27594828486152922498 -0.060060694896844735169 -0.36318413231887114456 0.53554416579572872159 0.31113963985822534752 0.15068006550494308926 -0.0211266347265627423 -0.29259403771566516728 0.19459597390020311192 0.34816000761704707367 0.7717502833298836018 0.14479801264356750856 0.80494933066019802581 0.22884303750111492648 0.15673780403047671284 0.12820397665170413237 -0.063721791510888414756 0.042230656735575723693 0.75811174324177277306 0.03800795091473821441 -0.34969344471119612194 -0.032233841990793793419 0.4257792378674439826 -0.019103623518892255684 0.16640357084623241812 0.16687846151322485722 -1.1360493149228165777 -0.14993528531429778372 -0.27335056075001845644 -0.23407070725319267801 0.02299551314224617532 -0.12022380205021748756 -0.20874255477135872372 0.42183504074406225071 -0.48630078103108970167 0.01776296592263209434 -0.088178895009574653763 -0.31515000111055202492 -0.21065170278549708027 -0.14487568180434137743 -0.14805733203004198262 -0.19160884588643223303 -0.20256962610671902514;-0.1651808571427930139 -0.087888182822448368547 0.0080131026115172233892 0.017390268688784134288 -0.18656263750854074068 -0.0082412541595701886005 0.071064985058016130748 0.12842320887119595962 0.079220983819976428797 0.26329292514246172008 -0.062982122185406233528 0.21498224964057457975 0.34809694088695375402 -0.075822707534247718586 0.2140588173758340429 0.51069969505443280067 -0.12042437964732582989 0.20751998965961776511 -0.14400049372811180026 -0.33519843407781585443 -0.28213157448971620811 0.33698375680368136686 0.083157832809991186207 0.088107727853437428633 -0.021600774552152104957 -0.084513402047608654488 0.14744390611339797115 -0.21827435212477760973 0.27375882313282073888 -0.16406285331171263642 0.040865112881942625145 0.48479904064665996222 0.38377344204178925891 -0.019213406118193776528 0.49928726012119029054 0.77594689920579573705 0.19222316357002061649 0.35552316680333434507 0.15179189985765467741 -0.33003819298376002589 0.13088067560677535406 0.035897648594256738319 -0.15845603263171365027 -0.87987178848620217764 -0.24614501892374193726 0.19158764429149721664 0.38424563804969091851 0.22670175721865190588 0.14576047015278520425 -0.21409357881774945809 -0.40891956602598966697 -0.74317309971281475534 -0.10492542411163659211 -0.088577514353727238028 0.056852281466731192927 0.0077260202269053817464 0.12635647222774043508 -0.2954952735667235042 -0.055850658372450741329 0.75075679143781892666 -0.21534959770595471507 -0.6503117371732343166 -0.33060546281567093629 -0.0072366885947019489456 -0.22800434343484304867 -0.0054828283293506599461 -0.13629720170696552062 0.41848202500927778047 0.14554710301218437563 0.038270959370864714166 -0.18360459421501462707 -0.08816758850218514576 -0.32153238021900287791 0.019374689375786458001 0.17673457751471807753 -0.036943702609475742582 -0.17054239166873991218 0.10085830518697258551 -0.34205111260531095851 0.28848487196542105249;-0.058775314560704783329 -0.28251385546052348863 -0.11323429163989108537 -0.2048287166825384642 0.1307222062391380224 -0.071133510578051228901 -0.14976704385680919551 0.14735101710656267615 0.019470565112154034765 0.2405248521083331037 -0.10584873351607669567 0.19180998477859750873 0.12676308214190470935 0.15625334224903938973 -0.043203282898646083732 -0.27442532014457710066 0.13469730230053991726 -0.30927649487698366526 -0.23566326714122509678 0.22763959521130203156 -0.050157302238255055404 0.058623224926129029189 0.39703929946889282565 0.22970485370611934406 -0.17071875787055426632 0.2823986361654369226 0.17291928384038901534 0.061027036500356797444 0.16590771675802998275 0.33638956085780491456 0.15890075573493001038 0.26138742686794680381 -0.32870254210230720471 -0.16911105269359247294 0.44694191537958516403 0.27367845256279166311 -0.084140455911174666381 -0.31939353111747792457 -0.32717781450268967891 -0.012056451911964210025 0.32058832847775003971 0.24839914295821652335 0.022391643364790447118 0.1662627140394135894 -0.42202215539252507792 -0.22116663808580955264 0.29391113782497579887 0.21585210557307468737 0.37065256892527842503 0.048337985864445716377 -0.2183821816413506478 -0.30734433954452100579 -0.22166607011334960031 -0.38398215787390604925 0.17013669276874013314 0.18497035891040922162 -0.14830335487364984526 -0.55572035750984372093 0.0078639839853652093032 0.24133582318999918792 -0.0099804632417627159313 0.20460622380051482483 0.00059051564713326690215 -0.16528920920157719188 -0.036718198044456369644 -0.01885212610464843952 -0.088726396409257141107 -0.028197657982686911982 -0.21579682429831950619 0.03886848033883671949 0.064380276997791086036 0.047811939149383024528 -0.13978693733826108581 -0.21242505108323347929 -0.29774453643829124072 -0.27442557926195176865 -0.043957618693460528969 -0.29054730594127325949 -0.37156014173268225864 -0.1661939199656663757;0.14955454126122710856 0.26913271272668415346 -0.13207376927041059034 0.54005420989046337699 0.34607841001835726313 0.14563999793538029426 -0.33367290619106221294 0.24173955082796577676 0.19784758670796184776 0.051520412458044680115 -0.0085436684250212672348 0.087793404882170439363 -0.22801570261462741906 -0.24692440160792358816 0.022696183156595915037 0.22152113839043421906 0.30205797028304814944 0.29034233643096685196 0.3332662531116881155 0.53405380478727171312 0.084479744567320297355 -0.18313655325718317113 -0.037222976772161957271 0.075278729256021664762 0.11894774131587031174 -0.23561672565949057234 0.069227485093507484804 0.231821469188633833 -0.29294733634843517223 0.12556149276856057306 0.15906296579217260589 -0.11186873533733601715 -0.89675871590863287519 -0.25764472666816268243 -0.13941283716345007071 -0.2970754834039922021 -0.074791506160591381125 -0.42131868039653724844 -0.25127563963237570244 0.017728859126923277034 0.6335565371842194482 -0.053716345727704582769 -0.51093973072165277394 -0.25447850118506876171 -0.064282039916925048928 -0.11627303120564931593 -0.16452953910065723497 -0.20091643735660352776 0.29802277601400800622 0.10974959958178895358 -0.1983535395294196424 0.13524320952631979642 0.24772959495826143983 -0.21665048017620935905 -0.013002575586513883191 -0.03516096212298081003 -0.082219559717467818882 -0.43698529082637105336 -0.29702164356146271151 0.28479895098441726509 -0.035220668661546022937 0.53041497614316768239 0.4444295898825016411 0.42377009825934242038 -0.080367757166232040023 -0.43333419088480334969 0.053069997323686425583 -0.49779123125358776258 0.021879087488068851147 -0.025941712436832069233 0.38672983429272683731 0.37421877576610362848 -0.23757980411324913783 -0.44255019658386590686 0.44101264255892913546 -0.2901839424306491555 -0.17726153809805667017 0.1635208957617985126 0.058604898676404330871 0.0040203467395989352096;0.27839259007399119739 -0.048068673555718630097 0.5090847969196928835 -0.24486408058591299652 0.22435973276145854127 -0.23396135418532043593 -0.2390269451035339221 0.19295585918577021212 -0.058810992158251626516 0.084378330232702122848 0.023283690087560850179 -0.39910380670746636866 0.0673019296372113357 -0.16448737160994147954 0.16052166196230760464 0.2566513286102072855 -0.41645844337182041928 -0.1210598386346500438 -0.072962962000402420415 -0.36483552441190753024 0.043666908488477540473 0.12267500205849615758 0.017524915392908593098 -0.053002850735514410452 -0.14709706164677513462 -0.079833342743402285757 0.3846803174084032495 0.15349452302537128223 0.050621552942854738943 -0.19083154386624051613 -0.023610517240131863315 -0.055475932579266119815 0.58278269156648498939 0.34279363982964400348 -0.32927994402503729665 -0.063968359149540188202 0.12040954413496882114 0.17186512732547271076 0.14196701966557098706 0.082557995294048780455 0.20109961879975035703 0.1942654670438968556 0.011853740252292636198 -0.3250225674420172961 0.10389818500132755319 -0.079325689325900866633 0.046786781722237984205 -0.056814123725649277874 -0.16702617328862517931 0.19362278390157108832 0.41955554028176283987 -0.46280256115582346643 -0.34578503843644020632 0.024031547432923960894 0.1712924609013127264 0.057595703699583944424 0.04430141758675481406 -0.053678064011473333728 0.023148787753250660293 0.77993728067599310538 -0.23404609985522534243 0.053225287150720286544 -0.29886252361970949698 -0.30407506107325932287 -0.38093353067966156944 -0.093814060792383177634 -0.52094114987080186729 0.89293645876880700651 -0.13231237017157224112 0.24875186664184190111 -0.081058527045373085507 -0.016755327408072031442 -0.22388942898746089227 -0.47461231792241481697 -0.62636315665189257196 0.92414084927610717912 -0.022486600271151076236 -0.056862048894573691271 0.098867057443980568832 -0.10798606647043360041;0.40827263422504123103 -0.35974809204368757287 -0.26445430650793333438 -0.2947345117308770579 -0.21304419262041501826 0.40259411671617689743 -0.031916211616663608952 -0.48850882433778491931 -0.04837102898483885971 -0.28011211245087386246 0.033816207274827952967 0.097446216495448295669 -0.55148123536063975436 0.30570211245364498076 -0.028841816564707214304 0.15952553467994107228 -0.12044566162428280154 -0.10313828954527837212 0.048588747001454102303 0.22893989898111447023 0.17657947260796369449 0.20635639798384525223 -0.19363688487944796801 -0.17654432234803346669 -0.285122340336277591 0.11861608943633136781 0.15741553228887342208 -0.03926271596348739068 -0.15028866693043441138 0.4315239594702803827 -0.34498879845769847563 0.1150368272007286502 -0.27657030072434835022 0.0049752219215438474656 0.051328191412154715312 -0.023008431096963675999 -0.13076096050754296152 -0.18004513071228450682 0.072324495548841599701 0.1824994351829639927 0.26653716482328654314 0.19553262892734304956 -0.14493857354606168308 0.26533875094600978262 0.01204936321630874739 -0.17061018264009569778 0.049027761787829617079 0.29989660078959895495 -0.069470499418861575425 -0.19974343284040160795 -0.049582004037647661732 0.095271309798133960167 -0.42799770654655655555 -0.26499741697677542396 -0.026223006223775678636 0.37559785789855476557 0.010992835405135252883 -0.17388270185922127808 0.18275758940673811348 0.11475317213022050156 0.53802351016937099981 -0.19203987878276831958 -0.52088427885421995089 -0.28727188275841741838 0.2725797135026511997 0.45420450140429163843 -0.16171015366715155159 0.062563060794439878665 0.48563944812952264396 -0.34417756962136619725 -0.039004198326748520942 0.10461885574594854964 0.24908488221350677527 0.21693375699498784748 -0.095030193920642103134 -0.068493412275576912029 0.027323000850683051843 -0.3154855571689212379 0.17016385743182382839 0.066375027071314679494;-0.070679596060127580781 -0.061717500192213968491 0.11156909929601539766 0.071143831311682642626 0.247867428664728634 0.043267088393791355849 0.15415301243071460879 0.10316132754035639563 -0.20476980710083492188 -0.34111183615923085233 -0.46279070249738257781 0.015142390943453348795 -0.31975578340939853073 -0.056072969553287346778 -0.2773724089867447562 -0.13948548124012583038 0.077405242626051598553 -0.15576512114449975188 -0.029695717480353839984 0.4481394244894933987 0.14005293071788504911 -0.053886225737380215317 0.049715704624732882932 -0.19028427163176425685 0.23975106100166859724 -0.099677237484420450064 0.039285029761719138242 0.0046626185314373805313 0.26692609973422487535 0.024143655167712860937 -0.16298783933331981166 0.15647509879125859333 0.18865479274876920113 0.13348054515411331145 -0.41330398094811510168 -0.31985923713123487477 0.036304661418057125599 0.011588537419764972231 0.43572558120753807076 0.28874166051906191566 -0.12015438224236429932 -0.40451629182148918229 0.19595190580394369895 -0.20726942504848150373 0.11815562716604893767 -0.060104308547142305807 -0.24875635771465354207 -0.50369577887739935829 -0.35060296442320926236 -0.16698320548398898344 0.32181074629686318156 -0.034873889215256741181 0.2460220299414284939 -0.40341752481279202769 0.11715648594364502788 -0.41107305155262835461 0.071338383700469201743 0.16350992002674419323 0.46973102233197772115 -0.45068693107158180888 -0.0076078369569028241048 -0.43195985991837748674 0.0035750045112716111011 0.42086547983984662347 0.087750138196386828771 0.16464417926738586506 -0.20470838852870917868 0.11111134904399400103 0.22599104279498671843 -0.12287109148622120391 -0.034533363146253666376 -0.037230638426486516168 0.28194977688321565257 0.078578040575183208394 -0.14440723906466412796 0.35577030262550052297 0.072561881727122246044 0.22452217230960969108 -0.017650985618516960851 0.13391018657553774296;-0.24336653629402449361 -0.10489487434377611774 0.081908768868657805262 0.37922817383118506696 0.26637450063837458947 -0.12049589877071774369 -0.032900848738902657709 0.012950127796492211241 -0.30863517647226523799 0.018050514235005189062 -0.28901820622419382989 0.050225302202958461983 -0.10788772287044771925 0.028032233020087039821 0.05987130904836915346 0.24636253622620912784 0.28476541940117194862 0.08162366083270840289 0.01882221793112215727 0.45648643698436019989 0.19079296147362961866 0.0059429786495190485909 -0.23512723390307996296 0.21283869543398284407 0.47570973219562567857 0.13771798344541466563 -0.29857185867645436028 -0.055493589839770506023 -0.077881032258603141716 -0.44880625983634636622 0.16303691883196425039 -0.056985787069376250824 0.38099647297831329418 0.46725664777324266153 -0.99526922631777714479 -0.71591517522126546513 -0.25094047092536159171 -0.16780241645897986391 0.72097496728698673429 0.50278754198696296029 -0.15768235222596155287 0.06363010259350200537 0.40384247301431619448 0.59070994850246938412 0.14613932734648529821 0.19335192663911116018 -0.1010298104462560298 0.018962926653054910237 -0.10549540829797562913 0.048412095260034440636 0.67340962736819498513 0.26168319403281525837 0.52396789494401119214 0.22619227765018676268 0.075517764425347438939 -0.16223139198054464805 0.21186270645703586535 -0.0065994230730242048333 0.18634573025442913163 -0.47377153990038756159 -0.73729423401982474573 0.35976909290105890671 0.35370558310644467648 0.14637550708091676133 -0.25371157280252265576 -0.48406236737593066888 -0.45783657001175792622 -0.36121071859425163408 0.051734632308351492791 -0.27150649112823882492 -0.41264951959974643936 0.097523881531486014684 0.02510906173520617915 -0.5906789520476832811 -0.15986388314452337767 -0.44078950610105510632 -0.22867436663915333139 -0.10158840629988864779 -0.33588572059015092686 0.22759038174553689049;-0.004722172201362446857 -0.0094228547164147222898 0.36577925152194978864 -0.39447676340785592375 -0.55153732462954541127 -0.11389139007880920429 0.36963551874861866331 -0.0064323702285837992126 0.10601621211528303168 -0.4006093100190442069 -0.00018817307451896025938 -0.085453658401402066147 -0.25890851390016972333 0.26991864383079999801 0.34346731316274320411 0.18154825435457111471 -0.39117481295104727934 0.11573375437368610408 -0.24251541736673062899 -0.54732699593232636559 -0.073887266392021366812 0.12898918216896404498 -0.34204815023603191149 0.02895998867461291662 0.0059524048438156298979 -0.15540392700274419102 -0.35147249221830229038 -0.1660160169968271926 0.031872623360655327751 0.20641848700461185029 0.13776224757330510218 0.035460004157239204126 0.032262206869424832345 0.099051208409436555802 0.3018362572300596347 0.14297153361579567621 0.69304348291185735587 0.11460006914068197881 -0.17797526336028482441 -0.28562727508097951468 -0.1890440808847874965 0.083877175207910284471 -0.2098608347153442244 0.32083905247928257154 -0.41088680460331422628 -0.043726076706484234835 0.32735499134293494228 0.54870524924602792627 0.25946441228997202399 -0.28937965020171163566 0.043839056689070621253 0.37839128716108999528 -0.47157067567646970829 0.24476154699455496266 -0.022453307488351260945 0.047826826784103007584 0.080905966540100335282 -0.07608727327417282027 -0.32583488756739964476 -0.22084668579119606791 0.73161037966128916743 0.24257670065038547391 -0.1591239229542063538 0.079549125230083186922 0.41643886518596229251 0.44933240944812485873 0.099851160374434144718 -0.0075140473820208301611 0.59292664633960678877 -0.40297906239076103363 -0.17050566347785720001 -0.032883302434582921403 0.039710023208363851022 -0.028569663641891868133 -0.23103993615391180128 -0.10850769806752909308 0.35294418540765137848 -0.2128656381725954061 -0.24836390305563141312 -0.26228730888210749495;-0.28178484681057752725 0.063269281654805942239 -0.10202411766496073675 0.020798782709097615728 -0.46256488050548605351 0.1834196279656271078 -0.39603246733649255518 0.85819778769768995108 -0.072824438209104433439 -0.17141298516121905582 -0.085865071855136032575 -0.13648716827487797354 -0.095221161190064421143 -0.16464646625940704272 -0.43983476892589595808 0.43572186885523889188 -0.32383401924722066134 -0.08936864297323225681 -0.1166755364330517436 0.22962988309886220306 -0.67822447186983281231 -0.089834349613979957994 -0.10875167580856223704 1.0393580822717614076 0.37055437681410258177 -0.068596199335077170933 0.14433891929933725939 0.19008561021409861591 -0.32520339856180408011 0.03047277175694535975 0.17361168913651456314 -0.012773590382913039415 0.17492882372201348784 0.10921114802566216084 0.196135026157226805 -0.02997453977508610784 0.58196724090133256091 0.21309029858090508536 0.35040054214695337542 -1.1240420306573366549 -0.54530547722557110024 -0.25030521124693994039 0.1103956251046878112 0.13340810450217507888 0.70694671486014093453 -0.030586476049223394053 -0.64154283147260948716 0.86488632261664732948 -0.55197786630572631683 -0.018768889236689650923 -0.16822125264506859743 -0.1924666832381485837 0.79535882254135781277 -0.21875368588220031607 -0.57885546559573064496 0.89461110801271714887 0.77260289976572382731 0.15332495056531816879 0.12427104731317015207 -0.24404934318602064525 -0.48481716521356238436 -0.17358760305275738878 0.52542542646652101723 -1.6101688930662636512 0.41649435248467442383 0.26340515907098471793 0.15328086281816327707 -0.065812530100841912239 0.00055724171635813252168 0.16601270600994474935 0.78182511005357024914 -1.1607880801149919048 0.2309436180775175651 0.077263799826281898131 -0.16180421894452015619 0.14345607774796653722 -0.18529941637796948362 0.23704102065346643879 0.31813810500310574225 -1.1708625029034536169;0.71596439919312115929 0.099872825275501717068 0.18851459692636626797 -0.13230189549541571115 -0.2107095338068991075 0.22230231658022411856 0.16146162345987777331 -0.18642659100582037457 0.33754840618887987924 -0.010959847687904662045 0.17814256210858878116 0.5001677957118685347 0.44022913798922230777 -0.10515338042583506628 -0.29454145972556988742 -0.18917778498567849876 0.80812576722660123263 0.10896395543084338997 0.23695664960714252212 0.15451316280393195823 -0.42973067851777174697 -0.08970239308794518418 -0.1303047033136849886 -0.17619490468435736186 -0.71515653108376342484 0.068051654958917365268 0.038875695972791099453 -0.51340486493184267491 -0.14631820028968656189 -0.013854515688990168276 0.27730855869246834322 -0.14651719441338131866 -0.38782961984893299379 0.012813381892816659569 -0.011598322938630601514 0.3386371399444454422 -0.24231014928169655742 -0.39291798694535290393 0.23864018574384937565 -0.57919112480384482566 0.17743260141324160295 -0.23700594679955536148 -0.13283837716687429964 0.0035381782405553563464 0.00672309991721700001 0.1925235699955547275 -0.30003701014930900248 0.14725230161268568208 0.52915671196793667708 -0.14444838614328084359 -0.16363479898169758231 -0.50942868391344575674 0.12437559754638327636 -0.22053988671580737613 -0.49134883311188892741 0.26561741519961856728 -0.81547414576341159531 0.17517183082567105989 -0.10567312246008296606 -0.019675897089697757386 0.078322692113959618831 -0.010937131899974963586 -0.044701097890036088633 0.0195493087224264811 -0.65877405504817099224 0.017930373136903907799 -0.14748672287373695844 -0.035895683691641339097 -0.098384033661369857393 0.24958940366307108549 0.43793801211606964152 0.14528526674392933105 -0.28419086496883327886 -0.19059582030031130273 0.19569164426856661132 0.16158489690645325143 -0.11081499844292519441 0.30378377796896877117 0.40155522610761490432 -0.31053735807879495612;0.53314360809373262384 -0.081898094641075280808 -0.17039909023879862282 -0.12673916020888381651 0.018837332271636780812 -0.15102993981555024039 0.20671611813588924855 0.070724053965344174655 0.52725566977870452767 0.23223149034573348226 0.028135624427682606047 0.14088818732279606571 0.27231560334015320057 0.070092426083375902746 -0.10370774753901315646 0.33742815783132146246 0.64208060355936258379 0.13691804514560970696 -0.15937096222396779366 -0.2104517499888955423 0.06059205085726440676 0.10788703959255110942 -0.13388641244214696813 0.2668300037181822737 -0.31851312658136338163 0.13914358363300130539 -0.38253672363768498332 0.020413046843683328724 -0.084868800490577586682 0.24552568131690014064 0.043707383517448988863 0.32533331971503204327 -0.016718486209018487698 -0.52303248891785969477 0.58507663632566664358 0.15132456398592750157 -0.11640199570886387848 0.064468304240436397068 0.31723025029549095644 0.1226690122198930144 0.56219112670644444396 0.31530802673240471146 0.01180234255341376659 -0.40383929937219825712 0.036615077234591827948 0.1201122009543013347 -0.19333206806220432084 -0.32299660630556192853 0.80191522243131307945 0.092629354655488202464 0.14144926977704960769 -0.60705855571871569776 0.149631762957375819 -0.38500165322117069211 -0.10410563479870769965 -0.32112361741111405955 -1.1154714839811878946 0.45781714957501545848 0.37254938453101155149 0.63800196475474768576 0.40622859122665061493 0.10693194067119703161 0.1560817021106344904 0.27736549099660434692 -1.1599543753177008476 -0.24503343594399354388 -0.15336502210073316155 0.44782454284003170297 -0.14904722635787623353 -0.047222220731109279535 -0.014301196956576670699 -0.16924517214167264512 -0.92750778791556343084 0.062937119019749077076 -0.424035506351638114 0.29603511404908788851 0.03780521045198296376 0.07593858569310654727 -0.28135169201668830397 -0.30978960441592173769;-0.24236648029554108685 0.18472049429295547829 0.14406285223323972433 0.21711165716008939963 0.32684176713741408538 0.0036950687021234194379 -0.015913253356047280668 0.25623826749280237403 -0.32366999269023705166 0.1072838806184875371 0.024973046852364143289 -0.00074873547319830209557 0.19528070217101609063 -0.29964228970306455713 -0.036883944160684883906 0.8681763158464846919 -0.39348928193482340943 0.011287978310631397935 -0.009212472272712993876 0.57221637678761916312 0.1968098577518532788 -0.20679454674766742373 -0.066773477229593342086 0.34470773567114304514 0.30012353848057721217 -0.018712190988912375672 0.1583788390851663952 -0.054996756562690714276 -0.099677817913672445149 -0.034440824936682747082 -0.17712408524500164453 -0.23273924128666007016 -0.03351385915013063016 0.05119761320145005401 -0.078630437621648924251 -0.3189072657788050158 0.013497088426745282308 -0.22548518578184345573 0.15378617521493059828 0.16998775484787559398 0.093248421154074487283 0.019702113063996846282 -0.14874523279701917788 -0.24194396318109115396 -0.3420375076623646815 0.38480223052863055111 0.19297707123690566178 -0.045153817899683985904 -0.27316068219140049456 -0.24663212266174297516 -0.16652632397098229844 -0.15215799793361037273 -0.33636321306137756393 0.034603636987066171971 0.25345491090108807075 0.2667932686131207487 0.32634851461358371782 -0.033104363270680101095 0.19003034315930711351 -0.49435381317980042759 -0.57640170835521042925 -0.41845133295787340089 -0.40100980081954873402 -0.42631207855627190062 0.27817693794723141743 -0.099758935308701696121 0.047571440625025759874 0.44287151368341165503 0.36539544181978922399 0.36876920493614656626 0.31057298287731377462 -1.0518224910823055218 0.095413444256399318477 0.1039399330868916449 0.12217466661823316032 0.20039727478837951469 0.30536422705056176508 0.25481072136844351572 0.088488176110645744288 -0.89239938206037883184;-0.11665905985153447733 0.2601593650396799573 -0.052920098785152761001 0.12177948206985565738 0.18951305093136444624 -0.22910429677016669325 0.010067613279486825606 0.28880092764491094304 -0.010831686754441849363 -0.14827742560855317056 -0.073023421805700108878 -0.09630803087345915503 -0.14581529214419897134 -0.12845139514711753637 0.063788376090901585669 0.20736409859217527774 -0.036866541301287428234 -0.018941059037154782396 0.2326385321428252051 0.19948539720286356802 -0.13156160228633415055 0.059118482491366329545 -0.057836635032383600097 -0.11407239026401372328 -0.27281105879397643532 -0.058828338546154629318 0.035781483891267278075 -0.24109277421987634904 -0.22214060241889957426 0.18409827279328977445 0.2897643826960229485 0.18135387621178250539 -0.106208692426745549 -0.29691377242287397831 0.07268539805450194291 0.24689682664906548171 -0.062567889416183949947 -0.36630709193962973647 0.33867726440163425927 -0.058366174051329128281 -0.11934698336613952518 -0.12554161433875030141 -0.18656520086877870224 -0.36924238161061384567 0.25278128321712983739 0.57781148500779277999 -0.21380244921264332514 0.004509001660815102619 -0.29804396408181671463 -0.015985052578083532027 -0.39391569372571888508 -0.13427815881863539027 0.022779717865031853113 0.11335416375232033881 0.2607673151448022808 0.0066187280644765811299 0.25326029473212635645 -0.096713503648246629263 -0.29018898611568660906 -0.027828510449353433681 -0.0519636025240023669 -0.097648018715210047058 0.25298803150264365103 0.13703654631713876877 -0.1629084473561186186 -0.34976007033095557475 0.04431056589018509545 0.14522658915649150346 0.098066729710282074528 0.047342697746966762307 0.049892263483205703811 -0.017558846262719057796 -0.20861549458458511497 -0.08542739477079097643 -0.097140713519707710955 -0.31271934690215952291 -0.14121727993301208537 -0.29311524155962592753 -0.22004133477517684447 -0.30547029454942636884;-0.32476988727037214844 0.3731986647068070706 -0.075511695805883516375 -0.29164666718998966122 -0.058628118577365676001 0.093683422897785681438 0.097812709821243973285 -0.52451206674354211579 0.10922369782918084358 0.20554802687942480555 0.27937157138714124871 0.23590948827015278955 0.2324439098918260338 -0.0097621375620890321612 0.29705135855754222218 -0.29165397371453377628 0.00042646199688007885992 -0.22101157628268458533 -0.19271591939840826413 -0.17367415678824513203 0.035135616090729869521 0.29524028717246669773 0.27344526518744066701 -0.51861895646247424541 -0.082421285136311597808 0.056819814064688854705 -0.38752102306849439683 -0.24596039394288193858 0.33156368178257439316 -0.20931025329333863283 -0.023690191673476697354 0.10800209044664171865 0.30640617476391313057 0.003210336708017032855 0.020728090310839261678 0.22437853829086010227 -0.25901903728885478095 0.22386619265039386928 0.24570784384344926399 0.33629180522068741199 -0.17099979954949925953 -0.19310611407785868709 -0.14187789058822272703 0.019778763606731888242 0.18040204126852288358 -0.28401977198078648401 0.31361850063624802099 0.085185375446784269982 0.32107061415391119352 0.15782171443161113755 -0.26918151273242052479 -0.21740412682182760906 -0.092291469383950164307 -0.10050522420745290619 0.10116220673414397235 -0.22396790940863806063 -0.16185114993838844999 0.15059655669623897567 0.3864932377619919035 0.098981695690278231892 0.19495581923396199109 -0.052854056690183837119 -0.31313782088664754433 0.78351873734715493658 -0.015604402542979957727 -0.24617068617834889088 0.17339733078503219432 0.25070888909702426783 -0.34555895948385068062 -0.18638427990097192199 -0.45309574364316551609 0.088275501064956019004 -0.17097735937225119751 -0.34463252384995896049 0.027917547362185872462 0.22013840445477056429 -0.063175642491124728295 -0.11060289581906476708 -0.35249323005131943942 0.37245968566544673806;-0.066380929764488325051 -0.22407226983916356255 -0.14351587456033465529 -0.40231252068020417756 -0.12078305856711170352 -0.030909623298141761932 -0.12411831439458621829 -0.18334667855709355089 -0.3167751941270692817 0.037197741357097961756 0.089588759364654463324 -0.20685771451059442594 -0.16947496764778727241 -0.12731439812306633019 0.033400325210757794703 0.44349882553158581633 0.088618557957034840844 0.0069795370580008914835 -0.10202180301191272893 0.12644376449060804046 -0.0074563007065875331822 0.12377167427429702773 -0.27515309704031859495 -0.32838132437788208895 -0.16392754073099838341 -0.13049470811509344959 -0.034702090600921602082 -0.42638805030647686234 0.050703097751146564143 0.11895307697926257862 -0.19903891482094449028 0.33546939510889750569 -0.094809132689631717139 0.26256123779809931174 -0.17997114330296243301 0.22271048250445735217 -0.14262206937971516618 -0.35500083523424463827 -0.034172259696128713669 0.21689057840985201397 -0.0075441768945990195228 -0.15206191143733877036 -0.026809780785709339673 0.20873382014457586564 0.4263787811258042959 -0.11867879042935861045 -0.16626170085695629597 -0.075075698359286097139 -0.11476704658746342269 0.16357781272725110955 0.21500396269791172132 -0.014636341030252545889 0.57872622955557406765 0.16424184597298718824 0.14035093502849863012 -0.038617943497607810921 -0.012955117320023185404 -0.014755756853725005701 -0.31759384881074365081 0.29622780470120091412 -0.37639805508301998893 -0.4593103947981098667 0.30923472556847791948 -0.14459731757377042305 0.22925087800635762791 0.36706838564326454977 -0.093887852999967727485 0.54354246598952071778 -0.23788302090702631575 0.24003357092857724453 -0.015503232655596426576 0.038160503617552854472 -0.010496519666126729459 0.069734094471134405735 0.048604129195822319554 -0.29508073171871396223 0.17408588426197574295 -0.22832868185525470595 0.59228699084556934995 -0.25450717743096706869;0.47706041547785960066 -0.068574263663375253919 0.088312846855864768347 0.153002050474377288 0.16714106656996075007 -0.20841686338671785994 0.29523248049402822657 -0.37898227191572697592 0.37317499527449404795 -0.25820313455984089668 0.26720516126979970695 0.070578966903725434689 -0.069177017002268414991 0.096708984913929374461 -0.15390379692012176593 0.24067290720534290083 -0.80864493083936261897 -0.23429467203957118904 -0.13244931583346350457 -0.20886707318710495684 -0.051856810556049855176 -0.11489879004331028656 -0.26946273124917963226 0.09643046631163713911 -0.47118444956955063407 -0.45845334498887357899 0.10559685137383359455 -0.17227749336744938025 -0.024724695097243221814 -0.13990688715824786681 -0.33883580963048925971 -0.046417753031261860253 0.011773773698587737535 -0.1803008087523603753 -0.3322856893246456389 0.15306974720153662672 0.13324642111979176362 0.045238161809129366631 0.35826940047073169149 -0.008716186827633089565 -0.32951327005548114446 -0.16321533644393965146 -0.016259919878139544869 -0.19823282834721506207 0.24678912572426059402 -0.3309191378617737378 -0.095556358937406285503 0.34772754290459340076 0.023962201628995635772 0.11449393619076780881 -0.04924079498348610251 0.1201129894296894679 -0.076865431616407686732 -0.42018573759074351326 -0.069901795218054799119 0.39272931568947860859 0.031355785061165625249 -0.17744799001722125209 -0.32480535007815786175 0.067061555169011452526 0.22744837940563109036 0.17800567060808564213 0.021891020210409475183 0.052334788899706691234 0.29150254238079326141 -0.09757686343383410732 0.0070999834257784808639 0.363836880061579937 0.24853972916255709369 0.082638863518825891874 0.31243925766731955873 0.22823021821354008698 0.31972800879713003663 0.28731589851404576441 0.2888697207519835275 -0.16410593872992454423 -0.27262367717588548155 0.55083099298224780238 0.15341916676445482848 0.0018112728667420731343;-0.32649478840662915502 0.24233765525441772204 0.014728242979217143899 -0.092186883621255252819 0.108244503688428792 0.093803845205828351173 0.263140876553041414 -0.20977930650592579997 0.017007274733203521511 0.30718345775865019132 0.11250427258041853507 -0.044848115479721811782 -0.024020981599108860022 0.12990740012772067358 -0.17993065095857435631 -0.29904398187796588093 0.19724785156506649542 -0.23532676300233704159 -0.082584260883952737009 0.025196230890952471537 -0.34567614573224725305 0.083834377188871767039 0.081959059117867688604 -0.457073998146817706 0.2943619387630155293 -0.054803783378992304565 -0.15074958928931983526 -0.18741092855654251093 0.042949954604340520592 0.39415438267847180409 0.25293886025862566402 0.2457579441658602204 0.21248869800685826759 -0.11960850217086395342 0.016635694116931883796 0.21196892872162520494 0.0054681110580688859629 0.095337905699901484557 -0.10530542633404026132 0.21811918405849095581 -0.27238211226773539897 -0.25256710905073265216 -0.077504833078879536989 -0.041314919190965547491 0.38081490916626425935 -0.2224835305401680341 -0.15503716536160741524 -0.54594423310131401372 0.080594331763674503799 -0.20715961968929991199 -0.22035093188509391471 -0.45387650259954115395 -0.020957442562576582279 -0.032757731345278803814 0.27251396037261910177 -0.08939904350696137314 0.11432639607041100716 -0.25840831574215317179 0.42436418251801089063 0.29162582955903632032 -0.049796713917273041639 -0.018151326973101886142 -0.19017194527036887508 0.18427632149798250927 -0.18949756864314218352 0.22584567738136354653 0.48792524596878067422 -0.050642611583439349487 0.063890911373782929839 -0.069715524278530546787 -0.081534889150633629851 0.15841282563535893924 -0.20427057368058842979 -0.10555327144079861001 0.31982580920620878873 -0.20252487952256956194 0.32310047383163753576 0.089794229788541707338 -0.094777758159485525624 0.29464024406310712623;-0.12405207574087773192 -0.19971101987380074361 -0.41926746828927652366 -0.00090284831811810167118 0.24793785453436006927 0.15885588494482222321 0.098030455178925002269 -0.15546038239384060708 -0.11104303440330055841 -0.21718684222816980744 -0.038117017355195598194 0.26893096040368236199 0.32123951664276051421 -0.097953756967127283972 0.12351187953898110083 0.21144402764075900802 0.085429275478470692584 0.16946917233873956543 -0.50202989863937874659 -0.27937321126264930138 -0.45932864345670637585 0.069485209966318239871 -0.40609550018933671112 -0.021477946335139393164 -0.47162733725006295016 -0.23789302399862383153 -0.23302174215981771854 -0.29007068573411110002 -0.30028756639794867977 -0.30248391730516105413 -0.27663478386799705833 0.2401269591948762272 0.22328365187431500893 -0.0082197884585761705339 0.099919507281695282841 0.27921153937137876966 -0.10854969615448305242 -0.41610733722188109063 -0.075257451281404152965 -0.40770335664355361605 0.59997857138147336897 0.22134254930651989235 0.25964987478867013193 -0.094920119094586988262 -0.0059909265618250245877 0.023487071508560823652 -0.30931633135479141838 -0.36794900940214653184 0.34901757191129884061 0.22265977708609627217 0.15609610383809741085 -0.2641357814730416198 -0.097591631367135958652 -0.24340604744494412359 0.015048019142551341543 -0.12209839303927044751 -0.33380619234437158838 -0.051857934262880475695 0.18527796590808459642 -0.049899228345615373459 0.59610419827004401672 0.63079974734297183936 0.10201375125254477649 -0.12303692557682134601 0.26346953648215182264 0.063055690218266402525 -0.21979971703970152541 -0.15398007082672393597 0.0010211840205423833999 0.18413402934165784552 0.27794646350387813838 0.020634606903688932494 -0.046717502046946551841 0.093799632136955218842 -0.18147036336965555181 -0.038811649830641510583 0.25727503275924668014 -0.039221033886461448281 0.34498590777256182838 0.38545900848999098409;0.13952210880886384281 0.070338353071670828287 -0.2499419017963215861 -0.14570207772894269715 -0.041984697095450246307 0.14948404519042632344 0.029977367679756387886 -0.017875157335899602429 -0.28447110878225950747 -0.0078462413048761038559 0.24143664668309322563 0.36413851954910281261 -0.014806976709546927629 0.25221248870571000289 0.26471763315570129294 0.30412028799196760831 -0.015690670053361398945 0.1795653966293122572 -0.13534553895035011939 -0.071223428576658046052 0.26476395545938752329 -0.1619871691710673689 -0.022467781346707429296 0.04323848598361620249 -0.27250352335706218287 -0.43583493770094489106 -0.65414507954700507053 -0.12120581932835429451 -0.20569130806495083963 0.295344903708585238 -0.1368617224134685284 -0.014450107672092191158 -0.55169309822848167091 -0.15583694519030483194 0.67837013567152371074 0.63368746951720600347 -0.031875498984677765046 0.24108305952408559669 -0.14523247759095464504 -0.38585949926617058026 0.48646667820717720554 0.16409458119958833522 0.074571036480069324837 0.095097454189772750999 -0.097299328202477414207 -0.41615297365593173495 -0.12755414411089346927 0.14820871392040838033 0.50096053072292845432 -0.095291901806258377805 0.13572034644383382251 -0.35716016896061514307 -0.046638297400123249203 -0.35778380079264393565 -0.40124261474637118452 0.19410821408079464989 -0.73950991322423065277 -0.33805717345620434067 -0.026648433302801657896 -0.26701944561932106081 0.095752917113150523565 0.44647912637383518897 0.096960190033364312967 -0.076368307492665030156 0.017623596736561282505 -0.069889315432821799701 0.14147095327539457865 0.12414412770649964346 -0.09434744417813170636 -0.20500809191224439454 -0.082381447016331252331 0.26118273037822115068 0.053688757020963789879 0.099944132893212189739 -0.43726082231821944424 -0.098329823304248900606 -0.032620105323120145158 0.11645556972317758215 0.17905234733192793017 0.073381450986801252667;-0.15504069134718026501 0.13543282863152458773 0.088454589983295334177 -0.07809098502822722776 -0.12131109621041534508 -0.27619132082866248989 0.03981529162838717828 0.25205378517609872135 0.16674860126511384384 -0.6087293303595654459 -0.45473182689513441668 -0.38530565860184362581 -0.51745274428504095532 0.0039765646995035073413 -0.55307181283871198474 -0.014710688292527574622 -0.4657943893763749621 -0.20728490567808446898 -0.0070005449080044693938 -0.27474154132887113056 -0.11335160177255586278 0.2494079907185668965 -0.51389341315445202785 -0.21882873850219697331 0.34779216080867753069 0.61379295959427504492 -0.091973396850898225807 -0.0066005311436146650583 -0.22007010612842994868 0.19566039269829813008 0.51664326103421454039 0.090812663513457958508 0.31805954218697274349 0.83848280193845137198 -0.36390477369220552983 -0.68335331977346247534 0.18537850494377444699 0.29950075169998990887 0.58327281431990973815 0.44025940538987573536 -0.21225070376523683113 -0.55957603665534727533 -0.19610697952909547648 0.14346035114924182707 0.19849518326890697173 0.16059051292157552893 -0.0085068965486319331887 -0.048973540703406440167 -0.68170426714696574777 -0.56953144015139645084 0.10702939023588416145 0.21064470018726491607 0.4874021487501440375 -0.090241351959328933163 -0.1668412019295416604 -0.063837561611569254572 0.52313898414081450028 0.0097465547515328716799 -0.28918849842342975176 -0.061530426911110928934 -0.42468701945877507242 -0.62188161000135100398 -0.14327160329007757045 0.1006555633153679713 0.39751365191617155093 0.43591583948322287778 0.58621127144275309018 0.45778817313234992925 -0.15764412994933102441 0.17180203304211941195 -0.091451971620967645316 -0.21846417370028378691 0.052517551703332339408 0.51201320551671292147 0.47594309559812436605 0.50027867497150579901 -0.085510773171423748451 0.074187214014261204653 0.25005302184565103563 -0.10192048262352461363;0.10883809976524574936 -0.021408349579436498911 -0.36645120474392522958 -0.027049905433901053065 0.011801815293640017038 0.38430121383539223023 -0.098587183445816614635 -0.35225608801802649195 0.14373800593408961324 0.35226306895245351747 -0.078468079573955878958 0.32016597210398700657 0.10059869291093458121 0.21706841236314183829 0.18213822137946455992 -0.26076277191855612436 0.028254162794860610691 0.058190767176057554833 0.0083420604331730027758 -0.014538698072939157391 -0.55436403893111696473 0.044541032571804022033 -0.31594659864388680015 0.13294613775612904027 -0.0082675039387493740733 -0.37863142328262205938 -0.18843169879403770528 -0.36583301974384091482 -0.021916032802047989009 -0.17876209617644711614 0.45506912937071225533 0.086921997688108917912 -0.15807396482316332653 0.088442443660091352164 0.54465445886353269778 0.33724533858996563751 0.32721091094463217175 -0.4041959814136344975 0.21073195804589719971 -0.86638415481508346261 0.3501078041784706496 -0.032389636211565105139 -0.25860396415865199993 0.24137624738301077798 -0.23246005781736786555 -0.15497052596475913155 0.15244518782966948178 0.29646524450514710747 0.08141762212420269873 0.16228056940961191335 0.05494461902503479378 0.020500199052909087033 -0.11402698985136122678 -0.37775166089850614748 -0.082132529186474900751 0.28055219588319091351 -0.45663195234340819839 0.20371762872299356562 0.25150678696375156074 0.14609675573476710309 0.20218247353801047095 -0.18704032183778357412 -0.1591924198841077609 -0.026445662503615158245 -0.31412724693319310498 -0.10435807124848811567 0.066396251401179537388 -0.081134314880371344314 0.22841941329937442973 -0.22577193897796715705 0.053071635776064975121 0.61122044061719038588 -0.0566601665804921939 -0.11159763179224416185 0.089077072142921417952 -0.34716231295204430518 0.27523782938529978148 -0.14859186425883960658 -0.28910406254514042779 0.32567613210433210558;-0.076629623987440914634 -0.1057299601432844377 0.15004420138794985484 0.10997329041123975191 0.1850265856166256051 -0.38028719419173262484 0.13641593808350691019 -0.049231777607893531523 -0.30010982875657055136 -0.32435913081779660372 -0.19645624190741720061 0.19122960682545131483 -0.16353621743598656391 -0.078150109425358410542 -0.10400070309678234592 0.20310368366784339877 0.18176104313442725813 -0.48484294620026735512 0.25029076895847673923 0.24158795975114652488 0.03694833095901592368 -0.14988157025638149111 0.18285695179951702571 -0.24308062075379516243 -0.18277301363206557849 0.15373144926136347865 0.054936891560906163379 -0.0029948193744716604045 -0.047858797602604072341 -0.22978379812351254485 0.050384362705923974035 0.096435319256024248924 -0.15165366425474985368 0.090030465029872774885 -0.1515073827941147977 -0.18058725714752080216 0.11457456105466394536 0.25659966549513446576 0.29044856648032008062 0.33242151337749392681 -0.16467258695136921531 -0.16569359459189017536 -0.35064128788326948127 -0.35175439331532404319 0.56011634130337117909 0.0093254806454237462732 0.17962518453636450166 -0.38020341432477011701 -0.25632797842765719931 -0.069389211693049429597 0.094971644597161591905 -0.41712631025866103718 0.1806809782946234566 -0.21652573387856619003 0.078244884148335330787 -0.32127818539766994643 -0.2720652271284114132 0.14151741795743563723 0.31876566911522219439 -0.010904261114540823169 0.053198803615798782862 -0.074608303938204931227 -0.019269509685562197926 0.35261409553052441845 -0.24186869775542457761 0.14369508882123072091 0.026296527883662518255 -0.020061887441166884744 -0.17128381337875908663 0.12570136432002937399 -0.25554815649779377695 -0.30714426554265439329 0.0081975759952271944064 -0.2283728686335271818 -0.25303473937503662139 0.058467276130370789133 0.021339249278249716041 0.40121032365814146559 0.1431344075252395931 0.33996775160571962582;-0.040695571332829943989 0.057354979823834542629 0.014120653884536111394 -0.026653371473791129947 -0.16493149735249632015 -0.26978764580697134345 -0.10130332569812643129 0.30528619363169584577 -0.019249721468521774348 -0.31552453597269347618 -0.066199621041103384744 -0.067732197195388893496 0.056592526346998184295 -0.25283947532252409873 0.23261267768290899705 -0.15506225061210723859 -0.1946016855916378463 -0.29227466960460762868 0.099718619335381966651 0.063269517180978951387 0.032599330625650367599 0.17382183809199161506 0.30675583175401666125 0.037525097502001114602 0.051345326028688235975 -0.10093470829755885054 0.12757922405681867972 -0.16677475817608700126 0.16306802292526562104 0.13567034841891403851 0.039986871470110450788 0.097780431843100035216 0.25545505052838984872 -0.11365534284797723652 -0.14672034645233872352 0.25351767030337202247 -0.32246480684101713754 -0.41492188684309982971 -0.1446215274191193223 -0.075417440933279483728 0.15344053197363582974 0.25937635382499296677 0.16271555784518956789 0.21749237231710058516 -0.0084711766993773775919 -0.26389204725219700398 0.067352387138116365239 -0.17020729183056168554 -0.25203985568467579537 0.058287612548340694829 0.3541605699377618488 0.0063075914254113940247 -0.1383786506253360804 0.082505071346308828106 0.32256661064842090392 0.23896599416045793962 -0.15349348838010457019 0.058759399180102464544 0.18842746055795675519 0.56121349801699826898 0.23075423593199992367 0.068337686932116101235 0.063831936743314082738 -0.215892657919220049 -0.021625210567779346721 -0.4024092649515161324 -0.041350955557220125947 0.2318627898193307002 0.078827711985554313467 -0.39276492272272822692 -0.31102395040210967236 0.11350600175452371654 -0.26732698091924050887 0.044598739638151460585 -0.25624461044566515522 0.032607755819707630318 -0.039951662533521468956 0.073086431599502427181 0.032913912612248408252 0.13856530493897573075;-0.23790278659168875852 -0.32911594037400404567 -0.34142431544219425943 -0.47153856307593577935 0.072897340605872246178 0.15289079263900509642 0.0035905624590032345599 -0.25701371428819203002 -0.24843751899319016507 -0.34993201318256234034 0.12005697269594541032 -0.2993180892554859196 0.18551484542510632281 0.23105547525286374011 -0.052232922658675115524 -0.10872724493229368736 -0.21611773727048677607 -0.1220229006132167171 -0.22436645024629042755 -0.331819085263426794 0.26451962800098138828 0.069008600453659654783 0.13930612724223084831 0.12568690688828029756 -0.22185492182901025982 -0.073949324143982572699 -0.22751144139484485995 -0.18359771969406638026 -0.22887140628690652577 -0.16398184098282497789 -0.32658463625593464608 -0.10583694923320925707 -0.1139147525014389678 0.23044199456283678829 0.23666272661573908853 0.16281343680298276944 -0.087608419850898622272 -0.0055647963324122282774 -0.43847275302082638904 -0.26124027052365911272 0.45394446843821173454 0.42372780857808378663 -0.091723492776769083301 -0.022555800412534098009 0.20005292739309638028 0.28899871325132825417 -0.081894064158469045966 0.12556404267371909511 0.013237652170463007351 0.54626225490403779173 0.19128634423591484026 0.17875525817200577094 -0.15563323965632680501 -0.2656456892288849847 0.33079689044173632428 -0.014426792710598651884 0.18587164126804006647 0.30022453798996762142 0.0090219744170629313784 0.064575726919151449357 -0.30800536894106839148 0.73711315306699265459 -0.15855583681499033077 0.04996408243183188963 0.02781516408867650697 -0.04070077064583167703 -0.1496371753464096066 0.19542262643646604592 -0.13901480244809294451 -0.010784928784601952034 -0.080287372578005319901 0.067907561351822090523 0.45484831214513959941 -0.19382785395463750233 -0.087908485993456575436 -0.2875327227948042963 -0.20479395810374376175 0.20748499718054186358 0.14464329509261880657 -0.084630782701751672281;0.046713793393292138423 -0.29604226296097169158 0.14738670673691128821 0.27240218948087624451 0.13791170184065587589 -0.1917240645691183909 0.11615294930579680988 0.41666739111356881908 0.19134917025351444453 -0.0986966870971652116 0.023067163319913978892 -0.18792420958949321297 -0.059909138224662115968 -0.079581423224296218843 0.38478011039458664966 -0.327415708477482581 -0.060957121770277511441 -0.37372324801766626523 -0.4204783956144635404 0.075408822283042367673 0.073870530468336040308 -0.072866908209385447548 -0.11883555475494995968 0.10691134151706385702 0.098429781141435357394 -0.48393796406582023639 0.093683139281861810277 -0.30840817667570191718 0.28169332265952595762 0.078542205034447420964 0.081570672399928212393 -0.0050701883775072786875 -0.031465407057808134073 -0.045672991228093436089 0.063841911890739247437 -0.17340421457220547841 0.68535384146863564947 -0.074553587472260943181 -0.1697164905827938941 -0.38778125008858232992 -0.23669891464159686922 0.13856377714290515901 0.0013229019261273879116 0.26511304288601605927 -0.22030641618044966012 0.29055840203724170312 0.34945788450854764484 0.41911827076898128253 -0.24833117796745507455 0.16314320760781569897 -0.028794811267078564143 0.0072564357426199189993 0.067550377188628121794 0.22325081927822632011 0.10619436072397267501 0.46951025678250807305 0.095636866400616152295 0.24492371670581819521 0.33442233029542217659 0.1491842313186691471 -0.11162715152359381499 -0.025026202571090241933 -0.24055171829008295536 -0.4703840208586129723 -0.059087212070149254528 0.13021562249113102783 -0.37245886215884932424 -0.3313822740649732812 0.15281050277204680232 0.0051265591061882085505 -0.15652463336883720713 0.2647197462465059048 0.15036776150460257062 0.11469447094395682218 0.033015441712631585225 -0.064229603138206164958 -0.026464236758141045092 -0.16080595505749381569 -0.116663457421044503 -0.36907876791052279808;-0.21160000952175472833 -0.12756537770963349843 -0.18043933040086981845 0.089639202117176242091 0.049115458381095516982 0.036707021468370008843 -0.27114548105568236913 -0.11287213485373433219 0.14068840443437069521 0.33441816522655665178 0.1077766991446399425 0.27904185110879231591 -0.069281608306935346664 0.43108630619405596818 0.019715205710662490196 -0.5214879542253115785 0.024081382455662013464 0.26140420709928929854 0.29115740247694432696 -0.1697578152797050155 -0.36762104281738905431 0.088269883293550815972 0.039144358731191153389 0.1183878274086335447 0.078278544569212071824 0.093510910302369507074 0.049844407182197965345 0.023078856430492837581 0.12091728999674694611 -0.077334700820718624281 -0.21934418295642896246 0.084967835558921067651 -0.069799241287355456853 -0.0083391813621476375967 0.16772522898851197071 0.17541802443243764698 0.21359149926571377454 0.20950429629909619877 -0.1081238147347014511 -0.44485082334454889574 0.15756077016625694154 0.14375211936858189876 -0.17118476009277705518 -0.32363400385435392437 0.25553885773987111696 0.14197657297282473277 -0.29280320697422773657 0.16784138994129862987 0.040272298152061278276 0.14042184658150838605 -0.070571097482833675119 -0.60850553642861004988 0.060603869989653821881 0.30296988727017376553 0.12010799649261739985 0.34906348102864592775 0.070550229015352058926 -0.027162938448812946196 -0.29653117967931152954 0.55919934893244627183 0.46058650614363366715 -0.16586101163196750874 0.07458925651658565581 -0.22135871538059309627 -0.11031350328864894528 -0.20123209204333969424 -0.29625253477143537184 0.23415831111887164262 0.076740519412319990744 0.048861152329767232327 0.15664533183495235602 0.26244623571696834574 -0.32823425791573107579 0.011042683112666823106 -0.50789609540712099545 0.35832348384283813081 0.34119275818298727687 -0.47163074775207169953 0.056612456473394232037 -0.099843742911379276816;0.11912887450850435933 -0.21593326276143257059 -0.16569781681902931436 0.19776723162824710878 -0.03474227235213336179 0.35762883605621509364 -0.00030954334193356893012 0.038897787362255326071 0.037611781614098831195 0.23354002240212226593 -0.53830062811383205812 -0.20399063677452425325 0.03792129379037009751 0.08164487499733019682 -0.17290033804886054125 -0.5081227673748495155 0.31281697957573773028 -0.16783605981748161984 0.027941398819493604155 0.10495226698410360655 -0.23274023526031897835 -0.092636433722656813528 -0.019594644102060233132 0.052991553934970306305 0.033380140420328031914 0.12946733356051923214 0.01875715215789052967 -0.027778233996383468185 0.38800979099707788578 -0.15011819325488387489 0.050468170194606212786 -0.10446570545102831784 -0.03531868396472785665 -0.33428187726998165319 -0.2805230648474046351 -0.13860363352127555436 0.3624445004448024199 0.13448601752348210425 0.054902725506458187332 -0.54215569475781122399 -0.3996188915518652518 0.25223950084892809986 -0.2596783581795394924 0.059463473320200244121 -0.09889597677265062059 -0.30531584897242342036 -0.11711620289591685717 0.19901760113974892308 -0.15472097365189005358 -0.24012349066491797678 0.13914901106171903566 0.025805930873126662478 -0.35092798512699813207 -0.0127789026952499149 -0.1157832199495085479 0.54112350973789691277 0.20092499311225550662 0.018627203008728131228 0.28679212429338907242 -0.12583434280995739463 0.2769176465189352454 0.058342575094921883538 0.24025349118881245136 -0.43273201423319163084 0.049261871276448786217 -0.014913189189111957303 0.057732231520797983038 -0.11530728773777519647 -0.26843205959066479549 0.087419488959608757095 -0.11606361306796850186 -0.061249082270764892977 0.11155334462137636575 0.15588150707958969843 0.39983815882342688131 0.10295637573936436415 0.12574327460078063567 0.066300089330748421257 0.10441085162990665358 -0.25446678524422372547;-0.19512423965897768285 -0.16476061105538747364 -0.14147332769819193077 -0.39088147716717369651 0.34798655346955681411 0.054902253192695052442 -0.019538056081565797345 0.11450190649846864188 0.26627319905759200269 -0.10809487836453054999 0.51004494733762872904 0.43687943442594429078 -0.0013655953045061744455 0.061476232316414101964 0.0068514243776555024124 0.83392459690079390189 -0.048662856683313798767 -0.073861727306030466877 -0.12217539366858624905 -0.20090331962431862145 -0.20511954748784702596 0.10228199864833176225 0.12928785269053455487 -0.20005854068886275154 0.32604030035546777144 0.2588887053495693702 0.055124664252241092899 -0.29155268369300796349 0.2095057779263099218 0.053252533313556546513 0.12291044857573373006 0.51102278921384347576 0.12774770424963816096 -0.25388002598136205634 0.35887389232937177974 0.69960998382263772655 -0.57369583595365924999 -0.32226249581856220017 0.22873635399173636307 0.024248244938827528266 0.15225935206748589246 0.018401675820186053772 -0.054304133077446740951 -0.69748937354395446064 0.23436749744295179432 0.10501086382335553249 -0.22110807782959138179 -0.24909637305707765798 -0.0079652230741473518949 -0.21712903464811314502 -0.27764708801893944745 -0.39022632371314852628 -0.037632241245579990674 -0.087526359980929432925 -0.033323138478714028898 -0.28703999472136110249 -0.26661877503111902632 0.2643696022322487571 -0.0078069876223598143328 0.37994873235986020843 -0.13435487162226769642 0.11252949625758622287 0.1369447097066964214 0.19688559023338914056 -0.25944674955166258101 -0.13436826886846692242 -0.067893737242555124434 0.45264356707002539881 -0.11295341041424709905 0.27716544351632016463 0.20838740828744728439 -0.65894254219591108512 0.070997743487607678503 0.095941613087508439972 -0.4861168277107047464 0.013593043001770107464 -0.059409998715853874762 0.015268443689774155794 -0.1994482809576450244 -0.30625078577103292954;-0.55219292566119670962 -0.089436325917813724873 0.077004569063167702114 -0.060743246423874734663 0.40794065995984690742 -0.0059940621474354003478 0.44359607113067556217 0.21550940849301436497 0.072142405147792715292 0.20163670868127500646 0.04329164629583248658 -0.405103311060779403 0.87138423496239147958 0.0049170331627340895658 0.034036573898221685053 -0.29294835141374858667 -0.43724905785783058088 0.42645489753523313503 -0.088709194809078587007 -0.45234845235367182603 0.12938460709260357628 -0.005442408594612885113 0.019097603231805627966 0.55222401635424467337 0.13497968269764490379 -0.1822103998268066738 0.068986078606375497713 -0.11943088457055162088 0.14835737848792820981 -0.29386192530997429229 -0.15856826781451555108 0.076223443210983829466 0.43070242773810712977 -0.15360668540722147157 -0.094522144681164418922 0.30329244026412160995 -0.12953059623490864594 0.15655612947103531019 -0.20170883845180404004 -0.28766884059043035249 0.015773529373167075041 -0.14525867805404157895 0.12262935634392449491 0.25628448662441460915 -0.19013050626799263276 -0.38838925577738159234 -0.094902721492160835304 0.53182481062006037309 0.19061979092714523287 0.043180637766195455185 0.015751183325014971731 0.028101752639629159342 -0.021947221340755308783 -0.16585290594651755369 0.26886417077784718899 0.027502488572082730428 0.12594374180572279198 -0.22503903766152921762 -0.22445205262675918534 0.32140842850011064336 -0.2857962705961711869 0.34771848065816629569 -0.14011400563179485235 -0.45039454575481763232 -0.16842977482765053576 -0.065970232360641742342 0.20830943455745981607 -0.11308525882960958342 -0.89126123761653430755 0.23359732244272976565 -0.2350252336011474652 0.024110661340921799717 0.18575808093402543242 0.011149209261560561607 0.079284834490267630525 -0.10066403421762348813 -0.48468843615927453827 0.074541592791161889742 0.029739060698719808895 -0.13226966512432442036;-0.56585672640725959148 -0.17999791225034553199 0.067703814043753682284 0.25321250939180794948 -0.20270897245819266552 0.01357996612740353104 -0.022982998257582289842 0.22368968362834254493 -0.11648688719071023656 -0.24833789783945381391 -0.00018460980285971324844 -0.46658901090901100384 0.23300033178895940278 -0.17608619853076454276 0.42608986410811178214 -0.18881911345733684571 0.17777865406192397413 0.22383955889742937484 0.57769406085653307592 -0.049928369822031880287 0.068916823560919757141 0.0036410447682583306148 0.6169471939234978386 0.40693996676293148207 0.040160969956375032475 0.13374688110621785198 0.14121635543395769097 0.63329200637758531478 0.097619200539715955678 0.1332519729058600777 -0.051063814559082439104 0.097762963162535493344 -0.092298621706762604133 0.12783887226151890992 -0.36493742107361881732 -0.22781934322088309708 0.71787164755255727933 0.093502744336200260822 -0.25066069786074834935 -0.00030925405525689814157 0.23719142955375493997 -0.11916209927980007943 -0.16352288034496045843 0.25385999285589189167 0.052911050247857048523 0.19334923052057026438 0.16878964437753415928 0.27936244758458411708 -0.13046838552317693849 0.27415157169930715053 -0.18387233738333172428 0.37844772915390711976 -0.10154244921438106142 -0.44625620176994518218 -0.31109590510217871584 -0.33993428851707913063 -0.28684591039658169365 -0.084393617579656618477 -0.0076751276600649353393 0.20881567032181827526 0.037507036240786828518 -0.1063801280272503591 -0.17304056748553500733 -0.56937577370529601772 0.0091289921556554076698 -0.16513684791431368359 0.246918091568015724 -0.32320447635364002448 -0.062703258825805407994 -0.28569202023028039683 0.12806579981796659129 0.14895416052827109565 0.13035187475302470461 0.26101173059168786272 0.20734769019642701471 0.14316563490689321325 -0.31048207953872847265 0.01678425207289311466 0.14409213812041651859 -0.25732387313080851143;0.37228355022728965018 -0.13770868602803326697 0.22484001392467103941 -0.029747078402899335137 -0.12772300751056664403 0.085178903372470859967 0.02110728498740409298 -0.42063483811878438212 -0.11671296618752041718 0.11219726206872542018 -0.10138136372231516813 0.26940672792144698677 -0.033258300158695588977 -0.27203278588501744739 0.13275276433280072674 -0.15681080919195566903 0.075462824480232906788 0.27370470514591710431 0.064666420386948558763 0.34692101124394542078 0.2031847987278682377 0.1549697326763676275 0.19171526016095849498 -0.51171730811534998917 -0.28596118456018243537 -0.12320398531814355514 0.05506562377047584389 0.15680412337522869892 -0.20243329808559798466 -0.13483861415436229625 -0.00482248437026198528 -0.24044239833891731251 -0.12119181876491173788 0.26168147805077346391 0.13662652595965812941 0.097217259614589254801 -0.38480900666922535081 0.011534258756523439737 0.42679272695275344285 0.049386631150100404608 -0.19491379360648708463 -0.2185157480544984987 0.065449456794793650638 0.10079563120482742944 -0.05696605968325032382 0.27540235069601498585 0.23164791534642795168 -0.21565227531462824451 0.13336530595495199591 -0.29870058352105660626 0.019244478242736465234 0.067047854832470457631 