function [Y,Xf,Af] = C100NeuronsRawData(X,~,~)
%MYNEURALNETWORKFUNCTION neural network simulation function.
%
% Auto-generated by MATLAB, 03-Nov-2021 11:50:03.
%
% [Y] = myNeuralNetworkFunction(X,~,~) takes these arguments:
%
%   X = 1xTS cell, 1 inputs over TS timesteps
%   Each X{1,ts} = Qx80 matrix, input #1 at timestep ts.
%
% and returns:
%   Y = 1xTS cell of 1 outputs over TS timesteps.
%   Each Y{1,ts} = Qx3 matrix, output #1 at timestep ts.
%
% where Q is number of samples (or series) and TS is the number of timesteps.

%#ok<*RPMT0>

% ===== NEURAL NETWORK CONSTANTS =====

% Input 1
x1_step1.xoffset = [2.54239246527421;2.18534005345584;1.94171669714478;1.79080860026881;2.3684689614102;2.0263765660194;2.19043609524311;2.19881990653873;2.54222807615797;2.18534005345584;1.94171669714478;1.79080860026881;2.36879773896463;2.02621217785431;2.19043609524311;2.19914868346785;2.55702309794295;2.18895659921135;1.94188108517025;1.79228809036438;2.35531786025424;2.02703411868252;2.19997062579581;2.19881990653873;2.54239246527421;2.19306631046934;1.94188108517025;1.79212370257498;2.34890669916161;2.02703411868252;2.19947746039815;2.19997062579581;2.53680323550712;2.16544905432766;1.94220986122199;1.79311002931517;2.34989303160671;2.027198506849;2.19224436820308;2.19964184886375;2.50376103199376;2.1103789548763;1.91212685689683;1.76384900652622;2.32359083687655;2.00385538996636;2.16709293839144;2.19980623732963;2.50326786487723;2.10955701333717;1.9109761410607;1.76269829230851;2.32276889341829;2.00319783745827;2.16594221954374;2.19997062579581;2.55521481735877;2.18172350784198;1.94171669714478;1.78801400792162;2.35334519525242;2.02654095418477;2.19750479883399;2.19964184886375;2.55603676307388;2.19766918729605;1.94237424924826;1.79311002931517;2.37142795944498;2.02686973051633;2.19783357575841;2.19914868346785;2.5558723739302;2.19602530268865;1.94220986122199;1.79294564152451;2.37192112579394;2.027198506849;2.19783357575841;2.19849112961078];
x1_step1.gain = [4.02721507119915;4.37006961295944;3.93476833777657;4.63126304298865;3.85373523601823;4.1466578563831;3.70020284638895;3.41078281545084;4.04327581199036;4.39215666807699;3.94881656071461;4.64186496620811;3.87090113591389;4.16083935960429;3.71375674780569;3.42615107094069;3.98761519965054;4.4064735831773;3.69235247239233;4.50771659124122;3.77247853320199;4.13538204273644;3.78539716383124;3.43485675110646;4.1060470846511;4.44024570409277;3.91829421353937;4.4696277955738;3.68227700658214;4.08264883683485;3.77131630781372;3.45534300037518;4.0757849613214;4.21854210567248;3.9526652995246;4.62070933054521;3.84885951126218;4.10191964670767;3.73198375460098;3.46321174248359;4.02455271531341;4.09501250596066;3.96296672217345;4.59974712172047;3.90444462795414;4.22147737126674;3.76082564689032;3.63606242915998;4.03122034566313;4.10053330543245;3.95909793502167;4.60148687133633;3.91827688364211;4.22734465521904;3.76082569789336;3.64368522018273;4.51771967692391;4.78422225571619;4.16654302063693;4.89197016942136;4.02189954727245;4.46961665988049;4.00601547622607;3.65134006124516;3.52439416657097;3.91702129338425;3.54495914353897;3.95395612443996;3.29976533733616;3.75039781460611;3.20164724962464;3.00179032339964;3.47804690049201;3.8476494912472;3.48205469330991;3.93477453304761;3.29887058278536;3.70358903802357;3.35991764076667;2.95297461967765];
x1_step1.ymin = -1;

% Layer 1
b1 = [-8.6719561278508319191;-2.7252897502376316474;-0.69005411202743360821;0.61927654359621076008;3.3987823482519665674;-0.30529121168336437186;5.4942999967761014801;0.70442156643636200108;-1.6654406367895935315;2.462505791474419059;-11.246522972941740193;-9.8022271087565204795;-12.395285846992749157;-0.48752649169931394635;-1.8160239797646140492;-4.2110609412130095563;-15.62993530684052601;-1.6849931510715481231;4.9746766179006955966;3.8590112779704468515;-1.2561683502519933597;-2.9505361773518248292;-3.6294689815131562227;-6.5510131032426830444;-0.97665360952444579823;-0.9146077362430538038;1.3468829011887761826;2.3725534763184841225;-5.8526781605006670262;-6.2161027410871430021;-2.3980906206134853242;1.7459401031570680463;-0.7493642389463102127;2.049358496622308401;2.6975682986559039733;-0.19486408003198563144;3.1640895164012734497;3.0915739209752821637;-4.5191795229179749782;0.13826174155090506512;-2.7196183763339742967;-2.1356980731317896094;-2.0267386967514102736;0.096571210021891618069;-0.92945867759816036546;-0.10398931834538469032;1.5718379034546001716;-0.91539887399236130605;1.5437126804564775817;-0.4890402349223830214;-1.7669933248920270952;-1.125447253402701131;1.1380309399122923164;0.3980044713848110427;-0.85591590026392028179;-0.68952982871578105684;2.7590505773893347907;-1.9311829173472985222;-1.1776600014617262246;0.50679225102224312316;2.6232089538645850801;-2.377762755289175356;1.5506704550847909552;-1.4465934768411119471;-7.3858792310748393461;-1.3470466731401466998;0.043925293883616725599;3.5704118873540262591;-1.380841937578799028;2.6742630501790376485;1.8426640409380827812;-0.27559769783755511119;0.098461057590605471912;2.8812803088499330251;-2.7604842248969894136;1.0868418466867755257;-0.38377936929828443402;0.18349517718650351639;-0.1709606488219539977;-2.143062579035396098;0.53632445953208196521;-1.8704848287214654867;-1.9110294455743677133;4.0461024471922408807;4.5555738254851085856;1.1139543030380041344;0.52689658293197561001;4.4172084675029665846;0.73950709041247564279;-0.80828134883616531425;-4.445249601614493784;1.7913754497720064673;2.2522679114520949284;-0.40849039114708995957;-0.72356490468108169978;6.5432961415662385107;-0.3497270588385491541;-4.0193811115892819075;-3.0069985983256635187;-1.295968487850389872];
IW1_1 = [-1.4959920491361409223 -2.1028844575629439539 -2.4983033733963466716 -5.0448530095651662464 -1.292192666549100144 1.4192209440446308388 10.246037016980158896 -1.9952954539362153241 4.589752234917339635 2.1909171591503247001 2.5624188308558362159 3.991342954860736203 1.8377624397351193242 -1.270346629378223291 -10.524833604883314209 2.8584623731814815528 12.402252199055537218 -0.51351757314834678425 3.3135750643400254667 5.4383116669780360297 -0.86368001222608092871 -0.0002789347858774965383 0.44823864985608807832 -0.76687138802395293791 0.86085060171705174437 1.1085693738939106368 -2.2934672872097010554 -2.9800562380202157975 0.072399772880208157488 -1.1968835079658153298 -0.4203729061581766846 0.6544627360761151591 -20.522907832816681406 -1.0978222538375541628 -2.196750134333311788 -2.3011610525599279775 0.31791601334296215597 1.3720908754592193723 -0.16683318964249310712 -1.6280344357103915254 9.638356677472691203 0.53027069081042121912 0.6622024253287812634 0.39481373633110894428 0.058806538165852004219 2.2938307719974635468 -5.4608811490154245405 4.1493250566726969097 12.098154988994849646 0.073186139086513085639 3.1336856860794322088 2.9502668066396271485 -0.34950108186576811509 -2.7281080564711541747 5.837555863392099198 -3.4738872551202395478 -0.69212643217690605901 -0.18074999333277558256 -1.5268590951030547309 -0.89162222949672687022 0.48030964095611056175 0.28764658660047409677 0.077039179473403829324 -0.042665988297858808975 -17.463275528880270571 1.3828757579036097258 5.6958399877838594705 1.6942815872539973565 -2.2611497286102584248 -3.4048775117303180515 1.0171694437918707976 7.302857345220494345 -1.3016157035880215886 -1.3767022830875441652 -6.7788498147251878834 -3.4026190945771994656 1.9535669785908300611 3.2002432179597768425 -0.99355730658677521294 -7.1958970678718650049;41.147077258554816126 -5.8843609034551791481 -2.1805586390561950694 -14.621440375885280005 -22.771333901991447135 2.6251631796430126009 10.411625931758718977 -6.8478433262480580268 -36.876914417697186366 14.054509999770859352 4.3068857982376469451 17.507448736093596864 23.850399811128305316 -2.9738508022483656212 -5.006687772816435178 5.988349544759304699 -9.9371907505457279797 -12.545606881035135771 -7.1615880010224390873 -13.570104640970763299 4.8823191807332095848 -5.292319355124881497 -4.5620792823831175511 5.2550039333841054301 7.7347665174352124851 3.4302701435396545371 8.0164612055346911035 7.8414567373382872972 -8.5041626115917203776 16.299046649167305389 6.2354502633229724751 7.0242185449735110581 -5.4632746858877441198 10.09636175462992469 -1.1955342023556474462 4.2838898391702420199 8.8841261056603535451 -16.264543399939075385 -6.119829325044655377 12.490589020126883213 -10.809585602448667174 13.209203832234219789 -29.459434122062052808 -14.293744078121777719 5.28570086363139513 7.8358479457318654937 31.134715535738344272 -5.1465030502078938923 9.3293842866572553874 -23.120618578989319047 32.904038708215558984 11.938356245678228618 -1.2011385393164615287 -1.0424111474756398987 -11.913637869089669152 -6.6976853510521934254 12.129257100599595276 1.4265851376490332747 -0.15292704241284435507 2.7218058570806955565 -11.072272819852976511 -4.686730143763216283 -25.195445353128125276 -7.1324850851572181298 -9.9724990049431401218 10.140320621990353445 -11.500877226208521265 8.4824190312126042102 0.42381680635511059796 20.945732206036968392 3.0727579946401331057 -23.14656885226975902 4.5143073702003224668 -11.564412641793730074 10.473769801282802661 -6.4021070013711209867 1.8405074610169684934 -15.424886694891805305 7.3594345347885488096 12.99292737358851646;-20.709263545433323372 13.12011366648440891 5.5436052588579531886 -3.530917993855200443 -14.048640155772879723 -5.6208854139204760259 8.8220050922803281424 -3.5985139666054566376 16.937215747018353085 -9.2698934825116587888 -1.0301925259484141506 -1.373032908355618531 8.5849746713180117297 7.058074243896762745 -7.4353867136358759993 4.7749550171127639331 6.8526682488233818802 1.0469999424676170729 4.4572744784753055569 20.811714125322396285 1.5222012294095859097 3.9557853744368016713 -6.1587831048706123127 -13.080410541831660964 28.515007348987346347 1.1166100204476836488 5.7975638747102493653 0.013031226914923976778 0.49307369543118484412 17.198289553227883886 20.946729411030474921 -21.431561878437527469 -47.171996764750758757 7.4805951554909482226 -6.1506989798422688764 -14.005082646675569791 -1.2508807806767967552 -37.097914970884026786 -11.793922937400063589 17.59798715498007482 7.126249626454276509 18.959573725350416851 25.697228631911229968 14.270776717692321256 20.994221219665842426 12.004960260967413532 -0.71046369916353857565 2.2643613105187170298 5.9527931144881547354 -24.207240235735717704 -27.012788098982852603 -11.357856453122495921 -15.05244721943901709 -0.32525965821987923299 0.69005757789257349266 8.4514246210445911345 2.4011027470881622925 -6.5158624382217995574 -3.8951622637822143069 0.53932020885853837466 2.3252133924463849191 6.957015897844287089 -1.3636255356366593361 1.6309968242268921834 3.3666560717225206822 -12.291794001058825359 8.0453501881055942135 10.657647819829811908 -12.248941052750245362 -4.3015447229382690608 -18.256384814238668213 14.152973128067211306 -3.4064197123024535507 13.140122402520617584 -12.255393939688312699 -16.534129618527359185 10.322578759084189315 3.3373331546494338085 15.274644564495135413 -11.61568795102906293;7.8468319932571173325 2.1226010309329566006 -14.327060287667711336 2.7095032672236216698 33.156900223559198082 4.5285454164829630486 2.5763467838529345855 0.80529725532953633227 -5.8712174928613496405 -11.171523567371163921 17.949038823408454135 5.5677467506655418106 0.21806259821437004587 -17.004304704357206646 3.3804135776539303571 8.7067145865890953615 -12.958995552823319386 -3.5052678960946557218 12.871358445365927992 -19.755688016522224615 -44.236957818436316359 0.91441296676316430325 7.9012141279175072128 -7.7622184327082539568 18.679972674817236111 4.8061779825725485793 -8.54900051879421774 23.319482012598658827 27.541014039728889173 -19.365027927456189616 -8.2727281169378752423 0.022042690195277686582 0.63090531450321729601 6.5080827622949248834 -3.3803083824803588087 -25.980764788294582246 -30.992388526092568668 32.622797794254857706 -18.465879813979000801 5.3222956718605862747 -7.0694664762740027086 13.112070537707133155 6.6718692522186833216 0.67474817418281873849 18.397766255268333424 -4.9253426271132161318 7.1056739452229793486 -14.096199033942237833 -0.16869172225731279835 -11.003229543329528184 -0.23467875274435406885 14.463892745626088399 -9.6259460463846426848 6.4882191264680209031 6.8600561814990346221 8.8684852309107320423 -4.5449283524070569484 -4.9431497062113862739 -7.6315748194392956094 -9.5857462395442070147 11.949544890721584878 0.69673341948773803711 -1.7689962450733798249 5.591393065446182753 -4.002614004795135294 14.58207598709829611 7.5760379756283189323 12.823271374575879733 -6.7426531412306465185 6.4526100791218912178 7.2080351299112646046 1.9366120176715253542 8.1348957671756618737 -6.2783277626929105963 -10.020297933191335105 -1.437434804593941573 -1.2689294318890236291 -6.9869163662074882382 -8.0694201946758674637 -7.1672179857865820907;16.808879556370673214 -25.226901014084543107 3.621537125372025212 -10.440521458136023725 12.631002550293555231 11.826485231524950237 23.255315376733523891 20.72547871498574068 -20.648357904359457393 26.067156367074009182 -10.939918024380650863 12.367616872818739893 -26.452055061148161741 -5.2058387867926780856 -20.493193437494689135 -14.437203596028480135 0.34100108868425887954 3.1398438129462711288 3.7219491053652182799 -1.7040756785889674685 1.1132159886828225659 2.6552630079834576016 -7.0672085654296648016 -4.9872657123519346101 -0.034178378172585316408 -19.834562541309129102 -2.9919588922703197476 -8.5540221191919414423 11.949713575706569557 -15.830456497531763205 -3.9128189228621059748 -1.3626354134653613226 6.2635599399832839751 10.587240230179423506 8.1911467427583612988 5.6589972380733781776 7.2879303249656848251 -0.19096880536804100581 7.6783866984873547779 -4.6297362897116300928 22.872206989311177239 -25.959378260302440111 2.2106228033528876331 10.904681880494617729 -12.933720018971714083 20.856162788668811459 2.3396412802128900843 15.275493615299222228 -27.272395430032567276 28.93439063304744252 -5.0515472565180719045 -7.6583700697809051761 2.8791965652077462501 -14.43251420233250748 -2.0482945695107108719 -12.218701378060440987 -0.21216583056445958988 1.8748744540314052909 0.67998745884768363457 -1.499353871764549595 -4.2087993141613999626 -1.1981819854795721092 -0.23248154729405440255 2.6625748095340235899 32.956361437231635136 24.788059112174845922 -4.7960995413476714688 20.056353021795001013 2.2030828180273838157 17.274641388058011415 8.6674388378109590292 4.437186987947374206 -32.092486895730360175 -22.790218558777688429 4.5775744359952224016 -20.506640246768004232 8.1613419716816455463 -15.851596960153329974 -6.6672049492797107462 -4.3853175853433885578;18.106776404431268901 4.7154023585166893184 -18.180203611873380964 -19.048426959162725325 -24.786315672007635413 5.2837442221193073877 0.099415109846877056099 9.4139761078534114347 -16.05747545601197146 -7.8636953219620817634 19.235312175093980613 22.138422019837047827 27.549478446516026509 -5.1247120153496705797 2.2158559630034719845 -17.678949558126245023 -6.623791155792195795 5.4638842631906303637 -1.6957885987216916313 -6.5003018930956804056 -2.4942753603811946839 1.4140911303963452639 -3.9500194748170454062 7.5379039718399774017 5.3816518105163710928 -8.8970215708096631602 -8.2890387663636264648 -7.7643626380634058748 -11.175855502113817508 -2.4818280995260622035 5.7544093820582125076 8.1790873829790697869 -2.2347566890476588952 4.8708075779670059191 11.970455079880155225 14.125040035988659426 11.734997702896995619 4.7960359876040525862 -2.6294215740156703376 -6.518404495858749037 -1.8529967040866055505 21.829770142152280954 -1.0354306178583232434 -3.4685548066941249701 3.1173401025853024748 4.2587695946891495069 4.293686140611581159 5.3142642479370083564 -1.1493691667946297486 -18.407516257571721496 -2.9338155352720063362 -5.8385564252567467847 -7.875487715350111273 -6.8587471421925600978 -5.148253625281604684 -5.8921107294116339403 3.4991416369075292181 -1.3748493620022119721 1.6547585265710595959 5.249594622544478284 1.8726167064726770839 -2.2780168675957259694 -1.7859582342787696518 0.81851199273025021519 23.747736397826152199 -3.6719535817327639826 -4.1816815330217069757 9.2731998898426759581 27.870603213062686621 5.2790989643517800545 -7.5187016884832971186 -2.6111064976085400779 -23.031422797952700421 4.4437135908885512237 3.2246486807187548784 -8.7750743039916550003 -26.561281163223121382 -4.4817166462125728188 7.7157316049923911905 1.4431948483722680798;-6.6787152604164337077 9.1907154583606871512 -3.462247219888772154 3.0763919916472080018 -3.7755599144251914545 6.2247914710983254238 9.7966745416897254017 -6.5891674702194515945 -0.078128316289216903634 -7.4037443862981042741 -5.4248367822462366661 -15.797267851150758489 1.4975820978283018725 6.7511048727165876571 9.0638681373966534238 -7.2749264443945724778 49.303810651073284532 0.080967578410416199408 20.329366396408072859 0.7561364741712159887 16.272117442760237083 -13.340448395468197162 -35.357233046155386091 -13.751272630403569508 -33.785272386822029489 13.149781803738861186 -5.507550043316594035 1.1497332146976297906 -0.20968979929251918559 18.914488521825070677 20.056891417948243372 20.802682938489635234 -12.816903849955421535 -13.176287569233911867 -24.482206962558866081 27.852423237794635469 7.7773678316409036171 -3.8753665019436480677 16.125949074110110359 -2.2303480659065351155 7.0739020616163603705 12.954270377937630698 20.74353509446110877 -0.11420266263882912494 10.44516474477516077 -0.10718169038183344988 -1.8997277718148315451 10.180015822138887671 8.3681231912951723473 -8.5484661483019781514 2.4172493689755323309 2.097635021257262089 -11.715152002760898853 -8.6569650139843901115 -2.3896110312395162367 7.5604377116172756246 -1.1363409337019612089 -6.0573105983715134215 -2.1200061229159214982 -16.76335403324312523 -16.728728260278366236 -3.1844348277246208312 -5.5338944650953791893 -16.941301358623071849 -11.380513197907950129 -38.107258123639034864 -10.070280830513501868 -2.7462151176105771277 -10.001568043304089883 -8.2742949535806182837 -9.5722251554916830685 9.2170664684587499949 2.7485916127305420886 37.080912913670090347 12.429953726667770653 9.8205367607307252342 6.3978341837485555033 4.9511900238858848056 5.3090537840856351082 -6.5464897911346398018;26.617525859865924787 -4.7839168577016968342 -5.8917411815260605223 10.894157392413656993 20.061611664228951923 -5.6698605376275148515 -15.529297915390559481 9.647400545751981582 -21.200905846359979989 3.4247247795351549726 8.8498467277858878788 3.5468297796288941193 -12.160875155862928665 5.9487153410785049701 11.168137267951824043 -0.70251476546078406304 8.6506533547793811323 3.774801100212604954 -5.0768141692413299992 -26.23490709537618315 -10.079239940044555368 -8.0595025349155342553 1.0865450690781726095 -11.918514443900171784 -0.11165277827566816304 -6.1300737409283776458 12.353143615009892997 -6.779354142573652986 0.57896107447462963336 12.132155344471383884 -5.1717336221347531833 0.74406237269021313629 -21.956541744393767601 2.9272989650775786963 -17.481979971870615032 15.853773406080598818 7.5907425128102765655 2.4131581060364282187 23.34749829567469348 9.1831035296635494802 10.597187879696905455 -0.45323807458843101692 5.397505743705386827 3.2348101779729723226 7.7412374836222905827 -15.903243152200467136 3.330790795406929572 -5.6400569814939887081 1.6693936267853866084 -2.0699480539473387175 -3.9517328286406465665 -13.412342348739658249 -21.8309402380427926 9.3763170664741686267 -19.718247604426711206 1.223879559326062294 -1.6340306124708976476 7.6185670860120966452 10.261439661598869222 11.330302074055518702 7.0282804339545732475 -1.6785810706593609076 -2.3676223809579748369 -5.6426851984872978818 7.3202184550942277497 13.32316128329049576 3.5794622383362049156 -14.152016229646775969 -1.6754802367085046555 4.1619442909641186645 11.653433629017689199 -2.0146979205151902548 -9.0976584491905061469 -16.578956341317059753 -8.5497404674161803229 15.709333005620770507 2.9089451048287582324 -1.2108974120064097679 -9.0903468036392975904 7.0739945501817604878;3.6809936095224764507 -13.780351088380490054 28.056811457371804153 -5.9799012127441129039 4.6350269791923732754 3.1154211901773880555 -4.9142721496272052661 -19.380558257199005823 5.0217254163194393612 14.513936857492815591 -29.431162386299856593 3.9922679267058049923 -0.29853273162752314018 -0.39000606565800211012 2.5871849009950595999 0.14142524257547656186 0.045393153619051218595 4.0060589772064281178 11.846276508600270816 10.172668671155832953 -3.3197567204493201309 -1.0635360279472412248 3.580376680094601749 13.968554435309737727 -18.318871058634762505 -1.7908999575909487767 -11.825977319312062974 -5.1436372124023810315 -4.4434460182892863145 -12.125150549390369292 -9.9698937102220579476 2.8682306015546488176 21.277605759526974083 0.78480931301365997044 8.5096825078434665812 -10.677905986643347447 7.0598499866215753684 12.532347336405402771 4.7571873488027565102 7.4396457826657034218 -6.6115016824577121923 -19.140715309642104103 -18.8556753183269592 -6.832133147937094364 16.042648476656022893 -5.9093189523667222218 12.300122386589938728 16.58628544399086735 1.6950477274432822483 19.0696578566818431 18.199772382023407857 8.0684850171580784206 -18.489014748223237206 2.241970721769039443 -9.4657011134780439932 -18.219100756220107939 -3.3284719533156179594 2.4186213414138073574 -1.6425686100104393006 7.8686028341177713941 -2.6779062791399463883 -0.28741239871205065404 2.9519247733886881946 -0.71871447899836327089 10.207258824351505666 -19.20480677944589587 -2.6270774607841236303 -17.297559701845425906 7.2931669405883221557 -15.399443560068803549 -4.7244363099554282925 -34.274487641354156153 -11.691881588053680829 14.741815160670965312 -2.9173287286362916682 12.739436142595938151 -7.3270340274110212775 12.413552915262954457 3.6831864986567719455 29.77773327841419615;21.696218756904546154 4.7045480329203837044 -0.84799214699673886031 -10.140528310962361402 5.258761855776310945 -16.972790572852666457 -9.1614549903181963231 -2.2510753514040620082 -17.010115764388398674 -10.322283861413358963 -2.5911102379696577813 11.520113755235213304 -3.3803354436688941576 13.0040171586615525 1.5847668357947428674 0.86475066696952085366 -2.1393426135522792819 5.0278955938851099816 8.3632577153834013473 6.1561142458206221661 -6.1610875924773038648 -2.6642483245230139666 6.9154396281704553218 -5.9837783953829797312 -11.308696317758851535 -8.4414897924549308073 -2.89238202307203629 -13.899841416484251866 16.215064240037094123 -2.55198386192414306 11.211861309242786788 26.802616577944792908 2.6109555426253554522 9.1484162235079651282 -5.6385548258865183513 7.7543613673258153796 -10.235916217014178642 4.5975755152209636378 -22.519436662269086469 -18.140928846818709985 2.8968936514507146462 13.578242161299957758 -2.6748599999853706066 19.18953604053936246 13.55905412646529129 15.720714759910297431 13.738490344066473625 -28.978980386835630156 -3.8400248933890881453 -11.960510748926013846 8.9874483977869612517 -16.024275192163216275 -17.434968542348865839 -14.324308200680146541 -2.8064823352746262053 23.983127487844299708 8.0979614362974885466 -0.52811474836662797294 -3.7704921891597429351 -4.2020085644970839311 3.5007751652367016248 -1.510940775059842478 -0.13357294162243404934 3.209397602629685764 16.74118341794992304 -21.199771209627456869 6.960372178806290222 51.216374848688531074 17.78776648195304233 11.876620469903848232 15.926364192362852279 11.819520835585702656 -17.17110098592881684 22.837418331562393092 -5.5988331250400404926 -50.795934290087451757 -19.850665579664582339 -6.8614471189889725267 -13.933294863433001609 -13.992840557841720539;9.7939746279349435554 4.2298985708044227749 11.142187122930096166 -19.229636483849706252 1.715236523259064283 -10.698293474661605629 4.5815294168705884559 -24.405005285765412282 -7.9826777507441848414 5.975457414055165728 10.950409081332427519 -10.121375314055931938 -21.569622632926620298 -11.124130285136196505 -5.7816632532055818317 -6.2000529858599682242 -13.732136343711612625 -11.857599147020183139 -23.856940549530843754 19.43002020070449376 32.267739744243996824 21.895197528252047903 18.648251542652964474 -0.66523721086602716213 -15.117551169679387613 3.9663954747176863869 39.443660386003152496 2.235793538927681734 -47.578470187002295688 -0.11732367422877798546 -21.63578735070295167 -4.7678515909655727611 9.3839949566044165152 -9.0077235127093384648 -47.275225552837028431 21.104128132562724574 7.1327387106794102323 3.0289833953143543432 10.918567462577707161 -12.732789290185170472 -3.7746243533182486374 -6.3103335622989282783 -7.2223502495812708091 -6.7724789898820070277 6.7391176320782539833 4.8770375502712637328 16.277644262500391648 -0.33778100530142957103 5.0982881790560554691 3.1684706429384079662 18.514600866651033328 -7.3974796900816901513 9.3925882521192143315 1.2441240300041933597 2.8554256881028807769 16.808815005070727011 7.1523312345277609836 7.1600080928307807682 1.6183214725253565192 4.2729123245567324219 3.8377848280417290461 -16.674087895179926733 -14.669096994913932264 -0.46566318923408384078 -12.679588269701714154 9.8652401993274096981 -15.328067507193853913 -4.2252133589076263931 1.2316999674364690343 -9.1411728643585306031 8.7871044944702347834 15.19770745844408566 10.474703953317700211 -13.932934531637254594 4.5253260224256193212 -12.486711728749632755 5.1449680406057254345 3.5766272729151875609 -12.675493973769633271 11.13065707121234027;2.9124170194899954289 6.6533610230966093724 -9.4264572830552992855 -7.5224046164194291464 2.3226766687924973454 6.2927126739782970333 -5.4727106027410137301 -5.883543448673933085 -2.7843592507303842609 -6.6882024791124852214 9.6446956669016987718 9.2863013489798991174 1.3878458589187143701 -6.5900033064106384728 14.900635193018260338 8.6513200432002683726 0.39139151959442114448 -0.095027436656865083009 0.54414882469908976148 -1.2991025345679403369 -2.2819040251561908406 0.21887732503676082807 13.011131127928610596 0.070602274105545870242 -1.1415899697328786289 2.9006564669098660048 -1.4842971092471026751 -1.2338844408680782472 -1.3335552021552348201 2.2081897685460352143 1.7402308134742350276 -22.659325874934800993 0.062371462672754077183 -4.0596441052705332098 1.6040433773107451998 1.2285199303267633208 -1.9168732127131906662 -2.8557227067557788835 -30.222130249049385498 20.608885812521691605 12.582323791765851695 -0.14027440039084088097 -3.3797037704158907623 13.102290739245024298 -2.4603418296103276575 -11.57054707130075677 6.1271010126407636776 4.982382538479559031 -11.828491046063215109 1.5623629899447704084 2.6661090226476300558 -13.763117878168415587 4.6352058124536004158 12.712065752906152483 24.792464396898935775 0.012832031914334574019 -0.61277550781219525255 -0.036429949455981894268 0.57064266805004193461 0.42894271391531241244 2.2920226347182648396 0.60259927127048051876 -6.9173880422771976129 -3.8904406040978747328 7.0868204788601882882 -0.66309444136188211427 -5.9571735155627241198 -3.0658394960584733901 -0.38396212168783327989 4.2426908184628970844 -21.329795114318489624 -7.2364640301435132486 -6.5326823758121497221 0.5055276551396188367 5.1568980587882160549 2.6858770324557168507 -2.9616930727545334179 -5.5210367854114803521 0.53314051079253421683 4.962019999693043637;5.9068696173074082267 19.926218956029504881 0.30467016526636314655 -5.0951001617343223415 1.1318326044381001871 -2.535776062792343577 1.5405267465726295573 -7.1189842114154133768 -5.2100463386859674486 -17.332111779958303543 -1.2208196146879899402 12.736498158241150946 -0.86140993260129006259 2.8139308651050667365 -1.6389252726815399797 7.994593463485599294 1.1268610506526095527 5.1057399655635302693 0.79073049352203705897 12.779381892613711713 0.13094700951651114251 0.22468273909297964419 -0.70763652871392190846 -2.0012947188523377839 -1.807365675196822119 -15.476869237651253997 0.65353280493228771419 28.221730136589268767 -4.05686474577126166 -1.6822045962294558397 2.8109692865346413981 8.0896059425281094946 -2.199679793532097527 7.1879388383869358137 0.086963031152328340578 -56.875415424168402012 3.9358386815666381864 0.81188153014393615869 -1.6658971217800178088 -8.4919464370827757449 31.19081346889961992 -18.700005713405381869 -5.6111321458863958611 29.285742399464162133 -3.5591868258537999736 4.2584192047408997439 -1.5407198477477441756 1.609937437131685245 -26.879286066109852271 22.127408512317852995 5.8508976978709892336 7.5568276004683205826 3.1018791936327336778 -4.1262126002426002813 2.1936763758862527496 0.5053073394764679982 -1.0393846592368809478 3.0322590676680007959 -0.15144108958816418498 -5.7983829224722462925 0.29803303462649605171 0.037805609932225509029 -1.0653629613255684028 -0.49385710651227726631 -5.6895613194107017563 -20.826090639810761473 -13.006357141787503906 1.0828609969691913584 0.018185358530113535092 5.0178840839118024064 -3.8723369647911076719 -2.3765789861205219857 4.8975018801048131323 14.936146049136079128 12.181269152581856829 -25.729554326462331204 -0.30030391102068909603 -4.8873968901587199198 3.7295973646189395367 2.5299247075778255045;6.4878155519312290522 -5.7843689507787283688 -4.6820442208973576115 -14.67864074411373565 9.8383787004626910289 7.7997628812728505565 -5.8103518123776760618 6.3620444297613429896 -12.708014027678933289 4.6771738948176624362 -2.2147268101559425268 37.45846686186316532 -8.7203383655710382527 -5.1002467621235574313 5.9374186726038615802 2.9017163165243591294 -7.5528432755687449074 1.6803173252070253696 6.4061880931560377661 -36.879889834186492692 0.96317246997080285809 8.3369375485268353287 5.39309662894517583 3.5100089864768033721 24.490591562293886341 -18.433958366516261407 24.332138379781401483 26.686467517033698016 20.280915816978289712 8.1176634916905925365 -5.9531329782469741829 15.899018489415627897 -38.542693943949750235 21.742815529564452959 -29.474936635005498431 -21.057255549605972789 -13.731775330685486836 -8.1402273200184946944 6.6613144043997261079 -28.947806941808789105 7.8197235433268268423 -6.9062981705352584072 9.4773494357612868555 4.8690215271226700011 0.25380464987634354657 8.2483798284807772205 -0.97454611923575340526 -11.718939236148566252 12.491197090111255008 -3.3412200334565227422 2.300440903617405386 9.237036814015578301 -3.6794708500573070076 -2.7450290409098490052 -1.6165941756896609061 4.8023960239732330635 3.7091515738694234017 5.2426620525292788599 -4.9054539908100069923 -10.424379649739769604 -1.8228426171707372561 -14.067346702640787015 -1.5321928539056872687 10.067990279179451107 -3.9437361150757435091 8.3590722717383574292 -6.6417660930725297419 0.31254587351351947877 1.0409954741458842253 -0.039656613571159460285 -12.316000896402204745 0.3842685013466203281 7.4576784178230219879 -10.089291769002651122 7.9589782790830296832 12.68336580163387417 -1.7629557022261554966 -2.0997282787703825946 9.8264656693268381815 -4.2437627152005035214;-10.638387521327397067 2.0503095614681137171 -14.115609925254933188 -13.2866041481206274 5.7571190751126763985 17.70354671260817625 2.85522878426762583 25.266214668690615497 13.95370748367979985 -3.9527051929449261714 12.372271357399068137 17.270744021857112216 -3.2897984030719631399 -17.414148028725751516 -0.4852860905621245724 -29.531418844329902385 -2.6135754762849425781 2.3860191747012349239 2.6123663635898348723 -0.31575663005727716559 -2.749958008252075814 -0.063338272917424304209 -5.8324165895671091775 13.298885294553972614 -5.1621598520649287778 0.0055858266188399396945 -5.2212091295388294299 -4.8160317217129122724 -10.83253714579555016 1.183106986205052058 14.515400139206255048 -5.9169009513083796747 7.2483596341358094151 -3.476353272192310051 5.2039348075885429878 0.42472655122498886859 10.254176699913323034 -0.081710912936449886512 -10.690111733215521994 -5.8351393756635578924 11.902993990926320933 0.074067519597313696833 -0.58755890012679889978 12.832584119258648059 -10.200508098264243984 -4.4299997966001285477 -13.602628859080251544 6.1249924228430439044 -14.373879067747367344 1.7432918160631203364 -0.83696207551033363625 -13.901906150441087462 6.1441499099882594948 4.2518690220822215053 10.111881430175785113 1.4167493119774432486 -0.72510274565540266956 1.3832019268039872362 0.98336918137592288502 3.0828659459039871038 7.2680531661633382967 -0.16589151714102379209 3.8616020965146256039 -3.2876921692085958604 1.551099226925454877 -2.4846744115402601416 1.2263710837820522848 9.2469491087999564627 -0.82655524158509174892 -7.8891419164311535894 -5.2339906379818144089 0.98755562804304042324 -1.0810197766398776942 2.5389400726219091275 -1.7276406198182225893 -11.092343573722635242 -2.6966246495340104872 6.9726713319671880242 3.7384783313833045426 -2.367923344031874322;1.5151309858368722239 1.5747613289596671393 9.3057128175984917817 0.097111969187079844046 9.6762115978719798193 -10.643216347361326157 -13.037855373713091112 11.664069449221472041 -1.0193522415390932068 -7.122891017901845423 -11.491374031592762606 -10.001265246000908604 -17.907406897186476158 -6.1817657266317729281 4.7924860595555003329 3.2369471118696235834 -5.9119595786677923144 -0.34558990305019182676 -0.52224121755101560183 2.6199401954163983319 16.367042135025162253 32.060372570017086957 24.240715786183859137 -14.017795143410916481 3.2593082147455789688 15.400894016581466062 7.3323224797692567734 -9.008768945526929528 -31.797526101534796084 -27.657685465727858798 -18.880081976524333953 -4.9299574533070034121 7.8689357318748864856 -12.495300294752896164 -14.424691043403379709 5.2303385373379995826 31.443945357164757581 8.2874893193295360305 5.951708859821339459 -5.3082804509712282481 -6.3255723113592905449 -8.4416753186202502235 10.519390440451322988 -0.83314524468639705734 -13.483240901253777722 0.49675082942457543522 -4.0488959331826093191 -12.397361792543774683 -4.4231163985558028529 15.454314404200337307 -1.7219087445263028258 -2.8069222521621197686 6.6747256307963640509 2.0068032000911690815 -0.72035353566955118154 -2.5546155064431967929 6.4829536880725253667 -4.4924178031307935299 -0.94760694232782483049 14.865285963458040541 0.017975355239173887445 4.5063535842105961748 6.1176360701074301573 27.778767466757344096 -2.2489241950984508733 1.323977589280826539 2.1044407020519573237 -5.5437999538463662574 12.4091585641540334 9.5484359110247556401 0.62513204897848795305 -1.9401466740682604684 -2.9670762018451162234 0.41825037504873652239 -0.61701918968304736435 3.8489927692880940846 -14.706540728198600476 -13.836429593037719243 -8.5542786322206652017 -2.1068701279009709459;17.640841110485045107 -9.5056791733794181454 6.2296380836806726222 -2.7926697170138359283 11.351080804427045479 10.27339482050200381 -0.35053534581782619384 -10.215848713811702453 11.593896302176998958 -1.3502887571721600146 6.1829843321887745233 -24.474585397314854163 -4.3441098291205699766 10.983215157611921242 -5.9559572562452709477 -27.612321653156563173 -5.4513525805150893078 11.742209346440265705 -3.4238259224689033822 31.212920722017329922 10.182159835578467266 -27.667745957985175664 27.333370281035641369 16.281181357836548074 -7.2442643464007288046 2.484994010169709 -3.8466397052680569857 -3.3456966843677871104 -37.639051727549343696 3.2733670800353391606 -21.353575350048764392 -6.0286967656635122026 0.97194875483381426573 -10.984530697638540175 2.4307905773714839626 -7.4995047000412560223 18.930257132223999861 1.3030214776606821037 -6.980841143966571849 8.0355704227438451426 0.0074586443001478652803 0.097335994517239649015 -0.091329218253865335209 3.9128258951572085778 -5.0886392163878229056 -11.06135625804134115 0.47927734708097718963 4.6516251204116718654 7.6824255067037920952 13.071753303778889332 7.6066422545425114166 9.9214100323791107883 6.6165287415136226912 11.067810527489502448 0.83437787849308420185 1.0185303654955213393 -26.338297962381588491 -8.6644057237427976048 -17.145571441220766928 2.5922293906070406067 20.832961315899385824 5.2952578000705159411 10.574731037906770936 12.202022725717036167 -0.02812127778755324492 -2.1749455076943959853 -5.77315011767313635 -11.860813483153913594 -8.0034076762625332435 -4.3438131206525252281 -14.715714361670436006 2.4270010675527395883 4.2416990378351009383 6.8790687488852544362 11.482686807351219827 -4.4571993141754777668 -17.912923276458876387 -3.2524528799064702511 8.9523884676267577731 -2.1246381860589593771;10.798794283398926552 -18.98090311186862067 -21.703239969158037326 -8.621124442736920912 2.0798409132813362454 -21.999053837527004163 14.033177838929017156 18.692131002538491913 -6.7521286014279384702 16.795958581868873694 16.085275727639906762 16.479503498744502821 -5.6260430640975949146 21.98212582397080439 -12.444996395387645904 -12.836892118403428142 -11.681462831937396984 -0.10279546095110442261 4.7566719313924092916 -3.6029986228919854696 7.5370146981834640343 1.7317182768150620742 -1.086938749556459971 -9.8396212455099956173 12.786663540212558132 -3.9985675016322703712 11.138916027126242625 8.8154372180470161879 4.5745906034056691425 -25.946902561892414951 -5.2139345036220428042 0.95061417431197403616 -0.20453793283593069141 4.2784787719902395153 -7.193680777836549467 -14.575282179969198282 -16.638321114377394139 27.780705234071753296 -3.1373729862296668713 7.8175275488122943912 20.76268848108833609 -0.037663600940886804436 -12.651571771970161251 -3.7497756403834570094 25.437698468561055876 -7.1245659294273613327 2.1270014814614630616 -14.081314697232757638 -23.257486360533629721 1.1135030301930819441 13.450484178951237269 8.3096563436059494023 -17.978332713438380352 -4.3919113005410732598 4.1456220657026081611 20.493137460751462697 -2.9594197827621608887 -1.0148144842334845261 -3.6592595277869031101 -6.6446720889643584584 2.8967075337282932601 6.0244378946730750002 2.2002095203056883932 -14.973661052235906155 8.2075445201988763699 -7.4090280022578571817 2.179294768656013126 47.238233819276544523 -6.088238433958504281 -2.8741666037645559051 -23.546569196148201542 8.4207358588670242483 -9.6626901175079158435 8.4865703536006549257 -3.5930071126638538637 -45.370970980538295692 4.0782875724415816876 3.6791003407818174686 21.753833667226185611 -4.9855257753282913313;-5.2840792495624873126 20.080638703631461084 10.669633075892951624 25.236818979530088569 -15.940512394735113944 0.81552811485282794557 -41.110926655977209521 10.834622801595267916 4.3643034600487036201 -15.607067531111054492 -11.122562753660108825 -35.222280200742929424 13.158877874786039541 -1.368765742509464145 41.488722157868330953 -13.734463796467807128 -3.1680543934154048458 -1.7899737915355244944 0.53302539529121095718 -5.4918369605031438496 -1.2975336840960260965 -0.82750777607364356392 -1.5185835850698718996 -3.4725338827872054281 -4.4669421202689587602 -0.6038227638021665955 4.2303542474691235853 15.023603047662479781 7.2514268298164861193 -11.92108419103150041 -6.8535031033860258631 7.0164934732988362143 11.441411329779210604 -5.5140427108406582235 -1.2193378474402629674 0.80689299602604724893 -7.4042540694776075583 10.117044988274106032 4.9675086552796852146 0.020933751967544045325 -21.620467670937301818 12.7519324862504142 -9.6437697246034019827 23.136666936009227413 2.0289851910666132362 8.5250797211287299149 41.745443613986381592 16.288799609065371499 14.255440268438688278 -9.5315878587417302015 7.5129575961422503383 -27.040362848135409024 -2.2270293731620172117 -9.3075605062156849812 -45.355263985970495355 -19.114442573032437878 2.6519300101727703023 0.045999892980603196424 -1.0507759848268798386 -0.50320724808018912899 2.3595429808329151378 3.6384761656541924069 5.4219866887577321535 4.9691550726065667476 -5.1750762256186764176 -1.2765547377032604448 -2.7840806641550144285 -3.1165531916529523038 15.433739607820083251 -11.213543545046428918 24.279667050554998298 -25.136065936182021119 6.4844739779629456677 1.9662841980656187157 2.072632510210471235 6.410749295892997246 -12.22946637898443889 11.49486514002156845 -20.975974274267851882 23.071248991788074534;35.026892551746094284 18.378726270150785638 7.8155146599098310745 8.3378767079728373091 -2.2144707901821751861 -6.3859399181349063568 9.2570923851238156033 23.156100242690502711 -37.121363729292909284 -19.625066077468634518 -12.145141018396030219 -0.1046936265618955697 -0.52352137079612048876 6.6890163591453539738 -7.2478591935835892102 -15.306385236883986778 -5.9884830406087568022 -0.54710066948003543974 5.7681706157366487986 -31.604328224451002427 1.0730934989059039975 -0.13081305841217139019 -0.75739978697975973709 -6.7568745103727536616 -7.0614525542507573519 24.25883793240532782 -0.23369106371306347381 -0.17981645120311501307 -3.6264710513052209606 9.5893385989174522166 -20.154173717646383324 9.8523446978482969172 15.536376026748152768 -26.423207530537531795 2.3636506403497605788 35.437202576077453386 5.1291031258472159493 -21.755915585943405688 9.1046864041158883651 -14.538183334298585336 17.94167758768573151 15.489421658767666301 -5.1667221075356133397 4.6610387472455219182 9.7037014754427435292 0.61999249049868332406 8.2365076718987726423 15.181600153441728196 -19.353316917136652364 -3.8811609540989957523 6.5313005026963057986 -23.136649941326780322 -3.3602934819416501178 10.995381516102876063 -1.1584097965498743044 -5.9319830335765191265 -5.2235374761137709498 -10.30473661821662823 -7.7512009042387948199 -1.1187933088963599726 -4.2564708201483458794 2.6604049279925128246 5.4618477023971410134 -1.3322253431899935272 2.2060895553651103107 3.5082675789706958547 6.7202594844454441869 -4.7624497819888365058 -2.9202072839116954839 13.03435611447839193 6.953426443640765342 -13.036348234811246272 6.0035195384993524925 -1.16764057052264425 -3.0756273359427921399 12.767038032644352441 1.2098067548077751088 -15.094011523324713409 -9.8871807074130018123 9.3732364982855873592;-28.162697168009646731 -2.6702842317486954471 -9.3182292654291725142 4.0124473299879284127 -8.8419614614709214351 9.8017464117963104542 -3.4107402212849913248 3.6580513222892658831 30.67890027623652216 2.3342856015484558796 9.8988167136092783949 -7.0213414698395615332 10.233625319768576034 -8.9917854918918163065 4.2696280196937070883 -2.1050210390900856439 -0.88790098354573887551 -0.91184539850544288342 -6.0062386065069981456 4.1844453399162881979 -0.035515071126772851384 -0.46351909017756559583 -2.7978737919344625062 1.1734940771136022075 -7.398792872730722614 4.2545278496351937036 10.748023222428168211 -11.070483873760943894 -3.3610775267601287197 -2.368701717180745181 0.64801497216303516336 17.864842887377367475 11.531066494218615404 -8.5499089993972461343 -6.0946702681642150878 4.0475914815411186964 5.4924222164521934175 -7.1145154808902013599 0.35921692338009353351 -22.034331913981681339 -14.333958613956365724 2.3503020491409434278 -15.549176275288694171 7.4981723819072145787 -15.353977422227973904 8.3899858256282993096 -8.0481090992440087462 8.5077731606660478292 15.567588216231802889 -0.2168984025919842018 16.91354835255893363 -3.5916928538098478185 17.305338751477520987 -0.042353703153893473843 6.7008861188603834336 -5.1924961903251665163 -2.8829069848951176525 2.5976677615829091295 -1.8508740121519031696 2.4920372351506272501 -4.4586741147130855012 -0.441203928905411491 1.4870729455649498441 -1.1039222089472051636 -18.87193171507070133 6.4694092368723445929 15.802251621146066185 6.2800813156022234907 36.408914319592362574 -12.196610120553906143 -5.3389309261288051545 6.7707488409395555351 14.714311241424415044 -2.5033130251397577304 -15.375782042524416937 -5.1837164897575167544 -36.791160593533327017 13.930321777750497958 4.0212261517447993597 -7.668383009447654608;-8.2578125165124180995 2.0373939977439006199 -8.2978936827082865335 11.716586703342818154 -20.748700503776628778 -15.614188276990489612 -8.4716986259003519422 18.223565613300046095 -4.8864688062987280404 9.3498667769566097263 -11.93375227207974909 -5.6647552845692050738 9.6102550127669346125 -8.3833553737617609869 -5.3873676071233305152 5.4330199038768896003 27.909075180949969308 6.2783755247941588351 22.759473676267436559 9.0003250882045673364 -9.6553410125098881878 26.98605605874346125 19.7988184166380492 16.577078015423960977 -1.0034012411527633013 -34.347057430060246475 -4.1587577966788815687 2.1522565412860403811 16.603013827754484311 -10.260739593793068991 1.0608985505191084187 -8.6591177937508732043 -10.105939222301849156 14.727840605842837718 2.3893020212842484007 -9.1959225396592305657 -2.5812522610966674996 4.2064182798333487057 -3.9342285798811844622 -4.4468693817262394674 7.4417120618441305879 1.3014831203667509563 11.328620644218453606 9.4096592389483397767 3.8648521229302499336 0.52234621587986485025 4.3045772645399074108 2.4007555823014770091 7.8856392631733793763 -10.547279783801352337 -1.8124602917085530507 -5.9262609598238649156 -1.0410365608833862527 1.4252642205112984186 -1.0513030099436981857 -0.3005770163007637219 -21.636586192176416432 21.248913855125994843 -4.0031210722274233049 0.23224319844110374866 3.1055878484584731325 0.68031162123000055164 -2.7821879325700811236 -22.565725750642229741 -2.9552255891178673686 2.7616293731729877337 5.3007533854563959608 -9.4219894417239391515 -0.96218430357513329287 3.0741833424685514053 -18.677159673455335565 -1.1653528067436134119 3.0044345597426507233 -13.276393637793951541 -10.943277455776119211 -6.1595125494994489301 -0.50815574203127333863 -2.3954529180602182059 17.010923259649178618 1.2924226617126832739;13.985546085350025081 -15.106167730549833195 -13.698809919572752847 -15.744136974005623841 -23.205055385192299156 6.333882585433743273 11.748181099857820442 8.9830219768351167176 -23.085402531832460937 13.457464217727892475 9.5176607104210777521 11.886197259682907301 22.599174666807201106 2.8937663631533450115 -12.466458881137226555 -15.089068348944342901 4.8422768012682757544 3.5064395123914744445 2.4464408923464571188 3.3606527095974505492 -0.11714629231178105839 -4.4299457444817305074 -3.538538613133531463 -2.3680858535189006631 20.546370265927283327 -15.806382522219681874 5.3644310782338440191 10.113357842373829953 16.735285056453136576 10.080272692885506203 12.022556736671901945 -11.898371669260683348 -15.835422413289631294 16.014964999836802662 -9.8126850619570600287 -12.988824696576378059 -14.234283714876239557 -11.655784571933738292 -4.6632347934313171933 18.752622916308208545 -9.9984377573209979317 0.41855586043496217918 14.958573009543247423 -2.3643796777041843349 9.1451728018678117849 21.452954087337353428 24.507037892509316634 -21.980406868671128251 13.762284597191595026 -1.1130714600185318552 -10.966071402693644998 4.1876711834128101941 -5.6008526533482099197 -19.304218827477548359 -25.4036569871705602 19.934257720129391345 -4.6352431040172703547 -3.6342149157741450161 -0.072916364549099332848 -0.90926827466802306876 -5.4912774720081616309 -1.9584502152556684251 1.5012721621109543779 2.3894652636440985027 -11.050460132332645458 8.1117401009535132772 12.109927413177576483 33.371660438894195977 -3.5587937735313932563 -9.4010097350844361586 -32.732534977195520298 -1.3909335976834460435 10.514271891579349827 -5.3428339102436659402 -11.130163906305682531 -31.219663737950607896 4.0404658375460016373 6.4846794106485807774 27.0570404521015071 3.3319343719596861142;1.1626080168278760674 16.506664300026237413 22.437517148315716753 20.948778774736027231 -8.130817715385580513 8.367279812640454395 -2.3592096999864997642 -7.1517698641729090525 -3.8443360686656871117 -18.508540953208708402 0.54500845147085374975 -4.2981995500124332565 -16.874197716217331333 -15.753984627695000853 3.567081855324631956 -26.266152190815976297 -12.926584131292768731 26.2663118419038355 -32.357230493366742508 -7.3167156383883620308 12.156365766371711956 -0.86116392855737999845 14.678696750087583567 17.348544714757114349 8.9869155134879381563 -30.28677395442873177 -6.270957596613234486 -10.379967651848060584 33.56766538615006823 17.824909325523474735 -14.288409070764229725 6.1906986714431617713 3.6499899368320640747 -5.9327457659627489406 6.6731397697943402036 4.579221073421650523 -17.815240049598727978 0.72788735983572494526 -2.3835083122060143346 36.901099945423084137 -1.7511170261371986623 0.74805487433897721594 9.6758776093294240894 -2.34858729377318598 -15.138063344965924983 -6.3475743319446742419 -0.43531863318930014151 -4.6894872316641436072 -0.70684172655585164602 7.5248757123472245212 -1.1297108156853301608 3.3522499280327169302 20.921262922817430052 -6.0816045127239171109 -9.7903045603115135265 -8.5332783445180577786 6.3104617975956687204 16.946724914587814936 -8.8158349910114637282 -1.51001357623416399 -10.037368624029653574 -6.3682243423423736672 3.8441498983895474595 -17.429850038097139731 13.809341931682137528 2.8306063530674947515 3.0145844911872621275 1.9469898540772587747 4.9073711081234616671 3.5953668300510202016 -3.6808525174766892896 5.0531664423836479827 -18.827207695471209092 -13.04532865094242311 2.9959970808245608431 -8.290086351460427494 0.78766719379453831174 5.0396070984985614771 4.7871651021283332383 -0.50639765381629009422;8.0335903498598302264 8.5144392704563145458 25.81621198343900403 -2.5994914282663885707 -13.289864788108651794 0.1852124752621391035 -1.9938235023711410321 -10.465827532614518702 -0.091386785089322269959 -21.588879817920791027 -20.251208545235893865 12.799415276235645678 23.854054459790241083 -0.30001014262340292005 2.3048028556093727026 -4.7561737234705985244 -16.551106747432879018 8.7447517427604655182 -11.226079948315710766 3.3186883792980159669 -7.9774713034986168836 -4.4489959054083758616 -2.6900975003434157706 15.358634427731635341 14.083397447946264691 15.345424882318969395 -3.9616548966054470071 -31.741116970513470363 -14.33863761943597126 -2.41980292497702143 -15.123361233108047585 23.213488025828173278 8.1473240611712913761 -28.542793982937560315 11.389832854631407599 8.5597780072609257473 27.353080012188289771 23.495496784848963756 18.034249875668553642 -18.478405071124779369 -5.821903492046194728 25.006295764670483095 3.1885628669815577751 -7.5406017355471686159 3.9182023527633331739 -9.6707287147648273162 -7.7877240864928500841 -7.6641162835716238888 -1.8443387677236677824 -9.1448343528312836526 -7.1935666272036939972 12.797101757721135229 -21.810813365389723373 -10.323295773575624779 -3.2200177203155573302 3.3125044040075799501 -4.6580029335930044354 2.3499479549194091099 -2.5296398287540675653 3.9668874376634848389 3.153216055719675559 6.6270898154781354705 0.87487662323939074938 -1.0318414006873517508 -10.304414838410323796 -25.693533743983437034 -5.8041895601253710169 12.305331276980531641 -16.942431930909663151 -23.857751263417178222 28.209792765571087614 1.2395959966535630148 6.3086801521792033043 28.359007119702468458 6.5590950864460033642 -8.0616648210858752321 16.677626387570665401 25.313108592075366232 -25.83794698556693703 -3.2743631049729411409;-7.7698182212730717566 1.142225290614678368 -18.089646616172938565 15.946550087390642503 0.62997410992541413854 1.2028339177854570075 20.36613938981435723 10.235986342594237897 -3.2398372670951625096 3.9284594173648228477 13.109716263430385652 -14.639116618608236209 -0.17598932296753319604 -7.5590064271325996259 -16.792526384228995795 0.086795096933175885923 -6.1838759640019134167 -0.56728071037388583253 5.1639147828963842812 -9.9076034994327990546 -3.8391854776801648264 1.9727409427549578158 -1.2223602984130028659 4.1895727534319506802 17.627827941971617065 -11.629066070892994489 1.0634650145039026281 22.228523406073673385 -20.865894551113786548 -0.69845538498837533847 -5.7834875193040478081 6.0664115938422638052 5.7719984481005068844 22.899873554689310851 16.943051787972752464 -5.1528255760779551053 26.72291198811918278 11.303992410072833508 12.989898118475814215 -24.467228221677007838 -16.914230689272063302 14.042537786249349452 -1.2520978706788365997 -0.17963208795020368935 -32.75331276421479032 1.3292407620914348243 -0.14398916122125435257 -8.2478115142403627402 6.2142277832259447123 -30.235749285123741714 -19.179485798498134841 -2.2012008717875235497 22.499131738225173649 -7.8379909433396122154 2.5377574178601034482 10.475010449920398869 4.8439352287467274394 0.22611508938472654751 1.0460655934584197624 -2.2705739274818341755 9.2778938075505976713 5.4897862650053035338 -8.1090674953162285021 11.592342518689900288 -29.591143687478997037 2.947019942043100027 -7.6915370234328781507 3.0826546182259049189 -13.098609751137184176 -28.514747345115964094 9.496693452403567548 4.7736815490708091048 27.132064822845780583 -6.7114543976647169643 1.5885429208138304169 -8.2721230485590702131 10.181475377449238806 23.124659754894466346 -9.4490843257371146535 -10.779901294197191675;-3.2230796588130985469 6.8348238200063802239 15.161711408799083856 -42.396738538038761135 -25.894563572237043303 1.4950417540735319033 20.358553726485848046 -39.454213690341113363 1.8227619641039707332 -5.8752961269042485171 -14.021127051519407303 43.750600404881531347 24.12275812381533413 2.4711882405691056874 -25.72333482569775498 42.338351966164260887 5.5630155057863142076 -0.3850876216599349311 1.0654538689030530474 2.0381880950431785493 0.6664234537366782174 -5.3520735687498639521 3.8821050683430007311 -5.4915390015642344679 -18.691115118611968171 -11.923845649179080297 -8.7794659741343945569 -23.928952499978244362 -12.369884149942189211 9.4723471573189517159 19.407497119552150622 11.763582100175284495 17.139485597289962016 18.894224932869239097 7.103938221151243404 19.078333100355461482 9.9889500096472634283 -6.9865947345258394563 -25.124982408047433324 -6.045944520103930131 22.325364673165225327 -12.997840209684259349 -3.2273166978022800322 -7.5840925686335678435 14.924071070636642844 1.7964196901598992184 16.204327269063192318 4.2538196148375915229 -25.33633734898162615 4.3006378621811540697 2.1179629906732566624 2.2929922710380510331 -16.568375418501783969 -4.1877186342455257062 -6.9248465029976209451 -3.6269717059939492465 0.86479779309503079787 0.32508161441891525456 1.3483079277440639387 4.3197551631405231021 5.4822146516595378074 1.9610631224261747541 -2.2946660631815705145 -5.6317821147623776668 -14.742206479000472541 -16.72524108907379059 -10.422735032315864956 23.941922342773111154 -6.2892805627287851067 -0.35674865992072118948 4.1150496753632470615 36.232017667066998001 14.20264731451445428 17.005327807288374231 9.5564857610300411039 -21.843064822886752552 5.7509653929226525193 -0.99356929408362926193 -3.0588471901915461615 -34.865634896024580769;-0.91604480627487250288 -2.3087540580184162664 -25.249958646564383713 2.7404326291083593858 -14.446195068208321999 -4.5192109913605795768 16.930411133453532102 -11.067785540665827426 1.7196613596832459603 3.0494174786562551205 29.309770382920447673 5.6405654404728808871 13.19111639839395167 2.1971434373484024505 -18.114407330761814308 10.967694082733144612 2.4016893468954161328 -4.8346254376726252033 -3.1580624806524175696 -17.776897958338558681 0.9443797940178291217 0.96454725136222052573 2.1929504741877647866 0.37266488372231443282 1.5256384362104820074 7.7601506083221405419 -11.903800885155753519 21.319261194668463588 8.5553560252215987703 -0.97589917395645553455 6.4472172730935080054 -15.305425767011248794 -3.5106951824744419 -5.9211017039997164702 15.885189835833662286 -5.9166141543335308839 -12.993504465176624052 -0.30131455900753245647 -10.954267648435237703 15.879953275025368242 -2.4383063065664698499 -2.3206074899165702874 -41.969842444595094832 8.5297874591024900326 -35.951383845718567045 -12.612747039783730685 -8.5802256017085767326 -25.660618956132861257 2.9197369732285221033 4.0538256673790336038 31.50101465119055888 -11.706322869466102787 38.906159935086954249 13.04941119594904464 10.324258449428892703 24.418775497945723885 -0.39759315803636569031 -2.3302480124094273606 5.8030007951208313344 -8.8489672320408434558 2.4965672085076162645 3.2179699578125631199 1.7957920169901979701 0.68988494298722213838 4.8324628018270612273 21.868467120756115207 -8.7722720656060282352 7.9017633984254649349 6.1357596850141602474 -14.419676495506488223 -4.456850737201740742 -17.508166329406410711 -6.1550537375734242218 -19.251407237485882007 8.1382431328586228858 -0.222167821819154232 -7.1132254778981263144 13.993672821302963527 3.1333459243125791893 17.53442970499347453;13.690971568277198855 18.497521819017791245 -13.732689683127572877 -12.848477160899731686 4.4810551976566603827 1.3998272246996232848 0.41926031032593619186 -23.873580534755721061 -9.8541361633387740682 -18.134587003817607354 15.331424140207250417 18.499348999002112492 -3.0305381791326539975 -0.73320693366360145671 -0.36459468301598174644 22.356684934120934827 -1.6904789315886514789 0.44943804201050513436 0.12940699368843899819 -4.7361913097208327983 0.43951888915707365557 -0.77402923423122804714 0.077304660656031698451 5.4498445621661231186 -1.5020188972120174231 1.403230986912214151 -3.5032753697077292365 -3.5839718875069390691 0.82962800536205083546 3.2438055989090393005 0.16437521197204491008 -8.2099422203291876343 -2.5193541727438621969 -4.7587008874511651513 2.6465849972823596303 3.032679161465564821 -4.5380334157758897007 -4.2206851269347573918 -0.59947841486126440813 4.4295259375186111228 2.9243284123808246378 -0.41982086226340786794 -2.4108422542711545056 9.3517918014009229211 2.878380692414558073 -9.0902743702196122655 -8.8497375689740920279 19.275644348220300373 0.21318407939680950047 2.7836683931681580617 1.4848093761387675116 -10.247025989920359734 0.97318933281784603118 10.025230948776121309 9.5828951534864632578 -16.900563716027999561 0.97130996277161818497 1.5876531801965505508 2.5994757291605505856 3.5704125303979443729 -0.2714977985730796517 0.25444120845359990968 -0.87131402882151265388 -1.3244129041293251081 -0.81699067130774594148 -2.1833231812945848027 -6.2214714633706842406 -15.932338514739614155 4.047427011634898264 -1.1975398053775827556 -2.0061890611287838126 -14.631788436766827388 -1.6765811063821509652 0.59695194841745835568 3.2928424013713439855 11.771283974428737196 -6.0350752219648144958 1.0023287413996824213 2.5675475906550615512 13.230252622294047526;-12.592219793068338163 11.940398970074380003 -0.088156734267036074293 6.1073257356013641584 14.467484225917779384 -12.942272448659055684 5.9553115965137211063 -16.530502475732337331 17.769205580531551192 -14.236757445891115026 0.19824414772113596594 -6.9989118904133116317 -13.626670007173423471 12.842631526238761808 -6.5120983584089797702 18.900708490641619619 -2.8045559747506945136 13.676603063088585088 0.78042809033530824436 -0.62968605679064726388 -1.2468723816887872236 0.99418672413327491277 0.84719578450599219988 -1.9774140368425898728 -6.8388970976879681629 6.2081023159532149336 0.2017673395141129089 2.0567111522859127248 -0.1040458723436055305 -5.7962349040726941496 1.9204806717965505758 2.7136774415548039485 3.8185808810574184413 -23.709924186885228181 -0.63441167477403892505 -0.38642056383432732414 -2.1716208547241313553 6.0351368882352733891 -5.0879146033211517519 -4.254335808156605836 6.8393031941813902108 17.798870646150216857 -3.6369119551806754487 -4.5718950556430035803 3.716585921870278586 -0.87898979172538727056 1.8479920580667148489 1.6810611450546928403 0.30398249135725846637 4.4593151546495235493 4.2593460088271051234 3.8633155311718043734 -0.99940437608072807407 0.2077005970576867866 1.3573882431196648835 0.15417748869262223876 -3.8926558232163799289 -4.5750185180508857741 -0.13962993558393710369 -0.68660920192744567814 0.022915936137836351305 0.14522635380530282689 -0.11786429988180358031 -0.40721895557900067431 2.7208461455485162261 -19.034801951331949965 -12.526854369844501846 21.01156536102547534 4.7741333638498435477 -8.6369284922282680839 0.85981758810341535337 -4.1492592064785664974 -5.1105704685562329814 7.2016784685417176703 11.803036006841001182 -19.629984400133153599 -4.7058078092319197694 8.1231851454095682641 -0.96926129567849617086 3.740399121852657327;-6.6995473741461015749 -0.56763634453324673945 -5.44239412506876441 -8.627586026723964352 -3.0791194615521635392 -7.3655173204645487672 -3.6640795489222908188 -4.1378862041260440208 6.0078926972148476437 -1.2501270163627302701 8.8113162253862640227 13.002777063154743686 -9.2478970919675891338 10.994925765419651498 6.5345022286912115561 5.6795794953113452053 -11.181418510399803168 20.364756796211349155 8.6484535684734407113 -23.858829968962741219 4.5948890469768297606 -7.8022431532205080984 -4.555892249510701042 16.62253480310426923 15.1539114423528396 19.672468214960336041 14.190211637682125456 0.025527920276162380242 -0.18615095582187030088 24.305842971491326665 -2.0657881405151252707 -1.7044351036036715641 18.069164317802865583 -35.129217181234096756 -12.459584288178392697 2.9015060951756961316 -8.6246149202102024844 -20.86495843377678483 -1.0938746893563517926 -11.277035206963406111 -8.3561881003468929663 7.7864328990583331347 12.162313279962752688 10.964758871923367067 17.17686192342027951 2.0406196951764901115 -0.69370764222754566219 -8.0384962397057488914 -16.372765444337801455 3.8694636035566332133 -8.8851307656869504825 -1.1128950122279555046 -2.1576649008930885998 -7.1101028847641138952 -8.9009085860464995932 -5.8692043941818594632 2.9224012364812153031 -6.2501043037069674568 -19.630116885230872725 -5.8000076109332212582 -3.1801255603179368059 14.273251318450942193 23.1347029476954269 19.382614548616555084 5.8155384330430228701 -5.506232296994253872 3.378617233800576436 -1.6096898136329365059 8.9027215991952779461 1.120824283273521349 -2.4134542067902513551 -6.2273152397652662415 -6.0242100609460775829 -1.5001338136815367541 1.7232839984712191583 19.753502444880318478 -6.6139516729725489341 -11.82628593115450677 -7.2596211479699901403 -4.1583372671715927993;-3.3378406985009059227 20.099853705137743276 -0.65663475532613568841 2.7580413204039868624 -18.564506509059697237 13.797051392326448394 -36.547052667006923343 11.987131278696056214 9.5562218044981364073 -18.690773231844062252 -0.81701711431667489727 -9.5892664774416864759 21.152311490029010344 -16.542162044154586908 33.656256086584519949 -10.614176568694560387 -10.08787266337187738 2.2246339185225951773 10.364096963787076788 5.2587826930801071512 -2.6979639952242546741 -7.9170623455029023319 -3.0274703123475434907 2.9633001449131772809 5.6131754254721979436 1.0770479858298180886 -30.011438780656646941 -2.5710660798090199108 7.0120955045369353087 4.0512625495802678799 9.3888484331927841708 7.7388696090479811573 7.2070882125315032241 -5.1799647193538795875 26.459654082253166507 14.797950483462503968 -5.0383469771446014462 9.7194351358915955785 -3.2482520561628369649 -0.0032387550188782698868 -10.165144142043812892 38.473807490097605921 8.405615189778849583 -8.9753510657738946321 20.894053608186606397 -21.258255472122403518 -17.696707744030003795 38.78078020019633243 0.7004810838782479232 -39.475002362207980866 -17.83685614070146741 -6.7279904056643662358 -22.118823692899564293 18.766010625705693116 16.243902330847898696 -46.222695511490414333 1.6417860421998557996 3.5241440020729264404 7.7231198078753324765 8.9945124629596424626 -0.57787206925862033557 0.90441941681810478215 2.0037089555116676109 -5.4787322461983309907 10.29190632618944079 16.56727890540625836 -27.510166604071379481 -28.17919111434456525 3.3760801983783346181 -23.308256099474089496 -3.9095162085592636281 0.20823703333361340273 -12.258493375941917236 -17.962971449454837369 23.845952825149701937 22.613407671746234229 -2.3576387659843329736 22.481920808468384365 3.912470370882066284 0.34628084846475004621;-4.7806403172412812452 1.8419498455619667254 -17.166270076574793535 4.0526957744692468921 -10.177363054283636856 -18.546779583908200806 -35.714089635483425411 -6.5353112890224620557 -6.4177931040363045412 3.3271779749012009297 9.6273106120274611897 -1.2901379083674657799 12.581937642100760044 18.709279374143456209 39.718508018349147903 -6.1936336741604520739 6.2552920482488154619 6.977830731356561067 4.8676696715295921791 5.5584470553088785039 -6.9929852181868552563 -11.302699418517949681 -9.2546635897224636125 0.34060206349624161382 -12.350104641588888654 1.9812603775355881464 8.1533535599995943244 12.714886254373123364 13.292967022191067628 -4.2925349574330828872 14.084717641647458208 8.6502844589004705966 7.8511477871279060636 -9.5809089270385463522 -9.0914431258546439807 -21.652426291278068504 -1.7158039566773071183 20.358018395570731229 -8.4955407870579247032 17.924613557768431349 -8.6876742677707898821 -1.0239135326980128848 -4.045806300782055942 21.391150386453553267 18.253146970012164019 -1.6201590676438213379 -15.981774307591946283 -23.530556826654123626 6.1056083161204304233 6.9147878743136583779 10.775291194205916412 -19.309298020424236597 -24.910450757635452135 -7.1068467645118102993 16.465800062029735784 24.320445286487647252 10.12452370963984194 -5.710932197055953452 -4.2804436633721012484 1.2643926440712593973 0.8930278991091453733 4.2553600683013454997 0.6364605264875864421 -10.475746713481271399 26.444810781618553364 8.2291214193137740551 -12.162536668348407076 -26.459726985612665118 5.0955938267607914227 -26.527478237480721646 -3.5311362378448283295 2.640542667686298639 -23.880286848135039435 -11.326074953745850493 12.960686272204196001 23.150590451046863194 -5.7934225351645061153 25.137528765703596179 1.1077713697079374366 -10.567056314025837338;8.6785099983705276117 1.4350181761078741882 -15.810974346815335423 -1.0881510931543791898 5.0861486818262839904 -9.8451890923868159433 -3.8976808058821088565 15.739575127825014889 1.0709463825008176396 -2.4634024929197582132 14.996220716885215296 -1.731874461716466973 -4.8791574861754112291 16.28297434982085079 7.2631037228730273014 -4.1904570384528110338 -20.124533248030722632 0.060252042578074066492 -6.1898660271679020184 -4.4686583113285456292 0.88112899787832266174 -5.4950819245148760928 -1.99600248561082938 -11.419741659194885486 7.4208788414655275645 11.793712273536979041 9.1278623140486274679 25.352104542537098553 14.203972842835508317 -21.15450091740417804 -17.451546176453362591 -12.780820858727151901 11.76706655929209866 -13.399818276284259255 6.9727269679566283855 -17.198382037991848392 -27.872499223292191317 21.166523088222767512 22.628868912822291293 12.832800756395617015 -64.879584662527065575 -10.549345271518147271 -9.1700758988750106226 -0.744612068265165572 22.136263593056078491 1.3983926115610711971 -12.971244980673455771 1.2676552301704970827 56.630660055947316778 11.851391124796581522 0.01929306808605145418 1.1602807478977996691 -8.7710327989720830999 -7.4022747154736112662 9.4477015230658132339 -2.7326757999016626499 -6.0719325868860511974 0.30078772530217845471 -1.8785814731174090841 -2.4934142979750411051 -5.6404227868686156455 2.0801563045638142846 -3.4443893201851381036 1.4841446202239994001 24.722264950202141875 16.045374239745818556 18.585609306769573124 6.804590319883155658 19.869686180754648319 33.618050885338917055 8.6302007756245284753 -8.3020710403529385246 -17.869165982197635856 -15.357388621007496354 -17.62460538349881034 -4.706351844234086812 -14.911666304847937425 -32.125544489079146615 -8.2916237724073891258 7.8727452462231681807;-19.127344710205729683 -0.48930053201810252972 -0.50072813322947340442 1.2446025800434266095 -0.54216191792221568591 -1.6355019660148404359 -4.9301386580724333442 4.5543338998299374154 32.567894800484523898 3.4893670518283665949 2.003306185950913143 18.511770803334314905 8.2557481093721509779 2.4005642079326889871 14.300470641310312203 17.694360379316112386 -7.9586454193595850271 11.659700514547708394 4.6033459287266005333 -3.2698479254212902134 -13.111969540124766453 -6.4468806764308492774 -7.9990095753105503462 -4.949517664556125851 3.9365814485419385882 11.590085958690538703 8.9390889095230257055 -11.10674977165117383 -31.968597118702394511 -6.2410951576089619408 11.708279912204867301 -8.5105433552923521745 6.074732820492630303 -21.063513135566683587 -1.0482354993507316809 -4.4612151393917729436 27.79819003841723557 -0.80875715119645996687 -7.0944651339546567215 2.1980248192539639795 -24.397230318848151853 -6.2166723173309907935 -3.395463209939765914 -16.474156766269544505 13.3804171492989461 12.03127021138693209 5.016203165234680128 -12.834172904248893232 4.0149343810745596883 10.692206752519444635 -6.6247534403405063941 15.948805601070242588 -6.2011075773526549426 -3.612745662944286007 -2.7191227751541071633 3.2627926667694353569 0.33888450694703564636 -5.2556359354216528601 -2.1334197489630093436 -6.2059972884026244344 -11.169659167226985375 1.2923824255427398544 -8.2656441677552798808 4.1673503459017622319 16.206378668553881539 -9.6746526141129667309 -3.5029333604966041982 18.095135713397386468 40.060241391481611117 12.236899800837411689 30.497916825910806438 -3.1144742186611278356 -17.248787129772960469 5.8212259866327071833 -2.0140818785428349358 -17.133280668153201276 -18.516394259691825397 -10.061482378834998741 -30.440527524741906262 -7.3699587985926484635;-26.835954925440208996 -23.167608190671110435 -8.1266855687632144623 -11.024871565298770548 15.560515466874999646 -16.750025586472002459 17.663121120358173499 -1.9434469224312627134 26.355815619386635973 17.588657432490990118 2.6805057752784771097 0.8378738220028054684 -17.572599043899838733 19.06531492631792446 -22.891614519203905331 9.0064838241777280814 8.3672716042505133061 -0.79187027574589663459 3.5057962756020120132 0.47860427254823240117 -0.93876525284491818546 -3.2815965592301279408 0.93172651204082235221 -3.8137533549828805945 -2.7747344551927843881 4.7547543625282795432 -7.0032447627950000779 -0.62453805994108257948 -3.7421755375311627212 6.3523497566239859324 -6.5521227753867812282 2.572269618871906971 -8.0957434736558742117 1.1063864003106091971 13.042538538429468531 5.52601101580512033 11.921769463763485675 -7.5780789343844983108 7.7763599688343347793 -0.12735547821498852117 4.7778459902553631622 -6.0665925689261550602 -3.4495029620177102281 -7.3655438284702494656 -6.472592798126145297 22.022814255440959386 -3.3897023954272751389 -15.991765405067795314 -3.2192088419347579809 5.0108365526397822265 -2.8464870703265301444 8.649447605999501576 3.9705755177281218948 -17.883147743198708923 5.7869097053227820382 13.721717518980911521 4.5249942644182414853 0.093775254039648814341 2.3272244715089600575 0.89037766972751475336 -4.770395836798704714 -3.0130566500008040265 1.0882042846482669063 0.73789127500087758893 -7.1865546785125067331 -15.701270347984502607 5.8487058775775135899 -4.8862628460540058484 11.348760514630161111 12.42633177501902253 -13.077672790525763702 21.976192731688151127 3.264365374271756437 19.147733784487446229 -5.8736460392384604035 7.4607084157087646403 -9.3495064301667927253 -10.164680536402844524 11.150668560551551423 -22.16371910340538065;-6.5156646196808996052 -1.620236597888435881 4.6606723687317996863 -25.352560201164877185 -10.963073432029945664 -14.350282134390823785 1.3957683613450737603 30.017465618018000839 9.3065714516474393747 1.9344952029782251923 -11.489144960720903299 22.722439317259297553 7.720665884842860649 9.118382330418766557 -1.136531888549038749 -27.713077800371518578 -0.40648242640413201343 2.2163717495387298406 -1.0542174046630594653 0.19200551012989477973 3.8075451678725178439 6.7516641969294406422 -3.9348796870338489384 -5.2942533356127832178 -7.3299388120046398143 11.773509503476129012 10.684423819585362025 -4.2129457813113626585 -1.1567193474183057322 -9.9135556356509066944 -3.2103884343844457661 6.4319381920897367166 7.6575856836581897014 -15.859344337710162165 -9.0371025701418279397 4.5840551817970283111 4.3340618915687878498 13.51289864586108358 13.088293068746262193 -5.1901837031568494041 4.7026215873285561742 36.605598943699348524 -0.63892649979881599442 -15.146974211032279811 -26.481640771258241784 29.552934262478849803 14.77746844230951595 4.4958894220964147337 -4.4023243115543584381 -32.141491685736561124 5.0279411737387986747 10.875597802831881822 22.783523011003982361 -36.296523146515582425 -23.997086834232447927 -7.4434938976032034574 -3.6362134527943235085 -3.1374110193524078483 -2.1677866107008374463 2.8617169270843962892 1.5330677320614429782 2.7358933678798851297 -3.9158681368829051372 1.9001271534191968016 2.824162408905336541 24.565689176892306023 -16.540152905720454157 20.386519638228289608 -14.315266202769993953 -28.926022208431216853 -10.461497685007547176 16.522888538013553728 -2.8893367869535024894 -25.405259575096554414 20.349122577572021697 -16.596442781470031491 12.929739268288312104 27.515640491697180181 17.99466330948686732 -12.202331144578856481;-3.5382118752573799014 -19.139736777813439517 -5.5817681207069496097 10.659692700595609693 -26.783146508943779907 -3.2654227605007237756 -11.715752096603607058 -14.980704782772741979 2.9462586947780167179 13.619942390614824035 8.6216275218173574757 -23.680482059654686111 25.880491220085968251 -4.5947104367779276757 21.340849437846234338 -3.7118463077986008081 1.3785937337652884871 6.702014352598300917 13.147723173027006993 6.817876737922992092 18.632202826703085918 6.2044800810167757277 -11.010480330966828433 19.393889444650621812 -3.4152110278170448865 5.6906655511968091687 -13.636841936270494458 40.694186219822604755 -32.077143653575717508 -14.211461260080191948 -7.6121073678100987792 0.026413907245901008247 8.0703039338001865133 -16.024345095495068136 4.356198885229556339 -36.822941529862077914 14.758882346684753628 33.388689138250718713 4.5539029599105704804 0.64536076666033315163 -11.294131258289985098 -9.388530781982069584 14.690864123181933465 6.9838885850326457572 8.9903955033979610079 -25.719962670711424835 -4.5891411393371432936 -0.33645306578111378037 5.6779520099706735081 14.198537546891564887 -20.139251276342506003 4.0547455624104289384 -2.570966199828112142 7.5795097776738726836 4.3892635975530644998 -2.3303856895504422297 2.0153047560084300649 5.2930547630079214372 1.3209417104327683123 -4.7216698120896296587 -9.3047748009035906591 2.4251065878532527265 2.5245662088030123016 -0.37725777353799944125 -8.8919562467464654532 3.2120462191448320155 9.4768646445570858816 -6.4868469034840305909 -17.703671474755218185 -10.556438420644877141 24.712757558189149876 10.250963633016320742 7.0776399659546003207 -3.8152546042628676659 -15.267773756388514528 6.6931727771326334775 21.41805584780463434 7.990025729584702141 -19.554001312206533925 -7.4209007422749078131;3.3002383409618767374 7.3700646863125864883 0.29861928387384673034 6.2669507011667073826 -17.199154872627186563 -3.0176881554736914026 10.62970377223665075 -13.246565653408458374 6.6153859799348193604 8.3856928875419942671 1.8230819683821981592 9.4787066212699464529 2.3102696195550707081 6.0400054613081222143 3.5060898056312841398 -10.297832224394365852 -26.089219777186787752 -19.450794026066709819 7.896619529186712505 -17.766106640903238656 0.08676166592574978409 -5.5865582085884017971 1.8132843687703681379 22.767199773325668133 15.841339331336465435 -5.3253744701392022876 7.803765856510520571 7.4094375091388240406 7.431439045243522834 -5.7591927904182771414 -24.492179170357822215 -27.968705241946405948 15.482547551406659281 5.34632517911814098 8.8396238069410468796 -6.853636395688275762 -5.55752157743945574 -24.144572108793351362 9.4916130702986105661 -31.125181512001898199 -1.7554480773296154972 -7.0337940272728287638 -7.1104317846307809603 0.69268073951241415642 3.5269792242150765915 9.7457633362392357412 9.9831827072067103046 16.503296157717311843 4.534655678096747522 -2.3413876352604319209 -5.3557025494457848325 4.694551234187020583 8.1870948711404860632 10.962475062808968218 10.686769216656989201 14.34782257479036538 -24.987791351496010606 8.7711548092075926064 -11.780225095210251851 -8.3962315238122542382 4.6705754104572836383 15.592250874070597177 -31.658371430617432196 24.218379050793892304 11.794100078847071345 7.6923055308104775207 -3.3134236762046556102 -1.8293423440431193505 -5.9739091573646287969 -8.5675500849688717153 6.7590847891741381304 -5.3603966008440693258 7.2897069206769167238 -2.7387024825041148546 -0.22871659649878961496 6.5762594153228137728 1.8589159382734545822 1.5272905039107391723 0.71862447771195026025 5.368713174108036057;10.335307161906790441 -17.701385185032023628 35.723319630842624406 1.7595098381460092529 -22.075486986364985853 -7.2564921591560338499 -10.003994638466201295 8.1634923925872602268 -9.5546613831879767531 17.912486645023317777 -35.626884648808008649 -7.6846716178090943572 20.379280975862915426 7.0507174395173644044 10.824711838793659169 -8.9405159421366757755 -1.3059229933571430138 -0.16447292814548014617 -3.0952048284925650634 8.6900231336162896412 2.841480182985353764 -6.7678847961751475992 -5.8594691385605406353 0.260725677442847803 6.2291087722091109669 -0.38449012941280930056 7.6219227068829171756 5.5406052052693990362 -2.1058158789477472439 22.53776321907408331 13.24592493142895222 4.66737310307019726 -10.899671309617012582 4.116313920299196738 -8.0765136257465339753 -8.4458592994149608302 2.5022085167231220559 -23.786045317265944732 -7.3916377007137592514 -5.2778849115311308182 -2.4202157850731480515 22.535655607212451201 -5.7473595423108942981 4.5284306341292390741 14.705280801486795283 -16.599413866212742619 5.216355283206738136 -12.194365022576850066 5.7543412490158916128 -26.507033588288319237 5.8277169892198017465 -5.2877195452335961079 -17.256785993982404648 25.524051466085925455 -6.3194079203934805378 13.567378559199902099 1.6622043061112954376 1.7449065078316821076 3.1951705372550303075 2.0832376998419714909 -0.42602363315477020933 -3.9801922265095899256 -0.008715340710631319654 -0.57600433377835014159 1.3038589826545050609 -2.507881563143778969 -8.9525992550689093008 -8.1477265471942121877 16.708741293988211396 19.747494949391658281 -3.4262220278090080861 -26.534990395843056632 -0.50967532603821341652 1.6113556208026573735 8.9072892371130745204 6.5287415724440558407 -16.256240197043808848 -16.539301031867186254 3.817707103174354355 27.426724859667491074;11.093236410680342274 -6.8156622007283802489 -12.59252600251470966 -15.080516978052894927 -8.2052678510360621544 -9.7697158300428732502 -3.9411979764265292481 -8.1086559915664579989 -1.9918669963857840166 5.7843965522555462755 7.8527331118138716803 18.262367709860829024 8.3817687840927934673 -0.33975863195915245729 2.5980211495862284288 11.00990572296530523 -2.9503830020622707764 1.4796280395045560141 -5.5096062883348562167 4.8422233475493170474 -4.1290273031649071811 24.077681630122647505 -4.4999606794299564783 -9.0611440726974041837 18.322622026990082134 13.753952142894908306 44.647301098044295031 -12.704156337545917665 26.216542383867313504 -24.161176677974932403 7.5040236991112267972 12.195499204356458733 -20.468709234527214136 -26.771774067744299686 -33.205164212074386398 -9.8362187294249157077 -21.926465177686804253 2.1745358491090951425 -12.434675039813130937 -6.3903802355864538498 -4.8071973172918793793 -2.1269441987688675333 7.8791074391794264642 -1.1011187169549039311 -12.873732788246876169 -0.2555437106053661811 0.38030054828814496837 -17.445543415543223631 7.5565949948297586047 5.5665765407495264583 -0.47684396518034044554 4.5938209697900473927 14.803845693491981095 -1.3095576173125580421 11.159301074703771306 13.899143325886990752 -7.2847294053019107096 6.8689658180319570491 -12.193175589013840465 12.365522923582869197 0.92658587285262505873 12.157935693225635276 -2.2071366939053702616 5.5934818194361444199 3.8663175193700123344 23.459728695399693521 -14.073464611624883602 4.276408247433940879 -3.6829522549807700571 13.966436118138860323 13.64263415968295412 11.497211554912517784 -4.3962207795425438661 -25.369857459736035565 14.390129225465091878 -5.0375621017573495308 -1.5239857225302424482 -17.032854199660931727 -11.553266697733164392 -13.352630262455592813;6.8296826473820706482 -1.4520842565305984717 -8.2915285020086368917 -8.1214817983759388653 -20.692705581332553777 8.7586112817894470339 9.230887560489271948 1.5791963061378482269 -1.3153780726752266617 -3.2156285151672623357 -2.4283997802529415644 -3.4942707918715476545 14.758052216251236644 2.5254480605297970897 5.0599203346524213032 0.43985004325472332187 -0.59180157589538806562 6.1396465385336460585 14.505125219443611329 5.0781645001488939783 3.9386234561662321063 -8.5705569572942064127 -14.31752670594616994 4.2027422725676970572 -39.931369939661202295 27.517338252586210245 -7.7831101838809439997 -14.603024311941336322 2.3510427726102181012 -6.3589225803234805667 7.1216374704720832867 -0.44724214287701213877 39.140290001927802166 -33.7183491783933178 8.9356621638037694311 15.375676131243560363 11.986381119180723687 8.1766058689458667175 5.8076232058106969092 -1.0013880306885745153 14.137820256160232191 6.6849358002455465666 -0.36790920296865459171 -4.2857888629620548571 9.1539398185689719867 3.6144963020812994614 3.0133659796919864959 -3.717081727428495963 -15.292342808052149294 2.4120210802264390182 -1.8589040114794692649 4.6619463733804664685 -24.656750406064624315 -8.0478089861446040487 -15.380969526675663417 -3.83269562880287884 -0.74633432060945814612 -4.0982212469927556953 1.778021849482589678 0.98795431189636973013 18.962126941310007311 4.1203746221721058163 0.59654724121126712078 6.3951334751752924035 -21.216508871260867153 -1.336274393783480452 23.266214407048703805 20.795055230027980286 -39.899580402009249269 -25.275916958742989493 31.102222419996980562 -7.2394084095648798538 20.448388099069944701 1.4553169930912774888 -25.327668965026980175 -15.418243746683652162 20.526634930635516696 21.50778080312986873 -30.888422714442373973 1.671461107322083528;-4.3146364427073891079 13.354815161405371171 -2.2025160414445434931 40.674513900633918695 9.5211084405662980146 9.95223092367348805 -15.702507807153974539 -5.0965341653033062741 1.9100641539639082733 -14.154490540904353324 5.1604263820542151109 -45.185805479532525908 -10.574752726793706259 -8.2939221007247940776 22.499556943296241229 -9.484652262230525821 3.5600135131279060374 0.32151852335038522135 -11.477466353880906524 2.7546125153189078283 5.2783996116924294384 -10.116309784455173926 -9.0736555171003523412 19.980825523224414297 0.88430300171136555498 5.846019295210496125 3.5077042100255519941 16.508380243105502672 0.44723010007854624437 26.352824918022800915 7.2992446055857511666 2.2104376829747902633 -6.4414490209663775033 -10.377645813140327746 -0.42380447157474143705 -17.642201761256245618 1.9117585383688262546 -13.518258085970476401 -0.93281188918488100459 -11.482564063923913267 14.111284275130349997 -3.0223913001292577185 -15.269310639831072507 10.825377089071235304 -1.5288529699256776517 11.354525069259249648 -23.108618283987791386 0.90034794703801079852 -7.8995993420294956522 11.988442420519010767 19.535061856573257444 -4.007626016550439374 -2.5043928461533488949 -14.356147184317173071 17.642406042669808386 0.18522508055075009858 -2.0941194613953642012 -3.0301728189046075457 -0.79063403029077516937 -2.3645698253567597469 0.69392047445736138034 -0.30540456612296235095 2.3117426414434980586 4.8349965507730878755 23.670217720682348528 -6.5047414399480869562 12.268342521463722505 2.8837849405071653841 -26.039070534088224917 -21.971072371425218961 -11.073879215133706211 0.53755812072586528494 -24.889279807829204572 6.521560202630020342 -10.029334823694972201 -4.5248892728346685743 24.518908841088549622 22.971215443659083633 9.391208220130163653 -1.742442825571739462;24.327746959027081175 1.1994989847160253404 17.313320855389253694 9.7167572754740962893 33.890544213418031916 13.71128455455049 1.3837221316647827507 18.926501549326555818 -22.238232439605098989 -1.4350691203385819161 -20.611248364364421093 -28.690199091427551537 -30.287444715732181777 -8.5771161934238921987 -2.5634249335372443213 -26.474426999163647167 5.6517825142879631883 3.1887769827935139588 -1.9775506005241374474 11.542859875347662779 -4.5640688005522260795 -1.5062134707926797539 0.42483827480032343438 9.3265610615599943145 -15.987532386674498497 7.726231427862020773 8.7333292547698810893 12.548033287258403945 -1.4859293880560742185 -2.1220817888155600883 3.8627631197699940913 -17.876678860702860163 -5.6890886795517410235 -3.8930120928439428951 -14.088187377639849629 -19.097268825290026228 5.3252791001199160092 -1.0452067663472885961 -14.356888672342213553 12.452007367502279322 -11.192041068745751886 -18.111067887444214364 -11.378816873097257201 2.7411250589297555535 12.458861127797895563 -9.2264851875851672247 6.172767632660154824 25.208162434963568899 10.16697548945331242 17.263159696139375399 23.991397964359403971 5.3690344958656810448 -3.8921740784126876989 9.7903376846829974767 9.008477328040271459 -14.305309277738937013 15.675943651560555026 -4.1636898743915402576 -2.3774956920683321115 9.9169990334772766261 -12.337867716520579009 -1.4758976444411819884 -7.1999040906610156654 -2.0208613090076150698 -1.2658348531100755974 -23.295338130508120855 -26.702378112863893733 -3.6561422705854509374 -10.986043961136759961 -7.1181303633560926158 31.941121361967272918 -21.704009800064401503 -2.7504123098569457362 20.206920277327508728 27.872577874030376677 -0.88376718957957711709 12.744186604122321071 7.4264459801747442214 -24.67310267403894386 16.529730231180380429;-14.707591065884521697 -8.7813181872164669528 -5.289482720987102482 -9.5042384721212123111 10.754905726982993741 -2.7106097858385203025 -8.125196979436600131 6.4853912218707590043 17.388276183778863526 12.815437378972854177 8.5770566431737123025 2.0349205338230786921 -10.97065243495930531 -5.213736795410197189 10.548854979114778985 -8.2566927526302098528 -13.566390792015621258 -3.2466292872814301873 -0.10702131973258166564 4.31700664924608013 0.68797763433631131669 11.448482762081809483 -4.1937395694471257812 1.8065461949616667958 13.168091174188729653 -4.1375296341566070168 -4.1435563254997012095 -8.6895598367965867226 -8.6768755758197126937 -5.522730760426846075 3.4422239063678126136 23.506323659415468086 -3.2919293038220565073 7.8324383202563767625 4.5215400950940356495 12.901041040592673426 14.731855495975324288 4.0598931731090406316 10.607298418743379642 -21.196085882780248966 23.555834224247888642 -7.0083371552367079715 -13.581079405109090175 -18.512192893475877042 4.5934336396603807628 -2.4353723737119969961 -5.2135115295338394503 23.355838220344686817 -23.327139104379867263 4.0978310179525205825 8.2355687253461713482 19.913297709137200542 -15.639931313045803307 1.8692459743388214477 -3.1668527005886724091 -22.30585688776414699 2.0544577094208396062 -0.7780067755603534696 4.9679252917067122652 -0.58411681579741048242 4.6423126237960046225 -1.2610655087922229001 -4.236026509510479876 -5.142904473259209297 -6.5769538945031280619 -31.74001191046644621 -13.815032120431016693 -10.717249538560873034 9.2000466264061078192 -6.0432837942635240225 -14.87720380893285288 -11.267745087523483249 6.7545803473253345217 28.647782957091845191 9.6322997889025252505 10.291214067631175411 -10.106268137608124036 5.6817160561577946254 15.184859261763635985 13.012629328045543176;9.8219939892365992762 -6.1490385963234572841 -5.3607787588154618419 14.197361811918895569 -12.315327378812371606 -4.8262474443271221602 -3.2936042347973479849 5.7255682607409248419 -9.5047562749057767917 5.6367087451272572807 5.349693838277624458 -12.381854622926921294 12.564929883696638768 6.2277926472621434328 -0.4411489341788183971 -2.5404643317454520535 1.1869987453420649537 0.1530343396422525204 0.5393994335504553872 -3.6685337352834128666 -0.31968281088714667337 -0.80348254640784899649 1.2253510845349144809 -4.804649384606948459 -6.0987680437479516726 -0.28259350059851262582 2.6860353322742969162 10.083318843680523003 -0.74357791515409410454 2.706003784625357067 1.7568225654315303697 -4.0010705097783212381 3.9217454339698343269 0.57240347709277439314 -3.3072516410539076759 -9.3399458118102920423 3.8560378509106825184 -4.7898032668718490967 1.383143124420075587 4.4367523879532146935 -23.727720243239303954 -1.3676307299775332105 2.6172795879248553774 -6.3119397454554144744 6.0018502241874038816 -9.6949522588010861313 14.29535302743547831 0.88641256384405964219 23.119390642417428694 1.0442898552436095105 -1.9872778547003573379 8.1444418639677795824 -7.9432103695329310256 12.100469939008954512 -14.664808950454473191 -2.7989622099947149003 0.72774140789440711075 0.089691449712951898388 0.31077214088380089585 -0.7070845444490300169 -0.43653338857741186274 -1.0558354141503092372 -0.90797053232943158996 1.9518919922011903623 12.276587847993607028 6.0902251969995297998 -2.5413909930286626704 -0.49145084997931548498 -9.3672880493529380175 20.727372785673203737 -1.4573210340039204347 6.532282853015689561 -11.85327195595684735 -6.0427610329562924107 1.8393148064409472475 0.65784561473010538801 8.4986814116537665598 -20.624795062680920665 1.7695916310593071685 -4.9819401649544374777;21.946813816607143366 -16.415514146174999155 -7.7459602128914468722 4.1761423546736535783 -9.9410739052726260212 -1.4477794436987596605 -4.3983500747057817648 -17.207731251498987746 -17.307870446185638968 14.002213905991215626 7.9611703910469096002 -10.975094366866890994 2.2419136831730286374 -0.012784433437914542731 1.3868878282932755042 15.391355784074114865 1.4368977179173816339 1.8621106023132056873 -1.6747772174887873842 1.0856613135885582189 2.3205711447125203506 6.4697422826679673591 8.1414770879289282135 4.7971587831960924575 -20.741772175910590192 -0.70486993397530683936 -4.2604111281622083496 21.240084628393024246 3.4433264774413645526 -28.143815747752633172 -3.362476389168655988 -12.125846400514681989 23.831722718530670591 1.0812385336573648864 10.236539605994563473 -25.23102230604590801 -6.0446094373143335332 26.998610240261537996 -7.8036763124759271903 10.021017233070351082 9.3003748608070093695 22.508937246625837503 4.2125910383630449374 1.0877557343289430136 15.582340249606220439 10.680754842773341196 2.3944874504522917213 15.7845900120130338 -16.095328887343004709 -20.504078361954690024 -6.762998612657378672 7.2540893258305025881 -11.93811380398965305 -17.239032215543012683 1.8063307481227075524 -17.430176205384452004 -2.7648651966830630755 -1.461040898277269573 -2.8177752612283213374 1.9589826762394042525 3.4931261132057707108 4.2066432817515986287 0.33951514108890007426 0.52679518209279396768 4.3959057479686656222 -37.795008374432974563 -16.280257644012859686 -10.452512429731221744 2.9037319476609178004 -29.232396311949898404 12.342112552326160113 15.496451118032302574 -4.34840172019254112 38.6883696177963472 17.316167533322882832 11.481995627039239594 -2.2341414668335466409 27.539477821534823931 -10.749459233820024551 -14.65213660874771584;1.6766215843387339834 14.449373284573749032 19.285165850413587663 1.1479914973973779357 -17.326881764316880208 11.853159319853837417 -5.7286858978055601455 -2.7963220594560946886 -2.471184016262472305 -17.618486506019120696 -14.283795616753707236 -6.2038168423223218895 13.727405854616705483 -17.370049221899588332 6.3467759493219020328 5.2370889390598165392 1.6817546691330149677 8.5640463688542798337 -2.1152561924701189788 4.9987499017923910927 11.853614023378995057 1.1559110834620334174 -8.664197250190149191 4.0173167002569867279 -0.48906914129761586141 -6.3089744503111226948 -1.1046389617657781379 -2.6360218093647973525 -14.314703948791654753 -5.1321037029737839319 16.325267845210252204 21.437913740401278062 -8.7814312735720445602 -8.1702284520532924006 -0.91008371783097952168 -9.4755692309627121972 -8.5134116641442680873 13.451926932873355724 -4.9709707192016230337 -25.014211082271465614 -2.3651204139181007946 -8.6541396082461261585 9.4027363856801624564 6.7053043258824045481 -0.35245720436229899253 -4.8752286118145047311 -4.6106025546154123518 0.9114240936403958937 9.246061641626882377 18.191107266932128539 -7.4114413726318364439 2.2662797132002845402 12.037549112293284281 2.6668640489149395556 3.1831216100015988779 3.6092212964410030906 0.24048205950392786967 1.4343489699335001397 -1.0434329510148727671 4.0303225674963600866 -3.5479317009711270892 -3.8023468391828014745 -4.015461088220911634 -9.6203797306688088042 -0.31520093648679026188 11.260980345705043248 12.530485821882217934 12.194270765965836034 26.900704460232031323 -10.27829269683613056 12.593034435253494863 18.218963799459139352 1.7308490354693883972 -12.433897546542658219 -14.670809755952783249 -12.333067752063442413 -19.087049187156111429 12.971017063541227188 -9.6821559375134214065 -17.846944921073962576;6.3509810472566163853 -40.471288696466665158 -5.3187746042258190471 -21.306274035031254499 -2.2206890954990554654 19.021098344018206205 -5.7850987348979696634 -10.763753386573647219 -7.1500395063525781225 34.351180049305078512 5.0207231469604689522 19.65151576900817787 4.5640641109481006055 -26.766772815315153622 16.081271280577119853 2.3341944785296835363 -3.0912624914890414196 6.3207316220773632764 3.805134123861466211 -3.7493805298418192429 0.82186209768439077994 15.411572587005563761 -13.487952749732274427 5.7048528317942812649 31.183720906732787626 -29.559174699588425028 -13.129950468297376887 10.887789973530550114 14.26816383491343565 -42.108122043595408002 18.524619473860198582 -4.7402849317292874431 -29.339334618778689645 37.117264516248290818 12.83017135802167985 -4.9949396407352821825 -13.916136051747656666 31.962537925800301508 -5.0474769256094349501 -4.4786546505216877634 -6.4773933623266088944 -10.903212165013764334 5.2432640920472390889 -3.8700507587658896647 20.185289240705181157 12.691665534136850724 2.8005095249213991515 -5.3191793338661259583 8.4242001043035532604 -4.062176098472529695 -6.4854800937221934731 6.2444678383869014482 -19.179929590108347526 -12.946017138521908052 -10.547528094018916889 11.339555624016668389 0.87725843417725102302 12.766086756697164972 -2.6197231752736458432 -3.3441394150298187071 -10.752437536273550478 -1.9128121339985697524 -2.9102858638784994127 -0.96884791919162893681 -2.1947156188083725148 -37.626739105099730409 1.0907607194960435848 -17.971709051402807944 -3.0002963987910162835 42.779604234896403625 26.609656609632150293 30.668981958012096811 1.0479616945971927944 32.609167909918959083 -1.8702901063621162336 18.416220660009454235 10.510555353067870143 -37.674004009482828792 -26.022189282960912493 -25.644913654167108774;-6.5522851726353934509 5.6919946121739180001 14.128841069341088854 29.081627348886463835 15.942853213548930924 7.5574030615229341734 -7.1608551156857096487 8.4620783067905289698 1.2447295480116888911 -9.7839308768128052662 -18.263056511934877335 -33.826496523439097075 -9.9793822021534861477 -2.2858821065698702313 18.720006010562830312 -9.6581271607786725042 15.049412887608099254 0.9935852207427856575 -1.7851505890043986025 11.17660615971470861 -1.6584192161742541405 1.2653689676752004623 -15.419708386682474455 -10.922028998462593563 -9.1683869561889359545 7.7787072321233701189 4.0136592653434419731 -22.675307442728705354 -16.19368935695435141 -15.732462431801160108 27.272302273476402235 6.7473013785304285506 -5.4737373502210422416 -5.0644876192521772751 -2.5954762644031950103 17.317668223047849807 14.884910462832042555 15.236670140428222098 -24.56111924612423536 -1.8962435617212183292 5.6381278616999068731 -23.678980362777330981 38.879684259279727598 2.8199806043787725152 9.3249558017961469147 1.9685354802888983539 3.2614542822826879664 -15.533822161195855571 1.5356714838511038579 26.268823486908409848 -36.76430090376872073 -6.65803449367988609 -14.73240245781968305 -7.7439760247462716691 -0.36931513831940920856 14.268131039995681775 -3.4998036399417391529 -4.242175099290195206 0.6203417718341036613 4.1199368130170643809 2.4705229780938964268 2.4169570972872493897 1.8692411871341052532 9.5509794912692864699 13.439478761645485605 1.0337285820335411213 -13.159305751973187526 2.2398298824112923278 -2.2185131023207431689 19.775044339960654582 -2.6040959131715282204 27.248217434559872885 -12.217450923538969221 1.2059946941171124646 15.781528856330318433 -3.6070978260788386649 -0.048227023540800446899 -23.064828782476791247 0.59399437663391019271 -29.978165603595392952;-11.065526292911993522 -7.0259397732868125175 -9.1709385899345114979 1.7216530539752525897 21.641289884292344681 -6.820147762980950823 -9.1857947389079193101 -7.3230512436031816037 9.0707318849103941716 -5.051647926639255104 9.6697366173627887775 -5.5433210858780537222 -12.362361139631692808 -1.7395719161390457153 0.06993398704202885563 -4.0285578012529779102 -11.923562212893831003 17.901091620734909782 13.184549467929517874 0.46695362949698188126 -23.244313797535621546 5.8088453727499365087 7.9824418932244913805 -21.329849183787445099 33.657018402770042087 21.282756543159727869 23.705863121583469422 0.92611364300272247529 12.497578433339725734 57.369198755009271906 -31.91613546017839198 25.430994499725215974 -25.123377474605767645 -35.684395371541668851 -37.213545275097565934 5.9992234150619321298 2.8205725437030304548 -70.062445654523983762 24.157027412855889281 -6.9993845232368485654 -6.5311311928465540788 3.3107856513143683053 -0.052273267942440082567 -16.051357574269257356 -8.9903735484682503198 10.140194662128852343 8.3789449512172140544 4.0679196879367678363 7.8189148235147527544 10.769723950703173898 3.5215789687469172264 -22.292342067890380974 5.9034018845198001912 1.3643075935990667258 -7.1322745363165740429 7.7128699575925008247 -1.518161117954122119 -7.0954295063058374637 1.1719436372192639784 41.760910889731704287 -3.1606423063765771708 2.3594226416725878614 8.3049045164120727236 5.0572250119007273739 -1.2550717142601210963 11.297561089774717402 13.494516227625627636 1.4367431809762014616 6.6472434387922243459 17.023628049976103682 11.186787631621458061 -0.41565497408165386073 5.0302461396775219882 -8.1230475233884735786 -15.882568117456502321 -8.0966965857196786516 -5.7131916353515697082 -18.518468574284767669 -11.051920578845567888 1.5702923651456019982;-13.611474265251631621 -1.1133490815796436291 -9.4974161274045343362 -15.621121836990395693 29.704213848978930912 28.730302284058407025 -21.317488332317395816 24.507211122428895322 18.890072607711601904 1.0256796257573987941 11.740407949872134097 22.146757541870556452 -33.025361293294480447 -29.288236266226334692 22.296103651208209584 -25.229312959149766016 -4.853345271221291668 6.1237872995231832363 4.0841273402240636514 -6.5102755480599876492 -2.5800280503306654012 -1.4777775955454950374 -0.29520261022616112179 -2.4605728889270324089 3.3677618620863243315 -5.0492662408673947283 -13.804902701152304445 8.7009410403597904349 2.7362513186032395573 -2.404893604903604043 -3.0822350513741274547 12.451965505518181487 1.2285857267590347686 -1.5669404506833044532 11.886051544951152792 1.4374827638720619749 3.4685108089338916315 -1.9929616020003755317 5.8903234554913996845 -10.083893394687748923 13.406331422564131017 5.9955801194590989667 -22.645056356917717011 -7.6786554953171188842 3.3293662657768767765 -0.55282536934246873095 19.580208473871490327 -8.9892866734463403589 -18.475066670275356984 -4.1062499032960406709 16.757080700908442594 2.5654401574920489004 -3.3582366213325958171 4.1004563083851888194 -22.305851569444023141 10.330730754314769726 -1.4848617935162735648 0.38862082745118220473 3.4450786299241897837 -5.5345986460749250213 -1.869337629927751987 2.5917122402018675231 0.85591025454841784814 -0.91537310062761623186 28.450440351050097831 -5.9111440624048663395 -5.125610863591773203 3.0796402668562126159 2.9618956701491017114 17.93155291982085231 -6.9836101425622416627 3.7350491620555779093 -28.76469559482279692 4.3437123746255004164 2.4751084912713046116 -2.6166237654706465676 -2.8621689165215391526 -17.610551147525754345 4.6986010930057693358 -3.4639709978773538523;23.061741290236970059 1.7517909281149632861 -16.350253226457216016 1.3443501058661009306 -9.0786879085495453268 -1.7689425857816469811 0.44887435134585296215 3.8974348579732809306 -25.575042869519350575 -2.0134728303062883192 18.071423560307032119 -1.3446009492430592847 10.335435666322753789 0.79668841812138402325 -0.70719299895428322511 1.2826982711682655136 4.5887802827804806682 -3.5323181899027438213 0.070542040914057635437 -1.5984466634558480713 0.45674795400490941777 0.48366713090817042842 0.1972676894467595976 -3.7990719489938529208 -10.102829900984652056 6.6742164338959284464 -6.9368695717812451917 7.4243015438688644281 1.2687469988082651362 4.0623228581646664281 4.1761989410537356804 5.1653547539357340668 5.6012056918286940999 