function [Y,Xf,Af] = F100NeuronsRawData(X,~,~)
%MYNEURALNETWORKFUNCTION neural network simulation function.
%
% Auto-generated by MATLAB, 03-Nov-2021 09:56:38.
%
% [Y] = myNeuralNetworkFunction(X,~,~) takes these arguments:
%
%   X = 1xTS cell, 1 inputs over TS timesteps
%   Each X{1,ts} = Qx80 matrix, input #1 at timestep ts.
%
% and returns:
%   Y = 1xTS cell of 1 outputs over TS timesteps.
%   Each Y{1,ts} = Qx3 matrix, output #1 at timestep ts.
%
% where Q is number of samples (or series) and TS is the number of timesteps.

%#ok<*RPMT0>

% ===== NEURAL NETWORK CONSTANTS =====

% Input 1
x1_step1.xoffset = [1.69595688832472;1.48899302894318;1.43458082653167;1.15939680204562;1.49671923485007;1.13079347586381;1.58515966955702;1.56329613592784;1.6952993377465;1.48833547952675;1.43425205196671;1.15956118899384;1.49639046012071;1.1301359282008;1.58483089458521;1.56346052338366;1.73935523508428;1.48899302894318;1.43458082653167;1.15956118899384;1.49655484748528;1.13046470203194;1.62905113660746;1.56313174847225;1.79031543690815;1.48899302894318;1.43441643924908;1.15939680204562;1.49622607275636;1.13079347586381;1.66488762770755;1.56329613592784;1.80379523624882;1.48899302894318;1.43474521381447;1.15890364120207;1.49540413593792;1.13161541044667;1.67409333366444;1.56313174847225;1.80478156309647;1.48915741629783;1.43441643924908;1.15923241509758;1.4792941754071;1.13177979736379;1.67606598503843;1.56296736101688;1.8049459509053;1.48932180365271;1.43408766468455;1.15923241509758;1.47863662604244;1.13194418428109;1.67573720980704;1.56296736101688;1.85853639016343;1.48932180365271;1.43474521381447;1.15939680204562;1.49622607275636;1.13194418428109;1.721272588535;1.56280297356175;2.01996542778524;1.48932180365271;1.43458082653167;1.15972557594225;1.49639046012071;1.13210857119857;1.86363241494968;1.56313174847225;2.0198010396309;1.48965057836312;1.43425205196671;1.15956118899384;1.49655484748528;1.13210857119857;1.86396119075089;1.56247419865216];
x1_step1.gain = [1.51661419984078;1.92413822846016;1.70707506688783;2.11368476326433;1.64698974987234;1.58045646314546;1.9444325821029;1.85745254716277;1.51869670935768;1.92779689898057;1.71622576641601;2.11810055563581;1.65056484941733;1.58292402380913;1.95160650702076;1.86200097062539;1.56660780181304;1.93269679448233;1.68275558393942;2.06946220997641;1.59432715689003;1.5171905042889;2.04613395866594;1.86657173413752;1.6200096088028;1.91625858200754;1.65034201402954;2.11920739189024;1.6365769187544;1.55878959375738;2.13256978088371;1.87202873589655;1.64032242212263;1.91958438880553;1.68345411434952;2.12068497928179;1.67027932611325;1.56139024867992;2.16405377824642;1.87722804763345;1.71283614935454;2.02502153542357;1.91505310372544;2.19530340953965;1.72400725341796;1.62153214560402;2.28604160837501;1.93638663075573;1.71573477563531;2.0280595867437;1.92201147738393;2.19927179822148;1.7254743067119;1.62326294191645;2.29077642707923;1.93947350739332;1.80347939026832;2.03076774266578;1.90934276935396;2.19966942320119;1.75231431931289;1.62738843476731;2.42163832279939;1.93947351071458;1.82923614381886;1.75839275256045;1.25892951828953;1.98440155664767;1.55202298444646;1.47739505333979;1.91504424651513;1.74878677756012;1.80160643982232;1.74003412531684;1.29635570017061;1.96421785025419;1.53809195158028;1.46830168248621;1.98795406883694;1.71670780512317];
x1_step1.ymin = -1;

% Layer 1
b1 = [15.869701251814328558;-0.61940121332236586227;7.0556583377083690323;-5.1005094344045494026;9.5249349998919736748;-6.9465056801483644477;-22.863180484024660188;1.321591749829617024;10.036678390223757518;8.6944787768242441928;-39.553673087224460403;-0.55952872870142733586;-1.0765705372328415734;-2.3508093934078448939;0.40797387079636182605;0.39416737881812302646;-13.605843985990940581;4.2069133351782008745;-20.001820844011888312;0.95819584026670912014;-8.184039009822255295;0.39743735385148509787;-0.0040842068837058792541;-4.6388515280190585344;-1.104516508948842457;11.799221858574117761;-0.15879558336901533622;2.9939542429755254815;9.3693580364935229454;-3.265065205322892794;9.4578522879213977603;0.21590930446881317906;-22.911728293866691075;89.715407341747152259;122.99565956267684896;5.4525579632999789936;-4.9572229480274412339;-0.73017029528691523854;-13.37860448734524077;-1.8306371719379845864;-34.45321965617896609;17.430063486131206929;9.3361035987414560111;-30.641242677554679119;-0.91314638874220654952;5.0330820346114002461;-40.950036253033530897;-40.92574190708124604;1.883611015295937996;-12.325402765149881645;-12.949282446493848298;-1.5304426533094910301;-2.984226983107502118;-10.0056653701792726;-54.479292381547239188;17.146988094417928039;7.5703789267155014997;-15.060900692389228794;0.5165036619434564269;23.240566141038090819;1.0656998487860516178;-4.2973330815902270885;6.3392074580301418507;5.163375530803904212;-0.057366315594570227443;1.9871674921561359728;-0.12315684552689674935;-4.4486536247196140081;22.83392095477156758;11.988669360392169239;-21.336489451226384517;2.8538342315600244703;10.616781081460338498;25.141494614632794224;-22.0303862816119711;-12.822627858864908745;0.094075584149256208377;6.3125301962647544229;33.096832790075367825;-41.217391059460730673;-58.531436264826403715;3.2735143355116771424;2.0099336094659072671;0.010174053878607425272;3.3512889997925827679;0.94713212500686161377;26.1279046286114216;12.368329237790373298;-68.173634096886715383;-50.671838355821130051;6.8167058901767969559;7.2645002383216530362;-2.9213659317995777087;-15.546649929188028239;-28.900893795490162574;-16.855596712110049396;0.78872892571497743575;0.010299944520159209221;-8.918468689584660325;-33.178965308106221244];
IW1_1 = [-14.180769365001609117 13.434645664182946589 34.698302881669604858 52.028258594560163885 54.73294634398932601 -36.929488364786863031 39.564437401667916561 -20.907373913673325205 -12.86750104716452725 -20.403074028703706233 -23.65023911962529013 -60.844406438178104679 -56.916928878442242024 35.216252719864954202 -49.20905216457308029 31.811807026698581069 -28.341424380242685288 7.4669747607014489432 7.67237033448095751 -35.605673704036057359 -27.876245277843921144 0.15937193515576453251 -4.3527790027181119115 -10.343674365102751622 9.1997594868237531074 -49.719239101086117216 -95.178301894179384135 65.198266935944019451 61.101169790816562966 3.5287159307885742621 -23.463604258455987406 47.404725567927286534 -25.223089310558787446 36.963458564751057622 103.6759671272500043 -53.093948048419427721 -84.092706122266392299 -16.865012294081374478 42.970677559181353899 -35.156496059691690448 55.760978661237082576 41.233499191189011412 5.9481727053557440499 43.15171177100947375 62.914156115388180979 8.3039606906124276975 -17.734487150243186449 -1.4620140734629747392 0.86718335730139894935 -51.063717985022641699 -29.954478476325725467 -1.9251766378014143477 -2.6887499439028523796 1.4241990011717866604 -9.8922303636244439673 9.7192074949454827504 -29.020198770515214903 28.612593918915656843 -5.5172536079837213308 -30.845190204148927648 -24.454476372280652186 -15.671306816310423216 16.177346358845550611 -15.055887720488902559 102.50011902307512912 -73.026048212545788374 6.4533048129973629159 194.11621745336805134 57.232942965999740181 0.48852895198447465752 35.220926338267588562 -3.9931640536454695578 -63.999554454341179621 70.985798847276228685 -5.1416194982925471635 -172.66615454231160243 -33.713240663179519174 14.528792399954774339 -33.229656794492846927 1.4839377253935310819;0.98959065906084875408 -48.974640884789828021 25.766138049963924317 -46.749396866876246293 -14.208374712704687326 -10.466319023088770379 48.687603580151595395 -29.402122056377749004 31.667834759815075785 50.634570413316609461 -6.6198154994977294052 54.628741927537909362 17.822309236015161815 -7.9894164339593887192 -48.99763393784858323 16.432343400275129852 -16.674940235140638833 -1.1020609666207987765 -35.835293298190421751 -16.066368519689980587 43.875871096694169182 28.732571690591587554 -2.6014934394530992989 9.8800540348431269422 13.299845353306118056 28.239753861391292844 56.523098536986140061 7.2082245434098464187 -39.031184858268318294 -30.42189643871749638 21.130983212805340088 -91.230202654307007037 -31.719151279149706113 -43.217257315843056631 -54.812533112639727051 14.020326022851177683 -1.7531378663412260366 48.432263055114738393 -0.48142906208304969695 97.96475784714058932 42.665587541325812992 64.290462202502425271 -19.107606423269462681 -8.6694153964693860814 32.821808075962593421 -9.742541978900687738 16.64200781460479206 -25.819458299417917146 -40.750380740359993581 -50.161320463165758099 30.816396888920472463 -19.179203656712608961 -39.055000575657565776 -20.111883210181471071 -5.7438450827347953265 3.594050369611779594 10.479075171102497421 2.4087450133120924534 2.55768628936723319 11.237942382133953245 -10.505673747852011246 -9.6021180316029806079 -36.80297650735469972 11.447028595695307729 78.076700469264110893 29.478140049320717964 -71.673719220696739285 -20.831661162506563301 44.047056526316204383 51.027173136776085016 -41.961036461435028855 28.675778638639233264 -90.376547358410320498 -32.183833975727182519 73.466505484111863211 19.315858444935802396 -29.240877999304739632 -41.938696255533614021 50.952417982913388528 -17.425705202162770746;-6.3187165824784976564 -69.006659352521722894 -13.159787198405005881 58.602434063133273412 12.509221147095212601 25.531659900199286994 87.350513053943316777 -57.638616811177683985 2.9034484071188573218 71.014130759704059415 14.741217932437990612 -45.588507375528990906 -19.615807825850147594 -25.470308178256949816 -87.445820244002419486 54.294696757814129739 -5.4934339993413257019 0.049555327909384994101 -0.25284525162536913845 -16.483302751668002628 9.0690040616760967396 3.8938464441250224546 1.0247242582496500773 -4.2573310424812449426 31.219509733865599799 -21.13967841890564614 7.0984155654065457242 6.363751965209211825 -53.241779142748839604 15.237019104298333616 15.693546649179973329 -20.699980485898837657 -26.148320825341837548 24.94996214974998594 -9.7730862029295977322 -0.14219238011958168499 67.4134677740333359 -22.734509191923201854 -26.128774821572104514 39.966830934570531042 19.646161186164739831 19.826011026272105653 28.322379779475870265 15.545531191166430673 -1.9894701682622972783 -54.566013549899210489 43.18786446023448633 -18.019584596874846483 -15.805270699533796375 -20.97498471929592867 -25.614892711853258334 -20.964557348117732971 -4.9001450083513411471 55.932790106446560685 -32.620578490874976296 7.0906380498620231734 -3.9923744089010035907 -9.3484193740665357808 -3.6706755901170717848 1.8144230081508176955 -28.869149904260819284 2.3658433577763733346 0.37863760119013256666 0.87633295890626006219 22.01127862060983631 67.605167502185523176 62.560184349896886147 -43.434948750897056868 -82.000692377193615812 54.762845432672477841 2.646429232954894406 -24.96489627194316796 -18.94906935683412641 -63.629427359408971654 -58.058078031203962155 44.909507496679218264 105.03116050006488535 -55.172187369749501329 -3.5852850681658074983 24.123570391441447214;-43.584095817753613744 44.226384668959909163 24.981376713396997502 37.600307190494966392 0.80196041925132155459 -18.733148174914870054 7.4613186578674621785 75.965476937837308924 -29.202314672646931371 69.590234122444300624 28.5109071677609478 47.177155479246678738 40.435300025916355082 -21.037298983923275131 21.262199782592677622 61.521768231268417537 38.325545486246511473 17.314190455953553993 52.382953562830444127 55.928806472188384191 -48.892361135984998555 57.310521209038654433 76.211131162833410713 25.755584669590682267 59.196934939207665138 16.120240277654669825 37.0637390811475953 6.0221391420337422318 11.197096047693445797 -44.073673641149213154 -61.180940054770971415 -18.723196353217030463 66.686230418242161022 3.3735786129620843887 -27.122898295268456081 -28.394962817316482528 -60.211192915218539667 -4.0705081805566933895 -105.13272502360153737 15.892756321668734643 21.024285428626154015 -10.54947266231383729 -13.763459534119940386 4.2320445247576952141 -38.183866767635848305 -59.790779623547031463 -13.490431808227231869 -50.323440795222317945 -11.746907960373867752 -19.764535623777611306 -33.298242525005925074 -19.278066222586250689 -45.474950628304490863 -30.062216198922907751 -1.078159909291989571 -78.91572896193588349 10.46978184562573766 -30.708684140262093365 13.599364509653087296 -24.967698181314471384 29.906811149936483929 61.863056097923653454 -32.896095328762612553 -71.764130138969548511 -49.055321790470856058 -24.899654914450827903 6.3813325332635013609 40.264161752704829667 13.767594289732647539 55.527814049416221565 29.950563799935522979 29.504516685108093554 -71.887848943913837729 -45.812794659903509853 -14.506628119570022406 28.047957634013322092 30.173891206419359179 44.767504846763429782 63.801293461000511797 -19.145818721037553445;32.111684923957923843 -18.256690751618393165 -29.692871026715224048 25.512599053585120146 3.82941414561347937 12.237211954683804294 -14.175871919105491159 25.627957954170835109 -32.721452724427933845 17.89735278857805767 28.002622643347169884 -27.544299912323218393 -8.1559002723518432276 -10.526601121900858615 10.693511202938395854 -22.850116400356093038 0.6796652479040707906 1.6875579198305437068 3.4309242631145187019 5.972386292725433421 -88.33997047526627 -1.5562915647902002547 1.9083923820884793887 2.0581479207923529806 -1.7604971539514679968 -11.792834414996420378 -10.766399981563809618 -10.505257400304593318 14.449959487857885421 -2.1229986696173499539 20.483908251150285906 6.2922071570508020244 1.2444221122256835521 15.534102578330665878 13.32820040262488881 3.8132598397746337859 94.706300371672654137 -2.6299270451954872563 -22.371545012821773213 -10.787345516379762245 12.78933754696083902 -11.032632066796542958 -15.104992896257989798 5.9012548147145817978 -54.423360944824302976 14.313961979974349603 47.189480876726271674 -21.666937444264945611 -14.299307407673033765 6.0492584019742512425 11.206995022311152965 -4.598959207705486385 -17.496936720374350216 -12.247839585726238099 -41.663810485489136681 21.949722529679384309 2.2113077522461503932 0.80233317259671366184 0.21586316661861715271 2.4725997561389405632 -34.2198681118776733 0.069489873097781512667 -4.0721808471424028042 -1.4971575093086375574 -2.0211312330034814089 -14.484750955024484398 -8.0107593738804645511 -2.3023507835901750873 78.343528166396410484 28.286347861956794958 -5.9555787757891049949 15.65428736834247303 1.5147728515923788439 13.68482741739872921 7.2186413826108788427 1.4745180125174082164 18.546123744535165656 -26.103405645082652597 8.2116363566166352683 -15.05407852971662841;17.990839898025644317 -3.9996160170300543157 39.594684244702740727 84.602550182406687895 31.9864304974991569 -1.9953291366924108541 0.12311970728788290685 9.7237079456701227542 36.072544409167058177 -4.1273273820681506407 -32.085450095698057282 -50.039870306701040192 -23.823080087140361627 5.305151864760670577 -7.8792995964872698522 -4.5393814962831458004 -37.773898124578735747 23.102127277179462794 -20.057998710132487474 -43.819302251967798156 -42.843348288295992177 3.6176673447842366826 1.8514117463560477717 8.3376535383018754999 53.093150737672395678 -44.106943076797733738 66.088639576921977437 18.394818532814944945 96.668084719037565833 -74.269120476618411431 26.89467514995995856 -5.7339423338629940119 -29.291967953010502157 21.136678845617066003 -63.584910393961301622 -29.453313230880617368 -43.814050050365196398 64.079912564941452047 -29.266752218054175927 -32.527593988965442406 -13.226720847948044479 -23.994343470256467299 40.897854793329379675 18.855055735474387291 56.824316263841801344 47.071151214395293039 64.180834715409488922 60.061805740941260012 -9.7003163331321804463 -3.867610362451201933 -24.499019683721588336 -16.364941705096963886 -58.089816850886172972 -33.46291637854307055 -19.503531625415401862 -13.753103651585066203 0.56897339853335182625 47.30242655570121002 -0.44799016879592468143 21.553619291030830851 -16.070395825007267376 -13.780024901833986206 -46.222728109983364675 -33.700492624072481362 13.546356187670294702 -28.333805393826349217 -82.342843401273938753 -49.936876336429314449 -60.681759259381394145 -37.564323269665209182 -20.453804888664848249 72.808330709871370345 -32.780931040140828259 15.899704280870869511 74.654748607039294939 45.089791365399719325 58.195809739879393874 41.539714856223802997 27.491394360132300534 -60.625107104572308003;-23.995646062261918985 -21.29566926143950667 -58.343224549911653298 -91.916542859905547402 28.259713462386617522 -9.262029950438753545 -11.556102872719847596 18.625020578145477401 5.7321686826643389878 -30.06746514081940802 61.233448038252930701 83.06742914708496528 0.25084120332338805115 28.404933742501039973 83.398039354791350775 0.55589856195837250574 2.9055859550171896366 4.1699104351569644678 -8.3475351425752215562 -7.2273563696420906055 12.296546462909786257 47.039490669803427636 -43.762778046455920844 -17.236296504270491425 -64.371192868589943714 -33.746849148662455775 -48.862081535886609629 27.606068492148182258 -186.18978568363451132 -61.566400086425090876 -7.1484185806740896396 26.46585832660976223 66.824772870301842431 48.505160093524906983 77.710946464288284119 -23.441975616477147781 179.0114020140279365 62.088246115136207948 34.424275495587728813 8.7454625261584002516 -36.767979457151220402 17.872002463805248595 21.222168935683544788 31.103168028079910101 56.568996841418119459 -4.7344651915302389256 18.83183524573798806 -9.1091321893247254593 38.883327862076775716 -34.180005704333495942 -30.884438161772585829 -37.561947428143611205 -75.184336212525067822 -20.354584858398375502 -21.666715861079502758 -12.301778443610540847 36.456044019776612686 54.874183580891163103 18.278904539585056455 -21.370213111115447191 -8.8732179608230552503 -4.3135915886314961654 -33.256319111799314214 -0.65414594879033605146 -58.373119685781475141 97.672148574519709996 -109.56175398190976011 38.136761099145111586 115.1565303434256009 -18.665430385981590433 49.357591430206149141 -29.276662647573420628 31.552815697967801611 -72.28881000856189587 86.742722077084394527 -40.620070209247124637 -96.971239873545698629 -13.927530446236280781 -39.705175474011866754 -10.548408648292459944;58.092026134155247519 49.245248131519176127 -2.1214959128098329622 -71.044079082866730346 -15.442018928104848996 -6.7574186819605266408 12.219255837118961239 18.722315027247297792 3.3673137679956015589 11.644022635182301073 39.946786000232890501 -18.589272865897122244 -52.417737296074164988 -31.952105577218521404 34.307687425483379684 -22.917825366350296434 20.209528107437890299 -20.281768502761956086 -18.227354368912525473 74.5349818416170109 -98.598594357591764492 81.756956838465214332 -42.778014604419325906 -82.243232380897978828 96.997055247234044373 -53.748697592744505869 7.433738820661080382 67.656190444467071643 -11.61048047737121891 -78.386902000189422779 59.306581093330109411 -34.848535464035578002 30.582215503519051936 13.177510035360292306 45.714357555746737205 -22.727721903733382192 72.678998304059533098 -61.836471394981010974 75.358565871819052973 -54.519841844949432641 -24.5938579049788828 -22.259125996336223352 -31.592993162262196449 -41.976114967344486217 51.550143512533963985 9.7628928322322501288 -31.397544876400381497 32.273686712931088039 -10.134256524828444412 -34.292743239116020959 -0.6840449823096224069 29.140000529022305642 73.441070211536327861 16.659708413998863819 -31.425939916016289999 68.534612897586754343 -174.83540794100082394 56.573103961027342734 14.938698078521621682 -44.983437752092527262 -92.801458549306858004 67.357790766054108644 -54.058208469600884882 0.28060561267565220511 -44.107575172165027766 -17.272193570552552444 4.274465146978547736 40.988607841349555372 24.343663973844630988 -33.2669737730332713 -22.492505730162147159 70.071942692731710167 -24.088472031162567077 -2.549166057613515779 30.098936847292893759 -11.548841293969980271 20.655568344223457444 43.511533245680979576 16.749621980702478652 54.562937201325681258;-6.0235929877350038453 -12.842509774584938143 38.535471816359802233 -22.190594838217538864 -65.160795497331122306 -28.721306540724611978 -36.324963141254890786 -30.714156140108965332 2.3888431895076935874 43.284851918707552443 -38.322588720906530568 -17.821914220473615842 -8.3666040499717766465 -17.150281151429435766 5.6912865007741730849 -2.7809791553183487167 -116.90003061960345576 81.381803208112472703 -60.426450534860720154 99.774419899070693418 53.808837256643599289 44.946861700404838302 87.858243775228416439 56.925271085939670002 22.976804731781953706 -30.158003005028209742 -0.39422195032157891781 9.1830366549280491029 33.976076228367190879 -78.334188610101051609 -7.1033212150565798737 -27.587319199861411789 6.4552912889109093086 -69.345963932731962132 5.2529023233948004545 -31.008743213614664569 -30.9399257445302176 30.663208904958146661 -23.717595654004217209 -61.868537504001949401 19.981512713049564667 -1.3818602829873911642 28.173990482697771398 -7.1012952240406796989 29.911777399372098785 20.063900580156914799 -2.3632473451491593508 21.664807585533942813 -6.8162337866292936894 -5.8831635952414416124 -0.50125705009772203447 -13.792948180038177242 28.288961871764616518 18.953069799666486972 19.396847642780340237 45.691003068745430937 77.490187077697186169 -0.70216540098324775609 -12.877502143981487848 36.899341919095007825 -52.893113577944475878 55.607645367109938661 -31.568084755661548257 -5.0572459579612001335 -13.328047572840189261 -14.85176441166135497 45.42795627388687052 -36.972394640224344187 -17.843750845059201282 -7.3059752470406067459 1.2553944928608364862 3.549396995791289644 30.269777582861816967 10.469468850667746906 -26.637932381900455425 -10.026515658334336223 -7.2582486309424112392 -41.334021452708086031 -4.3630383527144696032 7.1221986897578206666;-8.4949052918188758809 -19.671548077864091653 3.4464190680344346518 -9.4844422662477114727 28.008759082524871786 -23.569845871260415748 0.53858742237660361951 -24.346031570682580281 8.8877232070161937827 19.894874724433048385 -2.6107172319029809948 9.6817433251480373713 -32.66825344653160812 19.773241263332966611 -0.89387301058734669468 6.807180768287294903 0.015150858210762341294 0.68862512056551428152 -3.1537576344104349957 -0.12118621676927765485 1.4656986841069252758 -4.4321487205551086674 0.93607197853927281983 -57.645026600637706338 -8.6399324845385496729 -11.106897118060730989 3.1980964895713075435 -4.6607060662066635004 20.32147081911860198 24.289047948347086248 0.65839898389008832957 -2.2402041779028172286 9.4743370132443800458 14.388515679383012014 -1.7530279547361597992 5.8379969231054209544 -20.592418768294791676 -14.558581603903462565 -0.24212108371825147302 98.974272829148873143 4.8740275713192966478 0.25502712762726931217 -37.261395012414809003 11.810306464640115465 18.959443382735123862 -9.6310164939022957498 -1.3270536064262410392 -18.129044914318079407 -7.3116693475024359117 -5.0089705778008113413 37.788277423822705714 -13.28964961507737641 -11.139739451173957363 5.4122754549013620817 -0.98959178862403796018 -84.980179262968334797 -0.17436970884995856013 0.38150225513443170033 -1.6485750652479302936 -0.48231141540119670807 -3.3173880301109233137 0.40889327475737935469 1.3410452520684983391 26.351497783930501129 12.058318869753803071 1.1434130398107527071 29.004343077058628353 12.611091967294768779 -26.91225106263986433 -6.3457751009211538218 -8.6130813267742780681 25.914280271967843561 -11.164303850702388843 -1.0853629376152058583 -25.546635926612161427 -11.808791419998703631 26.518755897870729399 9.0716757187554541986 8.1243516458465983021 36.178542964232939028;3.0610942132512661829 7.8411245210476590017 -26.32746236713500565 60.904925424273514523 38.265260778562755206 -34.704468632553549412 -2.5998309874824929722 -97.990427162664971661 -18.337578597128064928 93.474246904056130347 -0.9118757757319831958 -7.4546121664725744083 28.304463105882241791 -15.696161624100364307 -27.265759814939528383 -96.741245039422281593 1.0897237969983091244 -4.606950434060992805 49.972490044419757282 -22.84973179279895561 -39.566286377441564071 52.528900749616582289 -29.866301324130297701 86.660307534830366194 108.00988010774592851 90.286390784988469704 9.4469751586434114188 49.298392352280117734 -20.756192093450710701 13.202932542611637956 24.920978242362597399 -14.581559809277466755 54.982637216823022186 -87.196263928871644566 -43.699191755717507135 13.235862195515840867 65.237432801319130249 -46.991194945030912322 19.717906970179797099 -55.743910693243059029 -55.669220252037149521 -72.686330106213233648 -9.6778310207103253049 -113.75886387559943103 -23.393529855572047893 11.917385828903357847 23.439141380729147102 53.813853230569606012 -45.350665019850026738 -60.606061457561267503 21.237691126313819723 -84.53986960721492494 -48.262329843722881151 17.396892046825385592 -14.251609801640816144 78.375320335743424494 -29.878711236142422081 71.864436334277215224 48.64904724918020662 76.277497865591158188 16.09904820069819209 34.420240784036856496 31.652897543092450405 30.695327168665507145 -15.043548571077414167 -4.8134997369524095134 -3.6057391788009711675 -18.020615793265985616 19.563497440823674367 -1.3685501942637394723 -4.3294393759263947175 36.920298470073923625 22.278047608686531333 -43.766018590872441507 17.367781099875504225 25.632617948156024568 -24.191261387625960566 -16.519276302326129979 -16.778173071949638029 -10.361468111595929287;11.870668211550626125 25.015764764938950293 1.2918233598188519906 8.6688624540019443288 11.832517056499023411 5.4993019663513873496 20.484512320584837397 -6.647890373361773797 -10.266595886735636611 -25.456906730461600574 -2.1092128677129378111 -6.6406681339830608835 -13.43040521202557791 -5.6788972603517722249 -21.040554803878361412 6.7215569106921408959 -2.0753254193713495113 -0.73496056734324255455 1.0162215429883241224 -4.8597914550484535567 2.9398837522803136224 -0.92511964770918486689 2.50353642081413863 -0.079761330336633129434 3.0875451701429845741 12.396809071993219575 -3.1651637768721534449 6.361968268865169307 -0.17106774451339434862 -5.1830545630814883751 -2.8916611341930997803 -6.639380986218196945 -4.1914854612112897314 -16.624902589030689626 3.4631109707548564103 -4.9096469514501563935 0.2589359837403732989 9.5236469349197250267 0.5775050185078973719 6.8714350472840504125 -26.817458441204141906 -6.5079788587344484796 -12.525708467929252521 -10.136651445812345784 1.4431962278384720122 -3.8000138679615642623 15.517421047287593083 23.982019974730388157 30.049315633095091016 13.542581243918565548 11.583064267320212437 9.7891732098922084049 -1.7967675757475771725 -0.98471586266344035554 -14.04279775589707846 -25.045146360054850732 -2.1768030134840210543 -1.7922818845256327513 0.84332011000147844015 0.91529581493109890555 -1.1673465047531905725 1.5971377727856190809 -1.1359555120498654457 1.0861871183886959713 8.3498702246072760147 6.1027057091366430086 -9.2387587174530914069 11.31802072609889187 0.64410285240128661854 -7.4432046226632406771 1.1644592804660831575 -0.69575453814784316009 -7.779390139750647748 -5.9259768097425311595 8.3688536764808105772 -10.61299252380707614 -0.51724281251906623069 7.5122674867295913259 -0.85832119300068265844 0.36984801135517564319;28.843553154472129307 23.451400416565405749 23.623082963099403031 -26.091969126793063793 -8.5762696696214923975 26.771316266248920357 -43.821047657048040946 -19.628847099028781997 -29.059133631929970676 -21.095856521912789816 -23.380930736996486274 25.833483874138828185 11.267974523631142603 -27.313950508781999815 45.180344095321935072 20.82618404212853136 -2.5982412290212084649 -3.5915840780630254869 1.9797604790872833647 -2.6717371690621236624 -2.8247320729678699891 -0.74743343645918125517 -3.5705647200828072307 0.25932608007286406249 22.851803766136395524 -3.1101402358461265329 -2.6140170127952524481 25.992129728329345539 -14.263347097583704226 -15.277379169545657334 -0.2059629841232066827 -45.695774509236017025 -22.080204756947765077 7.6965834491502089776 1.5398853181711267268 -27.386503326971570971 20.807021349343401084 26.886033837001313884 7.1166576383183510757 58.296359169336909645 -1.6755942530605218987 -27.706823385042660846 -7.5080670451271123156 36.996399844878304464 50.701204958439568315 -66.588246404613499863 5.5290215706543177632 -14.081922236088963984 6.0889076213690760397 20.632784818165411878 3.2446572150953540969 -32.099735743250207065 -59.163341114914231866 53.189043229182168204 -11.456005367848916876 -6.6317155145926154347 -1.2463195839620793137 4.2602051935930695947 5.0445145561472850559 -1.8324524216411768318 -0.0080849115563689233355 3.1521190376354981666 0.92083628451197940823 8.5766986262764852711 -32.158200901194504695 -11.970576655309592695 -31.066600362267973168 14.280825275990917334 26.194777171499211477 6.1064259484663239164 7.5255106577767492126 -21.227975959586274257 31.892137147329741254 10.847043725140579795 27.777586301672361202 -13.753935112255570417 -24.063039459970713807 -5.3402873091412184081 -6.4812423949296391612 19.923105469919281774;7.5602244063692323195 -6.722201791560947548 3.7625899566353262493 -2.7534407680228696336 2.3111287532628024266 18.724257329967336716 -10.852450044729280876 5.1917561814186665714 -7.8070871876971033032 6.1549748946780269421 -4.3410778946960872915 2.0235338552995179029 5.2448869425999440352 -17.752398533463136232 11.75471373005866127 -4.6842232655969677779 0.9467429072596300621 0.58840281929270243921 0.76678066026746583006 0.47392844349559798411 6.4474368220097009186 3.5551308192211688031 1.0077642028862232593 0.39169351233387245115 -3.8399033374106981142 -1.6890138759636055266 -3.6384831432063005074 -2.4514829469402346085 -2.0772018026479841524 0.37032205911995408343 2.9094323699380764126 -17.174873133275095682 3.0898381190757433501 2.9967754857830684045 4.511799005549666397 3.2659026126711827587 -18.272780639983405848 -8.3976491466500409189 -5.9859420318444396258 17.231223835514054343 -2.6172685553670986813 -10.46671928104073146 -24.327510855215926711 -2.228604533301184798 16.494787686226267454 16.983148490014087884 20.2052105694938966 8.4118165755054512545 1.7359099506529878099 9.0876259362648532658 22.988074036335493844 0.084433804857609318084 4.8430521069200516138 -6.4259569028661349677 -16.558951672603182459 -13.909418747061204513 0.90597166049578703451 0.59930116910806530139 0.25870483526526233398 1.8752564645712537228 -3.9854970113501755336 -1.9365880888723894238 -2.0871726506398151635 4.3165450868001880025 -0.44002411320966938746 -9.0867560798881612527 0.21790813706107048375 -8.307612762720156141 7.3635808979629313598 -16.848916388928859789 3.3731616492981695288 3.1770963972769523664 0.39397120684402375801 8.587416785971774047 -0.10283696516885443284 8.0668160303605862538 -19.449158349303694138 11.390801166056238714 -3.4909349292692635203 -3.136028838852232159;58.27126130643284796 43.114381272100381182 37.459503527906193199 -18.15920331893590145 -14.624818618296735906 24.989799282016235793 -21.023576525827476047 100.0383250411013023 -57.619172790808164564 -45.902480573724268709 -38.304373859860589846 21.775492657067495372 23.372980270811982706 -23.154544303761003476 17.049463217151988204 -97.446898963183144815 6.8517895356659987982 5.0917484431952004797 2.4220844600988540307 -3.5847526342135576094 -20.917124381701054148 -13.438875632789516246 6.0752474438398804679 6.0512513101685652117 -27.377759619383827072 -11.440557654933940057 -18.724844212641610142 -4.8442815592461583307 17.454384228592626727 34.893895003009461675 -1.6378694960500106426 13.286018165434054339 19.211062441094128417 9.0043008590226598642 23.360122655042232509 4.3124415502758566276 -0.26588347376023491186 -29.730282746733657007 -1.8822691026183524521 -29.415705269758451124 -23.082178890106721525 14.210949534984806064 -53.620565154854610057 5.5853107374377488625 -74.509025272565722275 15.83148868677882426 95.608504258341937998 11.745445709832672776 18.711361794858245133 -15.044879238462304016 45.884307897817343758 -6.7424258651282933386 68.570147941987400486 -11.622444839704730413 -88.256082208532305344 2.3958104963315434155 5.3524521505148605627 1.7633650335852888436 3.4727090328992540336 3.0339878926747334553 0.41305251026310618734 1.9730952268751065226 -11.213646729700478488 -7.3336088335399134408 27.794429694098521821 -1.3137949042076231265 -32.398508602484085372 11.050851850292680467 7.7043041827123772691 -45.067670467233647003 -6.9363267864948277008 4.2064275356302278652 -28.686945071969603305 0.29017882961021612687 29.221068265576562339 -12.616393701633118241 -7.5580652861230834816 44.652666497713212834 13.896699662168206402 -3.2446649507557268066;-4.5894551700603143374 -3.562339474239053061 -15.18420386695991553 -34.690953907620020402 -58.298278611402388094 -19.153734714396833283 -11.378702992394513771 14.47510746130410908 33.681083509152138333 12.231443802013929556 74.800968907298056365 36.112311790428151426 -14.603053486103485525 37.455338150990485246 -29.226492889680585563 33.15558954284517057 2.6061845100007667853 4.6073987273386345365 -41.96593903167821793 -122.82994253978792187 73.464998097758694939 9.1279751124807564366 98.053379254505159679 -9.1233489972913464072 -55.664425496170878205 -13.278080001218587114 13.087142391786411366 49.517319274526698791 20.502334494305213042 -26.011331204503633785 -28.136531789738956633 48.288960462178486921 -3.8341629005222204185 -31.41719627356390987 -34.116853131851655689 35.584035258158763781 -45.128106389082333294 -86.706717241581259259 -114.44563992444903988 -5.6927615573163308227 -4.2804369081498681027 32.817512818024454191 -36.626244326335203993 -56.821431835701368129 57.237258342449621296 30.717903805244834103 34.061717421398427064 -43.45081725275627349 5.5301274843235486145 27.733265407098979694 21.964562281063852112 -51.770417742694412766 39.335058447908814117 29.333833933587911247 54.370294914432079736 -72.473253450721827562 40.825448184638105431 -14.360369154863329655 38.460281605341840816 27.950994793400141702 -58.319699393001570797 -12.665903887261958261 -31.593719143476750588 56.825381704957585782 -17.132790412611576869 7.9176766649987850855 -113.72514944415281946 68.655750125659082528 -1.6901044386352506166 4.4951331599971879882 33.12443315341361938 -9.7324662989948969027 9.862161772526098602 -4.2744594413667602595 91.162365189755448114 61.313402458978117693 4.1920879299489905989 17.089008837311851607 -28.824007066803449817 -25.724287605874220475;0.87078799075919843808 60.578351272784864534 -1.4331905668420050759 10.592894713845112165 77.271624549876193555 -32.768218908505133413 31.657887248996992469 24.536298161275102103 -4.0734995950329659919 7.8892716351296137134 3.5435524352582135066 -20.426562616181634269 80.283590012429598914 -34.642753250807928111 11.817450207568770182 12.549261357751770873 -11.716100640364814467 -44.981701674263767643 35.397890453735072924 -44.928277149282152436 -193.85991069523734609 99.039349558679418806 -68.067918079971491352 -96.889139131921425019 54.848733864040184471 45.606633843600477007 -16.991146657884893756 75.390852835104794849 33.396747846251884084 -55.317073209826794766 70.806907884434693301 -28.87762273671550517 75.334790257014660142 1.1143974068232813668 52.990225513846844763 -7.0488135052208020781 31.131324244806144463 -18.130045636369885642 35.312441575558992213 17.361757876277181367 -39.906241583401644846 -39.096376384120752334 -40.185463365989534168 -17.606585504795283725 -27.466297593516237896 -31.100732469955929105 -58.360248326157041276 -31.436721467776976624 -21.371563071463651085 -19.793107372200026361 -31.730937001940958453 -1.8528764605767453766 -4.2027299464290912567 -13.574839496668234418 -35.949845177094886139 -31.66835648843051132 -23.626237657275744652 29.146955115817988258 59.263075485496301553 -12.024491157801483254 -53.953290507994132952 70.138692530439854522 33.992385263738746914 129.29398741613556467 -3.3271968398163078717 -35.188733580374091048 -35.004702652986161127 -16.363296928534015962 18.661705624798109682 1.6674010739853888374 -44.182992994830122768 18.710940083895998498 -36.813918287413741837 -12.754072452185829079 -35.139634840198887389 54.784102429620773478 9.7389074675600468822 -24.340982603091468661 -6.1024971716452274251 -11.097689370755375649;-23.703893915461090813 15.004853275293198678 -3.2081153613949480174 -43.350021597751698721 62.701406741998098937 29.370111455141991286 -12.357145203231214126 -12.061136663713947215 14.55204435488157344 6.6693067378522083999 -56.498550733098468868 -23.44431889617573006 -27.619601141386979748 -27.984493386057927466 40.236986344656500592 -56.965094423861451389 13.842931356424452716 -80.441826977077880656 62.929518879632944106 5.2798682709920941036 -43.118786074640645722 36.305332645318301843 -29.644472303102041622 56.046698358815497443 7.8557222809770834715 101.28321702516470282 49.258632741244461783 53.190806105426787553 35.033062183552893032 8.4516959680224967855 58.868745207450515977 52.414887756482535508 44.333736859566407418 39.820311004036852864 -29.056192213556890636 11.98801118908799701 49.030829653052506956 16.358649278152991968 -117.39567857085523883 27.690795490170469151 1.9476486627268130292 -17.779318396632625365 -25.029175862889662341 29.070948105691972074 -9.7331146920880033946 -17.25986237266798895 19.829081279343427013 30.156659174047369731 -41.015090792538138942 -67.477849683647946222 -25.033473239202727711 -43.438421773636079593 -22.851310801691333552 -27.511586551452314353 -37.278704449930415876 24.286768563882841221 -12.96860797960563616 -15.533999197304526163 49.410391036443456869 -65.717285559294111863 -27.31734657882125461 31.405295316427423558 88.176756824087959785 -115.57441075275561104 -23.3244781726756365 -23.948541225947582944 -37.551133645402401839 43.9088867661536284 -8.1434025844472692768 -22.662080893609445553 24.729687764183509557 24.683428613820666442 14.276766654354851482 36.774282666251629337 -9.7320760267682437927 26.410762244517467678 -11.973222827359014886 -15.303379562716875384 -36.700297025869296874 -45.367298211349343262;32.338289109834377655 -14.315801568161417023 35.825330011673749198 47.755957286956430607 54.682263444250885698 34.229273735840735071 10.547379171451829905 -2.9209727780047947121 36.71798681224940708 41.195950631255371377 -50.656087816478660102 20.464094545423204607 22.613150980423291969 26.529582831613012672 47.539217155635952849 26.866613227178493872 -82.987971579175919601 42.192873569640923392 -55.276938082837943966 77.744715842552977847 -3.9764473283951504712 6.2964247873806389322 1.1126648337744580175 14.053530114747365687 -64.70119695108475355 6.428046236699008098 30.991786971233207026 -44.320672824856778504 -14.462532163927868112 -98.640969753264741371 -10.945960491424340688 -42.652206610663320419 -75.18494900984885021 -22.151916869445901881 -27.460463201534441424 -33.982404542773920753 -57.827615442137016544 -39.817283013400988523 -51.475908505565790563 30.632584114154091992 60.656886913852467558 4.3679731752887462903 -13.749630971459833262 -21.471122558252691448 -16.257502812865073594 49.009079213574835876 13.753538417857301468 -26.434062276996225904 -28.903703879665172849 -33.95781147906123465 30.873643643961230509 26.626755830315602225 -45.011557920146010758 -1.0642029336124694261 16.449509109625669367 -34.315905865480289094 148.42808565311898406 33.473947850435436635 34.040782790832913918 14.039775207108235122 21.565199462493279015 -10.991989407476841833 -39.412871703823803671 22.428444615238209536 19.218141229607528686 -61.23789435579671192 -5.0350674642501314082 -40.796631007815612691 17.650178912737995773 8.7876731606478504233 -11.459564982771546227 15.850419349235526312 -39.980459483452357006 -4.5978525400972847237 3.8158337143948637404 -44.454764631609918979 -14.082252062054100961 60.747113811749969159 23.771146587526502003 4.1030923719799670124;-0.50977406417660664495 -6.7334092316387730293 -7.1234611252374619994 -63.167700288516812179 -16.559421008577039913 6.9657507363900563746 -13.432370132917622385 4.4463113668627443076 5.9114116037505288759 5.8581231829284634571 3.2494383529288404233 26.568275516464563424 14.085272459711598358 12.795733588917556744 -12.208916147454910828 -44.248115429833902112 -14.453344343355858825 76.769642938831182732 -42.295602904318648996 92.423975592952459124 68.142980588861433944 -23.767956373895017919 11.480086003441343223 4.3724452748801354574 53.360678947624748503 -100.44814982831694294 14.976380901713220339 54.821035844323318997 47.651515186973192328 29.833261645245663374 -27.291823947851632681 -38.467423615001841597 16.276868409627596179 -19.155020330809250595 5.7948013133075688685 -134.32126383953476534 -104.48131866978694404 8.2727800686223176285 43.647301770953916389 66.460442682117928825 -16.79410798540781613 2.859724494525439642 17.232119194138583396 -23.539694055906110748 -17.822562929128540787 -4.7891174922792734137 -28.158725516055447713 10.128081590770472431 -2.2874643355047572513 29.253572188447357405 33.237408614142765373 53.813616773011148098 12.770890626963266712 -15.810252127530995736 11.49693456179851303 9.0056477159663188559 -16.840793779957024867 11.763625746126551874 -50.543101646345519384 -0.53865809358898664172 -7.9428486848456278935 0.55142817940213273431 22.670340691324749827 -1.8483821672131255376 -7.1282215303872078493 -41.885578049560663771 6.4490467878457913287 11.326753494812406231 9.35602043233185654 -20.146931001879885059 38.437638188879624579 -27.39620208177941052 -22.762429963395856447 23.821427314211309323 -4.1798627033258455299 17.782037303694576025 -22.600504310772002725 37.024763430336676606 -24.642305168421675177 -1.3668710403108719209;11.169309901671379492 17.075968486780155331 15.343273004336420939 20.742743361270399305 -30.587130308153412273 -4.4346156717708868911 -20.467385280028622674 -13.780334852550293334 -6.1607060686132699701 -16.958477398782093815 -13.568403621321696306 -24.173450088615030751 30.207294215629961087 3.7175111864474672529 20.832215346895026187 11.969473898916778154 -4.0305147118559627728 1.2056758318652298634 -2.5905609890135927742 5.0697125484331957423 0.012814014240862370286 -1.1511471216338162726 0.36127297179789752413 1.049438662216708007 24.163207681510993297 1.1815085463553334222 0.80455013061084068582 0.37737276432358513034 -13.208667262176021495 2.5989318843210797993 -5.1297577149842119582 5.6077349030293488497 -26.448350709424371274 -3.6238841684921516695 -0.76796837253745398044 -11.188482814998975456 21.034519126912119447 -2.7451447393563164212 6.4900300901576795098 -5.4773484966727279399 59.557647532505008314 25.50224226339847533 1.6583065427399183989 15.737682455290409322 -47.154218794163966777 12.815177495717794187 -27.691358035800277548 20.328707255177619118 -38.591243398690700417 -28.743024947742274122 -7.7316136315670460633 -5.2713502123932238774 39.419130864452192498 -10.75772736589517109 26.24939464210416773 -18.139842501522586815 -1.4455367362179467605 5.1170519568373524777 8.823081047708948077 -3.9007842997465704826 1.2175488369201834526 -0.20828210769086297205 -0.44217352228686762627 -2.482698206826688736 -39.829964654715254824 5.9410265807373248137 11.85999254315343876 54.585337480935876897 -18.350699905254778344 -3.2736771104408610711 -4.4310866846686547404 13.667701693685669895 23.438253545306203307 -7.0850931982796119257 -14.603370924199266412 -52.037693335879936285 17.090778607715034099 3.5336511815715923035 4.1335523508679532512 -12.703997632949356245;-9.9673638635096111216 -62.79889555414352742 9.7712003566226108831 30.575849873827479541 -7.6773295803059182774 -16.207524029997401271 -62.109116076948403418 -44.901769996419439224 16.769662226169437247 72.944818377308578761 6.194414862467199967 -25.355213547749912095 8.9531688887762896911 37.520968521479204583 70.131729888930067318 34.702522112527148579 1.8867890056845437741 8.8235756108298275535 7.747701265442602292 -4.5284946290233909494 -24.600202823180030265 -38.196598116464471673 -12.060062729437126094 36.346434555455104487 99.084126129360299728 -36.843451499237303892 -30.411601216022752681 -54.4246584625336709 52.769657884575330797 142.44486059604687966 59.490567179283978305 18.866905148169777817 -131.11457587952534709 57.183423967083847117 17.959659837076522138 47.959330829496423121 -28.649706794629924644 -125.41500115631238543 -24.47514832219227543 -22.943972776604656616 25.925159478945932534 -9.9021271320127741689 -31.459221048494583783 20.738502349529873925 -15.50839181736263761 -9.8372278371093990756 -33.277710888114754084 -36.140522117605129893 25.57648369861768245 -21.457519346681575456 22.239095952135425449 -6.0001463510829857739 14.398885805756787448 24.094617585252837699 30.338154874322412979 16.694906248195724885 -26.888999174510704648 -0.96539576624226697277 2.4302493257067827592 -28.674662150603346333 -6.0150027378064798711 -10.655008901950566269 -31.558585280277529961 1.3144879319950000252 60.005801593632376978 7.8853723466681042709 63.825777826453290231 99.295631213864027131 -69.348984661293286536 -24.828610051626888833 -0.63890320283133139601 -44.178176217426170069 -56.695896974597467022 -19.98406994695320904 -65.055224511495296724 -78.71081052757250518 73.748946039118976614 19.983896661411538531 9.8483200967413893068 39.813290482637007983;0.59888702243590641316 3.6587605433321934711 -21.378702704729263928 -26.856291643485342036 3.5673434408463595702 6.2831471551181863333 10.897070126821805758 -6.4521530394395361085 -1.2038597808635049802 -3.0786016615654854256 21.00775984736415225 26.157537468164122174 -5.9731218848006797373 -8.1699702571851471333 -11.154732084503066858 6.6797000133515016529 1.76443737747374918 -3.1033630583434312911 2.7899740773957004691 -2.3004691827089596146 4.9428563091409207786 0.18675464573989603023 -0.056845000733543454841 -1.0003370622191070094 -1.2130264582574838972 16.018138542360183862 -4.8214397691918824407 -6.837907148056169504 -1.0572339380812310061 8.4156890874205245723 -2.0679343473465792158 -1.0578242556071133507 -2.349439958072995438 -11.310194201557813187 3.6464534826026437919 10.973108565634891676 -2.4704679578047032962 -5.9605247245032053627 2.3552555546885343141 -0.096997359080302825163 6.8907536054170712703 -29.369446561371034932 29.890048688415298273 18.404184105815211581 -31.427849270733453579 -3.0123552648819398314 15.963327513255677559 -6.9148287074033714106 -4.8847529644934066795 30.107558379618073019 -25.425528371685246043 -22.085770742327166971 31.191234282544456846 4.4731439097173923969 -17.011175033356813913 8.8736164923138645122 -0.5368809163849876942 -2.8632474929633735528 -6.8347683402087220372 1.4307347336438500651 1.0911080026056472203 -2.4465750968046426905 0.86746385282734495004 -1.3716436420002022789 8.0120821411056386552 0.23307966427224258155 -8.535867351013578741 16.298790554837896849 13.169852726750400862 -14.47058977323098361 -7.0359957566889370639 17.759846842788224563 -7.1113102338274130076 -0.27397317817972854925 9.6273296726306210047 -15.293823930539993228 -12.953832139307403182 14.676904929883550111 6.8465986099542082144 -16.613945858866543404;27.873325304461253893 10.711116069142883944 -29.743985074102830879 43.391773090200707941 -9.3182913547732013626 -43.011450871593169154 -16.825069117797355034 -25.144169261290127082 63.320413852788647091 68.022640734853126787 -18.717950387545283064 -14.375609431423148621 26.590654237818608152 -20.266658062822152431 8.150608363892043684 -53.252539359054580359 -26.978806113332222338 21.452905808939249255 10.276938399176781758 43.797260666724177725 20.212974827383821008 44.351473233584641775 3.1337517655392632676 41.700661053706063797 -37.448090372536064763 5.1601973821747515458 30.102161255993479472 3.3957549549249490539 -22.212184754974522605 12.524446670108003943 -13.897429565360827297 8.0001613877471466907 -21.731061130501803547 -24.897223000310127361 36.536714097632646769 -22.93804070285250063 -23.891235737068818423 43.49977836647936158 -95.51171628298978078 26.451988886660494416 -17.621088274977211086 -0.13656322538580623061 20.666736978730828156 -1.8703016409691226585 -32.15656535241312497 -46.75572990750238489 -9.641593897185943618 -6.9209341150059087155 19.617751527727339322 -33.270400347815161979 -32.302458772032224488 -18.999396028454906826 -15.725457990527916152 13.697091719149989686 24.496329584200271512 13.840815673150807186 -2.9310426458215790291 8.7955745834924154991 -18.313374770468904273 -29.879042899312715065 61.889558342654922285 -15.474473661947115488 88.334840089806661467 -31.948808516401449253 -15.916931448808833593 -5.6915247633747565459 -4.6344465851048983751 -45.235668959221349894 10.516405358978552442 14.834052183895156674 3.6742438636065903879 17.365542980062290468 15.058974070168257953 -45.374758879744121032 30.24481706094938005 20.525112369904604748 10.082218562968524367 0.56661037248510526254 1.3704593274548497739 33.989467819810641913;36.661864798720571912 43.707601557917151069 50.11123655269309296 16.598548413863671414 -2.4643216063224961943 26.024455560649268904 38.558850575311147679 -14.33230813230253986 -1.1451943593643618691 -52.549280383927353455 -13.361807368425633769 41.389939007829035233 -34.023589427535711138 -4.5656179590999776963 11.990897517981549569 -1.6008672661661833558 -1.2596637960729775152 -15.951748061797616174 -26.419456821979498073 50.753948879226250313 79.99646080088450617 -27.248345481843465166 -127.78216352666792943 -10.95915031394615724 -63.870463961866668967 35.171470953067313303 -22.702583623721004358 -54.641672607209990531 -19.139443505719899719 -52.006193087282170495 42.280220576294020418 -32.45192693929348593 19.680625110351936513 21.624593517718224689 33.177585574972205507 -84.170872543432466273 -42.633326968511525479 18.33109536132980466 -34.04956619096687831 -9.8958345255511694916 -5.4533285784074081448 13.791727340053634876 7.9691986907993310751 -2.4807469176209120398 5.0130893971222718619 19.439412533997753485 -6.5713983317370443515 -3.8027503359120489179 22.405704279605597407 -24.057300890755367817 31.977686490126238539 56.720625466279024351 -32.418521442305582525 7.5334585450307702814 13.928793944399874505 47.025150871615593928 -32.226433091443311696 -26.237231885048430513 -69.590687189584301109 -18.605943603450466384 68.668297343770305474 38.811598375280425444 63.095338691392896635 17.786009365031542728 -20.196242128538166583 9.9681501248353061584 -22.622970080660913084 72.047802332852228346 44.398880449377912782 -42.800950692771429829 80.638600887023144992 1.0912165708604768533 15.648759222140093073 9.1525555508756148981 41.897198236483781386 -66.149855577227114622 -55.284153047620975485 36.661645011421946094 -59.247826101042406322 6.8938771678346402183;-20.11135764244745161 0.92897838079289662971 -31.340575882284841924 15.990321551786987442 -18.311263414896881585 17.859014311533520925 17.826914927496353869 -16.542987159238926154 -80.882487339344208976 -10.60287322828424017 -8.1231305954138512959 77.44328079608382609 -25.068039943546978066 -5.4885641321205707044 -6.2599570235932837647 37.402853046258663028 1.2235184187191840977 -35.066149521197765182 -6.4853149697566863097 7.4642303349698924109 5.7383941057208938119 -30.692482849306017556 18.473753370614105052 8.4958082565406574105 -22.188723292080346994 -91.703832429800542059 -5.9189157944664430033 102.4267609250434532 33.121390099879370439 -29.624872739946379596 22.962286204096724163 65.226957324973128038 28.395732678879731736 91.441889821233317548 98.51065731120969815 39.45081151573291578 78.421698240739104335 44.285624441867632584 49.428569241688251168 -7.1821721343778150981 1.4163150419634091826 -49.991380816145905897 -49.16367513279980983 -52.885808678890633416 -61.02549135898267707 -2.9575919524117120218 -37.825472805476380245 -41.331979475997322027 13.92747262690325627 -34.013446827185774168 28.344373383757837104 -8.5586578774751274068 -13.806687112252351568 22.817003855837810988 -24.697475795589980407 -19.931956577798512598 26.906887383076568909 91.274044616255665119 -24.703158404725730435 -145.44047158055695945 59.669262780975067528 -33.25112286338938361 18.271631384192250636 -3.1842996613183780497 -13.217915708755125337 -24.722741608773389999 -14.26028986112707031 4.2778238019705305817 -58.187016803068928539 16.847965645863361317 -37.373921221133841186 27.116332692630688683 45.976190509499993198 38.457769919986873219 19.649160615265103047 -41.699179576350459797 20.051025629326591826 -20.926834457051366911 -4.8123233282433295344 -39.92829434577156178;46.34108113394923123 -48.618231194285073116 -75.246490744525416972 -11.966812211403109245 154.47317500079540764 1.4646248234258134602 -135.1372192530087375 116.49228061524523525 -49.384101364041697479 45.563072876350027229 80.475853071231810532 10.505228168032413549 -143.8172962545342557 -1.7654959992563272753 146.74499229626610486 -123.34336652788343258 -1.385225981963544406 3.6413415592128441922 -10.01851215088976943 14.842105420602454302 -11.504196699813300953 0.060407580143003514195 -12.798683194255954021 13.199730052234533773 -24.707948284440274023 -29.523901706172832604 -10.337553608114777859 -3.5891173771541380333 -20.131073218216744891 48.990658870713296835 -64.749361066503411166 -49.531466866803917526 30.592398820313476904 28.955695188229398696 13.407707225541908969 -28.228271216348531425 20.430753329739093971 -62.309982981425569903 94.754503360413735891 49.462129495675107194 54.339465618176852502 -48.922321009707466999 2.2618102035107954251 39.790953300253519842 -7.3816374106933393406 3.8476308952977031907 -58.327366982708319654 -87.23856198021029229 -45.602505359157646581 47.765664996631471695 -22.90667372912290034 -26.150651335791494034 -29.209193343836098222 3.5017019869694374634 23.423195935120588729 71.367618116472797851 -16.856084298901720331 -2.4491803595103061042 23.362525667257663997 6.6557199144144165714 37.457527613321936144 8.0439406052652451251 7.2358876901453612618 8.7754949707012741555 8.7334730993977203184 5.53656632889039102 12.976091067198549212 -9.9582266129817007538 43.439713513450790572 30.147113167366260456 26.791856440797335637 11.844107789412092302 -3.9563792032340856508 -2.3257088677926387454 -13.796353193771615508 7.2966030737955813734 -45.339366528602155881 -30.484658466625781159 -26.89033880765974871 -10.140818802479033778;-24.861832816852999173 5.403874880230511657 -26.5150982037248788 5.5519309616908714133 -18.395875818026418358 -18.44781224756360416 8.4982955590045108352 -11.366322353586376437 -7.5646335456180686663 -17.84383705483257998 -13.5023267284680486 70.759539621750747074 -0.3649006296139702954 -47.290799762418906482 52.033248869434707728 5.1509963493051404981 -5.3415745808545054274 3.7034997407347796106 -49.517504967081386269 -68.247282638122385379 5.3928813098469365883 83.787600584855638886 -53.48304362521960087 -16.197638931684206653 115.26262695807666603 38.47811495531948367 84.34923647795815782 -32.045438540674169303 -18.74804716014062933 -6.7783602571772991752 45.01170334181024657 15.542065274841686318 -43.586815305084591898 -65.178556616485238351 4.6391388775629343044 20.99341329686785329 22.883264059217143682 -78.122739459791603167 -38.044450117880259654 -73.429900740410189997 -10.228504164397818954 28.127940836882896036 -14.433069336498981272 -65.017268560995020721 -35.392084524911062715 -33.565378776210529566 -19.822415085755810793 45.151731745235167637 -28.625234429216934728 -10.237870698769544475 27.876141806262594969 47.639564120084571641 -14.342109367068799131 10.904513207520665219 5.9624012673327797529 48.305021406094560632 25.508894238607144445 5.8025318740234954618 -30.464800620172528767 4.4020688317020377767 72.110564867555524415 112.52122058144985317 2.9573985732844985108 -27.217432616707860404 -9.1191922567664658317 38.13715546307265214 -2.0106999597979835492 27.099175430419720101 -21.830083848007767244 -18.367013381039367204 14.498187230879336695 2.3466675362553242046 -2.6644692214639462691 -25.530677053557962353 54.092803917804758385 -21.36552211388212541 3.0120102470535523587 -12.92331123795847958 -29.268056798125261508 21.943935893628857769;-29.862349861881593682 -15.756489421056766531 6.3958129622944479564 24.107813336564156259 21.995330743767031123 -12.592431713884144173 -4.4210064924868683889 -15.647322814044143158 18.189082176211645248 -13.65849613709188759 -10.129281976093054141 -31.619600193239730146 -15.119742157950740946 22.563325176225852431 4.3245302067073954078 -43.911645639592734369 18.650819904270356631 36.665246956641794895 2.7883128005972910302 -14.45284589001968456 -41.67873702517960055 -20.837673399767737692 10.469006220612946834 80.23116309055791362 -92.708019073015350386 -62.227067716860986479 75.55488614566597505 45.750056235419961581 49.825983877670964262 -68.325253157372046076 -50.678301716980591607 -65.139706473925343744 101.23420750753354014 41.979227773430466186 -89.207468317254438261 -26.699335999146924792 -41.189766495834831517 105.68636312481883976 36.014270608565645659 48.247366908322682377 -35.181395320952560724 -4.988407073606580866 -16.62807089176342501 -21.746574277318003965 11.342803673756563398 -32.221660418064558939 -22.730978855959307339 -12.069762018092092148 -17.61445339886524053 10.081091124785711344 39.885779117294788421 22.554218595559522242 -26.525564811038687907 -1.7761138170448105278 18.194548098109109446 50.148012243654513043 39.839098143183790057 -2.9077666427923967163 -13.723267789917880322 0.9991636614572785291 39.607571090175468953 5.625911135575819344 7.4765737625059687232 -43.574886395376857706 -135.14186428131154116 -5.4172748640050443214 85.849107520512632163 -49.989790159437447414 -46.89122671308778223 37.82931276404026022 80.489717067190326816 -29.190151469837463338 134.00063498172625032 15.272059195616764171 -81.377128263439800548 52.666655167541406968 47.891472686032621198 -36.139748397790306456 -76.729441749809254247 30.759804380081959607;0.76663154502407848678 42.092702900891062257 -107.58928728743127579 -6.2769095583352392254 109.55979489613557121 70.237301378028050181 -5.0710977070419858137 -36.994716446165107016 2.9254857472949229447 -45.480635644690885044 113.09705321362024222 -6.2596951836654364243 -118.67534697484842354 -42.734696404688087057 21.207684845191071332 16.306865918239839885 7.313910327661385935 7.7535694763676268337 14.772680499171762847 30.914141072825238155 5.7827959048522377117 -31.805152792050606081 -11.976033390032668535 18.072649509383033717 27.669994955739511511 -1.4231674316166535998 -50.599430428404339466 -66.234377838921318471 21.109447872817714398 -16.637675951501957883 29.906725250792408843 -46.904907591735572225 -39.326604826145853622 -15.477613550099784234 45.277161300182079628 72.871057737849085356 -6.4479090214213883314 32.977515429766022237 -36.095426293908104753 77.516362790899933088 -118.04868833002899464 85.428621821404178149 -64.686204270050154719 -7.8564260033622268509 -53.412203850309289521 11.030112487266112709 -70.844396446010279078 -136.24549765701857496 132.29881828651880937 -76.210623038787346673 60.474625852234851209 -14.666264363972256746 43.652692522191721025 -34.881309002768929872 51.16191679292912653 95.255783547835434888 -11.065001280275492235 9.8317209066764412739 -8.0542948795179754029 9.4605866304477270745 -0.40655704820783333808 4.5053443527944851965 18.063515493887074115 23.945053095625222994 83.15461719724420675 -62.193841830648104008 -2.8154737509840659371 10.778130777329716139 21.733274602183957569 -8.2949345374495688787 39.284550206269436501 -60.482280427251211563 -85.107819218061166566 60.270516283873831753 -2.215058804539109083 -15.61266670332919837 -25.408747225323192964 8.4707577948011945068 -41.748832630259059329 51.592679290855045338;35.700917692707797357 14.566923204287103744 28.156574754359745327 -67.25843685306644204 -50.517203174796577514 -32.63986119374978756 -24.668615437110876343 33.744932509444097946 -42.34343604752294965 -13.427016169025895564 -28.693749654171732288 55.570466742275634431 67.825708745984556458 24.846227929084989228 21.241448589148909321 -17.930613093586526219 18.334360494719000201 22.551180557609285415 -23.069405965002772518 11.882215115299000985 -53.121303508934332172 -6.3726532325470319762 1.4952604662321922202 15.525078378183861716 -22.199878130965348788 -47.17195418376624616 33.541254153525386528 -17.354526857745501189 90.436805918371476309 98.66810680009133705 -47.382485174592041233 43.706734306454322336 55.011974647506221459 55.064963962747327741 23.848317410580985864 27.373451999162885073 -84.064791551437480166 -91.614470672532135609 59.251646934269508904 -114.36922119215064697 17.922695527476527388 8.3223629496054254417 -14.011397377177685186 -12.787906199741145841 -41.369933251055471146 -3.0237422349893163798 -43.923375701545872118 -24.365917576633687958 -33.787992580972272094 -28.872421131580217946 -11.420418609951003219 -17.798294725284780071 70.484232631496368526 31.860842940269623824 10.989517555407871896 45.575946935471364441 -34.581714132116147198 -12.361474656853177478 -21.4758161499629594 18.48208856047000026 -11.558759312353434012 -19.652763345579209897 27.537145591143776358 24.9553031927070883 -13.180959976744148321 14.136033134991473403 -26.325739220458750367 -20.875866796623373745 26.836366131192654905 -36.258918192556613747 -51.039421013980692976 105.58730448130371826 18.40703920634916102 -13.748235747803835949 43.059883216324401189 22.217272816013263537 -15.850634364809636168 26.17363754208241744 44.699648055611795883 -113.13947307576526669;54.723320082790252172 36.009517415158214249 -38.109764165771352395 -16.563385949056893764 -58.08872469283871709 -25.907378200347501718 1.3130285144875895043 -33.220908373254928847 44.960851631855504706 51.021142794812405441 -14.307051904098010198 -16.402051591372060813 -39.334652664941515354 2.3723410643245133045 -3.5059657167644919795 -37.798962435060595055 -90.654399695172386942 -83.519799321352707011 -19.336064865524971168 17.617910603659318269 75.797079879177715611 -17.741367064150097121 39.704469161618298756 100.47353660996171243 35.584532113146664756 -25.56490674939998442 82.836285192189421878 16.053116164525679466 -33.68799442694487567 34.553827596801085065 -37.608858702696494447 -9.7278894744693555907 16.423209618891092987 91.195341414891416321 -85.170020677150702682 -33.451348264843424829 35.164659960859140142 71.555827938669636978 58.768887424361373917 -92.597996493920589955 -57.508312387770715191 -56.97742651436455219 -19.017767067422028049 -49.805948353661648298 14.056242960905851902 10.698851786124128793 -18.896054514487921949 19.610324832392805661 -46.949251255580755071 -36.866846018089368897 17.019679024824764468 -9.6278484966164850078 38.434391759299288083 19.981357572249031307 -38.191712384370852362 59.763197475562265026 43.87013067888555895 32.628991507962140872 19.281015435632596677 38.617644786902651788 -21.004857248619099863 -73.263105005889372023 28.412624807530690418 4.1656686986815048002 34.568384662648426797 4.4905880682522436587 -70.942717223231483104 14.592469505604443114 -17.442188103966820734 -10.478930616784156271 30.392475919315508293 44.59781705011735653 -54.730708431730128893 -27.56373934853444041 68.117320382180722049 -27.522373041676608807 31.702629935750355372 4.6016254716671882719 -24.279792064475483215 -23.801568197834388485;9.5281988278049194463 36.075169446393054784 -6.4056667539906628761 89.908743427218411171 28.338154815346950244 -32.888272412218697127 -50.876833799613677911 30.777567238246675174 25.620299059946489706 -22.01985740790626167 -30.231902419599748555 102.40710827336393152 2.4813456757409158016 -70.82073691669889115 -45.168115888131950442 54.815803388887353265 -10.429775813222553538 -3.8779134473494134561 85.544020950316877361 7.6715959597034020234 -57.876897538518662145 -94.603407234252614444 119.17629612653207971 -20.071296021626370276 -45.473987954763039454 -47.312191310456078952 -1.9340422285440517225 -20.54178731645612288 83.73227852886503797 47.036827292232217701 -10.708175506654347586 10.096173280526855365 -29.683322771702407294 41.819170390022257777 -65.665587715184273065 -78.236619523118719144 5.4833576594558897099 43.628194861872273691 -66.170790892844820519 28.606698992259747882 17.621904546025923821 28.725286966957721546 26.284389208318692965 -21.542187518486905162 -16.912769925104960578 -16.790569766983210798 58.908603355624578057 -54.391504894771316003 29.483339687959656317 12.785095471832825353 27.677302307578376173 -33.438410070479982039 -25.179638032387270385 -15.846483356521307684 27.600106955962939281 -80.634374830305148407 -3.8713485062012757965 -50.510739525511027637 18.726270603111885293 -18.366462680049249201 -5.0881891303389785719 133.98930905960162363 -57.79738353088859526 88.433167352901236313 -0.018516602449390351381 31.657060645513894315 -88.81590001498818765 -24.140011349440769095 -30.716037120773606262 8.5910976013245043958 -0.26362797981372954048 -9.3329428968542060829 4.440217392096602822 -11.826198780765032836 32.42835322867279757 -45.2057016866412269 -23.647978893671879774 32.098350583444251072 -18.971320731239028845 -31.148317404338357051;-18.262232036455380069 0.60743610694763627844 -38.818340074907588644 -34.70955322163283796 43.378401079148346753 -68.370832229858265805 -3.2905858892396859794 -23.732036181900983962 -38.53469813866833249 14.571394466755874575 -52.982012254264013507 -29.135001360838757023 47.389831316096490355 -67.781405495735654654 25.48098642209028597 -23.136410847955840353 51.184790153781364097 -84.164941251399810085 -116.07329359535820856 47.196275883397042605 57.923940621737429524 44.609513339183102687 -45.142890932375735247 30.5748934328130062 -1.7205527614064684006 23.346132269757667643 -4.4225001029490300652 -2.6668657864172420346 -53.782858282027298458 82.889915839212321202 125.8831483685569026 18.572741153158574434 10.806229803439869386 -20.224630392891626229 103.19626940730125852 -68.96695847926052636 -60.811633646001290288 61.280942916508379881 32.915221897347535673 22.261694937407465744 7.1657167650009174764 -16.157690598022195871 -32.30171754526238459 9.7233108511441912469 -54.536447699965940217 -62.507837607835988081 -110.09088621587110879 -7.7531059790337906179 18.888475823593740444 18.227904843261548251 -12.846755976477700401 67.188732526709728177 -25.619316002030963375 -49.209370207840400724 -114.37015452678043914 -30.468943742569603472 -97.746283326036348171 -11.663382519634597045 -41.692372848207476466 -83.447735518566972246 10.013968054112694972 26.870139763706077929 49.491540403619509902 23.588163934848225267 -8.7042209124571456869 18.903219265864073861 51.402139489732526556 -54.845269444836254991 32.415656321559922048 65.904944113602027755 -23.720175554688246677 36.603778180242272811 13.531175512713478071 10.875459479894960424 -13.417777531219684306 35.998216789800331128 17.157395206174744118 45.688473494349700843 -40.828349964402327998 29.108323597564485397;-64.695663374406976232 13.406709653157509621 53.678264015969126888 -15.331764934499245712 30.384966237361286545 7.5507406459100039342 -47.551589258974807706 90.024223218580601724 -103.30310426195391926 6.4501966371135672773 -9.1986095643869134619 31.565070622005546142 39.894436948300942447 20.188339195867698095 -23.178336646104163776 79.504399582660397527 37.008667363817217222 -33.097499312234525348 -148.50267602100038289 -112.79082328153106118 -60.92175905222534027 13.353733584655662625 36.973093511062401717 -140.08579522514961013 86.347689072838477387 -96.407080413025411758 43.060620650844235513 -62.913483951827828378 -37.389794174569473739 -56.053284012846994244 77.408630052860047499 -56.664242788904964243 52.069924471545149913 -19.356023284668751216 54.371523160156876031 -18.371655649528968013 12.079329276863990827 14.134952334961228715 -9.6116491809501649612 11.229332120271180884 -13.081378987927768875 59.783909757531162654 -14.57993465657355614 46.419376875574982932 35.18341775954405648 23.420647355940232615 -75.913915543133072106 74.774443574819130731 42.673824683840656746 -27.547250237695436681 1.9901869087409593817 -1.6798712826412969257 -75.87171610610209882 -60.101895027364072632 -49.097093221565380361 -2.4946798072043558925 19.56711031725919625 47.347027075876795266 -4.9876581048781627459 39.096329060387226662 53.232510873573893662 -5.5193252277974185205 53.855032266035337329 -127.20308380868074494 -36.637122330281769678 -49.551103869430541238 -43.233165442164349201 -18.074426388680603139 -26.577626150056417487 8.3308678398963973422 3.1409671451162335387 -11.185865176031448698 14.546496324165936187 30.759592448913593898 -28.021301734226653934 -45.206291705863399955 -24.755292279556549317 -5.7162307459000611942 -3.1686525778559468947 68.061030945007559012;45.680689951191581599 23.500315782060734904 -11.784549265577400234 34.953867564365530995 31.31967206960285921 38.80366563988254569 64.905775820303318824 -36.682880339553875615 -51.951098605752264348 -14.65872913671611677 27.253239426904485754 -28.500260385233325167 -54.520096583523496747 -36.797370710491115631 -114.54472752242757849 61.541562885083521905 17.876396815553775355 -1.5208849968730397961 -9.8865755576695359963 -5.6871488114931727509 2.1695335886650926049 30.157163739798757973 15.275360333188386264 -50.01924984394673146 61.404441854585336102 30.124008622997294538 -11.701399701911132212 -66.942617565572561489 27.0493457363869787 65.374406747720016142 31.705597155874841064 60.775511696082702429 -129.12966175037345806 -64.263396539508249816 11.652574455590924529 28.091485148835062091 18.255481403001923013 -140.71845147759972861 -19.103671900552591012 -55.017366179507831703 -0.8693627822903554625 -6.454270334866822445 -29.081147050053186121 -3.5903918589932559691 5.9593808960294687438 -49.455488140813677944 -28.987822043633659774 -5.6979999034296611171 37.059840622469877758 46.393166683735650224 28.922561388018770856 33.664775715430629077 -11.161062551558307732 87.389448262654028099 52.260199659513865811 16.169656364518271374 28.490127010845686328 -20.688405358045098836 -1.0662850857691235085 -3.3246385422123365672 -22.068893335456529314 15.847278703075428297 -16.883779103154438417 4.1683206326487365345 -101.95063367026070011 33.982704594510437346 54.053448704722100615 47.788328701063477411 -20.523995108489245354 -57.576990785111746618 -42.839787606423683997 40.372755200403894094 97.072311966530804739 -26.082667895365112543 -53.69152233837589705 -36.813333612870302147 27.036357324500404076 45.971885344355797542 52.662877817265922431 -36.899100658900664484;2.4259206935103341252 66.748236993676826501 -12.714125948566877611 42.145877258916314645 -97.716632919750722408 39.414833255346010787 -1.0687687472356373064 -5.7104496174363443828 -2.6204287429068227055 -67.360658648198011633 13.775545312701783729 -33.052373839962406521 98.34721643147129555 -30.096086926074697487 0.15763562130228292446 4.2748416655146481702 4.5940401357477380628 7.3666182686713428396 -0.41704541192166033614 -7.2362048082748282596 -1.4915751244527200026 -7.008233120540959149 -3.1517890083415252001 0.22547947691759251398 -9.0372335328192683335 -20.25573529765220826 -5.142030373559975942 15.38993932179913493 -12.185185393796391651 12.709944235627292031 -0.15546928056513409366 -11.423578546358363894 0.37198166080816541523 5.6336517945420618858 1.9678205984605847689 -25.262411254343863476 27.029864604773123915 -18.555118686988208765 10.205709987153477769 13.86344817963562015 61.607530658598605555 24.687351871047489738 49.86175151963397667 -11.230582056202388586 -15.070847166063847666 -45.229766240428546098 -74.468805649480685815 -21.108473023044190597 -52.733033888214507101 -20.105693086866626373 -45.183533531819065843 22.024581226830239444 1.0441247455775761743 44.544805523679322334 63.007319877373831218 16.175151958013490372 -4.27157927237427959 2.6254139909006095621 -1.5387798094796316661 -2.8450504091837660603 1.4037606115256879846 8.2076097859752330521 5.8621607859601478907 6.6559118916183024339 17.630694899281508015 32.571701640438192271 -10.539165352715770041 28.167472792076427623 -6.3825908037853356092 -17.539657993667987057 -44.261470848534578693 -32.630706618525671558 -17.978776807686813299 -32.774662504022693099 8.9904865747564741696 -28.698895060134553603 3.8011823286643808828 12.861024515275769176 41.914444776810213966 30.302773497333475916;-57.481783000731631716 46.170634779138786996 -30.892051791267203242 20.287270776692462704 18.605944669492306076 11.834935772728460535 -3.1627514695179841375 46.915213748826580797 58.621834629065133981 -49.790658032685634282 30.143643729852424684 -21.499574962775476195 -20.155125496005926067 -11.633022731272479433 3.7685628010849674396 -47.693247259512610015 -0.932065140682300175 5.3657778399232416433 0.0015974947533348993201 7.5133948014153997264 2.0986600502103405219 -0.11738121848469795783 1.3248742254828174136 0.32260005046023065844 1.3369669700618505015 11.620099249962397181 -3.8349566746408410012 -8.1279297771506868742 10.113966310446933505 14.391533346690460249 1.2884431294580958038 16.930798839479503926 2.2744297286901655752 -20.736221208131372151 8.2605512134199390317 2.1089746377249363185 -20.408137143844680139 -21.056173150529140514 -3.376557917279042087 -24.815379963599749402 -48.975583529623378354 20.198154019435136775 -41.047431458855946573 -42.761703054190803641 67.780956134194312313 9.7164482576148607507 -33.121248641748472608 16.469753938888942457 49.993651570996448186 -8.1985788826887926461 39.212581379476155519 43.314951889134242435 -57.603508664848874332 -1.1973800485406345118 34.434701928808010507 -7.6778661395385201516 -3.7866613395301174094 -3.5285282004304781012 -1.7149807525410194486 2.2492109927737562458 -1.594257871871604948 -2.4058373567932624937 -0.57291576416879275158 -1.6437839149321953336 -6.5355663600663174151 -28.722507520567891248 -7.2666739710341836656 -37.651524395704363712 10.675674190798851271 3.4745167066168525238 -1.9333260713236044559 16.941920648418825834 6.0829085203600277154 27.988799723884987714 7.1085821029462072929 34.938562019699382688 -9.3988324571803154583 -3.3633018369151814753 0.83928678994377126088 -16.214710927300096444;20.246091684642259168 -18.40373177219393952 -5.007413162637047499 28.913573692782922109 22.506882891655784817 -6.600358763026465958 -19.039367706802902802 -4.4156831200153350281 26.171448989890524928 -31.620042205394351953 -3.4652293004364289608 27.062254836931021629 -2.8407128289218253059 -22.18706986228226441 -7.5005186578463121094 9.6176025987593547484 39.526151669267527211 -6.5715543230644364314 -71.580237724704474545 76.481114549105271294 -67.316184034611382003 43.237632236796954999 -24.411938013030461292 48.791806864568584956 -39.058649821912631239 10.330221740893227533 26.173267865006948796 -105.52266928333619944 19.418708857884961816 44.197368569747851552 84.633600235455205052 26.574547989892227662 -38.226658886284063499 -9.2005187123647953484 119.54091348160318375 -114.47515517975284638 34.176081544852266347 60.978190826976721439 -22.860146490869670544 7.8488993883635078674 34.155535576553916144 45.523139380145096311 -6.640871420141119863 -58.370965888646914266 -60.069546668358348995 -25.761118960466703243 -19.140632423667369721 45.898518700519986169 35.620796865351309179 30.275871391455851267 -19.206100335351983688 -66.676641034704744015 -53.297326207749925686 -32.131696966827128392 -23.902535065902277722 39.967102798895638216 -26.404951090434295224 -46.483938612524255518 -16.535396043479785533 243.84701652406224071 116.87078834798913363 -50.59804562375057202 16.797900872312460763 -64.774070984951507057 -33.881057860692976647 -3.0325717621464387541 -7.8242190587014057712 -31.044360803921239977 20.084957651964860048 -23.448613758620350467 35.78516507159095994 -43.481883651961695136 22.755442245954064617 27.503306156433776408 1.713792741465742786 -44.909025079272069547 -20.714608441620789847 -1.9919192259616136376 -16.195098706510417941 -53.962620226324077066;-94.717573324505465848 21.755766453930451831 3.6768179001299019504 36.329165689381937909 61.461337098022681857 -56.482903159356091294 -36.241017977122069738 19.855033887915666924 89.761542767668970555 -28.407963797835034114 -15.439078505226873972 -28.437670446177634176 -61.824523327821943042 48.105830136851302825 20.182392162006536296 -16.293049357358150075 10.968242524513431846 1.4973509979115688928 16.68277311779262817 -11.244579146836226613 24.17748517264512742 5.784258156821446839 36.937184123383275391 -14.481666537679833695 -135.75971612535681743 -42.28942877250471355 -42.800757711353213608 -52.193502098887627483 -72.433574162986332112 92.478547730422718587 0.690019646690679056 15.816318584890710852 144.62380284845872325 73.023294836337470315 36.828393416891508139 61.599674182739136086 28.647056075003753506 -95.518852968780635138 -46.836946191283850283 8.0108704613611472212 -3.65399132596452203 42.15333787524688347 116.25659656026995492 64.752390828291737535 1.8094614255844385653 34.840096802662550601 90.264842436212759935 60.35614003948029449 -40.798596478474436822 -75.562480843073473125 -121.01519251206303807 -79.803172574415313534 11.516146210548892981 -5.732578070765734779 -62.873522752987845763 -79.548853638189783055 23.148097657309271824 12.062857678664583361 5.5265728224618086983 9.4709932112493131484 3.2903400052766693662 -15.026879777457997633 0.066357035244744455582 17.54452106122211319 34.650860926061127998 -86.535645665865857268 -33.381433358930578947 -6.3254764020815805736 64.319863665987469403 -13.434768186487671571 22.380665211772797107 -29.532308093183445408 -32.346284059049459358 82.439338645615904966 31.662892469858249456 7.4096316401448802935 -63.00822526232052212 9.0925995392825029739 -22.352405678241876075 20.172857391126512994;45.207496023901271087 -30.023573371145047872 -42.819467276745648121 4.4452229564446534837 46.63661774847768271 -9.8943741666857931705 19.667295727288664153 -7.6603707301189221113 -20.222891195404837816 30.501026247005896153 43.900511549476718187 1.4578677380561955168 -46.643729248310854985 8.8496985213755614552 -19.241156859848160821 7.3651793223738524219 88.824030523978592555 -0.70291386187093252147 6.364493706084905611 -9.407966698849167031 1.1542362290571290817 1.9136776956894316903 -1.2297765038919887814 3.3285303687939702399 -7.8696262137051400387 -8.0219752606526206762 -15.857461515781119843 -3.4509465475474283558 4.5646948868047676484 -1.4185072306176094159 6.0418374348065331247 -20.519444483227598397 -132.86817062498028008 14.716177601748558601 9.6541333300062817102 13.023307446702684587 -12.641522168640213053 2.668174136378568484 -7.7770546695175752916 20.905618566582795381 24.225083730996725961 -44.955114634007351526 3.5312405512196454183 -13.197931315469023872 24.845218072937807818 29.700742082542006983 6.4127885467216705351 -34.200930206965281855 99.580097421350586728 42.18245629080391268 3.4191225453562115177 6.6407133499166404178 -18.203409161743611122 -30.801280164931171157 -4.018180508564604736 28.787333725033917631 -7.5942556934025624571 -2.4176893371520833398 -7.3338299908497912583 0.062516829074195090499 -1.7928339012891809645 -0.47047723912284289405 -0.46077970327959594243 1.3275657415998471933 -41.136869027393764497 -14.922293174141124439 8.7438153815878507658 -25.036047544910012164 25.014553136412953194 -6.2653937531655916615 9.2015662559208220017 13.432502775274599571 -38.457618708393688678 13.632244686548904866 -10.172806645127927538 25.623712848955765509 -22.761984761982194669 5.7243416878574322482 -8.030279166808227842 -12.97123242790776132;13.799732810510073833 -100.5765025107777717 33.834382655548914443 77.616729715221936203 15.041267873365885777 -45.77799187491030608 -23.234053363171586426 -104.12673326442499899 37.182048831767097852 -42.962522613731721322 17.513417004237481933 13.43116906574221403 46.879499534442366837 -56.552027254087512631 -11.393674330651267113 -77.481877039374836613 20.877830525478035639 34.670057872870728488 81.462916203910339163 -31.006757272732819786 2.4979620720240385268 -17.051111159637692083 8.6157409561870856862 3.9606772860756151999 41.043896918564030329 98.570435162715313027 -66.573482612583347873 -26.380786948028561056 -56.789252760587494606 -4.4665813445539690463 23.529342883532489594 4.6750164862213665629 22.122267319693353471 0.50141682238688556339 -57.398433379530565901 14.957623208846399621 -61.776039715328543878 -61.177260177447472245 -2.4044065447396203439 -30.563670815467123276 -94.687621676597075293 -59.705318690268200044 -5.5694909967187955502 -25.391522487794098595 -8.8129773120213847903 29.901468651780636065 3.9727099678312396414 11.728474986907272637 -64.853290021430467505 -11.999346728843047316 16.569273867021490076 -29.752196548152863187 -16.903709917504446736 29.040913557566952363 -10.775186452008947313 25.853730504585598737 34.264463479392631484 127.40649952554458935 26.001402243108120871 -53.257052948326972341 68.80140443893598956 96.090344193692814656 12.537089069190539448 53.458356798095671536 65.794522838018934863 -8.9317247531279857498 -85.625982634704158158 -4.3989014598735947104 9.521633401381976114 53.356499621792430332 30.321363408740765522 -3.8218387988881845629 -21.955496507839534104 -42.128623424394611163 33.487306787548043019 9.3569544677028027024 -30.548160200056088343 -30.168348328760636434 -31.856204126800175658 24.100716077179157537;-21.094579429009367999 56.327510093357467724 21.058524213953866422 -8.5313382844289318285 -106.83717004900724135 112.3480714621397567 -23.024615422138989373 100.80764814208407643 -34.549434392899705415 -12.523182786502843555 -35.369446867181984828 56.011714411477314002 -33.205645674370416032 34.987938023452912262 21.36764417561694529 118.06421491110349109 12.162904599675757211 -106.24890709876797246 7.7187017217088840226 -68.380539299122261809 58.822486173490531769 -11.863103286446769147 115.29624092609871866 43.183720167402427137 -56.475203668574778249 34.486596547936045454 110.07506466657999056 91.667337088910699094 25.859304712959787054 -30.777366036103025237 4.6893166960677890032 -101.09384378574564778 23.375824853471957709 76.366131839311705676 45.139278792629170312 84.226823922529845845 -19.463437552486247739 -66.492171034591450507 -21.020083406651924207 -115.6417052316229217 17.909447200029561031 19.656269829067731791 -48.64200182865818789 -110.05207778145911846 -31.28894510048016997 7.5730772361117439928 10.575343836946283105 -68.305274532482329164 6.9063783664959901287 -14.622756610098466723 -29.520400707490232151 -67.64234619103517332 20.277923318313899159 28.137951871015211225 27.425110710691004812 -18.305228386146342956 3.7254932606553117225 -43.529817259243799299 18.166772449555171676 44.314366509907834768 19.151937882221137244 -65.330411772908163925 -134.02268400947502869 -11.88279516336175945 35.155241174783512292 3.1137517654992121763 -41.481695092511642997 -1.5924022503207870827 15.717451603840100205 -25.586838857515132872 -22.429215750526676487 -18.229812596374362244 40.373615965290348129 1.4702587070193662289 -25.694804206332701568 -1.8632610560606135408 12.011316124956659124 -0.53797860907908701122 -34.621544833136034924 68.31089715525132533;-54.668474533238175184 38.889446129311068034 -52.441740837491131799 25.392814828445910535 -64.201473180815824549 12.618629024718934772 -31.691818174698394017 -61.017003130911234621 -75.336810981209723082 52.356548513317918037 -40.678920187157714849 45.511980225985091408 -89.813662214843787979 32.85066322268509964 -11.559294510919251309 -76.216602147725851069 59.238748243716145225 37.515885650195684775 49.114713934402388418 -36.125928776664004261 -3.466291059948410247 -36.382847449817028007 18.813094743097519057 -6.0650089504118200878 42.986625174044114317 -91.945121133254218648 -43.457733724045567669 -87.6164680657614241 66.379715676554937431 -16.732406394791681237 12.847244440652366038 38.102238265673371131 65.729234932133621783 -64.418726115788459197 -0.66591586239069311404 8.3060892985459151561 0.36861932268261049517 19.019094959080966589 7.293635944446685393 -11.171161521716641118 -20.703044761276718333 17.886160417335901229 33.458279028612281536 19.562651341909827352 0.01540122060568971385 33.157655479711422686 23.124568905116710482 25.005759655900721583 -56.867806792329858467 43.580881153665025352 46.485578105440758634 35.19330170411323877 25.414603942865699793 51.946053247977872047 12.704597237407696753 21.122189931842189736 15.643266470216177666 12.561837900967745441 11.020930770715288816 -22.739477577131687269 92.894525129566673627 -94.531084727938406331 22.137665521624192877 41.191240962651029633 -35.68096462567705629 9.6061545274547768258 -41.136597270405800941 38.470199743901254408 -46.353141599433556053 1.2178992055153956553 -10.425519637243926496 5.1174079239158531962 29.372248878491696189 -53.240628350181602002 -8.5313347556306453612 -5.0559297655441506336 -1.839884137441023082 -11.07677753690916056 -31.021923998111567755 -18.91551218708785953;-34.676307363483402924 32.053494648062560657 -11.747013901740654518 36.774568386771704809 9.2141409052989686757 -4.1386632452140235117 34.369386556688262147 -34.16518726417169205 25.651550865295728698 -36.846409772428138751 24.238295323971005502 -39.002230959998435367 -10.904343020327232239 26.354427160905377292 -41.755868731626343049 47.36571470190786215 11.627350175161041079 7.8706082098826364302 -21.105215516498159189 20.269611529575378484 11.276574752056140127 -19.197175342164641165 10.63547416603971385 5.9482681836752808735 52.424176726667461423 -22.557025197842389019 59.311451950490805984 -35.456717097538934524 3.0792498957329659248 45.163935067842778892 -59.556428779869698076 -30.537127089404027203 -79.796710527514619571 35.047125199424293385 -51.596937288962564594 29.279344594679955094 -12.672266586692721546 -69.986719661683224558 61.601279552838164477 -3.4234329552791820106 -13.531955230761287368 6.0606696516042619649 18.313628688380152454 17.374715589360810952 -0.41422362594864869934 5.532851611680920989 52.834838801798056807 -20.920896479879971253 35.395219398561842183 -11.400822272627062048 -5.9657085819265329718 -30.853842522567632045 0.10124172120737617853 16.524525204051062843 -63.62780855418998982 -10.480852918476694313 2.2651493553415038562 -9.2460455341024907483 -13.335595789122850263 5.2462585598446276336 10.708996887276597931 7.749475600004427811 6.0035585226429670769 56.708934075989574808 -15.818696227492216266 16.427684645062292645 21.243375874670810788 19.069263577084349492 -38.063670808329924 -27.789631206323775814 -23.744002501293707041 3.7914965753173932583 17.586393502970345537 -16.065703704452335643 -16.330627675050642722 -24.539994432149676129 27.360062563518514622 16.403693912472409266 20.274829671694121203 -16.888134770429982012;-14.940755328953287062 -0.40398772001409488652 -8.0333881635501338536 -27.730225108185852179 -19.181200047615572402 7.4583792880957746618 -23.909069295816202327 -10.009962583809588921 -16.980851894879748443 29.667678536821949109 35.837691549198865459 41.196558664330083843 -5.0166807355392855072 -26.582687489705556061 26.375247657689975256 59.418852655055054868 90.473637440501192941 -39.970089777292685085 2.4646894261428329287 4.9183535794687758269 92.143819409802119935 43.04438442022443212 -15.882665484904162412 -42.884304885965228493 -88.262114466475409813 15.773556612236871999 -64.738921451487840386 -101.85247391710595366 -83.95472214116338705 -14.764386532331107205 90.00176071997067595 28.425839212041434934 -7.1520237904039056787 16.617671428591435756 76.946662192040349737 104.21413551032352984 24.275759300249145411 -65.472132195470294391 -39.626396049235609098 -29.038168985126567634 25.534995916078969458 25.091955958304044572 -38.040154237368362544 -57.842442066664936817 5.7635948111459143206 6.7295361188169353639 42.540806470320475796 -22.761902518324816924 20.616523266778951751 -0.11163672476292640923 19.354632851958001538 22.15914399362605991 -3.539821226414994193 48.939049173348493582 -36.433806247031796488 -0.81869910081316243922 -26.761315160604549845 -43.45074328914509465 -11.756109532476617829 46.896905768673605053 15.27104400321222677 4.995783037733634302 -8.3067665690854362026 21.1729289571257695 10.238400636869510407 6.9484069519915525603 124.15716157180973767 -5.0359945787278626028 46.662007436134324223 8.5096827627829743079 16.987175650078167877 -30.246937011301778142 -31.122598244665656608 -2.3000473364675046994 -112.19746159846911837 -32.482706506116294065 -59.638283295936801665 -27.55811694332638595 -22.056071910005911718 9.3192570595203925166;-82.331856484938967355 -14.704155914419123619 11.775609952989078977 45.929774640562030186 -22.890781654724285943 52.408008081277564827 57.620050736394013313 13.190852403430461948 -83.802060402915756754 -34.571967746154292911 3.8840633316896493454 28.091783606313455834 -18.227081602040911434 58.480012600794069044 54.845515210366059478 -4.7992979541504618979 -23.054508498101839109 55.797561398862541182 -15.841256496343362414 -29.706121163962428966 15.310230363104711415 -23.606127216228554033 30.131567071220302978 -4.9266121584051818516 62.545509165600158497 126.94915402190036957 9.5527813415722171442 34.836690702902622263 38.604644805232027238 30.592482444620284099 60.425623083799116841 -28.167566343606701196 18.940492777827419246 85.529585838628662486 -24.180400684643124976 39.96952933427681387 19.465655419119798353 -0.67692230019362575888 47.647894187159472779 25.564024764244045684 30.553911808729846911 -101.66585008613945718 12.714242517387868148 -26.406389269490091465 37.541847852850466438 -2.6583661140049184013 -99.729149541593812955 3.3332171081429553539 34.059531584096546908 -99.965467115178938684 30.057954083171168236 -27.401337447898765021 44.3986369348826031 21.841986262111380057 -97.664054205319672519 -1.3765822560793727902 43.003965702484208578 56.528810317539914365 29.205950519900067519 -112.99522934274322949 -95.580709847598754436 -113.16564093530054436 28.969114658094017756 45.262577661932624551 6.9307425325805303018 -60.953746709152760275 -1.9716442943868019988 6.8512330961173164567 18.264508290732393903 -9.091228753130993212 -51.733972874348559401 8.1572510740080268477 -12.428870192305179643 -97.35344201736224079 -63.663591802770604033 -17.901767480200039273 -8.1619064164069357048 -14.319059032316046043 0.99494474028607959859 -26.93300990876395673;-10.356788765028941413 -48.411270801429310495 -27.604596150474222327 28.478206891565200465 9.6120215119225740352 21.307264297649773255 45.114947473236377107 52.076894873027193 40.25643773928807434 -22.100913863335456711 -45.165370698240224101 16.882813369040146512 14.336217395538998431 11.50793177377473242 39.411602640149148158 12.412271247229107018 -7.7006273138319585314 -16.897950520920858253 -97.004611257111008626 -50.876425411883637651 -9.4026614960751953021 -62.307401178901045569 49.329949103657561693 12.154876406239429443 16.074353762326119011 -39.362950187322724105 -97.292267838904649579 16.542220763128042904 16.825094900584765867 27.008604579144751767 -49.798254665655591111 -44.668968417481707434 3.2583647427075010938 -38.357826783927087888 5.7315561565305985781 34.443107109725957571 -15.568006736731387463 11.754963254776415127 0.24960262249766285159 16.773418668108671881 40.57625063997862469 25.485373975156178972 63.277819515637034442 -16.381974192776407762 -35.762936752483973635 25.85537718305880972 11.740964970531642564 -18.27444716723696061 35.065197344455981465 47.357562668108414528 43.470362440060299036 -21.226043463356408125 2.1981953651749801537 36.726059974175427669 9.1347211624672883801 34.811216098075881575 -33.828890550115836788 14.428537316760968068 30.391622532894317033 67.60573429142942814 36.772042586802577091 -76.38969953908369348 -120.39189230023478672 -27.876768861153255585 -0.80267143010087549371 12.607204360590676728 19.448042534637338008 -67.245046251188014708 -32.025190912326081616 26.513596681561242718 -23.782287257021227589 -1.1069661795884020439 -13.789857835895384497 32.172965315542860765 77.612349900571174999 -18.817801816453716413 -38.616613261551485436 41.440375509718172964 7.4684568089499698829 11.664690133550823958;10.773801653323234362 -2.8286415975059502337 -13.395437397832525406 -29.453711543312461885 19.423911475123848192 -20.505914665827045695 16.963151301521751435 27.58258233355350697 24.706287207294327146 -19.397993535232707529 40.295127802117328031 -39.194831120997996265 29.981265639903572406 17.328850777733229904 -35.35914406972307944 -15.258224392192182961 33.960983603760737992 5.8206659884132720961 33.888102289333588146 -18.715406164100301112 8.585055986160176289 -61.472216934059453308 32.140100189139729991 -74.568385910282984241 -62.683996963820632686 -34.525972450570847627 -112.86033775125635259 32.718885958345630627 19.073502628582584606 25.666117170961115335 -29.997089684800069875 110.52259619651846378 -133.21810655459978534 41.048219499295306889 55.552342338033085412 42.834750632372617929 -73.411290353289970767 -13.803231431753527403 -54.233705519508994541 107.6828547093197983 22.577968245901740119 2.2671567304119388808 -33.418077019288048746 -23.879341272553890718 3.9687373879776943753 47.232395096148025004 45.380246596092128186 -47.243204415566125931 17.199729976491095584 -9.632520852585900073 -35.278547404702372603 -2.2891352502740436314 -49.552691349948538857 41.559990158132826821 3.9237802445601399626 1.1454487316074979386 89.255791559175790439 25.722504006288126277 67.571072136416447051 97.017691973939648165 -5.7957017990847337074 -80.265671094159017684 18.196102259558632142 -131.92549359544267418 47.866240782534987375 -43.203662859378809458 8.2424457115946516694 -69.20759817539278913 13.994111668667349235 9.3845108027174557463 -3.5303476076490105662 -30.544937470760235243 -19.120600976814856153 44.341238485445053641 -48.81823560014865393 21.805390441813258917 12.025457578039265627 52.632890576579896447 31.638527511781013857 28.52972270819513767;-39.602082728157505187 10.809839626135493873 -10.934235288820499221 11.789022954277776023 -88.138097510354782571 10.256069734348727707 -91.869693938518423693 108.6537130481601281 59.188571551024452333 -4.5527143954542648174 -19.281037152413681213 -62.040313586782865229 100.17860894591765941 46.883055320757648587 82.403251699422099819 -87.546361538830069549 18.459952708847396252 -9.0502507863894727791 42.165922002153756409 41.306165968328137694 -24.040222885978558054 -51.866788498722932843 13.061517528329037674 -30.937106177176861621 -119.41035944889689802 -24.937007248808747306 -2.6365354487351346791 -48.508753345722034567 -30.472980725154112491 6.9157987840781967037 25.550106878176798375 -10.090893010716660783 133.08851385846642756 25.660446354365138433 -56.935013197936612528 38.70724433100286177 67.875256791747517582 34.536434125053226296 -20.164982576685282822 4.1520006634494830422 28.796610225085849777 -22.136629535008939484 172.59087623446413318 58.839458520428010502 -18.438643469441807099 -58.653027392949340424 11.893105388585428983 -2.6076703736110373733 -63.233789197020492168 11.473953613814046548 -143.80709506684587495 -59.473825908879945246 19.136168515813295699 14.20190699857860217 3.7903013345314189309 -0.34642181320530696098 -2.107896455189930407 11.140515065892895308 25.704527543687660796 20.30803552366644027 -34.528375690332786974 2.0963987284830469804 -21.465194641180744384 9.0610284691138467394 20.358195793794209294 102.97008202916013886 -91.164805459080497485 -5.842516709983301304 -1.799456895371354781 16.043651980762227538 11.791981412570811116 -42.724786426441347942 -32.343843972385592167 -105.57888491606789216 78.455632213113446483 6.9425515670395823165 9.3294055566733291585 -24.527355219384187279 -2.9038489564642313567 49.751934126666775171;26.02504423904991171 40.334583989565167883 -57.626415518893352896 26.390061644506705107 -32.373664514835205352 -9.7197385070211446134 -5.6370523081718069136 30.354993421358102523 20.699757086628462588 -4.9774246949027611819 -53.745504161238628171 -6.694065221233554297 -33.448336322467284276 -18.958102165426257812 -18.251949047196212916 43.76264806527483131 17.434659441571334071 72.607057516892751892 114.64360140180146175 -16.710237339466651463 29.015305545110631869 -2.3098688862105536401 25.001044145240619798 -20.285718037416614834 -63.729062326942738537 -65.767611157312913406 -8.3278229540882584558 77.293976240895403862 47.429962403709339469 -22.79887227506957359 -86.72163310592954133 3.5347901862852753041 -61.983799454932466233 2.1252046914306070846 -27.657161572135784411 65.744455434298970431 -4.5473117501318105482 -49.055840264563833841 11.603705527808420683 -51.911752939014931485 21.795568106122775731 -11.05424611213838304 -13.787853961763783417 -15.904427530958967552 -24.529918363992187835 21.734175856203737709 16.473436952099191899 -7.2211051686642733216 19.671488671103237067 -31.320922169861091788 -0.24074817853609625784 -36.608341493801411559 0.61056163267260643579 19.959720261705861333 8.2130799201952804367 -15.299677968764507696 14.357055679662652281 53.54347141791777176 61.302634910009011548 -65.842941207362002842 12.796196364174885929 66.390480080285783515 14.962666525898914216 13.295800892934963144 19.423543713593016236 -15.707043470448130762 -54.103471262073732362 -29.88936331936478652 -16.910627116637513723 -6.8965654378275722536 -9.240376513541065151 1.3845438785059898112 -18.907316933692502658 -33.185248756837182782 18.902008917935823717 8.9509668359295417872 -3.2954996069035300543 19.682723634987159045 26.524819957763448031 3.7713302517806610581;-20.518699405134725566 1.4201322736584600648 -3.1408481991744894302 18.577698849112618262 -26.173729871676261638 -43.426689798794733122 4.2179214649888621125 10.674428399808157053 19.370073743234797803 -0.1646233108879968654 3.5543766739780373598 -14.014174181019427579 28.687344111098841637 47.882085777745395205 -2.7516929131085134941 -9.7591777508726735846 -0.39065170829022632937 1.8291754587816864142 -4.3019076861093212827 -1.6293021400552805122 -7.5370946142889421182 -9.0089586274228938834 -2.0631426492522448868 4.4466108562209312183 -4.1174523084357685931 -22.343007048879613308 6.875447535642800645 6.4679738980602072829 -1.5160984694613186541 4.8268945198677482011 -4.7831698163475016017 -16.220053338262523823 8.0347558569372363735 20.512628015644001067 -5.4164619136948441991 -16.325511097812402284 12.250198209640307923 4.1899045231952563029 9.2134380121774288597 12.510817306808123206 52.163327703546983116 22.972037239044144741 -21.797172718867575014 22.792079614819854783 18.090375424002147042 -50.34960768383836438 -35.110496762720629249 21.609297601868608041 -52.08707877988575774 -27.337853275641542439 23.546320201588319065 -13.041120527781501437 -27.040111091027434043 44.133446288044886785 29.780423776987067441 -22.226738972519456183 -3.2753952012577460806 2.0044334539811483609 -1.0938219176178902714 -5.4919599992989951431 4.0123965963854502093 3.1448166147445322238 2.1893097177088520766 9.667243636748258595 -1.5141188455346243913 14.513235657882958662 12.907743295905410363 55.024813219174063761 -17.163216830646014444 -6.4508513848878124008 -11.68047825009163887 -39.348382116694466504 1.6963872647313573694 -13.742477740750276283 -10.625993900937739767 -52.479658539836073317 15.893191856821166752 4.7668461119903779988 10.668159622553686106 28.866792621766872884;-40.278545807303537174 22.457169566447021225 -4.2106127388145857537 23.12119286208848834 19.321946643915989483 -9.856524593191657857 1.0174839128141694999 18.592901254147808032 34.45392422364264462 -21.750347933427896407 1.4525371116750078748 -13.816904421478216847 -17.429751673651949773 9.8060711525063197769 -8.091573622656449416 -17.20736534299652476 6.3065765250992331659 -1.6632655901251158781 11.674679488227528878 -34.496930976017608828 -8.013396418006053068 -0.64496834879357267667 -3.9317595237025937394 13.796625125219124541 25.730458788541351822 -14.545663575650994659 18.398508352379348452 19.652609469840179202 -19.394950557089444487 21.617633731176489675 -3.4278857364961390353 -39.560035334050837719 -57.481440948089819187 59.311034048815578501 -30.798893991740023068 -9.9412939355774874173 23.356809802123052577 -47.016076203902507302 8.3485074746432683668 26.099480681253037773 9.6185140723856346057 -9.9832159427030582322 19.089802742851375683 15.531156284236274701 3.8464292164903448601 