function [Y,Xf,Af] = F100NeuronsRawData(X,~,~)
%MYNEURALNETWORKFUNCTION neural network simulation function.
%
% Auto-generated by MATLAB, 27-Oct-2021 11:42:31.
%
% [Y] = myNeuralNetworkFunction(X,~,~) takes these arguments:
%
%   X = 1xTS cell, 1 inputs over TS timesteps
%   Each X{1,ts} = Qx80 matrix, input #1 at timestep ts.
%
% and returns:
%   Y = 1xTS cell of 1 outputs over TS timesteps.
%   Each Y{1,ts} = Qx3 matrix, output #1 at timestep ts.
%
% where Q is number of samples (or series) and TS is the number of timesteps.

%#ok<*RPMT0>

% ===== NEURAL NETWORK CONSTANTS =====

% Input 1
x1_step1.xoffset = [2.74656400783331;2.98591555851755;3.11052334030978;2.98049068643941;2.84552657487966;3.02931454994738;3.22789815717178;3.05298673825844;2.74672839737296;2.99397067235946;3.11150968247293;2.97901117594369;2.84454023636173;3.02701308761696;3.22921328231835;3.05134283603616;2.74557767060278;2.99364189218494;3.12055115295556;2.97917556599726;2.84503340561907;3.0240540647303;3.22921328231835;3.05200039692047;2.73472796190052;2.93577660483959;3.01024529288681;2.98032629638283;2.84503340561907;3.02980772045647;3.21934984434512;3.05380868938395;2.74557767060278;2.9324888058097;2.99462823271304;2.97933995605122;2.84536218512577;3.02454723520285;3.22839132909873;3.05413746983684;2.68393161863231;2.93396831535479;3.00432724862994;2.97424386455324;2.83780025683734;3.02832820893949;3.22773376653026;3.04460283732521;2.67669848506325;2.93380392540386;3.00366968818723;2.97325752430496;2.83944415422634;3.03030089096899;3.22789815717178;3.04410966671308;2.74475572292032;2.98427165784456;3.06169942067687;2.97950434610555;2.83911537474565;3.02931454994738;3.22839132909873;3.05364429915808;2.74656400783331;2.99265555167041;3.11085212102927;2.97901117594369;2.84158122088601;3.02635552696483;3.22444595378427;3.05249356758773;2.74541328106558;2.99347750209824;3.11364675720786;2.97868239583766;2.8409236619073;3.02865698927393;3.22510351632063;3.05315112848277];
x1_step1.gain = [8.70880863711863;6.32665495403001;1.1709327247997;8.86746828059649;8.36739233315971;6.33323778611334;6.4405049436089;6.43030971153133;8.79696733869606;6.55857523125759;1.1718349979422;8.83526991041607;8.41368515246554;6.29392137603907;6.50246599304223;6.44734835440048;8.67775018502937;6.50248897715469;1.17796185279438;8.88041367834777;8.43117719293759;6.29066728744318;6.50942423985948;6.45761479376943;8.29325606639113;5.51503270670718;1.1061006528725;8.95229337595446;8.43702406615844;6.42013197170286;6.2939031332814;6.52340280476968;8.88044247742431;5.46793817956909;1.09653020401012;8.93257476247694;8.41950768585744;6.280924316523;6.51988966014724;6.53040590538362;7.32904354957087;5.64817234452552;1.10259214137129;9.16127123928945;8.3273029805506;6.471356688402;6.66271350226596;6.67369638587568;7.17770677860276;5.59621111596957;1.1022924501123;9.14062233963746;8.34443718801046;6.59054752315918;6.70678887091188;6.65180345013172;7.84410307200763;6.29392530776077;1.13839205804562;9.42383255200881;7.53324289540271;6.00797443681373;6.36303001326221;6.01688620368899;7.92586565887927;5.91163959492079;1.16924465714999;7.58962157390259;7.67098818860077;5.70912584650758;5.76319801203238;5.47038716947935;7.85423097746486;5.95796002813176;1.17138363304679;7.58016411927769;7.70987800402813;5.79616352792157;5.79338621543112;5.57057763303329];
x1_step1.ymin = -1;

% Layer 1
b1 = [-1.7991947095674740709;-1.709138059634874196;1.742512110126847924;-0.59638525926552021783;-2.3138615182100963352;0.63690184540288996562;1.7669901580225100268;-1.159421530839596759;-1.3151878353796526699;-0.92570081534167591997;1.0518111887991694609;-1.4404278524990121735;-1.6839955813659281958;0.70157553139326311875;-1.7053271509355520941;0.96029349891615056745;0.49767928960887997114;-1.3373600309628319582;-0.35546236802877523298;-1.2311890649214178861;-1.3890452106877158034;-0.61324120652595726089;-1.3714968720842626304;-0.04256309108459623014;-1.1281968307398142493;-1.1812244931425945893;-0.26944264587883004491;0.40471073360826553822;-1.9949632857129819818;0.56134100029606492921;-0.50484093758182180256;0.94145050324156409616;0.3213231719776479256;1.509306639942047612;0.64030228372461484021;-0.12719757914671792065;0.55715646592241663271;0.34423830135234978478;0.55932460593501065471;0.53881493201464525367;0.29849845578374389898;-0.20586791018426331412;0.22851903176709642551;-0.83564145035112347148;-0.10365121801171819915;0.06022833578357514317;0.70359392264281339635;0.22426815578214107094;0.56124869508285035735;0.041405936330067290296;0.66842314047775464037;-0.41270125839310994875;0.55358867351518570299;-0.40091178860756460089;-0.78860828523271753188;-0.67114706487693642778;-0.38781661082678431374;0.20175401870378273372;0.60195724619803248068;-0.50110847427379923147;0.8702055325880584391;-0.88265595260787299559;1.4848792065311327004;0.67676386356842299641;0.17068587363482226604;0.57127534046697592274;0.76181894965515140061;-0.28290435985091078042;0.004674613617289269385;-0.40719772249491115179;1.2168052640838258327;0.19471646497360442507;1.2126140650068391036;-0.39429599836445777816;0.87058525880900861083;-1.1562111241351720192;-1.2166215369667778834;-0.52700918696364307259;0.21261747980654102652;-1.2762980636850638216;-0.96544359107152100119;0.30314411734995844183;0.17339600895729956331;0.62619197701185225213;0.34233201065166857235;-1.5110152515200705459;1.0104304373556878272;0.61253155854823093662;-1.9578388980783261175;0.74853997996826393546;-0.74448280292984392315;-1.0931661118965967372;1.03284007227671637;0.7828723415747397274;1.6889875683639961057;-0.60408423184788218041;1.3330176009232685974;-1.7054765491681174172;-1.9742118578044460797;-2.1364843225691365625];
IW1_1 = [-0.79153544075018633652 -0.22596291017123809608 0.37550115578632503599 -0.089859499406846732317 0.51526977148018415775 -0.077332147782598670283 -0.14455828911726145702 -0.1584134000236664952 -0.53034721556199049264 0.49887961898798610649 0.25405849373724859186 0.4941892625589254795 -0.030467322319628661886 0.41805862405957910921 -0.83208091592692601246 -0.69923370310194032928 -0.30553894329715020062 0.30584337320002275007 -0.11484776728825484005 0.067467981948638997003 -0.091033298218957975356 0.7301240422786315909 -0.63051389647990307985 -0.72173067108936639347 -0.31924421274097763979 0.65212122288371332512 0.27673976972526082019 0.31399846296673772361 -0.04682345005121562459 -0.11422058632930687239 -0.37871589106361241983 0.029665357325944826522 -0.27307123778000758074 0.67658255167013447995 0.92629568168436027253 0.43831822164717687551 0.19205081597943227112 -0.39525058466191925755 -0.728970245496487812 0.30369487046003013075 -0.67106249718965849116 0.5212997809710402386 -0.056727992101906793421 -0.13405120259575414865 -0.035524070780697546146 0.23892149546681593075 -0.57815540180477897891 0.25840463497013532734 -0.33874795503652954665 0.92463901158909311828 0.049977358191576184976 0.054955979191465810507 -0.0049162835667046697607 0.39241118417385656425 0.17085106554237888821 0.34110015810517768653 -0.40278698409668600711 0.8384390657430141891 0.17165239816005598006 -0.31404974193702561713 0.47515323041877427501 1.0019242409672224348 -0.44882960119263420884 -0.35837784310374187768 -0.41395538314955393489 0.97043390790673245139 0.22518689874935229889 0.22032387887287857575 0.55304944346835760438 0.64570016560154275265 -0.50022603963952561035 0.070928109076801734711 0.10741304954270274041 0.90999390484820297242 0.15930277717382951286 0.15919096416075734224 0.13810220307039097754 0.49017941914895679645 -0.72447516862938177162 -0.15355482632662389997;0.35538975236196373997 0.30487718372073208117 -0.48496423260805249233 0.38910435621560640618 -0.69553168965910561194 -0.41481955673739301371 0.11472949825702571935 -0.39325886983614177783 -1.1195766934226403233 0.04919277188555692959 -0.35032068975403152233 0.43246111825145666652 0.73621075889963494276 0.38278453334228390581 0.48686162825619960781 -0.30802070763825289967 -0.56924714201839032857 -0.49178275751534833438 -0.48891446922080922244 -0.0013345034525374958791 0.15881479603987933014 -0.30486297456968758368 0.36128913097672465948 0.31466836755040661355 -0.58384333011383826584 -0.09292670153667675903 -0.50803642393152670387 0.47733929309605771518 -0.27470058245178691214 -0.48051358943303301707 0.64642858369532663065 0.46310073218880165591 0.52481127861675314072 0.059064837335363953863 -0.44577672401477375086 0.21774358141978117365 -0.48181716538736601985 0.89106553223681284059 -0.10039465492351015707 0.22232224964137869971 0.76775989822719448163 0.39859189545355699913 0.3664965560274217049 -1.2669731280271268048 0.2636951780114407673 0.38854400830128177358 -0.30290611177921361596 0.006641572296299410455 0.54468812147953848957 0.18487012852329290369 0.62355168873436717103 -0.89805368795028805984 -0.0018104040559485980177 -0.25105997559303949718 0.080405573886038708697 0.037159400299920736233 -0.66514252527677664162 0.39227534345024989149 -0.27458812057829073972 0.44808225621026753771 0.4579995646920712038 0.11224654369181066849 -0.036682139496125233669 -0.20602469799513362103 -0.03513197297854316753 -1.5087541407639708524 0.00749175668801682626 0.40856909150949760612 -0.053766714198979499717 -0.12320073417276278249 0.55892441912911250412 0.076784044797431644236 -0.03733870453188994909 -0.40523639055519317109 0.53026569066003392816 -0.080332103477492144972 0.4585138851172454455 -0.0015399088812359240652 -0.50734661303910877361 0.26153338661776526219;0.61918129392397969202 0.053630186306122394624 0.30190894097151838027 0.027968197682345735666 -0.066359465198381359374 -0.090646095312463731419 0.13320527455252939575 -0.13413249521745962412 0.68903980784613105826 -0.10040842064640731479 0.34481697142612910412 -0.14132007260774120949 0.079975712153301195539 -0.81476163426373326981 -0.099134480933745550146 -0.19070637605314963436 0.30582193700474097353 0.32644148449480797636 -0.031459494385736017086 0.22477164632025070645 -0.20516973434729865455 -1.022084945716102089 -0.043573364532614872191 0.16616470229851221241 -0.88671110791000251616 -0.55119578624559439906 0.40450057302679714999 -0.18302413671086764646 0.56062166078344510822 -0.14022067480024547059 -0.071813861051492414167 0.31535507132316126233 -0.30202345889750958907 -0.33307926441166041398 0.071407221318195435167 -0.027190049259230755774 -0.10322822484348988248 0.52688402936137901378 0.57059979098646751439 0.70135072240760865103 0.29300800720509956321 -0.32018108249882126781 0.082004985196583030094 -0.34198673128595541426 -0.034660392499625283791 0.064560936575950592098 -0.34762473603033577918 0.012381107798157056643 -0.33551363820956597861 0.069803507991633984009 0.050136963622559892195 -0.34435068061543089302 -0.34116471098890766012 -0.38810580686782480964 -0.45969232160117889929 -0.27533173817358580493 0.45115003847946627547 0.10037051380188688476 -0.22045883110738831445 -0.074237749592670126964 -0.34086293765327174698 0.40377196217036614989 -0.021360764158883018687 0.44716293840086290823 -0.20411458473083077259 1.3672013137037744013 -0.31541999729739628178 0.54027153648683789999 -0.16790711347224485106 0.34124059723033411951 -0.035906991935404239391 0.28329783391049451202 -0.20700624861242061803 0.54273151336909297715 -0.36766763459820855919 0.55792901450279741571 0.18473052155139391139 0.12307646184995013616 -0.15728537615697257834 0.28946110671171387807;-1.2919162247422348866 -0.24749062696442447606 -0.09850850561092625024 -1.1686458303627873523 0.14980626357390400272 -0.29117996400978302107 0.54099931208138829497 0.25082309753803527785 -0.30031867694202507568 -0.50529554977336443855 -0.1828401675597806364 -0.54482988711005220228 0.29904161763307685051 0.56743926120946308611 -0.52397332495882564807 0.19792907518277061407 -0.29921006062321042762 0.39370455825610817246 -0.016082734980895803389 -0.3036597488311471027 0.072340987445450699589 0.39141540291097065563 -0.73889258103631583197 0.43838204808885133934 -0.25033051944644152398 -0.48846851903136134787 0.032073172161208030051 0.46378763472612294372 0.36180248190580982515 0.12463456209941406461 0.51414859516181876664 0.43687885753777649933 0.68407550982121578809 -0.20099107397703858124 0.72386351011464911132 0.43137633071431513709 -0.56038223339344772622 -0.39606902713162683849 -0.12794016238413538633 -0.012555188026517755118 0.96390052977021944969 0.33378390376263422645 -0.56444261401037598702 0.44701002343161733155 -0.22251376668879058185 -0.96781375859325702304 0.66195173787523808873 -0.13419606867767960856 0.58903653329123706328 0.3520704466729212001 -0.41449922737607808321 -0.24015953725478128566 -0.64841345217759827069 -0.75874280047199260668 1.0327628767386025643 -0.67119574163825235225 0.49589441870312134242 -0.10880290969259809319 -0.098965701708746051102 0.54644891955833119201 0.45515912566400179573 0.025361658441183695945 0.38048514536140709552 0.2489826813690631524 0.90998961203030515055 -0.58178581799651507556 -0.23677787885705933735 0.073315602415300329397 0.16426165784781124324 0.57265516366102742207 0.042750571020622699092 -0.25257562188611831777 -0.54636245007328065881 -0.39528973731768413113 0.15546084799516621255 0.65254302210141190699 0.070167441980498720944 -0.25791639103323049653 -0.83511866923085520398 0.044493361431296424291;0.16625758449655259064 0.46848318740432171037 0.060670746920188312057 -0.077063079837235148872 0.88810506417039203342 0.24240258895758265423 0.31547664359741423024 0.56285753703527219294 0.84484084195739528322 -0.52026104755906488197 0.13878457275008262983 -0.077198037845088371411 -0.51689915545577480582 0.44909313272092832303 0.29756464667637227972 -0.080263962445803582746 -1.6436059691667903593 0.82843761994252462788 0.036018287580539876114 0.047604784874664962668 -0.21308057872382435427 -0.65652968500458153134 0.2373519954162023049 0.11959026761506849623 0.82182908388609321459 -0.93083992203541354726 1.2083011515108645906 0.066245182015416570476 -0.83415391096673108251 -1.0143728717680799978 -0.1978696967566381526 -0.038353676410942096064 0.34752622242216435478 -0.45138710290215805498 0.2892671161068359198 0.38179115335699470579 -0.35461799439518026933 -0.0037691407583704261697 0.43807937777663247259 0.75844517843515402156 -0.071441771729584338524 0.28529515116397874408 0.43523758302040910229 0.29159874869962182364 0.85715148016226816452 1.7171501191049631796 -0.3618866671927118972 0.10305379550032817138 0.22053020289760225103 0.2111833939883571154 0.61274318936110305778 0.32701109847493142757 0.74037295434604188937 0.31423218170270267313 -0.64964016935109925033 -0.55922790250631371212 -1.1258618791457235542 -0.69827933821587995222 -0.20305109860949113743 -0.57666893693555676403 -0.027779874086695532237 -1.496167369438565764 0.074388488764652191398 0.31528678315382374642 -0.36394015575221172476 -0.32539816331099236102 -0.14275066562339469578 0.14059706703257177085 -0.069101254819339236191 0.32818774434293390696 -0.42494834453945645736 -0.4601756112901264073 0.32569080931444621685 -0.17043819255608336216 -0.011689099169474493137 -0.58965406421992327957 -0.36689150894991068297 -0.2766072687459798507 1.4150883273487255831 -0.020431561031676294393;-0.66755590993031943547 0.21412909084017711647 0.47746769889544898868 0.018764095137746253372 0.11597521010608316527 0.039270653677998014486 0.46471419261724000727 -0.29909422029412546795 -1.0560588194810984763 0.16326023001423814462 0.30389572174072743138 0.43899751734654024471 0.52267111327079951444 -0.14742990581323472954 -0.020219132656842577628 -0.26876697719486047911 -0.21403788992845190764 -0.032665643059103993684 0.18315563750984037439 0.56505173178720902172 -0.11766619751334017607 -0.017963192340795450241 0.1763436907560347322 -0.18135359194416550421 -0.45233001839723979698 -0.55598323599138066431 -0.026225134093111217293 0.28652747168941677947 -0.25695309792916826153 0.53402016508445115939 0.39359085251761438684 0.16010854972178817368 0.37980150677741247867 -0.74599407414330975996 0.17018205033946062765 0.46078472469360715058 -0.20668347374970244545 -0.012131122116960033064 -0.43754062366088969371 0.32662458326506904616 -0.49874755170525819636 0.11375983460896718635 0.1060740280075298525 -0.41218039265229516888 -0.48592267551971207729 0.025354911365229250431 -0.12580268012654982623 0.44580140816456520492 -0.52177204118064623994 -0.12007954889012290023 0.14239202053805621873 0.11905470490825270646 -0.26308158953469429342 0.48063392081655559318 0.86147160177937009973 -0.055428023521953473374 0.12321402307621073802 -0.098872976518240077159 -0.17405544121902977173 0.061316721542521761268 0.39073093831950311827 0.67893604206901136955 0.085209739343537177492 -0.51195275119422833932 0.1162803817742991408 0.35555314712735569538 0.15677517853212083465 0.3978883572608650776 0.39036291147925711309 -0.12334110590610969371 -0.18550915901510328654 -0.47989786418946245306 0.062505845060926906731 -0.0016997991186398844765 0.46407345030331881297 0.29787915008065429801 0.20102673214188071515 0.062708413095152015782 -0.52750065320577199657 -0.31093298168982363983;-0.27081735219896962974 -0.25997151855772998585 0.14369413253009657994 0.51340982236518617476 -0.95938183858371728352 -0.63110476948007632192 -0.26169492449386627664 0.49244568173552155654 -0.26240855201009710695 0.71442430249848420942 -0.18229420261110212964 0.27639952787365534848 -0.62900418125158319427 -0.34057347825136752295 0.10554380139029163888 0.60161280883455992008 0.2804313447063001008 -0.85711995363054072072 -0.52384772692729875132 0.33399100207410753471 -0.42523353395370433461 -0.1295570722305185718 0.0050391395008772457004 -0.24890857033453883673 -0.7149380871816577443 0.37274188070155045427 0.4219228506765209108 0.45288572439165841743 0.15051222057890215056 0.44736480656356331087 -0.17366457175183833139 0.28903505511921051552 -0.17227809841625907339 -0.22732658837630850823 -0.28615920894905233496 -0.24181561948254284844 -0.15830830712973367747 0.38144675937364591611 0.43426404002271884464 -1.1112053438179894105 -1.416617788755757168 0.38856141390247972423 -0.083684203651678973346 -0.83635959510014912244 0.060007626829176860528 -0.57163461660442460577 -0.12510279359385628739 -0.13286292150927653255 -1.2428915835283156355 0.44413630369899659289 -0.27958081725541139573 -1.1818845341944721472 0.092262016391669143811 0.5276599735254878798 0.09224567743246679663 0.68524868975557184925 1.1008724642388816317 -1.322845726218132123 0.40358607406790109051 0.14314141958402856747 0.17709783318056229739 0.062057637651553268499 0.2301085444819053194 -0.17744080486310906397 1.6185195750511469637 0.66932889274007267844 0.031473554287329903734 0.44393764372651106642 0.29155106190723195647 0.22307548724261483386 -0.25804622385805436879 0.42124509805886989344 0.79764344518166252485 -0.33393513515338552056 -0.13690625128726924276 0.46152502169715142744 0.74551321771975143093 -0.38491029527798642507 0.028277775679752918669 -0.51397394044574895577;0.069614472160284213142 -0.58287515254655664076 0.16273332923515362869 -0.2373314097182988025 -0.33625064017157796359 -0.20810005341303619564 0.76239312148262439184 0.033164248125626044628 0.25396658323692444803 -0.42708925637915640117 -0.18078404752645027553 -0.46194653262601265142 -0.18912498374073885565 0.81653093645051089133 0.42338479102899800877 0.20831776575291452436 0.70927799694602899905 0.24446599987868228299 0.52530747907955799292 -0.26659239028823289441 0.26575241854180914336 0.3241418466330676651 1.1305597331727601507 -0.12793841783154807912 -0.12986820431384366037 0.26251297647771143495 -0.28029901424519704234 -0.91826547817750348024 -0.23229404863705102602 -0.54278749500210199397 0.085460729462050938343 -0.26977072978817256965 0.98586700239901170484 0.31995257994398462742 -0.40028437914576198153 -0.072573073226392725843 0.092606940058126932525 0.33714545912497778657 -0.11563462384829706342 -0.88304797987092809031 -0.24568102334905758677 0.22244442233603392567 0.36109063639946281654 0.0097202879208660598193 0.50308434852453687292 0.1209094969503397704 -0.54637324626017380602 -0.0891823872547132801 -0.10952491474709759312 -0.40516965471183341574 0.087862140970162233566 -0.080200617178983940603 -0.29368778090028485606 0.61125365894016048252 -0.57030487914375271874 0.07894456148232698034 -0.84171756123520669046 0.36646231640449966616 0.4131601468419195955 0.88276771018193866958 0.20647410974299940101 -0.17969756017346646959 0.14965424297444857027 0.58404774506802425993 -0.49233130730985563694 -0.77615251523830763869 0.19587702586889932377 0.28439794742420593243 0.10587129946353625309 -0.25964098185306394573 -0.39660497466674993206 -0.16434179704958917778 -0.70826391557678158861 -0.13151149356899455301 -0.30011414285340942687 0.040552581605650311891 0.26340651354795791006 -0.15894549846838842977 -0.63703876595832564789 -0.52603768529543804;-0.021930411577199708517 0.042087193470683792462 0.28658248049747325759 0.51336791308833451541 -0.033278652399785946248 0.026330798103935355858 -0.18265091963807053577 -0.017804819239162918143 0.19786649069887038421 0.21393747260822790213 0.056059612795841623489 0.44533594076560389929 -0.1481896941446162741 0.12030966368814538514 -0.032922525835351039436 -0.44485649171286906212 0.024661978393804698251 -0.91619445304966773413 0.277785993725750191 0.17502924700764294075 -0.18657644780485027614 -0.29924029211081970558 -0.20991094525789488756 -0.74117896562365315205 0.34278956427501822146 0.46958246964367056364 -0.36725355555539340724 0.50870856933985153514 0.087193262873294069548 0.71931184147195259548 -0.041771715905903644694 -0.31395983768702195871 0.2291810299076426638 0.028493206628875458741 -0.082505883996560530624 -0.27206685056309221071 0.29510768629813299846 0.037399964083268552595 -0.01990814875800284503 -0.071955327523457845995 0.75736486827687854451 -0.15801622196277109733 -0.57054097245558188511 -0.77750574576418085559 -0.18602850314202329374 0.65433415010580953108 -0.087935249817668884043 -0.078801669410543201399 0.51040881445720787113 -0.73936003150880336143 -0.45785152047590299551 -0.48444160624407750504 -0.11838832579846975124 0.83319699383453649233 0.0012350805504643541655 -0.14350271125050820253 -0.64227179662268729654 -0.044923508931402948707 -0.28093895727593998224 -0.4216222350165924615 0.22365002552352619691 -0.5103931190549971797 -0.66252064092324336464 -0.011943470255091979959 -0.092627472489085510565 0.48733697254934621457 0.18398924555246665147 0.15793685968237683448 0.33355900553502165762 0.17527880677763582606 -0.22899776880649366784 0.92036026107948887276 0.32350782067494154859 0.56774238416320577105 0.50553027894538871134 0.29627556089458223498 0.33311957749708787091 0.069999282396990353261 0.2609559541607934241 0.6088741776972241837;-0.14400548158511880525 -0.15409943793460659234 0.12332236837349867808 0.61297439154866484312 0.2867628389432160807 0.016454836429477259774 -0.43503163339591310876 -0.62520905296332673906 0.45272907827641178935 -0.029320962702163298752 0.30646663789398886912 0.045092171929005601949 0.072365228897444400236 -0.016266149103641214246 -0.69841862194358061977 -0.71065739705177488617 0.76869698577164480291 0.40063767332896449425 0.46771226470514964957 0.19437411177802868534 -0.19079331166156718314 0.25326946896854946045 -0.69233332034891914564 -0.55980008247946067002 -1.4190948860078318461 0.16496806499999605578 -0.47221629122471592277 1.0687884730165813085 0.10282168616067099975 0.51781041492028268003 -0.55935766065268421876 -0.62578455527510912226 0.55360980241824275794 0.48947896572643501134 0.50565983889471810553 -0.20889198881152595821 -0.23507484097118344635 0.69224454999616125139 -0.70615426494146615877 0.86432336636506967853 -0.71107707296006872344 -1.4969084253700035703 -0.54045091905722431047 -0.95122391681061702062 -0.033926971110233662687 -0.31452908012964331252 -0.30268045167763119041 -0.093039669659479434793 -0.25997558553409816362 -0.69747759695518518619 -0.37695773599354015504 -0.27309441479519364071 -0.19013848093923430005 0.11004782357368518564 -0.50196169225157627469 -0.80872732863432528205 0.13021998520822322676 0.51870451928763128269 -0.006158190987330600108 0.1472942334366667827 -0.096937302783641238202 -0.25012488405310628892 0.34542461020649023462 -1.0223759283200586356 -0.21571173442491078931 1.1314205036305930996 0.14280374071664056479 0.12840007264622324556 0.0177795280908205032 0.05609841897877267114 0.10166687838081032991 -0.22336034240519103689 -0.51637019460309463437 0.29000334541981709346 -0.43051719584808489927 -0.3615247453754862339 -0.44986320542262614453 -1.1901785527914514606 0.23908988758058452584 0.42243943393435512412;1.3354929104961774655 0.5646000055890069147 -0.039284519847300004847 -0.87019542143557282454 0.76004563805518421393 1.0028293881893757256 1.1122425988997910462 -0.82591118949963504559 0.011698933299677366157 0.26567505929120960317 -0.54031848890755729276 0.25188709797977731908 -0.76776395814160069975 -0.27621848101101964534 0.92602553007493138004 0.837483676206634442 -0.31117708319213199797 -0.18080397403296649683 -0.056265318227111574267 -0.28383868221888658434 -0.43228277276191595657 -1.1089093094420285901 0.19392532564829365049 -0.50965209754467011294 0.82885032740692921038 0.18376849958532137652 0.2744435533746367728 -0.42225575734935166805 0.68449424487703680597 -0.76764875474617522144 0.77066017308327106061 0.30516010309478325269 -0.8567065866610426017 -1.0824010338780303275 0.13730305354611196944 0.89575759769597862459 0.92947849151276862312 -0.38090628378220664496 -0.56602668389776533697 1.018689724806268071 0.70942692191936540524 -0.66230394818837656778 0.21542609663391470987 -0.23344762790333276059 -0.76084798045179069526 1.1561577263135698335 -1.7938236884068650134 0.29100453626326794332 -0.40547043606298271978 -0.12606695910719728504 -0.77313227405262119341 -0.031636606897494735924 -0.6931814439476512435 0.22069012730358916752 -0.94157712501405887995 0.2429747966305515483 0.42865657035850801559 -1.2627576207944599673 -0.49909141044019306177 1.0542294167891179679 0.48456196869690121298 0.97792251443863997817 -0.40359255233214413883 -0.52971749388149469429 0.69688605170383532972 0.15657748120770445532 -0.073060720078310548153 0.29590981098846880215 -0.83819793977684364794 0.055294101584860672061 -0.17575976786535216223 -0.78098521830350597916 -1.5763119757298909018 0.55385305020247266317 0.11878981471660324254 0.17516312114173843151 0.12428299404597219213 -1.8940299407445870816 0.43358126783467770826 -0.066773936642263997943;0.57194980608265233446 0.12429702379517096333 0.17908444061575626294 -0.35850406214298402574 0.86322675620404609731 -0.0051442565329471931501 -0.020934870573798728538 0.30284198141348728228 -0.36640652923469796409 0.22278564457011712507 0.45970847182656066066 -0.5894155284373742143 0.83414035958221821598 -0.55682498814406611309 -0.3106521721623380361 0.1949488056641106859 -0.16387569755768841007 0.56501039585049295244 0.30399940586657431263 -0.40340320152572217705 0.87104954678600077234 -0.3450386241907382745 -0.036239249183078248162 0.30262963024196015693 0.15286146549797693939 0.47684468106120547759 0.072035609381451842781 -0.29185194430207628269 0.61148778349149579547 -0.386942139547201025 0.0052935653125231185712 -0.22354363601617283086 -0.18489854988412357528 -0.22173578457569698141 0.27912472290326062474 -0.3098366283172362956 0.075375873007871255216 0.0080381121822364481888 0.47801595833233334609 0.066507113518114321926 0.21022170186073957376 0.14787778271422805099 0.16075191363124072264 -0.83952317243749963183 0.20893639903045030382 0.1262855762103461954 -0.50697287864258688828 0.29284244881772275582 -0.55740748470070766718 0.59495992551705190188 0.032647463398731521589 -0.67812728739080618823 0.36973436111823249073 -0.013232847608846118326 -0.37636066422096586814 0.46183780046586431212 0.83437500936695030429 -0.41967396376619647835 0.58711052207802538749 0.38408055346411806852 -0.20577390359731709268 0.23246426435795233822 -0.24034242592759266777 -0.058937072911458956992 0.15810935638139450576 -0.38660782125724868497 0.53220890804888421055 0.28718964884826159167 -0.44967879503802216101 0.32084216590173625372 0.3413344948797550904 -0.58030804877148012277 0.10511573473605501094 -0.36280481372981526755 0.40760790915929540068 0.47415370059696876348 -0.1577757957184877935 0.13348101670467549251 0.47666870045336229289 -0.43045015821453525007;0.49244653595627102538 0.63520691085489411343 0.22108963614916016249 0.035797710720016674701 0.018410139967202119454 -0.14572617564721801475 -0.19030280308653046983 -0.64176034754008637329 -0.07721180064880719951 0.40622964458453825198 -0.17386251858291937311 0.44004171437855732485 -0.11473472351828994942 -0.41094621163244537954 -0.5513315220439968245 -0.38877596818151233249 0.14098577267651002387 -0.45970283344056689367 0.1586949021679210925 0.03304441408599735619 0.06178172728230500732 0.027675402837201996953 -0.13606093033137786619 -0.057969231662106185388 0.13467139201174932461 0.35496261224780434329 0.14950380486424025284 0.19415498783765391955 -0.16778146115555964135 -0.94410022530032688959 -0.11719024951126408296 -0.54335546285044888926 0.33104045142073829089 0.66515818341263721614 -0.31311484052486493468 0.27638686624846342532 -0.064503748733021726292 0.44033179365876351508 -0.021787096166381879347 -0.42520125686703580392 0.67131886745653157611 0.14801432938374581294 0.48376118550481950198 0.49233894388205479142 -0.11788735705735406412 -1.0843585199726057944 0.11507192509621957943 -0.0044666910384166275821 0.8296555209408356113 -0.20208078133147860944 0.33004603509829671948 0.21340253411063936362 -0.21559569129299063772 0.36199548476808951492 0.17743754842810238737 0.45758071346400958079 -0.36611132216777947379 -0.16201672490248575365 0.10043236771440985922 -0.56593644668323184188 0.27696375239515819144 -0.30737393707030846723 0.69124409212858517471 0.17468231632147265819 -0.624990539186847327 -0.032461671371308176148 0.59312788610219602248 -0.90557236556527764826 -0.3270239098372944575 0.38790271886520649725 -0.025869188215789186425 0.026187881496913076318 -0.58380792547105553325 0.36842469989226872551 0.61763908645701426359 -0.50455096132987387048 -0.53223681757894192312 0.16385360605971593939 0.03508390971308862627 -0.0092011716968373388759;-0.038838278662437088207 0.75708159162486343696 -0.0087581430629166123758 -0.088038193364224442972 0.061046557668837111987 0.054347358474980608789 -0.28775827983326174309 -0.17241740699626537103 0.093852633173234736863 0.089125872923465576658 0.18723111989145829748 0.082358946022098644679 -0.2338179812317289219 0.44224297821412633658 -0.17910191824022864138 -0.5906819960697922145 -0.29179532500260468852 -0.29838644266123781623 0.080698419827494399792 0.038757942925312427462 -0.31376554679774026901 0.28105751614686858009 0.12564605738447709449 -0.89282639227240123692 -0.041449276260655615323 0.28353715710848675924 0.24493382544979691584 0.080851831694236292458 -0.48657670310865619445 -0.34136394620903814934 -0.99190300041544277043 -0.99990266149693030062 -0.83976006491107657581 0.46308414578496759351 0.22434049600077601849 -0.12101022612148402968 0.044884477337717082479 -0.11383145246554188246 -0.75028783311541080714 0.15861336857190352911 -0.25046037401873044725 -0.24933603947927032718 -0.22924142922318485605 -0.27449503120598534034 -0.4783594671593179859 -0.64329102718750730272 0.07643496319775772152 0.17579258154179389084 0.093417128821110889669 -0.049515998840971853223 0.32079187037794976156 0.011478696506124791421 -0.084366240937823633317 -0.5015412746257637 0.63769281046509806998 0.1198013660479697734 -0.4845668602491849386 0.013814831219478178326 0.19122267243669202608 0.38193487276265286612 0.96895717536969705463 0.60996033341154776153 -0.24565501375293083419 -0.014058892954030607902 -0.23106334836459258009 -0.54187109498228780424 -0.065147186067412890531 0.36811143625468190077 -0.030975016112845310534 0.087632092894341429012 0.92857316242248921778 0.3834091409460548272 -0.16564376477630921025 -0.7950549245989634306 0.1163749101277353204 0.26914782912758905553 -0.31916759497576857596 -0.037358647755117199707 0.9406607712457853987 0.11737841388312698909;0.57176004354866660773 0.051407006603274782441 0.24950451401978318566 -0.39435638056330690748 -0.10776065157544699458 0.87917519905667140812 -0.037213385765910475533 -0.032052690556072252481 0.1643845731730146642 0.17762757765383080377 -0.050758269438226033543 -0.54723236521024753998 -0.1990185922198229318 0.6416216541536432505 -0.41135121168232857691 0.078129162741449181828 -0.64116508997428023342 -0.16841499365438630798 -0.053539812273546587285 -0.35337101404663195936 0.27981850718012984958 1.3594329214359806013 -0.44652694962638739273 -0.3858353564060444385 0.00053850970092256950084 -0.49536927905893579638 0.17488000656504509855 -0.35994300211743546214 -0.43266840664494576885 -0.45706717360325532784 -1.0505069450358563987 0.02526637892078148484 0.23585751399040194576 1.0711260810128717669 0.27503934554148018465 0.11915399401511611588 0.074614373007815468219 0.14990910284121949925 -0.04660680357904575799 -0.94386904917201397414 -0.29012098837113842187 -0.061472121725705791695 0.70566317536824640921 0.1946362392527819507 0.13090580500553680721 -1.20961066226978331 0.77997842637947123468 -0.959326846374918496 0.041277636992675829919 -0.17969283610046565824 0.49829500984050162371 0.12582905196558263894 -0.065342591982700426456 -0.023189205523779350682 0.6460216468278335844 -0.45950825737010958516 -0.59303495786259741163 0.46556907313585116359 0.43753599096378797961 0.64893669721955526963 0.29458092383177980622 -0.46925606760475080392 -0.50694645800556270565 0.85165070122188624158 -0.33019700967032811212 -0.41967541771943339679 -0.32132347506924985314 0.29998969619389292962 0.072076624029319524833 -0.26464369779483071232 0.66050685478174331333 -0.088195140717508946349 0.49486038111448182875 -0.30058985554372513738 -0.38686603210603009995 -0.067952444194945532674 0.11529291581760095498 0.2703865916648747203 0.98215026462114829453 -0.13988786555645854603;-0.11693786500345254575 0.062566809713224175171 -0.24941035602355537959 0.052923532636028586262 0.94087976208222490193 0.33465581780804637413 -0.51481325609935557619 -0.26144190144242840379 0.7190021104520947226 0.92152673851931532489 0.20576043944134125852 0.16524093042558177236 -0.036185917313904171488 1.1125884206692617795 0.78359565209995662993 -0.2159540382740667841 -1.017437725359301437 -0.4366158909172715985 0.24272377571592423928 -0.2705038180130723835 1.0889351278165639858 0.12482519669324733391 -0.53459094083283165144 -0.39516662180942124794 0.70083906783227389869 -0.91573919474592946344 0.32785115984027846103 -0.2384143737339799729 0.22164691547763018531 0.71131814546240279551 0.11107886028960781144 -0.42187779548327059009 0.29146335953462948476 -0.077279118711717151302 -0.40788639827034317564 -0.085041925521928199427 -0.4444656116768327947 0.29507597511767630349 0.86888558061064158355 -0.030679718452837498321 0.38552271463432452592 -0.43084775777540457176 0.2635804407157751883 0.059920991773257825663 -0.10448494702032720682 -0.57990118485597141884 -0.9604435951680572181 0.24857031851399219446 0.24198137897094243454 0.70479412141657393764 -0.15023147756264440544 0.51666133985970297271 -0.051527084353994168087 -0.26560787555970682972 0.54102453484414958496 -0.3773172487232549499 -0.16625211745020587739 0.57024991335970576234 -0.17992937146948173588 0.77738404343018763232 1.1229705081142555834 -0.2795482454874415601 0.72999441612027771153 0.33679814281366032835 0.6631253170013873266 -0.42660351646678251747 -0.13704192105191975726 0.085724554384453643952 0.059337357965457755704 0.20837657739135750923 0.28352152026219562542 0.73229676574185309512 -0.49331006399285615149 0.9387632682922004701 0.84957862388424199018 -0.42939834983856794981 -0.23370978655533292123 -0.54790893709954524571 -0.20266094574572138254 0.98882773253109579326;-0.3491341965533882874 -0.047587940786483207134 -0.11055747988854022767 0.4760476199511164408 0.67789171595487607291 -0.11597458561589302217 0.25331181637379523997 0.44094247864639390944 0.77542717562200280668 0.1096350869931021349 -0.2896542355456082074 0.53209720078660949216 -0.71255425503049973912 0.24745899490963982337 0.016415534541936456503 -0.33424045076496428086 -0.012516044746412595401 0.4730373786389865387 -0.069138946160219927339 1.0518827146056886068 -0.2497021601777333899 -0.59490480013818169969 0.079480510528734393816 -0.15607017945117029889 0.8764835088404976382 -0.79622792291548216692 0.22016771307893714948 -0.17132601169571959332 -0.041157189195656862513 0.86522614404804898403 -0.83535700517256827879 -0.77519531105245431668 -0.3984114042811803813 0.24903927706148901167 0.7346201156788236819 -2.0266027734667506621 0.26452272171766527675 -0.37215800482183791775 0.055599162041953038849 -0.040976896672559617874 0.4206113469173085595 -0.45141505730591224843 0.182846592356832649 -0.80923071580947147918 0.1567221553697195624 0.07214180784150396597 -0.41422226585396992871 0.11545516262064769997 0.41924032573864267182 0.15380319187243246537 0.38296654289071963007 -0.68777598996675326504 0.13131016446962273658 -0.052817999750828611982 0.29450100148311264547 -0.001024836934783446285 -0.56004565538745454401 -0.43392957213490113144 -0.44620988631598595964 -0.13614414601394975168 0.0026094178435440117114 -0.64838595120233200042 0.30742848827719648774 0.11143626300118726624 -0.6019288355222165432 0.36371711585918620191 0.10254546366629868626 0.97464540037126878858 0.20964188483938939189 0.14603663684981169069 -0.44155776159794002389 0.039009386043034180447 -0.51642315939624205967 0.42520142492720314209 0.076834367706286280097 0.91698547310346023576 -0.14266660976959216756 0.43411863450772025796 0.023165009350042065073 0.20856757233404291108;0.39672069665945053352 0.62827781014304229235 -0.41007742958964166213 0.11179802653386999856 -0.33510269454405466893 -0.38877727970369108101 0.16739232200873777057 0.051681080532925263715 -0.21970860005786424507 -0.028860239110552687869 0.013911672517350837444 0.0032852602929307091195 -0.046657811626747723588 -0.035084825853714890487 0.0083794393958287090307 -0.1006166152962861271 0.10994616104529789102 0.14358930279092987914 -0.12114095314933782943 -0.1634875539205905004 -0.52819260470604645352 -0.17902634116696897193 0.52894826194930499863 0.20945084742862962734 0.18760139285376498108 0.072816907479533482528 -0.19349344457964323674 -0.057953486061067815971 -0.39286904178323700521 -0.13789530185081777525 -0.067956092325575825908 -0.26157796890720513838 0.52767055355982983578 -0.052051945069179067493 -0.31600878052973169208 -0.23694405552214298227 -0.038823639766204905144 -0.37779366653568957624 -0.22569209897006009546 0.10022645817309291938 0.080689434046823285684 -0.31342433815788139917 -0.11834349404938659944 -0.54486283222245179836 -0.60005108338937529489 0.59092704925567474117 0.20379960697002563741 -0.30342814299689635504 0.42421811857443531002 -0.18494632018446571786 0.12049359418826223467 -0.51368775295132673708 -0.3128335072390108218 0.0028483315705323808409 0.15618295126227099701 -0.30166439416816348551 0.030140582190578194682 -0.033847499740175202021 0.06601788348408706153 -0.12597473101579459431 0.31441420458573499097 0.056028835825852760233 0.14835091119069454546 -0.064558197279090290266 -0.46363326680038008387 -0.44115752609137715012 -0.018555208208782224266 -0.26048389800858434695 0.011043773436911791253 -0.061282509772929219527 0.37651673288994647049 -0.34546258806031826527 -0.11373615034450526573 -0.58522740017261332124 0.075653896728326369692 -0.39463301465696409842 0.40316103435598543703 0.46424673516846370891 0.030411308449183376001 -0.4445052247559984071;-0.24924928953977620871 -0.34572918392423079847 -0.24242542701811736761 0.10745718054037851907 -0.087131143004738120794 -0.56276357381190034168 0.1189183237664873799 0.38494579056594596667 0.32123258233421719821 -0.60487743480590239198 -0.11949515757381176662 0.23226978091408317928 -0.099920310676629930935 -0.10953230634411650901 0.47400660372885317084 -0.28697185114941425876 0.64345859681144190745 -0.53985891271607611142 -0.16884124901168184874 0.34913391345714306357 -0.3022882344372904706 0.68105261919262327641 -0.055447805055310522837 0.15780640721656383207 0.65025416608219988035 -0.30163899600056498507 -0.62183934270857754711 0.069280206140877237386 -0.50369280628815527034 0.29337116991827150159 -0.59434842478791305442 -0.54462823419747219411 -0.71770174168668898762 -0.2557650110768250884 0.41722407024986862822 -0.40135162060192286493 0.17631282531352887588 -0.37385815514077963551 -0.31527984968406147503 0.073216910005662327876 0.36474656728664184291 -0.028515704246280939443 -0.23561640860999449876 -1.2019671248598842173 -0.16880461877955441063 -0.02693698903757379623 0.72866907595495844507 0.67013393361294537609 -0.016179759829724166265 0.28865922868431442838 0.27414835637164852722 -1.0292826442900115946 0.26601792351559239158 0.03329771343048781862 -0.022427503740188429321 0.079875040431375735062 -0.44366285134846344951 0.011823900748499774349 -0.21826199105963534075 1.0881439945060102925 -0.66576919603478046383 -0.24015807404102190725 0.1367407027572049294 0.38550420421404041349 -0.28918071898629027494 -0.30454171830329773707 0.099336189002177555096 1.2514445108985807753 -0.003632387170842292512 -0.036475887848166063665 -0.11074745852323966688 -0.11396559718477818068 0.21245173728504093691 0.07684809359051891775 0.22290430915773340459 0.71642608137127183898 0.11683161093158420107 0.32558181948494069324 0.60032657156997637493 0.032272832697872656793;0.98695885960339102549 -0.71450118992537881013 -0.57840989588971869484 -0.14732311846209442119 -0.535821661203242261 -0.90801230743637595388 0.59596324334317063443 -0.2818136851867574233 0.59708281758113590509 0.85394699318550360001 -0.36713172909251368115 0.47044548994104368189 -0.41584805271450375752 0.15566036811885397562 0.17813330510524635897 -0.020071972545414717287 0.24311371324453551201 -0.39068492102678437083 -0.60469096335854322088 -0.71871873341358494258 -0.50228976539818870339 0.028362724438908970548 -0.76361065217060875021 -0.089181888474635123698 -0.80968391497787428612 0.03792058645406418127 0.19607719289072716995 -0.064142081240089590666 0.54030153624169052762 1.1606981205985844596 0.33789039240556273391 -0.15372624282735194989 -0.97996221083393475482 -0.65938850791489711511 -0.21161473136850539323 -0.89177847899956041999 1.432439442645950578 0.15559487837512714359 -0.25702293634680695167 -0.24492362814275708827 1.3883740655957819143 0.12747036635827554973 -0.22728074186269142665 -0.44325699329118617431 -0.34669031136543215776 0.61118955688739406984 -0.043594902493290101086 0.65682347415453667949 0.61638804161182059183 -1.1920202756774542774 -0.72210871524753839079 -0.85710657915063959145 -0.50611781096483365872 0.81584269166086686997 0.4180721084173418256 0.77955734374245011509 -0.24052533644294224469 -0.18584690218937327533 -0.29348092364295658152 -0.823742583534335715 -0.081322291386560469073 -0.38393783147210164275 -0.12410513954408020076 -0.040113597005845921806 0.4938637828379779382 -1.0466833233883392484 -0.33888679138065952445 0.24892970539067660329 -0.17782427024887620393 -0.31576689219211234727 -0.0037256092788487860275 0.090071449766519998126 0.47595504554574874501 0.44017101735621050329 0.14460731892417857947 -0.027072993220423759164 -0.074804323191497948398 0.22213072249971252403 0.22147035925463534611 -0.20997604978149525534;0.57089096806989270139 -0.14400539691864588931 0.21545316479461606995 0.12437471003230997357 0.096943579537723589823 -0.50768068977270164321 0.36912825783520614165 0.024508243856632607599 0.6950160037743661201 -0.080997974003186118397 0.18111495817404460462 0.05406128364270207376 -0.16551177056210641947 -0.69200877176745922981 -0.12616545758188307813 -0.056926661753262254584 0.37760554210398183939 0.20280908608031592011 0.48024873103366028104 0.32422077313377278829 -0.18127114839669070112 -0.59017374930749011419 0.24248271492959277973 -0.10885332803704311777 0.078376572078113757036 0.19294061257636135887 -0.086186993427304348092 0.50189616477380438742 0.0197961320288293878 -0.17871725763656415298 0.15290176826211387962 0.27606642179495505252 -0.168363171172505377 0.1654571937505015522 -0.1625062506320459621 -0.41645487052006258111 0.57069232123705282422 -0.15446002438884598451 0.18716273584767356697 0.10960329805283343385 -0.014933551792294427751 0.59611816822041419073 0.1308208264710170321 -0.34944627667170796714 -0.11863607602914433281 -0.31013444363785347413 0.56046785708587298913 0.45468274117176976645 0.058235678029772752762 0.28085810303296010471 -0.25383422757723439478 -0.67574025315463004393 0.29067814937241526208 -0.45168908587772427232 0.17266045483165434749 0.041558611846657017574 0.028494563676795311297 -0.10048119012977252407 0.20111369624167879655 0.0055356180392796758283 0.41112957449912757024 -0.19976899396328529068 0.0076940349532559001999 0.13586923018003102537 -0.26913919406037978277 -0.19075376590891618411 -0.307343994464349346 -0.2122750333219221297 0.25293943410199276611 0.07446183706904471733 0.40833154651347963737 0.043530585310175139158 -0.38707875733773183802 -0.32078758766633497235 0.10797109217410863491 0.025767311614582621981 0.26776011289534212834 -0.3462644233572050867 0.15215979332239834565 -0.20461095056271633164;-0.17948891773720626608 0.4241670564040787017 0.70297106541174647631 -0.0068463668169462289781 -0.23398576486765626514 0.22274365551716124312 0.29859544096029444482 -0.013674374883137652842 0.14796745583662895829 0.29275964439324098088 0.40469484252211185282 -0.25517532937625431178 -0.40309494129930661943 -0.14964394385354107264 -0.10449168725318713769 -0.11309133665355398934 0.028687741679484748958 0.66886693487138604297 0.52250322610049559913 -0.039821441234501923911 0.14802604065523089494 0.13969624275862277396 0.17776492723513576122 0.1381906626316959652 0.32078162460388731647 -0.16792917537273602258 0.4787695442657802225 0.12704847451637960032 0.008574476286626336527 -0.067658716207426139455 -0.30077746401325250458 -0.1434514402283482426 -0.28650860641838549192 0.31458968464453201941 0.3962220242656127045 -0.031668139910484699451 0.27428385735393107092 -0.39721763423702199924 -0.36088317733952246513 -0.32252374508797693187 -0.21107336477163696209 -0.037438684046929765481 0.02546417566356866391 -0.627905444181440342 0.083027426981223603764 -0.36822706889783080042 0.21119537163766285981 -0.0094986209378965305583 -0.48054877061301104479 0.096533964264965382851 -0.15018180824307300614 -0.31036385645516262333 -0.20839783486872034968 -0.53330919800812348619 0.16641532261928071446 -0.46705803016147695583 0.32816724995394885855 -0.15535875111822178285 -0.23736927470954846675 -0.13823951189314237498 -0.024074131350153876729 -0.41397192270849786366 0.28497347774631109907 -0.38001061537388147737 0.2551248868396567282 0.67103093314099349076 -0.14356506648606340293 -0.05832612885589334023 0.29883043674274062385 -0.35465941474373308129 0.034095784892766003993 -0.59790082435410973893 0.25843891030020949007 -0.13142156370655833086 -0.19876327933746759657 -0.20729478864112066416 0.5908074545236071673 -0.11011831332672888939 0.14221804863683135123 -1.0014802293284659207;0.12521792336899320586 -0.69826528119675357331 0.20983650125812869369 0.037685584595154725251 -0.20715410246237894731 -0.26987652423853231154 -0.32472656072124816973 -0.36238653575092982795 -0.26106059280329113603 -0.4804541115204931101 -0.031986439329846801105 -0.22371642991010592949 0.049921339448126059168 0.16850897521639396359 -0.15650810872012724251 0.15490815236159694024 -0.021816666556688041334 -0.32656581328309863821 0.29180765000003694443 0.058448813517446782106 0.35545781195010101028 0.16072821120249428106 0.010650863036829143898 0.27938005947126187678 -0.4785765316950283399 -0.30728142633057958788 0.166459166606781922 0.0061667819891016509293 -0.25047705914161566554 0.14992069964460433273 -0.14053923447440294647 -0.27755946865652508793 0.16865648659558704625 -0.40301780681573318166 -0.055612838142882377312 0.21192667679422930171 -0.44153411988929769372 -0.38164963795941814206 0.15532101316933066837 -0.51596850814921646489 -0.13442124144886202775 0.40552619293669978084 -0.20874937379512967239 0.052607503991660552189 0.16856920879636266841 -0.13278716211698066152 -0.6364946969702962587 0.20605999881317355049 -0.14572992297058487421 0.0070144882465083269185 -0.61045585504542043687 -0.25004972961093563377 -0.013585851796885484166 -0.062881685421182303974 -0.10355963115150107479 0.19792059301397330051 -0.098840919468321589147 0.17850405504894256703 -0.40488726409358888336 -0.088184105686949815217 -0.01549172537863648634 0.39472994183482884578 0.03196847098821359312 -0.38161207896172899545 -0.26711538740990353746 0.20563432305014661683 -0.32899685846906168152 -0.41691864917540766289 -0.033215930246091464328 -0.17495027907914062482 0.3141770590153877829 -0.47614194740673315698 -0.10161402214962503288 0.25450443361906838202 -0.46071883701084448415 -0.062042681064945925939 0.30846140271350741546 0.27551945636136715434 -0.10461174750216076235 -0.62466703415048552284;0.57287507226304290597 -0.135253920280767298 -0.16809558559836934588 -0.30977914961987340625 -0.37031161884136032381 -0.27900770945605884998 -0.23920563610222511652 -0.89221779425252201179 0.016405157348299441444 -1.2428651956742959861 -0.018686863093148251003 -0.3202077109542127431 0.02115068797209082585 -0.44891501877232758977 -0.30405833080479188757 -0.72527603682050978406 -0.10460359879639441472 0.85588736144066035472 -0.11502211688429578307 0.046530479657257359238 0.17123823260065576535 1.1736871487307207751 0.39067985534411886483 0.51997543795544565182 0.10561052924709310452 1.2223845837194364794 0.35046974200046659975 0.3890499746223546329 0.39405508546654344215 -0.1535488815721334499 0.32716918936910799331 -0.32801476074902213842 -0.5882765075976345015 0.41777295423954730058 -0.029479182262990760721 0.10855612767231741234 1.1824419673419925836 0.20516849033175477146 -0.91667975985121441518 0.15825210275656109715 -0.14286441934666105347 -0.076508850958965951561 -0.15960148081015801402 -0.3780567834587355569 -0.65468270319415244884 0.42262874063327660057 -0.10534031054557028984 1.0613216776139187125 -0.20270013267445430305 -0.1703267837237403548 0.0531068940469755571 0.51540777361311296279 0.51205161385552400155 -0.30261621878982303269 0.91016839792743498005 0.73631583664909650011 -0.96909185001332887044 0.45096768731009984066 -0.36479580062632049886 -0.038213592415559168025 0.58140668899815062254 -0.2973880753089604978 0.76628059693542016628 0.32414654730557596052 -0.21671209245547545796 0.083504580519524210236 -0.27427055345228035232 -0.53001597109628839632 0.40511709012011287712 -0.29616739482254578197 0.17809013557920563842 -0.42819034116720866567 0.94046693193787778142 -0.30819460810989707245 -0.71288509112103926046 -0.12692084507454698405 -0.11900335471087189476 -0.36545935161537529412 -0.65236616516052980952 0.015186004493429182405;0.17876481882158118397 -0.061491123681153531111 -0.03963308254940176717 -0.39164398561673641197 -0.1614133138190368133 -0.59896155665905614907 -0.23105410741283763376 0.62347694520380159133 0.055055607219524106688 -0.68675409435365564192 0.032607542519781790302 -1.1913121326006572698 0.40648192306635733129 0.25318055780932235965 0.80876435130824031461 0.4784304901809784405 -0.38352080250923165083 -0.78875816071474891267 0.037445109110417970633 0.0059219142499689417236 0.21617089202587960739 0.97322522950486090032 -0.20971226772202769539 -0.47462176201254346886 -0.35099665770220461747 0.30645829895371473617 0.22476764091947107338 0.15518784060455453888 0.4182855626099362123 0.034816932345023185458 -0.61498655800149260031 0.7060659500112765885 0.49464936063234132835 0.38133497752337625064 -0.036990086232110766518 0.62600427832348604085 -0.40944167718551294222 0.64546806589819150091 -0.54681085353226699386 0.80934948904871284459 -0.668180986140421318 1.1720465682461282952 -0.17423701330338908777 0.35869590039482707189 -0.37528144288717557586 -0.15249389624119610853 0.4277233861459024955 0.54339333590158822584 -0.42106201863386127915 -0.1014335515896760409 0.22900366985730041813 0.012474911351792825759 0.1678794445086181919 -0.13092194752019181703 0.16851136143648448584 -1.3150766445207273669 -0.90337083841034293563 0.96803383773911022558 0.43559491052806759148 -0.1485663399307549648 -0.88293089352768416855 -0.75184680882598431406 -0.21034501291070931139 -0.024194070899408597758 -0.54232829624716993866 0.15028090581657099767 -0.13661553080072069699 0.074433961267972678644 -0.010551223048869386167 -0.13158116895748878106 -0.32207001543578051006 -0.053276569535025498914 0.95568842747763160794 -0.15226460386565332517 -0.21673724866989038662 -0.3690890683298291286 -0.11422478173159478221 0.37435948654152978454 0.14573192592703207437 -0.70879654847461548428;0.52452965086943081907 0.082582788001213727758 0.017100440077830778018 -0.024501513899086713871 -0.33969522208153146714 0.21821990478338848529 0.06906564961324863916 -0.17073935876456114435 -0.41003248342779308189 0.15462242456974972793 -0.55991542534011107257 0.2202717101936401134 -0.31207919413050433377 -0.17615272995889522112 -0.62284451753747138714 -0.028164289525787363638 0.42603853180251882726 -0.26901577279735378045 -0.31653724347394041061 -0.13508241879435933797 0.0042619683621654518013 0.22961055170560576433 -0.23552908966748742348 0.28757042629684659296 0.51953039005866330502 -0.021857217669218553802 0.5110404866898049514 0.21392448682191866904 -0.1470681769695746377 0.40219252661376098112 -0.15039655492032411033 0.062710396629472364705 -0.74735168765691484261 0.22413668353970728209 -0.18749035219017101683 -0.24482527752819349676 0.25423977314543938499 0.22383668792282465643 -0.058400724009280140236 0.21220353356150253865 0.39192985031069665913 -0.45011086284656193213 -0.4803079065700531225 -0.12865976010498925142 -0.4584600336725803138 0.35557480973079486075 -0.051840635688237698964 -0.44108071186209152348 -0.37437315088289724319 -0.059373762735938834245 -0.13267619935212776605 0.0084241338224748107955 0.12997884248959021281 -0.38506140856925413773 0.11086648637944461482 -0.21416059982700777486 -0.57496177415617122364 0.14971699797605722559 -0.41637436546721318109 0.22074474053005682661 0.09998253696424747039 0.1959978271914356307 0.47475936283747255384 -0.031159574853845031783 -0.40704160173182113436 0.58971713732266739516 -0.21563568291104864838 0.61899934415441226765 0.26804184070005737661 -0.19489548151742996929 0.4587240666458579641 -0.54803752222991253262 -0.57450195050404118113 0.11435557414127375808 0.18677576787286964688 0.44732751981733581692 0.074433025552523152113 -0.17070193019421045499 0.35112113716324699908 -0.1781889794872823507;-0.40598089325623532009 -0.1732414453416480371 -0.1766736310833817436 0.42426980344758280506 -0.50101000212391522126 0.12472894346202269278 -0.53656066006965352777 0.11987323409020837761 0.060738920379587175991 -0.040892048891453335047 0.057720736782874260129 -0.028777400462347814403 -0.80781082258835801291 0.49799428463800993194 -1.0668112948574350884 0.097477603473873269957 -1.0103363930590636421 0.30174409768406640353 -0.46351912124678129601 -0.21578059875753602403 -0.76323391237829851796 0.14154299191809710523 0.37271763859744094782 0.22624007622794325978 -1.27716727050720813 -0.60979398822239427869 0.095614631790735649108 -0.51321630328562095613 0.75638104203720657459 -0.083110778108409111287 -0.6205033852857040344 0.11810123872942727974 0.48967513111601512765 -0.273772789711978215 0.25211279570162320463 -1.1368027836330700797 0.26113356090108663654 0.4434262784598920204 -0.9362940162072705963 -0.57430836091447734493 0.29612455498063278148 -0.82148115288707102 -0.47149907386734907222 0.14919595193485535312 -0.083912704769630197532 -0.24795510577241358652 -0.83468470059289268104 0.2469588939143531614 -0.11244099532335932734 0.75804468580318418169 -0.7229588676524283386 -0.19741066444925478574 0.37509674852194963002 -0.15440276362325569548 -0.74222979382407139326 0.11036497463806752006 0.0055516932944212425 0.17729300113191948096 -0.14512102905971036027 1.2821357126814139082 0.33289532597327653463 0.33235336192203390748 0.62920752579685690353 0.61133156615091754915 -0.38905355346946618456 0.91416307491219905845 0.24032612728569932581 0.53786388069115986799 0.39642202370786144838 0.17170433341848964637 0.24327648864074313817 -0.027872227088169131137 0.0529370171323926067 -0.47293953640618147105 0.30274875399312001223 0.83428758654699375352 -0.074381906139878439799 0.60058987280050268875 0.29737654710125605018 0.17252079258450395138;0.31720428139412132351 0.47181058696053940205 -0.12154386456355287249 0.71303637582232948233 -0.9791606339017546734 0.29366753429919867369 -0.88221685911537317537 0.019261360309438479987 0.7755001881726987234 0.35780249167924871312 0.088811940388160801052 -0.35867037542579544018 -0.45555608965163313373 -0.61341301979265683286 1.0095000657251107512 -0.30210691375006964998 -1.3577391521419124309 0.24653247467010513949 0.00072898718573644744056 -1.0512181298021447962 0.34372558461184271605 -0.11527868473547739359 0.033935680775425788869 0.10946991413943785165 0.95040258348264217148 -0.47807555907384646776 0.21280451240393946644 -0.051780218836410457639 0.43229981247146920253 -0.37294776604587798197 -0.78921663376637007925 -0.14746749896994515439 -0.12062663393115652388 0.42629694928058670111 -0.38745124655165408267 -1.1465109044965895446 -0.05713703128546700899 -0.94562179131490942119 0.65805596794008258676 -0.28381864567882353345 0.016427441107855933478 -0.0092749865993884718363 -0.34908746252893757545 0.62264638375351488708 0.54780665042949006072 0.77954275904715397694 0.44909977714843452024 0.46546532149776714826 0.78829694092690738572 -0.65712972455736251565 0.78639105264257680439 0.18238266663651891974 0.24529127280401286093 -0.053517816828037412247 -0.74704815865947060693 -0.48290917528367582889 -0.11682976721960697253 -0.38984580013894620798 -0.085258587843126010242 0.21769424072886656152 -0.60682169741570579635 0.044841792667707165709 -0.57847108784374667856 0.61251322067005253835 -0.3948112969864687738 -0.75951379610850888735 -0.8097774260715513428 -0.10334784239145310136 0.30223162520390628449 -0.78087733172133866333 1.0532696324262851295 0.35953938323927642218 0.74920170446871880987 0.13427317207877659255 0.23064491565562739162 -0.47346571123173897266 -0.13875217549056340083 1.1895140546594835662 -0.12364292986697267285 -1.0123385532067135095;0.073679500758626184642 -0.44968249961083484045 -0.13824591240854233742 0.17499364640754005995 0.27401243924032381294 -0.45471825509609248295 -0.33880352223952492352 0.15365608886400905497 -0.08520725633633297047 0.29536063622373287529 0.12299866201678136268 0.10472201875250258807 0.38246385433367885431 -0.90461434691607323089 -0.14612977895493295399 0.22123312639506614863 0.080847237010988240447 -0.067551939349366596499 -0.21955656195333927982 0.31591938838097599618 0.55086255618134205569 -0.020622860137231916605 -0.48646699741963617125 0.42619085485073265884 -0.37115670883422691162 -0.020398727961272150599 0.032329266634264670899 0.084032124537110022833 0.0022141945388683068052 -0.056199371447759008391 -0.086782136606282103686 -0.23841989964675538993 0.21965423598018135598 -0.085461544214506260375 -0.48172032961562161191 -0.13676022740983884152 0.0041221054296272582884 -0.00013403019731889065369 0.16912874486280685127 -0.43523400026639108562 -0.41896066384746694089 -0.20428983738411948812 -0.42712410372609804776 -0.033293935014730505206 0.30918141874001753289 -0.62501558680008872937 0.048559792080873388775 -0.1040659302559470839 0.55860577618368700836 0.19681176551133366948 -0.75389823191063687347 -0.20474307342016745404 0.23123481012282876002 -0.14945285012013978521 0.038441650961831032307 -0.48308390775255499738 0.30769880133137250677 0.67263884465889045572 -0.5623355978844073455 0.012570115504165957007 0.50977653787112409134 -0.48015920780791204736 -0.19852057331838524057 -0.67372739663997993631 0.2286566731629830207 -0.56729852503540190156 -0.63861543115202157317 0.48197437815892063551 0.48159967534869174699 0.3272092089811209914 -0.20147428421611135452 0.12290600546567326257 0.80568303982732769608 -0.18885790219656670152 -0.81009884639528395578 0.25097003899706260555 -0.24392183569642075791 -0.52879341992504291792 -0.75171345654925292301 -0.53408971677187844218;-0.24086511562004986331 0.95969776928570915686 -0.062916823362261287134 0.24673581343190439941 0.38056315005096258419 -0.32035846236669340836 0.30678781632807700097 -0.42924420510013883145 -0.0070912092219909371449 -0.54775555178080725938 0.10455016923520511762 0.14150991594705775167 -0.3383374428199084627 -0.082757644697630333708 0.38550127430478087209 -0.63616091089204140907 0.010485949810910479008 -0.54686962618128842628 -0.066226386074327431297 0.17353391591056507859 -0.52624341283256581558 0.34318358724173475549 0.080264047960933782022 -0.48169011913837322947 0.015416162386505241622 0.28405450481288618825 0.52632488037117830526 0.096282462287363215769 0.33973862369089952162 0.11246951521818314423 -0.13115517399256987341 -1.0183027433496865122 -0.24676984392866438411 -0.67909687732942680682 0.19693225935814623329 0.41522217405526895551 0.43959256107539562697 0.25915869095968635527 -0.42941220926698397964 0.18841742019521701135 0.47534859613856000893 0.46129003261555845405 -0.35688619373305463522 -0.12654985934987461604 -0.07975324335116748542 0.02501360602413314066 0.42178176455155175217 0.053425501402920648475 0.2303827196819159262 -0.60842737642374367102 0.2836974518095773945 -0.26938148465911221363 0.22593253454944423053 -0.16209162711147609426 0.32767753405334582029 -0.70517350046506743766 -0.35809465600899897941 0.089710122814451134787 -0.031573015243370639027 -0.25384236605775684081 -0.093046724550897963457 -0.27632624380232717609 -0.19412104101502089537 0.83178503569994532985 0.46244266417484519716 0.079050693277840825002 -0.28047337773665786953 0.01611686361944111856 0.39467003645841669535 0.31818045603892625151 -0.075715202241676882178 0.71920145112276623323 -0.022209699739966365373 0.2414373868594105188 -0.087083941576415274666 -0.51378262333909685555 -0.047256160393591331581 0.2679523292320582506 0.60097813233716346204 0.36703206512931746408;0.81680180593664941657 0.34742797653714274642 0.39356529884481428194 -0.70309141290504784116 -0.27675576181728933634 0.87432570701205891694 0.9482367767317546603 -0.17425317948397064938 0.42930203903902264262 -1.0692111024132302521 0.19804773373251891022 0.45839806767440671731 -0.14965415445265151106 -0.90760295343381702793 -0.0050610881923336837468 0.23390220863189650768 0.13852848064418954444 1.2236761708245311731 -0.28876056110027836787 -0.012628100873724429354 -0.04647183645889466086 0.14630571080298254705 -0.094602292150423025752 0.21811788095391276832 -0.60902539300530456057 -0.5373288330977181726 0.53767420636635721021 0.24472742477581774234 0.32756158353209730016 -0.14801424920887992775 0.17998076473443619383 0.30919646459529892546 -0.81393111090029646171 -1.0046694723244258274 0.87084693008716995699 -0.46958737760586360954 -0.041540790656999324049 0.077305087364921060145 0.16427709388980307748 -0.86861090502533999658 -0.31195972143569095092 0.23965225608648446642 -0.535104891328654797 -0.34726592517004201133 0.37922768473192186578 0.13889759923150718501 0.16035715758005653075 -0.027064985235391032792 -0.14045296543358148922 -1.7381989881752610838 -1.0853989495988585201 -0.36194652047266134831 -0.21020032689222334366 0.40049597612826864923 -0.040817341710958437995 -0.27102364486783936393 -0.85148078597793919187 0.084977423583437822208 -0.74114866431365045152 0.62558664685039488962 0.38672338549454571277 0.82940196701904045362 0.13043728166751150654 -0.921297393257747399 0.21156375396775706221 0.8721013946853892751 -0.12262348101583725457 0.56814879200214518651 -0.08340503637979483631 -0.25650986026075833779 0.45686504724769039232 0.82564405435163468194 -0.83063569580448748386 -0.14428135335884370583 -0.33189070650852720012 -0.2655227370745421589 0.21899852823836418736 -0.53256604018233333342 -0.59068825077937048285 0.31138832032993213339;-0.49178990301434138965 0.016843864289800378198 -0.072510860843869609504 0.29732775324012006291 0.47921364505147806545 0.072930871448852144234 0.24546947825113712982 -0.13575370072801401511 -0.39296527380221085712 -0.67981110011456524767 -0.20411740011833839903 0.32207073947797915103 0.27766578173877548563 0.28790450323663480114 0.084330441613218620756 0.25109257414560787192 -0.22477524520385694373 0.048991808773672221311 -0.063972895775157148646 0.2188923766145659533 0.46570202408278471573 0.30851092952354325361 0.35273787105981008194 0.2036833562984478041 -0.18949049855474539572 -0.30773590173330184205 0.061836623119605166332 0.33198810186146615608 0.33233306410077351201 0.68366042850097263894 0.26131891846451549277 -0.012153763239321713208 -0.48020334986936358268 -0.59115836102836405441 -0.43127861396020944484 -0.37625476073907587748 0.87938082984720933322 -0.27689723075347538739 0.27804640855359386009 -0.27190009926742497726 0.78008942437124606517 -0.046242912998199457719 -0.10776208667737141589 0.23375234528419047697 0.69144663348580748252 0.15380003049674043081 0.19094911355312954582 -0.085050434558443591126 0.17912707859901833007 -0.38786614376800387927 0.065021275997412350534 0.15795814096850332997 0.24970153106721509895 -0.070614770230997686573 0.39723637052871230146 0.27404866382976522665 0.68140489800694603595 -0.32763199542317589241 -0.020005475595346183804 0.21388865526715467036 0.31861920478480071361 0.023963632494426224256 -0.079144811198502112992 -0.26002874412111537383 1.0952671071217348064 -0.61460563367601650508 0.26000211420846180976 0.3702633016573894098 0.23104176350032434861 0.21277676991194477418 -0.19203316866965405851 -0.34089855843930882973 0.41083818623040385676 -0.26960418721695494915 0.25795463823111131063 0.25469149817285591242 0.67566647707426474856 -0.081618391110239024711 -0.11037568870772722363 -0.40448169015350143862;-0.42605896908340251672 -0.31976432774893592814 0.11138480464885867904 -0.25874497001369045623 0.17715954478207435185 -0.29454392123174522045 0.20150456131904620483 -0.15663811768208971142 -0.16023137953178548387 -0.60666296294184263171 0.23481066574981551698 -0.083346537039923063173 0.11253652614777651109 -0.11286176818034773794 -0.050352021663666493567 -0.32476060664871925221 0.48795034125932373881 -0.47805686638131866806 -0.40151787823928108967 0.057868945010477686186 0.53779519297054612093 0.45824836307924116108 -0.070495710224177846048 -0.25212497397757743789 -0.16572583000014873278 -0.030503981053380795768 -0.24064962010397972225 -0.043791418562662533243 0.68035875209520890738 0.058686263227463508763 -0.22529660318877403613 0.084239046763362052106 -0.046275958180867000913 -0.16213619041554608313 -0.40538808794758585119 0.32507251458191599447 -0.66020137353229846333 -0.10662751342357325302 0.069480920768736381676 0.51991177796500764874 -0.17510631685237215693 -0.140225633492749302 -0.37230512462677961549 0.1630866778182096799 -0.19857816351588272741 -0.012612213295968040597 -0.093934993876598399387 -0.36814019926655183745 -0.6834396780365287194 -0.4874950822024922692 -0.33576351913104462987 -0.15017246454967894675 0.11365864287537581767 0.33430025271650792851 0.19870697954904462113 -0.22341030574533365938 -0.2337937809148064594 -0.051957226725582526805 -0.34083612500842130899 1.1506553022057439684 -0.37975142192741928593 0.63732842665981548347 0.52819464488486200793 0.61637170429690346651 -0.17442443288903899945 -0.20873172695057762294 -0.22811075379514555994 0.65340073073050297658 -0.7065346126108394964 0.034487442860451675286 0.012949010262793984871 0.49697147863765556153 -0.49474386387989172098 0.12196963471202684759 -0.20151612814475611257 0.42487204402460648778 -0.5384791249246589917 -0.28874953353685206547 -0.50830162435259629294 0.33339370592072070654;0.046588460133565962051 -0.2556734013383629156 -0.079983461098629360375 1.3319645520161416119 0.0040126037421375423953 -0.2194155096146834516 -0.31365817312659938221 -0.5206134930025704266 0.088371612685258824071 -0.41369393973912149676 -0.13170019773868418822 0.67277081441639674519 0.13464289331999146349 0.24232849766625244592 -0.78177640382514268502 -0.68726824120675844565 0.64324510531403789049 -0.42879706608165807369 -0.055544012216910979007 0.43857429671067488242 0.14043213367494850052 -0.16648907381618066603 -0.24812172445383273711 -0.49313002698221780618 -0.84953375397601238461 0.6348284023164481038 -0.46607771302248746093 0.3050126196746397178 0.17356849460779219529 -0.17732330989835887181 0.95926319367611667666 -0.36355189967138551443 -0.69640164203914900476 0.46902579339822547677 -0.17464320030233082548 0.30964963461668226774 0.46826552374386298805 0.13995585234767210503 0.52286545176959620118 -0.12335652135056857093 0.40115867325108095498 0.39894109091130042222 -0.017399365797626707708 -0.093318701405053161579 0.13232181802032155771 -0.152039055369720566 0.1565449130297716096 0.31819882594726028868 0.35141020187278138032 0.17828864777667330355 -0.21475025278720660804 -0.11699122246851467732 -0.02443833663211711707 -0.24106400895917240446 0.41571833998426033219 0.10657143513700897963 -0.35019173753646853919 0.078495949008120041723 0.015001255168685279084 0.63145823767664299719 -0.58252342523405897801 0.035054604075382599093 0.31154990513920605144 -0.13184679205046487271 0.11469473302334029507 0.32744238924065133256 0.50797552938023549096 -0.37898207076700307638 0.17413054913909101207 -0.22553997231168745885 0.65942207553341014581 -0.041255425177863611075 0.2738816690640654139 0.20336727999430498359 0.60112766200807321582 -0.18401431659821246289 0.025027470852958560998 0.69844219542373497944 -0.60180572261814502255 0.0060165582913471946092;-0.76962865335240149278 -0.30672916123339122318 -0.19214186583172013223 -0.018784911338531454228 0.21983350097762158204 0.07617978785640988626 0.40164300203348868301 -0.95819782540903419843 -0.26525388279746070497 -0.04496779716591765147 0.22429234563579550366 0.17497369126632728031 0.70793023652218634023 0.94543075568087697746 0.49839825815655991459 -0.74681910347213464885 0.32966010798770983836 0.81178515580761234638 -0.14777541510668240621 -0.073312212432675966101 0.34225437579378498176 0.3337683204693031036 0.45252136898353817474 -0.68170833006503150919 -0.49219463594499174297 -0.54994106210355298003 0.28494151022996555556 0.9218362858760239531 0.38389036278823018833 0.58475989316210652547 0.99329643320658622674 -0.52745589043300722398 -0.097305718125833232102 -0.59303974896674016559 0.15854489566048085569 -0.44731923110670057664 -0.41456732878939944742 -0.17280156070749244646 0.23397442345866986679 -0.29357805410686294012 -0.98106596887637331772 -1.0046206372436161658 0.21743246265134738571 -0.71680399316651666197 -0.28364311479970488739 0.63675693472880767754 0.24646516639542151439 0.020851050865982392879 -0.34870771072494155529 -0.35120434330467686923 -0.017079456228143535118 -0.71490852772011037608 -0.66503224943306593619 1.1609976930506575865 0.52081113173345006118 -0.10471751679029847604 0.15045057656628613163 -0.60007036144357772667 0.11751032966293475934 -0.61301023641499674532 0.35950672380024306651 0.37559235649537453527 -0.38225714937059085408 0.15958371299126533627 0.81660548703775281965 -0.18502151124057464315 0.19166965748199640829 0.17781161873810530372 0.11117077221180235447 0.47748280007258442348 0.07261065207685946099 0.81580580863805729486 0.59111062979259199057 0.24420231246863693952 -0.023337160279489056053 0.073947433089688929808 -0.05829416161303558469 -0.31439678546620958288 0.58447250710090181691 0.72054114407024638655;0.89288812912263448851 -0.13797037666699635272 -0.20253879506061903126 -0.46541724590638616776 0.52319417283816382902 1.2222578143804299078 0.15966441795949751215 -0.047866646465838401381 -0.031942834511937884256 0.74719286903572490477 0.45003873547108974584 0.10473655587863356375 0.88720551922853774229 0.82801690856778342731 -0.15358467376957141148 -0.34086704817787244481 0.097378368674711598962 -0.18129603693918316942 -0.14614591278781785544 0.13293081435500678222 -0.10010010522498687113 -0.67450572070596792607 -0.10084003318358300549 -0.17835159339985409699 0.62624852482727921821 -1.050328996488836264 -0.13336228289073540076 -0.31733017487457820804 -0.14290853507220044327 0.7961389358093347024 -0.96084387665523718347 -0.056580716459385484163 -0.4861512914238775851 0.14012263930436869019 0.37090543888697741215 0.31906390305831466847 -0.66394033842260613554 0.044510036184362292144 0.79851125241013620748 1.9912105029593580863 -0.67396154057528157022 0.55577717055560416082 -0.67224525741350105168 -0.32500547834615700626 0.096654357280811731279 -0.11828080850717742623 -0.41012983745067960184 0.13379527988300937702 -0.4366119689305243412 0.23075824724514099051 0.36321065830361182192 0.17266172409084468153 0.095882361745887323412 -0.35892607156436528992 0.52446615700082865885 -0.80339351688004512209 -0.075841452705952022706 0.084923218083687856961 0.12562522303558645853 0.32727561080667927351 -0.9150249464149551315 -0.20950998753109462136 0.30690684903203907519 -0.51098072028885355156 -0.26231584998648277418 1.2542444439822857394 -0.0074287350502259055784 0.46292921283480986672 0.3346118664529426634 0.025792446416584121488 0.24472541396688760051 -0.80171449145668571834 -1.016568697402192134 -0.89274299797831480063 -0.17531145290190691677 0.55452716389693046395 0.035134301774514958838 -1.069424521661962002 -0.34973302001744327461 -0.72863894377470705965;-1.1208694756817685345 0.47950079163004200034 -0.061435563053497260766 -0.13019242049355550517 0.44178062522367361753 -0.4388604898858065595 1.0170226010073941669 0.046295180849038511384 0.20831631930968924626 1.1210863512047302137 0.27992665283725237657 0.25294771338691734996 0.06561076811108176865 0.31713512502168622609 -0.28863125961310703849 -0.070889989183599885769 -0.64668059093420016126 0.49964087085020364443 -0.19440504032087055353 0.13345176908455633202 -0.16826356586148155658 0.66014491853064105609 -0.5078402070029617299 -0.43021178455282477193 0.62660947778974862565 0.23107413805270474172 -0.064949062293707046645 -0.633777864044204442 -0.69176769112874070267 -0.056616421309716231935 -0.31533212635903434817 -0.185068036809988401 -0.55220018743094123614 -0.045149174097810718109 0.20333175413007481547 -0.73514661588129326386 -0.41481260006678871699 -0.44428509579461050727 0.3893611422962822699 -0.12533333735336421588 0.67093792570021393296 0.4850685327413344905 -0.3033358850983584043 0.43572048863964468746 -0.85650490892976771651 -0.29260732254452681556 -0.45581624788428487527 0.58362206412513106812 0.35448561584043930539 -0.40691335780311965742 0.11761364745442626223 -0.027324005008428447344 -0.30328788638452469639 0.70055862741988739195 -0.091318713370080767389 0.57195882028215572213 -0.10254692322256919734 0.19943048679010100255 0.03686879033487466123 0.69772228769524913261 0.059721283355420887173 -0.22021375802588499804 -0.57052615222079106072 -0.27905133299296625005 -0.60641655102387603815 0.40815671675132952911 0.42843166657492665061 -0.17577277576039493368 0.37412429353114157182 0.4144361050380481748 0.23242433333715953325 -0.34018836641735311632 -0.42083913944829093312 -1.0282314167425710139 0.19330739270749669467 -0.12619304678044607204 0.34970384184684799589 -0.43635910326219479183 0.010155972769426958868 -0.94931011537120968402;-0.016578678964865128237 -0.034366853834048458061 -0.11779237583635984721 0.026461063237651710756 -0.088343510985349815723 -0.51570922556469578346 0.36542452968710426031 0.38960015401985953476 0.044960109891730867804 0.12746190041377686297 0.18519957536552700272 -0.22130752970036668414 0.30318960602246003422 -0.28151925785962006454 1.1039413835681597398 0.2983791479539789071 0.88509034170293288124 -0.55243811342759052696 -0.69253746623169953889 -0.0049915230951082939503 -0.60467736266078253582 0.38322391278853978891 0.4905560424790289531 0.40516199428596044729 0.36295438234966276303 0.21540251546118815984 0.83261149770664899528 0.094049761017401700691 -0.26221039258091199953 -0.13330883815742222698 0.4357271582686856326 0.084804175381478094642 0.1318827538977749847 -0.23141683580272659482 0.22842835238791878161 -0.56508835410511160102 -0.48579560668411186919 -0.17645031934934862772 0.2392006088869560454 0.1508925395267909364 -0.19719394174965568234 -0.46238307404262879441 -0.55041967852558082441 0.30148268674687239699 -0.47471937428836186168 0.070922888138369222233 -1.2336867938517910304 -0.11686176032107387091 0.40063580499288969916 -0.30063443613357904161 0.031688594635049076309 0.14305409511051717097 -0.1299979600684076364 0.06677936621703937925 -0.44768525514158785672 -1.009822503039393693 -1.0158513812743839022 0.15470542483672611311 -0.57672817935513198684 -0.12526287727763596447 -0.45736476496152622673 0.030259634434303350758 0.28538318605468276923 -0.29365893052218294823 -0.041369744293750447539 -0.66750260981166731344 -0.32431301826330566351 0.44544124481528279969 -0.22890617817261738054 -0.64192235053761081964 -0.50346433385580158237 -0.0085640070070186966045 0.19504879699233237944 -0.12514966841067790004 0.0072676261849260806458 0.37914247876084494759 -0.3363839764641730623 0.14841475008091098431 -0.57563743907059716776 -0.10158047213791446262;1.5601709618870673868 -0.93037499321544780972 0.25814393170264926525 0.32023708022612917823 -0.44148127453503382966 0.43780803900122872152 0.40000415114398180094 -0.52635367977821367891 -0.64114822661369574863 -0.12975789800230519422 0.13354476660060410342 0.45885982527810859066 -0.18430356263502853387 -0.61091385867062364401 0.41099115657256696243 0.47394042296048766172 -0.7043129652488778758 -0.21387389575665169406 0.64418548228110361631 -0.086204085788265105705 -9.9078091548909785757e-05 0.13686253403409803786 0.34755234014555891342 -0.11611388926294866075 -0.33159862494825342871 -0.24490145462898349482 0.22271719688499772016 -0.3535537173762345331 -0.65166005658280290458 0.34557276774176531875 -0.28603642930749262341 0.61117256894549309987 -0.83433110814913435949 -0.56761365605037550353 -0.1185094293661119319 0.1875010365690847336 0.44407051666622981978 -0.20376857154053132359 -0.39284324371703804868 -0.69847918965330391128 0.15340920217068221287 0.92836353773119406618 0.010205745383830351625 0.18718068560423933855 0.62381691860408783334 -0.12609549547800807945 -0.077112237773047737077 0.68656300495565703024 -0.33608328390539188302 -0.28886889102035578913 -0.43669875141371605753 -0.0010957118414224309433 0.64433771214225998847 0.47021655978046827951 0.16442148069575937552 0.75207099169661562055 0.80559121689037227476 0.63417706607663215657 -0.28957854566572471811 -0.85345925967905666987 -0.41299837535187977622 0.59461345916855568028 -0.3583739463092058819 0.35139713220847318409 -0.18826937345780075939 1.4496972759175512646 -0.30859169817266401958 -0.068938049788994384959 -0.29800822888898687024 -0.15299198835983227052 0.07209719372353327882 -0.35174560411653776892 -0.13233357205980439408 0.35633516968424561178 -0.11568568502074917659 -0.35995043039119872796 -0.12424470121057536176 -0.55473250462380463421 0.31314041685561344597 -0.17175682401675529398;-0.068393947010224290239 -0.57217689198238397275 0.14278495240880392791 -0.30080680641170437495 0.061135060214957515079 -0.26571308550685196481 -0.11124194704091161512 -0.20038725121076661484 -1.2032202801744411591 1.0169394399610822699 -0.015934399435181108295 -0.40920218795050511407 0.29933627567396275948 0.29470414357146551554 0.34618582494734223554 0.58785152982147859113 1.1307539805931363652 -0.68808320989146898317 0.45902683637763547209 -1.1018279928841552273 0.9812538149764663542 0.59937612598118938934 0.62398979803458254345 -0.44105759222281687437 0.67223600348948786554 0.136657778817237896 -0.16685407352835004979 -0.084222144937803472553 -0.36625581186904793141 0.21654219023830409419 -0.8284230908910034108 -0.33758571085183192162 0.89771471196607088849 -1.2381195160473390526 -0.66299470116134451292 0.48644041087549982905 -0.055036695596828992538 0.30613572366603175601 0.12979504407041034253 -0.8917261515985656084 0.0064396738813048415295 0.076217010159848733175 -0.29614829666229319782 -0.38758532950908020087 -0.1597515112667825532 -0.26437998672874801764 -0.10135333968952221773 -0.65502764995916529234 0.21485363049778277711 -0.77909833803362638083 -1.0397703770055775063 -0.69717272783368022804 -0.16297047512550549841 -0.08649428966980560185 0.50992487905112815483 0.10160042396743393378 -0.44035595671899518955 0.40049180746282619925 -0.015658035085103768486 0.40017274429604871022 -0.4361138805538604668 -0.51466441018246011918 -0.0029713774948255666786 0.36562771608555205693 -0.77282451534493989964 1.0531529922554581091 0.69004231966335083381 -0.15194819056629776943 -0.32903801490299061649 0.010383949355666020897 0.024331266661152789466 0.33131991831339735466 -0.83563042045841218197 0.15662852822420195165 0.24322963804578665026 0.27816363711452513074 -0.55898885849791923874 -0.6346696492505861098 0.094384232152799812932 0.36658817126859605251;0.58229921325815281463 -0.030158164579800500471 -0.5307938474060288625 1.3571915211710867677 0.072143365077768528693 -0.55282472314609054642 -0.039430191283194117313 0.12771178173434377667 0.26537382511007689967 -0.10236162052771978492 -0.37818307407766033057 0.76094319107534436064 0.13050030249607560973 -0.52060168094705339126 0.10530256519231898094 -0.29599073912078144311 0.15230604619976226277 -0.12103906007596644534 -0.5851431792061329018 0.29015459349404593148 0.28247416071217013034 -1.3302109704300335569 -0.14569579978634850104 -0.34204630434276195317 0.26514286193890618248 -0.17810242572327364408 -0.2186148122613163769 0.77479387501282326323 -0.48066168977586093414 -0.39542891044652650478 -0.17958831342739661752 -0.15504117857686181003 0.048651208897871792147 -0.50637765008800483812 0.08367341220072284369 -0.3514586329279038579 0.27312512475588085481 -0.51201169074537211667 -0.23359411311038058567 -0.22368939195225806538 -0.20419133505274861262 -0.2140860380142335373 0.21689547107376663804 -0.086669331398578783321 0.2119719745237600983 1.2193763457933157746 -0.18064854123877602254 0.45104732542814485186 -0.98677714481349809716 -0.27575881508801480813 -0.12439985808989313665 -0.037676270466117246782 0.30909126507440415343 0.45805668940127486355 0.2305789582069880661 0.51837734243300059855 0.15477909847615944905 -0.20825197230016223582 -0.12746814193537631121 0.53320162697182282852 -0.39546017927407334236 0.14139449683332422358 -0.17716626015958739093 0.66221785343271888369 -0.43557407412222592935 0.31962444595405248293 -0.04454618546123777223 0.21889096263374135942 -0.27545627766058522479 0.28747277899063872209 0.16803028459910129833 0.15917957488869044491 -0.046989299785392867059 -0.095959390152105111804 0.38523834115724292504 0.16561320321456576843 -0.63355683376936555717 0.65873441371186292059 0.69533640360220450027 -0.085004771711961801817;0.37430914540950571689 0.32985399571396023521 -0.30872048486137737555 0.12095799276406282718 -0.015161796313693336885 0.098372075253718674337 -0.028217557458383248775 -0.25034660554795962195 0.10474780860913768255 0.20250187397230123842 -0.27705490776970581601 -0.2765917776515636195 0.099407325671451829407 0.19744063204711592707 -0.051242624433365489833 0.17372287531041599729 0.032318656924724221968 0.5175255146960076047 0.027801967260781903363 -0.073554627654235704703 0.074064508781467558451 0.28702117435734908479 -0.16292180787942134312 -0.11952844715168381429 0.0090207291963443556049 0.0282445292016607237 -0.23557269650924331228 0.39037729232351026099 0.029638731420625410995 0.44776386436722631634 0.024836753839439496688 -0.25391372396784572807 0.22853288973015389862 0.075418565815968771626 -0.093350820092776926051 -0.0850133756496538745 -0.068769108375111118181 0.33480642950633948685 0.75843968733930278159 0.10109043686821464481 1.2238939516834792531 0.88670971830410150183 -0.45203938141076471791 -0.056686642052612659648 -0.8762043380682891236 -0.29021466682840646456 -0.11350057175919708863 0.38397749192731883694 0.64710144954022641439 -0.13020784138909732852 -0.54017605526284440121 -0.013168812791744023 -0.32403555425822139213 0.59744045948992241524 0.27733101127939735475 -0.098778764916141556518 -0.22808190472552930528 -0.1884834261160208968 -0.039834740579989931508 -0.69453803188409957148 -0.12071157050288944257 0.35136149664665128345 -0.084274437915019831391 -0.24413868225753065921 -0.19589799921086117895 0.50810720346412985293 -0.24682241792467665698 -0.13630024877721247378 0.062654130197802818114 0.017775641591129046765 0.2609386627615528087 0.052109742209310597194 -0.42820229865691811222 -0.52789923503073898914 -0.15307804286687307083 -0.046572378719984985906 0.083559910173624560303 -0.68893912257849654335 -0.075907322361172632763 -0.38380200784891921328;-0.21105376164441208564 -0.07328047152992944735 0.12353852431556548719 0.098639632886217437635 0.316072796097493669 -0.21592823853025627789 -0.60543922571585584436 0.27878753998363481337 0.16017644990665710902 0.015431428101655198654 0.11201526143388224055 0.83511441605496128382 -0.11354127587362551621 -0.53082638181430452651 -0.40646226729277751266 0.11300760713755045317 0.032049388002441753232 -0.2130325644810521224 -0.051490342409682268721 0.57324825527885736598 0.30084321286422427422 0.18447713320173006468 0.25675395726897232151 0.0059831509224994167129 -0.042324573784570357349 0.43246594438469482258 0.16292696163558137434 0.41894730787407019612 0.33569754910639965084 -0.015455531169614279002 0.38013658111277776053 0.16144482035708615508 0.75227148016907796624 -0.0019854822764032442617 -0.036551999845287133639 -0.59614160750702049896 -0.20709287390937741735 0.39900283939658581778 -0.33464968531992589362 -0.11602402132114809918 0.26117504301128480204 -0.4397784979976295805 0.40854125772613408829 0.092573676134637905566 0.010822591434247144648 -0.95274233275909236962 0.39485644035893030512 0.32534072151171727905 0.25755559311762121766 0.21626817747302246042 0.15073622197571434622 -0.025513446248869281474 -0.070409611190735105213 -0.37479315370934046525 -0.47377298987181543088 0.43845581822776363845 0.046827287438507267381 0.16795260064890593643 0.25555366947089841467 -0.11140919253225262109 -0.32617556713185852368 -0.34681070687215975745 -0.072530406819686310538 -0.21505102368200523788 -0.5924449659821832137 -0.34004247110132096443 -0.29566644490447352434 0.13781009712058961414 0.69146821086413789992 -0.5367781314762306577 0.20231657484411830206 -0.093693106472910750449 0.45566631277292846125 0.015791613401403781225 -0.48907473696878989156 0.31862166230343319517 -0.22154879597861137919 0.06318210845085557581 0.094264130068152929276 0.05350835213045430222;0.40241848509852728988 -0.033791979865988051868 -0.091016876826863213346 -0.38612816198210042629 0.66322259672009875597 -0.12388323881352189537 -0.25849068836775351832 -0.17364613914255672134 1.1661369094191023077 0.53268765870471790347 0.17067446505632374865 -0.56679380170303395037 0.1286888689855369694 0.35323290902107612466 0.18005984260904528416 -0.0033532501966844624475 0.082733095344596552234 1.0555737998478464945 0.35669166793756484912 -0.57109568938939769822 0.55898623985146400628 0.44618966188452141575 0.14196504709854085302 -0.21638337421610223665 0.3484337306980940796 0.39027614972576868402 0.0011449906860594022406 -0.074638306003426718727 0.31265710347272590575 0.070903969070584743628 0.063862620537736877746 0.234028076610752922 0.58836171253538427361 0.039013008153715007797 -0.20338951976724953252 0.34236957523890465538 0.47509916423662740259 0.88368500542270311815 0.33290923038939279621 -0.32219782061825352759 0.26450226989438807568 -0.56811355806421603987 0.18291776808949949951 -0.53797727883238277702 0.77412977151293338451 -0.39514337257139653392 -0.14945624751530678376 0.027448734405665337066 0.60802842708774029745 0.14995373386814109251 -0.1098384555763820547 -0.1140996515589298016 0.25561620889886721431 -0.028836286620073786624 -0.70092271088187618755 0.14357134541174398912 -0.33672894699149558129 -0.38676780339738586756 -0.14580677764827654208 0.94971972195784137849 -0.43813491827687617297 -0.60739915867807103833 -0.15623625284889372522 0.73616353384278754302 -0.7879746548780333093 -0.45486668291663040486 0.042704129933422950438 1.0313884922591955995 -0.16475632326193337396 -0.41215070445022794487 0.31437054642745121402 0.4612309714381775394 -0.48846921369327439555 0.68096208767694677011 -0.40065632715740595593 0.36716747945937627806 -0.20787734876771807313 -0.13358785722703167553 0.14550914055435482108 0.13276454391983918968;1.0139762001695222793 -0.51232265551777755874 0.11536658987670869725 0.21807499117580070314 -0.22863508111635005848 -0.043839394039373202894 -0.091011150308701063705 -0.89472224553583490358 0.53561214371878962393 0.060605296767554786563 -0.11679108857583185566 1.4668737868853070072 -0.38128245362384571848 -0.83881792586185255356 0.12416951641248673288 -0.5031985916085621735 0.81736070201688948433 0.96614012884486388799 -0.19523216475681359761 0.70978535629997940859 0.58082743069847275752 -0.89768205150181468177 0.77465006306296613214 -0.32269316731957747857 0.69983356464834467481 -0.48584275105039487208 -0.19893712293777404687 -0.30783937139977007869 0.19020323159836710625 0.28278696997748148378 -0.87077513713687382246 0.47644232629550636871 -1.0783194338059183259 0.50649888804135156928 0.030349696394950928524 0.092069771510829997996 0.50947134651869341315 0.14108640376548267636 -0.86380264996864797311 -0.34464203931978648621 -0.095143464239296912655 -0.30311188529278321191 0.96644344796509173978 -0.18049698458464774609 0.099490981378179549344 0.2479457280600772251 1.2010502140497665291 -0.39848435706869267392 -0.76882209338838647383 -0.074552414293207441842 -0.097924080146238851041 -1.2169892544136313717 -0.24124374610564167098 -0.0015792678959562385377 -0.23319437359829778278 0.26718475742876252044 -1.5542907194088344536 0.32920918065056326007 -0.11007979397506358066 -0.72392325080944608384 -0.43526893517214171325 0.098805890465507181797 -0.30971370339942588812 0.5598648562942865059 -1.3113424051080377897 0.39467039001207576687 0.043598469174445805829 -0.31994591045939002605 1.0535745183678326686 -0.34700285907544542452 0.82992096593461039955 -0.037337724940337574386 -0.25442005432383729691 -0.12368780260783296399 -0.01288714556710791187 -0.15271674794214054605 0.11789657779948409244 0.6330623026736080794 0.34808547801314215775 0.40967842327425812998;-0.031811217660214538561 -1.2089487487370600416 0.29282845888417891045 -0.17630040591489026802 0.92604385523364052268 -1.3570144458471939952 0.6033526932611619209 -0.61580910411656353265 0.2569922185327636055 -1.6108205435917426485 0.35036276396537202604 -0.65148544302495392522 0.87606375862633201201 0.33797080446099753148 0.79042981557755476185 -0.2448859815400408757 0.23908424752344617503 0.38172833373157899484 -0.040450861947384911255 0.17088689090442382712 -0.45812715885891047707 -0.30459850873222260592 -0.96025117090553735455 0.42546073184726040939 -0.4826353820354830626 0.1800726203204722764 -0.5704644793287296789 0.95574089434675768562 -0.52879215859552242129 1.4204692914931364989 -0.20970649384194212095 -0.7417026528753788428 0.17857547159206962895 0.92665828216003753859 -0.50698802511279017491 0.21498918680347139931 -1.4650042950734321057 -0.97176927009101521371 0.39642440294383890498 0.30843556618345613352 -0.66034748503433315925 0.99410545097794933422 -0.271129298146000286 -0.7100289469282289323 -0.52771169374933746266 1.1266421637154997448 -0.71449258862451270335 0.63691971213060216694 0.75206986467913938821 -0.78649677698629394396 0.57825946400972960681 -0.35319468781558432946 -0.67124746121434475388 -0.66628107115761736612 -0.16720294858647433145 0.18054741536604035357 0.28567465971053335183 1.5650139002235117225 0.080965252491957628855 0.14098387694229891354 0.44850362752740596806 1.2313539751289612756 -0.37232693548976819597 0.036538243728804618848 0.32017598817815595691 0.37240678760839157624 0.49720262106344731423 0.048311246615875963473 0.016740688323636360862 -0.036073702843395116791 -0.40991341119908519808 1.0857860001331007815 -0.5837812783739197986 -0.29897526234117316468 -0.14136147139329408029 -0.22380211150604181758 0.45713966673913741801 -1.2025431240880488648 0.30414800946540654358 0.27254709692976530899;-0.30207989881253061171 -0.64850471232487649775 -0.12684039512157233021 0.48120964457447440443 0.22133019404315718015 0.16152768180002441412 0.5141926869178474746 -0.011449676767723501736 0.43156815763465350422 -0.21721533709869586537 -0.24304651079099420796 -0.63766856134162153147 -0.1462611281436698718 -1.0593963567317927765 0.47895639890629826407 -1.1564286854425094297 0.033450729137327619989 1.1292893767426512852 -0.39330926142818811719 0.63677285922271353868 -0.11481738050272857765 0.50868081384685948088 0.30812004658859187822 -0.019682211994091272644 -0.22473382035161254544 -0.073389419913053977051 -0.0090478970720925810944 0.14790907499197947228 0.30586952703004843812 -0.22724572228167183585 -0.22800982309699036055 -0.61355966119701621508 -0.5525000766014582787 -0.56265441108970604134 0.62427564765115084455 -0.41778462814969224981 0.19413758337502828866 -0.071514927676466361062 -0.27415149848192177373 1.3683694659844214403 -0.24931028021693477092 0.39928626644316900229 -0.92946543575042817054 0.33329320685104640853 -0.38891013360303811064 0.27413629027989611098 -0.81015844984609641788 0.84814073579227211575 -0.45023106789701577979 -0.24852282023441871206 -0.4861196634738005895 -0.089441419428612806142 -0.15370187088849174284 0.18336254703546858713 -0.83104255278649519223 -0.19538627414383122338 0.27144908731010014558 0.68277173144618474865 0.016943305434247105806 -0.06568676158931630038 -0.46240651823932105158 -0.13068722304806551504 0.7460086444499867131 -0.10011179760529978489 0.9392901840507780209 0.49686753024253382804 0.45414361788981871815 0.20723462293802061285 -0.012205217060582480848 0.62964639243028530657 0.12754892085537103408 -0.35390152678646324969 0.64528114952295034801 -0.76631449276257213032 0.029025948143415341435 -0.13245059504356734847 0.37695498641629876513 -0.6805773084930969441 -0.24578353918072182172 -0.031436562980314525229;-0.1072384502915408877 0.016735417339105253254 0.18325880584980952515 0.68803862984820107762 -0.28074935297033387638 -0.47304473687648740388 -0.62353448096316999028 -0.16130257117297031044 -0.4449914620799044207 0.91907806958404825171 0.21882650599422684423 0.36952231456585116209 0.032624789389553668362 -0.67011210332381554444 0.11781597906653214214 0.18446223678052842132 0.082175827023242747904 -0.26078069100843098704 -0.18727120498458349473 -0.094179661001466491443 0.32627637080915217194 0.21878722470414591061 -0.42211611305658508497 -0.2865015535151851922 -0.5617108447061257559 -0.23480213299364288693 0.2911443032593429292 0.51082757552106861088 0.14966648392326423189 0.33056255056577243945 -0.29178438983220544856 0.14905345692401211766 -0.32104930439768336603 0.35995959874128646838 0.53101806113328364756 -0.56166807527742534933 0.41038092012377158646 0.4485841995654508696 0.019652833820236491336 -0.29571409825215910772 -0.11773869299927941512 -0.17448321145444822822 0.45919970878883026311 -0.14291175598604521912 -0.078820670579882567974 0.34364996674067710414 -0.12456640939654879674 0.19331271174864600448 -0.37790028983329493339 0.46554884571608817767 0.10312624697216279945 -0.15702187252077801083 -0.015319156765493474603 0.4013724050699339907 0.18036527738830590573 0.17387662966031361411 -0.00079550655247415114069 0.5010121514265435394 -0.059906759572258744262 0.26302780949159321189 0.15602149129961898066 -0.11226394812038234527 0.10981060606235004684 -0.0066431559139456218543 0.13416375477334999133 0.87673403826746998391 0.052517827777246131604 0.080789173962252228134 0.16401842480770498223 0.062787457618073486132 -0.31168891991536029629 0.43143091689194490446 0.088831305079603781194 0.71034419587963182341 0.016996480518163794432 0.17194055645658853915 0.066608002336635691032 -0.46104823598123778616 0.014497797420506303157 -0.20245001145633048645;-0.178983216175012394 -0.42163558330823464049 0.17973323253388656662 -0.089554232439942704769 0.39857154779601139394 0.21707201738836776062 0.03222886115885580105 0.17017697979185444912 0.076926491041857864017 -0.046412931601580900698 0.13235188072655981739 -0.14084417818855016202 0.66800187495727914033 -0.47009706940586803992 -0.32209252643526059545 0.27574133367179370913 -0.7122889528261798775 1.1039316957380724826 0.01483933999426377548 0.2246999524646856039 0.37522222298302887467 0.81976979622523615809 -0.45622399701944499339 0.31925314522340941803 0.5650294345267203866 -0.58227457127324144803 -0.55717225310168949637 -0.49224253487640218241 0.16811014228968018669 -0.72143587010582643781 -0.74175410330833468908 -0.07437482879480575293 0.096498970474858850044 -0.026016874310094435102 0.49171223260154262036 -0.086324149572810371378 -1.2586369633534324475 0.40372190325719647941 0.25688697562767470739 0.66496175007972002646 -0.093740417289244912236 0.3856663447151337798 -0.021535385051691193631 0.20854838756412927281 -0.51013758410988063741 0.003902679210732513948 -0.036510173517181769565 0.27586659772306287852 0.84403348439129288749 -0.51878978674867448628 0.048830039716087098034 -0.30708973920052778928 -0.093780756582597518678 -0.075250846894410361454 0.12038451420279630555 -0.40032552071489568846 -0.10097122523606406885 0.58273816378132292648 -0.3832102455158726273 0.75108224823351354971 0.11684290943617856029 -0.16181421532680312358 1.1693352110841377378 -0.077756158861386842629 -0.56483655517444975036 -0.92142690227002921333 -0.3395428936303928058 0.40897258212412884726 0.2577188214331047611 -0.60521542771129799299 0.2661331314279314908 -0.76509771819484018174 1.0267186043809439777 -0.39053198426567359292 -0.44084686792045413295 0.15308157279188913669 0.22670538303019555082 0.00445838115083558445 -0.11311525827942178757 -0.28255888106740517651;1.0238151484016055903 0.72084671916773168654 0.016357410667146216054 0.62128556360547126936 -0.0044383456997647147135 0.1046774343925736539 -0.63607998835620338518 0.12184834053610919813 -0.014275977803738258698 0.57658337111997937097 0.19077202857818392756 0.89482503045041950074 0.11387419380387991952 -0.11582312513315548563 -0.73044668672735191262 0.14939178608059036635 0.3319862520108177173 -0.0036316050341145406088 -0.12389814205736701669 -0.070826636378810009509 0.34829205845304073152 -0.89800610657042345686 -0.30863028333395331471 -0.45430859888428060112 -0.53506580874970000039 0.2857474270245900505 -0.10375083186449866879 -0.1077092815426841238 -0.098594431633213908128 0.66515860100041168668 -0.010431250478766460055 -0.33899925652111462249 1.0325615600036472941 -0.30294748970907259267 -0.72732769600116908837 -1.1342608608990889518 -0.2939143749919446158 -0.8294207851738305548 0.44680379323449342932 -1.4619348145222141877 0.23904754488585261418 0.0036315002879018509763 0.4737940076994115457 0.017666100850627423219 -0.27432775333949299679 -0.46190626859344591226 0.91542982845794129698 0.96270658018216836993 -1.7073982667735811969 -0.89868661187392462342 0.093109302995843246098 0.20499784526094935733 -0.2379979316304977055 -0.59391014867029157109 0.27520482542157337358 0.78600736773405432967 -0.35955072309887686766 -0.065873788833452434632 0.19297465495686633163 -0.25808987842011066327 -0.3899673138909436898 0.89104668564427425004 -0.31333343294734267159 -0.14356037522160652875 0.44854778436057185509 -0.97826802204176455113 -0.049267998791603109798 -0.38518080102051527325 0.16120078194875039901 0.6516176688373003234 0.20884600352697510472 -0.34585765767689113925 0.54423866464373849006 -0.68262688004137805908 -0.0037308429775043880361 0.13986785781210708812 0.37484548680230778128 -0.43115012408465813731 0.10768063858770124397 -0.47560130482114670869;-0.27896966572112885663 -0.4237366463717393561 0.36011839844132592647 0.36981596056562920927 