function [Y,Xf,Af] = Damaged460Neurons(X,~,~)
%MYNEURALNETWORKFUNCTION neural network simulation function.
%
% Auto-generated by MATLAB, 06-Dec-2021 16:24:25.
%
% [Y] = myNeuralNetworkFunction(X,~,~) takes these arguments:
%
%   X = 1xTS cell, 1 inputs over TS timesteps
%   Each X{1,ts} = Qx24 matrix, input #1 at timestep ts.
%
% and returns:
%   Y = 1xTS cell of 1 outputs over TS timesteps.
%   Each Y{1,ts} = Qx3 matrix, output #1 at timestep ts.
%
% where Q is number of samples (or series) and TS is the number of timesteps.

%#ok<*RPMT0>

% ===== NEURAL NETWORK CONSTANTS =====

% Input 1
x1_step1.xoffset = [2.62162805670545;2.32260450406229;2.14506489599183;1.79426074331619;2.41564853908475;2.0567883774433;4.72814604863833;2.37948304053948;2.42123777518869;2.19553213726272;2.04150027850776;1.72965636056786;2.21525875457112;2.0022115087022;4.72337859194679;2.20309400672012;2.62146370773659;2.32309764957918;2.14539367049318;1.91344196151629;2.42008705312053;2.07026821907864;4.7292968260053;2.37931877541048];
x1_step1.gain = [2.94837354718885;3.37951204950636;2.07261344583132;3.35252601564829;3.31143924764686;1.60992879840382;18.4330404955576;3.47408241408844;2.30420555001221;2.85124303047431;1.95567464226333;3.1088982325156;2.5669727480337;1.79681741066039;20.5503485477597;2.75005670864156;2.63166383105367;3.034235594046;1.71500203271327;3.5709726575222;2.97535380043432;1.1559323176219;13.1522152572861;3.09945014780343];
x1_step1.ymin = -1;

% Layer 1
b1 = [-1.4852546899061551677;-19.753865412633139442;3.1637661327926025479;-2.7112982175027382503;-9.6002308496150554618;28.526927360227674058;1.4066381507028344888;-31.459852526436399955;-4.4882609146221543739;-16.156834346684579629;6.6403544090659742949;-1.4224811647989192842;-5.5367995287731721632;1.2006575037900895087;-2.1210117713415423957;6.9587916669831200167;0.1214261490288397749;1.6825605183591281211;-15.801864252788909937;-7.4259369991206201078;-11.657160869514951784;1.7030519491776834329;-14.540984525342816269;-7.1349442708433725713;2.7929664870859829406;-3.345059246056134139;-1.8088744427875960152;0.19328486922000689963;-2.3327288125127139118;-10.527442281385512857;19.196740764898628129;-0.30254827225209823816;0.48479340351162020228;-2.5060911059034509663;-3.9230926787119035914;1.7264262410075286169;-3.4654355470109226012;1.501586001492615452;20.432314648043888639;-1.256268239491121097;2.8001844452156499088;1.0996360202594144262;3.573255501854460281;3.1697230423078202044;-21.69784252346281761;-12.936601526048539412;-0.23898469825655882515;-2.4256610227604222807;2.3229593847750482638;8.9587098066992023604;8.8483831887167365693;14.894027852225173447;-0.36598626727051036811;-8.991179126599407212;-6.1167653265566732657;-2.8772995566437109538;7.2291209553905266816;4.2523603242594028018;5.2178528275251556678;-5.0171959359414266544];
IW1_1 = [-2.5623998129297098636 -1.3885403920356507168 -0.25865116606091576035 3.409783766126134541 1.5336164003677839052 -10.964056659196979027 10.11410426579147348 0.95892802901607976374 -0.028307890800639948919 4.7448292818090012091 0.54747249679089804442 -0.39936595482757086817 -1.6546255918204444413 10.811024895249406796 -9.9751990927178937341 -1.3441893646583693567 3.0080543977706120096 -2.794038548039654124 0.32277941837131174374 -2.4078367819427199947 -0.51526381858369185718 -8.2063635251454662978 8.1262277636256960989 0.12545323887711085087;6.0650001176109959999 -22.535140258528581825 10.81608264448536616 -10.905935929194185974 0.73772546340820155386 9.0570066920662011256 9.3422515304898983146 4.3785365201981587546 0.68464387357184441907 12.841969805103612856 2.1253479751820867349 0.55802348218614561404 -1.7358606886924343726 -3.8585581189055728757 -1.314541271972026415 2.7008168442756654848 -5.220685580051926955 5.270931300478821413 -6.6079123952056129099 -6.3556351641372383909 -8.1694738887682802897 -6.7711730095907771698 -7.7195775622608833189 -8.0974150333644683286;8.4692378644392629639 9.6747399915955885064 3.1729664533485215649 3.8318369254376238864 3.8468473315976408067 0.11982228060097760425 3.249559740215016479 1.797891727910600812 -7.4162851220211827297 -8.0778064122428769878 0.79830116855981125834 0.74104105178324419789 -1.7354371745659429305 -14.72759077575942932 12.522037842796899909 -1.0299078566069841401 -3.1760514703135971359 -4.362438793447804386 -0.75110572970108380186 -1.6149817896993512445 -2.9472482233777643756 -2.7224504158044222635 -0.39629081549675798657 -1.5385805403065639929;2.5874772231765565955 0.13179130627967822198 1.8657591145475864725 -3.6690384588427131796 -2.4950794873175445865 0.60360880670651917423 -8.4237498164952242519 -2.8123521400526283465 -2.5276179686276365466 0.31214791267076569259 -0.32415386041940147388 1.5755280893007066467 4.3384133887860159007 -7.4191382288190839134 10.73128598656275301 0.25342920377542110799 -1.0682122562705094193 -0.14265418912465516188 -1.8274943390367779372 2.0055384987450510792 -0.92455198399940630161 -2.8753222556062030257 2.6595201978841549462 3.1921891260271046953;-3.7137022338681684452 11.911606988688221875 5.4774726317195572278 -20.254521467051688433 -7.0565436044931821868 -6.0529962154163605703 -5.6890712526511002523 -6.9563084537176900213 5.3443535956438097401 -2.76902787417404328 -1.7154408047701661388 -1.7661693585484807834 6.4032254369635221991 -2.0947048272869777108 -4.0738293318179863434 -9.4680484815508094698 6.7917311246121876422 -6.7857489013188541094 1.8664273916211879811 11.243257389189983186 1.6083605457882508283 -1.2085520980741255581 -1.3338632423518312908 1.4346631416953905536;0.40351834600145897181 -0.18979119329204169331 -0.56372802813257549825 -0.53761963684915947681 38.563832923805712483 1.425449687235961882 -2.6178200909990931855 -0.28491487392051112471 -0.28266150038554316293 0.1557055829092096888 0.19262790783598190969 1.3239738486545564733 -83.244882847112904756 -0.022624705461773926551 -0.53918820608445594544 -0.80910263140185723074 -0.54053270558401389501 -0.077516669960067341449 0.38393542181121897983 -0.64709784477314058471 29.306950124129578228 -21.211964974008409968 23.958602021656819403 1.0443581502025161001;0.96997905112338789202 -0.45729594570968995493 0.44379731409656086871 -2.664323995781326726 -0.25006253459069843759 -4.0868552939050122319 1.1589178957167356465 0.37338054403502224377 -3.2716024328093160634 -0.069058999753799726884 0.13346060134689385901 1.4472049942128055733 -0.192673160823109757 11.529151917524472992 -9.696254839250709523 0.1608632232841529508 2.1229496484618959329 0.64558724942097012178 -0.425059958861218945 1.2894043643982837644 0.46475157317960519299 -1.9902980106616292577 3.8193155763910153766 -0.57925983082239917987;1.4962492120845503063 0.90469651554155161577 -1.0632793863237097742 -0.35884687945559246014 -6.6906747856097066318 6.1185876507605785335 -3.8003169768150448782 -43.591640692906587162 -1.0478480108245902258 -0.58631464041457515002 0.46851087553740011771 -0.43779837612248995171 14.759225370071803241 3.3393912940990704286 -5.169068096837351689 85.916066302695554668 -0.70406062472815167386 0.10300496952102643211 0.99039995680866155237 0.19463956366127613262 -5.2872459151207324979 0.47958238115021212256 -1.0453204313620136912 -27.554404207799230164;7.1730863392227757203 -1.9698338321479937907 0.99396477944145278371 -0.9120456206687801437 0.49158205770242990873 -0.16341827471538272754 -0.33434928692292220642 -0.23414965813605237432 3.9284324713899270165 4.9080817200522073307 -1.4131952514779015928 -0.55266454458717229059 -0.81660552830042165695 2.3070896681877606227 -1.1768816176057714795 0.10097468992644477448 -12.32420637778233008 -2.3584814920562675589 0.21273272514267971278 1.0383510298402798266 0.40861691585954823536 -1.911705237765525478 0.87395160057620380201 0.20551574007675416089;1.1876309498082500138 0.18040829588799983663 -0.27950842086647742502 -0.2994343098109562562 -1.5476828975156511348 -30.852239830913294583 -25.978123782814382281 -2.9445192342766177696 -1.1342019685769366699 -0.28119260902285631021 -0.29888946284698958422 -0.27025444916687857422 3.6793887840031951342 45.019305854908111542 13.549879647495561841 2.6890994015448899113 -0.67307951171692170789 -0.22199990119375595521 0.67384283977265668764 0.41754892916134478398 -1.5488646209406375931 -2.429879987584861567 -8.6426788652921171519 1.341581894961020982;-4.4691020511897470158 2.2293529122749031757 -3.7959079826976576122 -0.56917708490268581478 1.6469805377106803146 -1.3681307657526202703 5.4993237896253717167 -6.8686455201608422882 2.0238382738986819831 -1.2979780639902911421 -0.45653323911335352836 -3.536176264550435544 1.8428250493569193758 4.3459569608668724428 -10.173250743646010008 2.2563113911617453944 0.87357050375604083925 -1.7883367246949928298 2.8868198710415819974 4.9740423456152074166 -0.95389283549361236769 1.498938276870217079 2.6169494048352475168 3.3382553508046437507;-0.61845921364379274898 -1.243096992428236236 8.727116274595173806 -3.7560478379862511922 0.30552044257386368198 5.5834069654688134321 -6.0357244441414614755 2.0682015879584412232 -0.065126009890705632843 1.8769158443030682371 3.4204292757989209761 -1.5462911618476797848 -0.37909278836664750401 -5.9396185838802866286 5.9750933371863172994 -0.31243976517950666771 1.8722112764391365403 -0.70130928113584167782 -13.777844274331009444 5.1297858598523156104 0.406991827230150649 -2.4782631103424539454 4.6899386901813944206 -2.0922084857402261093;10.144050918738793499 -0.53056117461791263423 -1.5206742531719990019 -11.088416742940756521 -6.574176101353595314 -2.0918100913191222112 -3.104042227452079139 0.49719263690609377671 -3.3576312436996600397 7.4017422275199837856 5.5764662771204207559 8.4585279251073011153 4.6532722781528672584 5.6067863269340119103 -2.6119084973927746418 -2.0333881854669857425 -9.8555567741692602368 -1.437568212433947723 2.049194520905780692 -6.4330079512949174259 2.8021050761355859038 1.55054947338187743 0.57010263082561030146 -1.7009064925515533506;0.72842276305457531738 -0.30149049766402929995 2.0166368388076922891 -2.8774217770390868587 -0.10602433775812444838 -1.9891960472607488342 0.5452360737585089101 0.17492453764676674233 -1.5349269559959735076 0.061163214858242484495 -1.8195942826390756331 1.7953569456360178869 -0.047693795695079484187 6.6961020513459201808 -5.761921597004288742 0.22627153281562822906 0.5493388648272976571 0.29064448131833947597 -0.38758439147930684454 1.1281408301582154241 0.16901626114991305516 4.8661385214861496706 -4.2128709548710157051 -0.29289981043317564469;1.7018996748899237748 5.4792092348066621099 0.85899964761437375138 8.6962029126744422314 2.9340200478345583868 4.1010078598541870321 1.0698927679338423591 -8.3291805241259737613 -7.1123129913779532529 -1.6421595675401519099 -1.5560275719779019798 -6.0614052248870464723 -10.379328825454910756 0.61693569439576623203 4.5341194077309330268 2.652505554247071462 -5.6854827816350432812 1.7856572173286417993 1.8565547938760693647 -4.024875213401977625 1.6761494207364431297 -2.7810119178071128765 -1.388130512852290277 6.6173542608925073338;0.27469773938086855525 -0.24944575768329901866 -10.169113154617498651 1.155188288576649791 3.7420305102360980065 -6.6026079019692485161 -4.2668612603504350034 13.465880525458457484 0.24886362736043937671 -4.742031357953981896 3.283502709744868131 -7.7022818353434105987 13.116581744958214273 9.9339160588752513092 11.340265841848230721 -14.393930445812706864 3.0214254389218053731 1.0253613278162201361 -5.473693070233442981 -10.591698776859660214 0.076974984209257066303 -1.9281968254271812935 -1.3585705907866625353 2.4541354984338590306;2.3015122158415270981 -0.61078655644625035048 2.5034946836253606506 -1.5842203896411004571 2.1069875063168472806 -1.0548612547567532971 -0.75289722382084134367 -1.5597107603739319703 -0.6270046693315602937 -0.032497353371574735914 0.47698450347905574365 2.3739981250598791718 -0.97905951304321248152 1.0774979775416708705 2.3104105228767681801 0.067445461847990745285 -0.20212168847155190243 -1.1245532166175904454 0.801238649776420786 -0.61276194552947249594 -1.5208657068855733208 -7.144361389373809601 3.7566014293523379841 1.9307360020216697283;1.4219614687564110511 -0.14655556574985656448 2.9942591494321857404 -1.7233077325883343622 -5.1148166085805293335 2.1232561193178400849 -6.5823621366012252665 -14.701420416971595628 -1.1778079234666476438 0.092425653593599541025 -3.1266126697116316535 -0.16218139355908073318 -5.1534870609395317942 -7.5586609645803619628 -0.16065785887159403367 29.035601172442792262 -1.1479054791029299487 0.89281732784405687386 -1.4314565503362082222 1.3536187359801787888 11.34997256716882319 9.6159809444787427424 11.384381744862192676 -9.122626149227667014;1.0864566132242008401 0.10274602527305431998 -0.28829572283057425253 -0.58562818878299294223 -1.4581718691223548579 -31.822212530012603082 -24.081283802173995667 -2.8798772840490958203 -1.0826304395398196334 -0.25449153270761032397 -0.30807285830826280915 -0.090872139021260664449 3.4872040932479118069 46.025800527542031659 11.548553593752815871 2.5933498897231803682 -0.58929060324423987449 -0.16713149815201866488 0.66295543947126933659 0.55669979714982964492 -1.4987119050307391444 -4.4530285692474702586 -6.325342469947769608 1.3501426846220034861;2.529706273082447332 5.3257531194919423001 -11.652770449483725201 12.941096845627372502 5.0144103330149523146 -5.0121161639930855713 -2.9802440322588346078 -11.087205876612788558 7.9908941970726345971 2.6244847891238274329 6.9790246125306758529 -2.651706410279863313 1.7085366699583830474 9.7714666193123456139 0.16844188471618939951 7.2032154616518973 -17.539934612140530845 -1.9607141660189795207 3.222650487580806189 -7.2758639349564884213 -1.7793948200818392458 0.79337807849492991696 3.147308450914492628 7.3736957887002620993;6.8525030119750374169 -7.4391393409912751622 10.347717217013279623 2.0644875390832924111 6.840932310300010144 8.5207049825378753383 5.9524568572881610962 -1.7025639220699848586 3.9369549396186012125 7.7587000619657642275 -3.2676920289164046451 -18.976040858904124065 -9.3202444139693234604 -7.0968531539539290165 -7.2005717076655111342 2.4547919679082395028 2.3854417877322235952 -4.6455132796434401854 -4.1912308174540360284 -8.6686796155650043261 3.6403282042727629353 -3.8680974267202961059 -4.6323839784480478343 -6.1569182121748537995;-1.5022462813877932586 1.0140567803798354873 -0.92038848821008800716 1.6647169665674477201 33.086973278541677246 -6.9912814554447928472 5.1923582722400274392 0.90491343789592237901 0.84562137102686030232 -0.85862034621790961353 0.050673161201966111788 -1.2947075452819611918 -13.787771177536994216 2.3488439290174021323 -2.204877028622815871 -1.5217446909378880004 1.4301389695238004851 -0.29277553830891622777 1.1832732097877669553 -0.10476429054521804729 -26.662595574433009205 -1.0970937125056985373 3.2723044072688782791 0.044820312869243116027;-13.981069566758458578 -13.52758845299964463 -0.53199914022006111747 1.5100128311512976964 -0.46979759098944728901 0.53755201474649416671 2.0361372906006467431 -0.23234692684482347036 27.704375737758372367 27.609447845472001148 0.10252156394199385403 -1.1768517222462953065 0.63857585288980345251 -10.037423868179798703 8.5696960840846045926 0.01133882043184968047 -8.7086648345926889192 -11.317588914489288499 0.38399093616914775629 -0.6025287077506638056 0.0035618184779344034402 8.2622415059570553098 -9.5022184092044508219 0.35948727606200897577;-7.8838333613832913827 -11.892699975383324684 -5.8022544767527657328 1.6249717136086176961 0.81706235248897662871 -3.5442208768663689966 -1.3433610441127947777 13.621464668690915545 6.2429592141240659586 7.88256660779984486 12.313096342299532537 0.50028148219857615508 0.93871042007712468536 3.5998853588479771126 -0.28390028596107164116 0.30192913756587858032 -5.9491790614152426642 -0.4325263917403038838 -1.1733807570112020358 -8.0071485262570192276 -3.3605660093050020443 3.3039305856735898814 1.7110611195639799931 -2.4287198854990004193;3.7098374634404320815 2.5980259995164587394 -0.48936584418987338907 3.4558024351548572994 -4.9638938579191522749 2.8835388441796259151 2.5312764034122441359 -7.8935535943132766334 12.56427001175495306 -8.4371992988393671453 -2.9957440754705446651 -12.179993889819467512 -5.6449459493517153419 -10.841108725626094511 -10.835364210135868035 -4.210840900836315015 -6.5472406529192266333 -4.6759427874473322717 -1.9392512575289373444 -2.0757181512502382859 1.4509480061388675409 3.9214326848720384433 6.7196075241995023575 12.238968207035098246;8.1525491929377995604 -2.6652422061390552699 -8.3344934940053150285 -0.6330394292080187002 -1.7424647330128260059 3.9567827073839141327 -2.2197226424533176292 -2.0170312759479953613 -0.75069842172588074902 1.7844951595531850508 2.9704059365708874729 1.7977273765761760949 2.2921669193923430718 -2.9965422342202781003 1.0423733644702886103 4.4663251218361867956 -7.1750694363796769792 -0.51437022420994105154 2.4551279007701616308 1.5735824354790171054 -1.2468993892813000635 -0.21014560466917220349 0.54418550044472846494 -0.36308073578745497789;-1.1042649367708974317 2.3386360261767094038 3.3633515262225852638 -2.5210551920790851277 0.48533940528020885763 4.9284517728446042284 -4.6862366394885182075 -0.90145944979465442159 0.15756630033286084247 -1.4616858583786662695 -1.1628438719518234823 0.78864897150040835783 1.7599679267695516049 7.6216207292970672427 -6.7453535504625294905 2.8892506689276591381 1.19012785058082593 -1.5357858000113893127 -4.1936049953901761711 1.6262100121840208367 -2.5324222585702291788 -7.3487428583008869154 7.2669879439435920432 -0.89484764081241829903;-3.9903465760211629387 -1.6008370032133076855 1.6644500538071929086 -6.0940494478825737446 2.3949030858303861358 -10.469081641540107341 9.292555238515326721 1.9854574557184589967 2.7394884505852052925 1.8458404232073313267 0.48678922873851937503 4.6952240522597765704 -0.10366069942450475971 11.993152667253694332 -12.007133812702413422 1.2183868302146054763 0.82965058918874845517 -0.32160196369876009603 -2.9768467253596950783 2.0165880579834398745 -2.2037288653783657644 -0.56721689916650019914 0.35215690271243799137 -0.82702347824018629385;-0.36123861814857982644 -2.8694011520691056205 -2.6547913480330156411 -0.72317245851306455329 0.21538477341544798316 2.5764137027568612126 -0.37794507253132619828 -0.45762629914802055442 3.223915789045821878 3.2385112518771741463 3.7313609523031892046 0.5435187930714862059 -1.1932194390516921434 -18.757950125445340461 16.892767606609321973 -0.32179209583350948387 -1.9025951832184175849 0.39811909692805208527 -1.0569752592391803425 0.18486600572474193305 1.0074426414190054135 5.2693841337940545699 -5.3821244773243854809 0.66828300873923929259;-0.2576275178677417399 7.8044281978269616218 -0.039408580742081311676 -7.564764607158027232 12.552073129228965342 3.6507014936233619373 -0.1707894048588346203 -8.6148283179980573721 0.96917239064218319022 -6.5786202631709240762 8.334529577522584276 5.8745566057980207475 1.645615091256284801 -7.2867770911087976771 -1.0448175251412423759 9.734398791577875798 2.9502475909084089345 -5.3929793269345820406 -2.139568192418063397 5.1630262189762285985 -13.444545927613974712 1.2440343455307025788 -3.4764982496187162297 -1.4280632658076559682;-0.14402379380091201444 -0.18937745209275747005 0.16343193436870678825 -48.699218506348458391 0.059428384492608600509 2.0864314513841062393 -3.9854013917550692447 -0.82388045824282607477 1.1606029638751591548 0.46475078170732486704 0.77825501639283123367 -9.1988917271819143906 0.40468036586064948246 7.9493855287314607594 -6.9787334272353014342 0.56232156169635072462 -1.7540498496292677988 -0.76481186108968568504 -0.87264385711764735909 54.489432117929318622 -0.46678056559737146625 -2.3431962295344863634 2.7213807713102338148 0.39696569083653765464;2.2671992101217122162 -5.8502438043289641811 0.16872372230913093571 1.8057516542051208486 1.0103980794506617347 12.520553274958649226 -1.3325601220167995198 2.3863901598536614301 -1.0115225774882230514 12.792265453473600445 -0.38925255513273782082 -5.1126817999331457543 0.58675323000519064021 -21.096439645604363022 12.039287004530939029 -2.1521393583263304095 -2.1415384293275381289 -4.9940485081932877165 0.63585670189625487225 2.6875499904252042604 -1.679448999851113733 4.6945159445627853145 -7.6465798852774033989 -0.89102036457155642246;-0.40004049759606524761 1.0215352423516808056 -1.5571053102171308335 -5.6352655345238105156 0.78243800249828632243 -11.032824687176859157 12.121836644718301912 -20.234314142441721884 0.10523523337363108188 -0.62202396376280688628 0.70058308708026839629 3.2817836354026601597 0.34420767118008310792 -16.687181687681331255 16.977861825168712784 9.6948640106817034479 -0.54551276571041484864 -0.64956166777028379045 1.4370535612093087163 2.0814791273271429084 -1.1542617029843784682 -6.6364754899567186541 4.5761713782072783729 15.058285058674217183;-2.6884731640212100601 -2.1031873466700168329 -0.99652044283627971843 1.0962710308358833977 0.54212002036064987909 -1.9769288246609189041 6.1246873962843508821 4.3856235783442789611 4.2755074679583247033 1.2152358634018551875 0.7619268545745608856 -1.0121811431390161928 0.3603867423891879973 -6.4794243121884216308 4.0902149152618978434 -2.0137810426633575567 -2.0957415004063180142 -0.36305005468539303104 0.2661695460871184582 -1.8613993089299900596 -1.2022750555981518428 -5.1090143239905208006 2.513287738583724007 -1.8899327906542686684;3.1006486684344647387 2.4744219593232057441 1.5862212490610732019 -0.92734267695816907651 0.43781096896848165079 -0.71398962857380332547 -1.8018663921573110365 -0.36937672569703372538 11.052633376316336467 5.8215748119837584795 -2.6711741391407124446 -3.6770127629503233102 -0.29721480226945867775 13.195258397106920611 -11.274022979948664869 0.53246721266722329968 -13.588019683921601199 -9.2130180409329138769 1.6649304684500667584 4.6724483225954624999 -0.45983158209293539809 -4.098267211593913828 5.4421003008457686789 0.033714367294777031203;-1.7246900801204350095 0.90634768491793793466 -0.94049898206193960348 1.3125734410580933709 29.065676635645832704 -1.8831676032555770828 -0.0065947224294877759831 0.73752700435560625269 0.85594117100302147261 -0.82564625314806172618 0.031964681910114617347 -1.0131930105187292313 -12.31066876181199099 1.7965751022014859739 -1.704285129439917057 -1.4020829225477378088 1.5764429860345094969 -0.23259309651337869984 1.201879473137797083 -0.03716174080517903322 -23.241148312962778277 -3.1387776708784151936 5.7317629886811696238 0.15235728904950315843;-6.0467583485747242733 -0.73488042372253037371 0.54689198585216969306 4.2007575242838273155 -0.10754432108101756593 5.2271515959170091747 0.48592602396263195885 1.2593906536747074831 -4.4526602702183613047 3.2851794090708521523 3.9868123059167501765 4.5201723494700409844 -0.31223356983107486418 -12.2631116794593229 8.5166113210455041127 -1.0835201702707908389 11.17547487828477415 -2.5437157631755811238 -5.6373007247617019644 -8.2940248013094137747 0.26689447333887472702 5.2147280482795386192 -9.4331743425435110595 -0.47323336367597124141;3.8536877353311096428 -0.57766170856367948794 -1.0076135283486740146 -1.6775042583124928353 1.8628612565214359709 2.7344060332312714046 -0.99582447995912615202 -4.3161119573134412164 -5.3682312428059413278 0.69280216793303894818 0.57210332800706953371 0.90903808394176721652 -4.583181865429825308 16.461329609369354188 -17.390682645795926931 2.1690127089628306045 0.035388615008235715931 0.67923192868485415818 1.3415138322986062125 1.1175077671627229314 2.0748821166844511055 -8.8927004723177756063 6.8979224946470409918 3.5713364071123083754;-0.26325333850020621318 -1.3349584939594851818 -0.79358358538080231437 0.87375985684689483346 2.4515329685041802321 5.6716673827897148286 -5.2506923878235802761 19.250042101703687791 0.12866991872397329222 0.72600646640594312942 0.38271431402866995519 -0.60270476626746227744 -5.454119780383861027 -6.5225526341821904452 4.6079935914327103674 -56.538938563683032612 -0.16151320106849623159 0.76730002916488904141 1.2810947385101405516 -0.83623405902763425779 1.8638367350783646703 -5.7808116166892427046 7.9959181546103712535 28.791568057168493766;1.9163378325061757312 -2.406577998403113039 -3.9461413030951617564 2.4571877405792545979 2.401024132703138747 0.92455785501723175557 0.58174055813736635923 -1.1146481119278266458 -2.7063302334301369001 1.2354309061640562639 1.0549714068573623482 -1.4984670317964465802 -1.1700750554386945002 14.205530626066870781 -12.643662731889998341 0.22939154371720979486 -0.14618303239774943503 1.9098655651836480285 4.3181864956472750805 -0.45273964516400244662 -2.6392998742144477831 -10.914542583865756598 5.6784898678114679171 0.9105701467334523791;10.510142038348917026 12.79700654511086988 11.71635097413397375 3.9848152373910279422 -10.984918803177512459 15.782378523548178606 13.070738461540338804 11.801164545969140107 2.3028050267941138074 -1.2550160664228959817 -11.972194745362173762 8.3255659764245422139 -3.2070662267480258834 -1.8052624374197481227 -8.0767278934363435638 4.4234895890036272093 -6.4626280032836875833 -15.071052791723969833 -13.557588881096815925 2.2642745438822728943 11.161713733368626933 -0.80651481138496894374 -2.6654168505798807587 -21.815830608203484076;-1.0992765168385683072 1.2801131429760184144 -0.90125099298284228055 1.1678226432134688473 0.1067150168262479687 4.7352777862757680083 -4.938251328722836675 0.37032145990950737779 -1.1191594777150934981 -2.4619310584709608314 1.0879873274818392392 -0.19431856614088932611 0.43702441307084494149 -5.4582321991764821689 5.4397471270078012751 -0.16759676447861049375 2.4311829427514597413 0.78529203886382947797 -0.11077674078800718582 -0.67982312769375186079 -0.64978594940978384731 1.3405797725017882804 -1.2170960365274743342 -0.35681604968031488401;0.44184675718450339144 0.10959120067152253175 3.8385429831897464048 -3.9068582017334465561 -2.6091919958983780248 -9.1862488785143625591 8.2616365296023275278 -0.29671378498711137306 -0.27829435372239302859 -3.0394287803968125239 -1.987243009528103066 -1.2565623817026327913 2.4004543299552008051 -10.694873367174997369 8.4285102724194782553 1.2244692510190930967 -0.40986367421954517098 2.5505546687029592157 -3.4655433732309792738 4.9142129722749254839 1.7475595797890157712 5.7886245170416614769 -0.034219008370490043569 -0.55600072522911814232;-3.8480451989630028997 0.6914410376954869264 -0.05243773960040654103 -0.32260313396316103729 -5.9679973518803031141 2.951615449546519887 -3.2464268529608175662 -1.117570001401527735 1.2024561837274969633 -0.59042037231588140322 1.1984987173584680242 0.915068154353086749 -3.4004263351864620901 -1.2770677277771447233 2.9484112918399767445 -0.61151511355182686103 3.5874883923266369656 -1.386236746860668223 3.54362572180149904 -0.97814365779604761642 11.043257697886504687 -0.52991646184330865044 -2.4173647552739963018 1.8579186189723613243;-0.41458637350651889042 0.012026691456470339769 -0.36357816542592957809 0.42656827287615994848 -28.020565930790048981 1.1253078849027171593 -0.39378071095518918376 0.19432622674450888978 0.18112672353823205951 -0.13290743656831408015 0.1076742995463060848 -1.1496365361182794285 65.163774017696965757 0.33063788755570544531 1.2522828949488788997 -0.75627821645004522644 0.51114353734021322762 0.20146806752691562292 0.47529386039002280429 0.61349377222491119355 -25.441878267027494331 -1.5320179049673756655 -1.7543532471169083209 0.4416221994335854939;-13.730825123633794149 -12.619889593673065065 -0.52102396985470444957 1.158471668526471321 -0.64382593082014338837 -0.84488179292166276646 3.048564501260031534 -0.38293281365389408855 24.993712843139991975 25.11526613421081322 -0.012247119446550632296 -1.1048852372885347162 0.69574184798157290288 -5.631951668538921929 4.335538539561521354 0.17347815112084133404 -6.5758607386501930492 -9.9228127141657669341 0.47919844376039805178 -0.42721003962957848632 0.17739389929386156775 3.7450023670353447258 -4.5752678525775563045 0.43140264954800255914;-18.064109865619794704 -1.3049494717390379694 -5.6473150517389187897 10.44953812047713626 -7.8958245725569371487 -3.5590549366985437807 -5.8807720860026062581 -20.978647318169503677 10.991046516290289503 -12.668069173223113211 -2.0143626855024105993 -8.7084124729939720311 4.0684888952522291206 5.1183728610735315101 2.4403269770374471648 -0.58318009407301807379 15.084463215738525221 10.22442156951207437 4.6310448472396137376 -5.1900706845617037288 7.4891263841894879505 0.2658892071268292856 0.4822984498240945328 16.031009248510834198;-2.080076505620444216 -1.3314741453975120766 -0.35424254062793592013 0.46181344042581490283 6.3414643797474763431 12.819650289857223768 -7.8326260428427536553 1.1688049089975582895 -1.3367131241849974366 0.29732989247510366315 -0.4131360274201313354 0.21234288287866845413 10.619412013089691627 6.9761386852766653632 -11.149083143285549724 -3.9701609959718902054 2.7402988335568392309 1.7703882360644014327 0.51152586875168193359 -0.78619120161157773907 -16.209097784726573366 1.1736877845168962597 -2.1752169201895283912 1.7361148371622636688;3.1623704737150184485 -1.5879348333556035922 0.7006941170426298493 -9.6117368579677080476 -0.32565555835245013627 -6.1386277538894322703 7.773901185470856845 -0.89423805580156390249 0.43506265593980353312 4.4263367919441725107 -0.040398851716038658433 -0.56437294164699358667 -0.048721422897315500022 0.31439543741931663678 -0.85855826701116511046 1.0383787950198484218 -4.2334392608297077842 -2.9503905876220808402 -1.2370302395044578958 9.4934640644748604643 0.79689156723996013021 -11.161921851435883113 10.480307205272056947 0.14406474369598568086;1.182555275610760237 -2.5619525136843357416 0.079521621869838882146 5.2182266291570265082 -0.066333557104934201543 -11.095218942325042022 4.6492079804006820609 13.375454490743631908 -0.95018991634643312771 2.0893744296878224986 -1.3177758315669088063 -3.6540979877440697976 -0.39218467875676427115 -13.455051575494902494 4.9896790795315686395 -7.3815787184456231884 -0.79588431970819573102 1.7299095470649115125 -1.1425240341372635555 -1.2782000202133874112 1.6294636666214787901 9.1992905147230210616 13.931092051809992327 -9.2137623443110250321;-15.91562377306680176 2.9769978377380947876 3.8226002946457060538 -16.13025639584700599 6.3764679411676601362 -2.6874455227352607167 -1.0964949122612146493 -3.9861452183670773586 9.0242688700487825315 -3.1739753601243121395 -5.7362567245390918558 -3.2335181444456662092 0.59981056422346168411 0.95839323835306156063 -0.19662540596523137015 -10.431652847213708668 9.050393040619475471 -0.208581981431513519 -7.4052625265471547777 20.084265943159362422 -4.2608854908927353833 9.3447066020818230214 9.1916443799180385099 -1.6367741441238818911;-1.7584659651308593986 12.491140792629819245 -0.25460293001525247103 -8.5866222748356726413 -1.0520753825891964173 34.422075617303910633 25.775484298360812119 -1.0632757007113828873 -1.3103474205339749048 -35.128846125401054223 1.4812846885289814303 2.5462115802425158151 2.8386037588759118755 -25.419356890933944015 -19.283806945842538738 2.5696355803909418647 3.3423684550622811962 19.385906741193331015 -1.5905960102204050877 6.3646949535462251646 -0.61554285347663684203 -5.1424460156431051061 -12.082602865291034888 -1.4074738114276061918;-2.7948282255278487085 -0.72485225567694555604 1.4587519660234966601 -0.071529460982286310888 1.5155216838035143745 8.414803392708112284 -6.5603277872111718239 3.3334803432756294761 1.8329400379837299528 1.0110744215519231748 0.47896184813254749635 1.8300158278704772297 1.5080574869674931993 -4.3900204872748407325 2.5506965912555985554 0.24575906672863670477 0.16143920194287977865 -1.6987479235688156542 -1.5863548148377044633 -0.68699969076619959996 -2.451840408609252453 1.6365611898120462353 -4.0032408558039556112 -2.6378753920993665005;1.2596311426291630919 4.6844267581360004016 -0.086839456530140024526 3.7011302458811661253 -13.733036056790679069 -1.7734237941951003226 -3.6650219690572098941 5.5206998430435536562 -8.700645886090971004 0.20323890298448660241 -2.2801775949765623608 3.5926829526428205597 -1.8222193258204140154 -8.5147126642948123276 -7.6085982708505115468 3.9254225860687363969 -12.869038855717041869 2.7125571373463235325 -0.74565047206347867537 13.715550400608620407 3.9135012233373180912 1.9026458602746469939 3.1397899659782408932 -11.702917966117380999;-3.0335499430053447512 -9.8712611123806084379 4.986945152263187353 -5.9861219641732477115 -9.0532698671441433902 -1.4959742967843110417 -1.2813122872826143706 14.616762684960558971 4.5363954213156691964 9.6138401467357201824 1.104024672890615788 9.120547677094847927 12.410571631965892081 -1.3263723741603206108 0.57520831404893890682 -6.2710946993353609002 8.6802497273979764003 2.0455376245024985415 -2.7405506275665434401 1.8935182439171263091 -0.17452400699299019937 2.3167988045729028812 -0.88180137626475052492 -10.113327117247198572;-2.3260821143220393736 6.9057730426499945864 -3.9572295031247932684 -0.82704333347265357457 0.46970522099989220344 -2.9617307937821220065 -2.4748369587576029005 -0.5590936091334793856 11.295256828283831041 -2.4443025972905898513 2.4377447623599586279 0.23457022043341563267 -6.0573685872748326275 -3.0730895125921624533 -0.78582674204981040056 1.5885486080224260341 5.4085344451828083479 -7.6670993919197458766 6.5658500837941096151 2.4656914089098034282 6.059412216081033975 6.579586978407479414 5.2631764899030235583 -9.4232141744958042295;3.623171449546954026 -6.8759607969398661709 -2.3417237165902857754 1.2448992009892192456 10.065160872249750312 4.8478458838931324237 0.22119846768995940489 -8.0407320566030406894 -1.1673891265821301211 -5.6293526536642097824 -7.3900731394493641702 -3.5629228816669713531 -7.3125137332146437075 -6.9496292444131704258 -2.7765692739993292903 9.7716454782348005637 -8.107022715434865745 3.8756179483687414056 13.833902859044084011 5.5605036077117233617 -4.8897145546289593199 -2.0738129835941645496 -0.28425345448025518547 1.1964470763592254254;-2.1473806734918694517 -2.4912507462427910809 -1.6646791921531591818 0.89123571668702084025 -0.42523628754990261402 -1.189687557192181 3.5825845638302133978 0.31285646913670162039 -12.289445598494705081 -5.7875593561812825882 2.5886878159330279914 3.57447916355114792 0.28332312341176557613 -12.30131018917488106 10.475104235776614203 -0.50651315042986044812 13.562901866573398024 9.2121728358807430936 -1.4512945042396163675 -4.5628473117486505473 0.46223634122269785518 4.4812921773928806601 -5.7431593294445280051 0.0056078811660185481913;3.4832167728665837103 -1.0210064217472842873 23.765587336676397001 14.930909343986382254 -3.6739319027085914904 1.3668369783725444755 -0.35134639139711271172 -7.6534027254893075565 -2.8632661042375118221 -4.4351756545095026851 -7.020576562702890655 -11.910734124817148327 0.62890009512693489935 -4.3182038453095570318 -5.347640381180250202 12.645569380457615694 -4.7396646147702483631 -13.52906884549099864 -1.1913145436176879599 8.5711099686031158029 -3.7749619189515359885 -1.0309195629030629693 -0.98906105348019823786 1.3662597218580729841;-2.9489823542016981861 1.7512917297082037926 2.3378931781499749931 0.38278629356875704115 -0.20572756541359876747 2.4148832301919194165 -3.1838142441466099619 3.9703776815744542539 2.8930759553488898383 0.72619357588719857244 1.5151962713284792272 -1.102296143912328219 -1.0438786593698361482 0.40436711706922290332 -0.54197452229160925086 4.7430742596461739069 -0.53712943660504253174 -0.30667294056785093792 -6.5502465189295380199 -0.51304877344831056885 1.2381051719766318353 -1.2774552151192171134 6.2414933401501224708 -8.7063337039621000457];

% Layer 2
b2 = [-0.21888345521868440846;0.52301551084223640853;0.43349493226254887102];
LW2_1 = [0.27713476708860013131 0.044750460804397464154 0.062195545653543786446 -0.014577569159564138235 -0.0047443025681276028427 0.020287504441027479768 -0.48808460727897012843 -0.0067045730556617817372 0.54116790674282011508 0.47137359870729911293 0.0062067356074508393121 -0.10385114065085770951 0.019172224202259870174 0.80824715290055237915 -0.011117835858338417226 -0.027128089734298473784 -0.022201232776065199515 -0.0093370159367158356983 -0.51512056138962891705 -0.033136395721600840625 0.023244621267147155125 -0.025527897084319076809 -2.4344308395352451946 0.019338961272920753703 -0.012318091152368476973 -0.020436007111432327732 -0.046188449616127960629 0.012638153148342306381 0.3567996339117567306 0.0058926784349833411653 -0.11533431908764514573 -0.11818301763230046331 -0.019372681583940551397 -0.080917738149218737531 7.4457485935257823328 0.022919154183905846023 0.20696173647746682334 0.014393867946240927053 -0.014705059682742993576 0.036470050767964834471 0.013735884029173962145 1.3756284037788730767 0.16162545494048863315 0.0047367776625692357625 0.015727158692307216525 2.5239789958970333394 -0.0065347818927839881539 0.012817220493082414137 0.26679347482290066695 -0.022043652471719871883 0.0025687449228934283209 -0.086455951114553938885 -0.018298382420044494168 -0.027165640652176411413 0.021034432270866224024 -0.0091213237853159136181 -0.023623098028752696764 7.5774640836706312896 0.00017528714329178335016 0.031751751857915191946;0.01704520290243643002 0.027042121484943355131 -0.076142427040193361165 -0.095184170745303914307 0.02806390924339258186 -0.76666984614543476351 -0.018808479282142576139 -0.17859154244842412318 0.02073625843744443531 -2.9963631506833854345 -0.081564026962483646144 0.03069273215378651512 -0.025405008965297015688 -0.069147259454253234834 0.037424610458298604443 0.023776762463997333508 0.10910780787407121928 -0.093608197118578803653 3.0135811565770898035 -0.033860860146773294477 -0.020808484875374087808 -0.84810432844343686121 0.26480049049944093253 -0.060228533204420044156 -0.01784726430827694027 -0.058463581871747591356 -0.16178774863018247077 -0.13263864117187640357 0.041216184845878509058 -0.061695066715189657292 -0.018256773634840749859 -0.010871433743863661431 0.16640856143574117576 0.08492905429306357723 0.017484973365526824962 0.84315829392112473517 -0.0067233236905032550679 0.18022442825402618105 -0.22190279834805251569 -0.16857119024672162499 -0.035129017817186317107 0.093945707907727979413 -0.027567224671478183368 -0.10207829901588962029 -0.72829610106884090648 -0.25528565394596813842 -0.032292792428791253223 -0.14060846544357352705 -0.010282404958539674913 0.11327030598135094663 -0.030122140645119560576 0.013745825900206518413 0.11778294899026020559 0.027897764687318124532 -0.043655010078386929928 0.036723340316406886952 0.033133824131512973343 0.005749023178344339971 -0.028107278260638954293 0.14142696881111135876;-0.46813314308550690868 -0.036180225882607205956 0.16902382610413974051 0.010559945155363834046 -0.018240656795589074712 0.0037648540614829461085 0.80993986100919113102 0.074327526072082844566 -0.53816223684002151284 -4.3171802487071593291 -0.01829100540059741889 -0.089676279922654630883 -0.062879444395035941073 -0.38975283045061942522 0.025571230962024085742 -0.032117650510707015932 -0.29533055600033897292 0.10890414781067844774 4.2549051524000027769 -0.033203385268676985365 0.048282595271158391947 -0.8633176619939144647 0.094171813518001357135 -0.0096529958945939138559 -0.0089691863792876400097 0.071361058661601958764 0.21885956459138461438 -0.1102090125293387346 -0.42633182654192103289 0.09409770123951295695 0.37945268383367425358 -0.2019504860916675193 -0.12094289979116708278 -0.022475006992901606917 3.9407500644511901378 0.88050048494336619065 0.18144489864970320125 -0.26995078754973178548 0.20015335848776064087 0.53107215392262308029 -0.085640439392743267222 -1.7247935819641899702 -0.062605201267599219772 0.24722271657283548252 -0.22648353335545018394 -0.13027721719772780706 0.0023005734655446577128 0.21187184128119129767 -0.5172691206303261513 0.10597761659600060669 -0.032184782774711387376 0.066065870985945601701 -0.2545415669746727283 -0.015854735086684224044 0.034100789316657775796 -0.038594321498839352647 0.071720542783737004089 3.6998214872921275642 -0.021688144351474258897 -0.47089762506983434687];

% Output 1
y1_step1.ymin = -1;
y1_step1.gain = [0.0579883687091689;0.0579921647562363;2];
y1_step1.xoffset = [0.0091674206876754;0.00829131669518857;0.5];

% ===== SIMULATION ========

% Format Input Arguments
isCellX = iscell(X);
if ~isCellX
    X = {X};
end

% Dimensions
TS = size(X,2); % timesteps
if ~isempty(X)
    Q = size(X{1},1); % samples/series
else
    Q = 0;
end

% Allocate Outputs
Y = cell(1,TS);

% Time loop
for ts=1:TS
    
    % Input 1
    X{1,ts} = X{1,ts}';
    Xp1 = mapminmax_apply(X{1,ts},x1_step1);
    
    % Layer 1
    a1 = tansig_apply(repmat(b1,1,Q) + IW1_1*Xp1);
    
    % Layer 2
    a2 = repmat(b2,1,Q) + LW2_1*a1;
    
    % Output 1
    Y{1,ts} = mapminmax_reverse(a2,y1_step1);
    Y{1,ts} = Y{1,ts}';
end

% Final Delay States
Xf = cell(1,0);
Af = cell(2,0);

% Format Output Arguments
if ~isCellX
    Y = cell2mat(Y);
end
end

% ===== MODULE FUNCTIONS ========

% Map Minimum and Maximum Input Processing Function
function y = mapminmax_apply(x,settings)
y = bsxfun(@minus,x,settings.xoffset);
y = bsxfun(@times,y,settings.gain);
y = bsxfun(@plus,y,settings.ymin);
end

% Sigmoid Symmetric Transfer Function
function a = tansig_apply(n,~)
a = 2 ./ (1 + exp(-2*n)) - 1;
end

% Map Minimum and Maximum Output Reverse-Processing Function
function x = mapminmax_reverse(y,settings)
x = bsxfun(@minus,y,settings.ymin);
x = bsxfun(@rdivide,x,settings.gain);
x = bsxfun(@plus,x,settings.xoffset);
end
