function [Y,Xf,Af] = F60Neurons(X,~,~)
%MYNEURALNETWORKFUNCTION neural network simulation function.
%
% Auto-generated by MATLAB, 03-Nov-2021 09:35:32.
%
% [Y] = myNeuralNetworkFunction(X,~,~) takes these arguments:
%
%   X = 1xTS cell, 1 inputs over TS timesteps
%   Each X{1,ts} = Qx24 matrix, input #1 at timestep ts.
%
% and returns:
%   Y = 1xTS cell of 1 outputs over TS timesteps.
%   Each Y{1,ts} = Qx3 matrix, output #1 at timestep ts.
%
% where Q is number of samples (or series) and TS is the number of timesteps.

%#ok<*RPMT0>

% ===== NEURAL NETWORK CONSTANTS =====

% Input 1
x1_step1.xoffset = [1.69562810682694;1.48882864150072;1.43441643916986;1.15972558053132;1.49655486360552;1.13046470143454;1.58515967521373;1.56329627948044;1.80596626391039;1.48932180423059;1.43441643918602;1.15956118891489;1.48866425573882;1.13177980189113;1.67623037222508;1.56313176051988;2.01832154888922;1.48948618524821;1.43441643937132;1.15972558008837;1.49655469557532;1.13199148498348;1.86313925583097;1.56329613585854];
x1_step1.gain = [1.512654332723;1.91807123334014;1.69565484078004;2.10819084763172;1.64320816641829;1.57636093310239;1.93700278140486;1.85264438005336;1.66097141843989;1.94692379256002;1.76170379801657;2.13933007208335;1.68461869008463;1.58056958462522;2.19687811554149;1.889472837827;1.83530700038824;1.77067674218302;1.43448859210086;1.97975636759982;1.55639079154465;1.48954049182274;2.17565905212706;1.72627106367923];
x1_step1.ymin = -1;

% Layer 1
b1 = [-1.6266702958496570552;-1.7179922277673174147;1.6371521578557639565;-1.6071102754582724526;-1.691316077659213768;-0.21433179373456423544;0.46089466250547012072;-1.1523946271865377344;-0.73895936806218009973;-1.3545497154156485031;1.1051156218947277843;-0.359555396679697159;-0.50876796745037300429;1.2754931280110226588;-0.22503402613128017928;0.92284119261454167216;0.6177089764772167868;-0.40032424686951695314;-1.6804974814296755881;-1.5934789071813344474;-0.32086338554801308032;-0.074199688724828904984;0.071340122720538939882;-0.48089203582961670413;-0.99511827795077278935;-0.31367701210608595064;-1.5717706760865148841;0.31727551304129780751;0.26523711086859441677;-0.38506646509263192657;-0.21725626120380658879;0.45302190021251109719;0.42437221666691987698;-0.17741576700755706808;0.19676689089901447383;0.065428712178296336011;2.1030538691374545124;-1.1251884738300426125;1.3366764890228763907;0.31693977808184359279;-1.3337940293139660675;-1.2175165695949397016;0.80931350565206872094;1.0836447110190019494;-0.88090375004185172969;-0.61373460091526021998;-1.4115944736558578843;2.0662706683045573008;1.1873428133390095951;0.95143665735829163754;-0.72104894391307050583;0.37533791365965796238;0.7076836691644353694;1.6943414269082821555;-2.478476263528055501;-1.3236228993671359522;2.6466736884325050561;-1.1428250636829049292;2.154579143930540841;-1.8096101187240150043];
IW1_1 = [-0.50546819654307506564 0.75495083756514791418 -0.40440960312931262255 0.911794421263626087 -1.2125131462992575493 -0.13709774740615765509 0.55145399769928271638 -0.42086256690031192962 0.65369032493370005099 -0.51382761953054356674 -0.30404718786025319854 -0.93059948254076574337 0.30594512130374468262 0.34841812581364062229 0.12012018320261258486 0.69831259870323669769 0.28612861512513104723 1.6287396348448293093 -0.32597615506560784215 -0.42197889320444115224 -1.7044203248715190657 -0.078990688012440843369 -0.27450624045888472047 0.86887803946925723508;1.1132201142963462637 -1.0673946217573291317 0.73840584207403692218 0.19052056639641942737 -0.75436652973790507826 1.1743927413220642819 0.38494636021863309905 0.0020902909169556935232 0.92553405201617511278 0.28204156531347179815 -0.65227159203838414037 1.0276412681910533919 0.41992352869255555881 0.15319953086387472219 1.2847938806337175777 0.058439014989650393817 0.12229899238597639888 -0.53833501422963470073 -0.37094983720915103431 -1.3394662621949056103 -1.5255661479690432181 -0.52855071865781577678 -0.089600795018811518755 -0.35268722553768472316;-0.35628992310007323585 0.21122327153970585356 0.24138033894181598615 0.25953076761050397625 5.1036712914164175103 -1.2897241217165551497 0.052387231503983583414 0.17392930814106755122 0.081624491083162262206 -0.2860157938262604671 -0.13058728352558224284 0.34871552699768249006 -7.2222036820584927241 -0.077750487147250607611 -0.28144332167877195161 -0.6410024187304956822 0.24894166793382760394 -0.052669616535658200784 -0.14910663293403239593 -0.83360707187894744763 2.6899445855280159634 1.0726778566156083272 0.30093721347827162571 0.61784998844744487556;0.12326949584730091669 0.33654156038141930241 1.3648365055403961499 -3.4017588744212003959 -0.24597147021951187851 -0.32726729573122531614 -0.12810651411709467196 0.70804306585847076594 -0.24620179743882644741 -0.72319274503700448076 -0.44605578528210343414 3.8142804460936821087 0.40688895267955305091 0.66887553628297924391 0.93353207528142712057 0.10249426807585038102 -0.0001791302517505921621 0.69995466393031258168 -1.2794331054981982199 -0.70194970710018145255 -0.038409405220802744774 0.023167607952336303351 -0.67268021557152890555 -0.89912395779907750004;0.083398836711890966811 0.84466319785716226232 0.46330047594762835406 -0.62435245510340942054 1.0315694687793899309 0.69117716803277895465 -1.5832766473385107009 -0.77500391847728955508 -0.17042569619256808799 -0.28746538949381317263 0.60839510952714037639 -1.083147181077189769 0.57558922938798173785 0.33970310326615671404 0.65779638176312782427 -0.62017550297233647871 0.16803071516139148067 -0.15334189679989637667 0.52391702179937571504 -0.39127470285435311803 -1.4240492535033910659 0.15809045176552491418 -0.33163653745822285757 -0.39569665669982762024;0.16579059831394155067 -0.11232551527464454399 0.22067148767924649189 -4.5930554534413197132 -0.56272320255999630501 -0.58424382909877237147 0.95615804430755590992 0.32236654298589012546 1.4582752752360081949 2.3766232781301730448 0.94213588150255000997 2.5751933136894966658 0.55453829619897698766 0.52063177583360997769 -0.54555969136451931689 -0.10775452654775158345 -1.7548940954426601735 -2.7178326598426294503 -1.3576102439395401067 2.1820289783275348405 0.24162350963719053665 -0.10278127966914324398 -0.57324449526359144702 -0.17826626018434166276;-3.8028194257123404398 0.070339312320533892153 1.0032133332640853496 0.72495371201934433181 0.47256192852204692567 0.88135444147611574639 0.57077275339113298092 0.69543727642226016439 2.488834180206423774 -0.6782021726229922054 0.89266842294007997527 3.0814633313531896164 -0.24679491854976093324 -0.34384601950784382529 -0.20781942232824537897 -0.4474076197311537828 1.1055634606248856411 0.68304296306541023576 -2.8930879923973376044 -4.4722363736189603145 -0.25614714727985576914 -0.45739259159615391903 -0.31278164278052561498 -0.18452233710390181232;-0.40959486611473450157 0.33254122084135695481 -0.49677467561969484988 1.0813893188859879935 -1.31145238009467624 0.49050183362988358793 1.5284370518139891448 1.0434065944070765042 1.2423076504720560465 -0.35760684214730392716 0.96792369001672640128 -0.43250960982895425566 0.90315644001529937768 0.34631435665564302973 -0.025043055442574055358 -0.025066185843383020915 0.59660637000854466194 -0.82932585275347481257 -0.69971920661887110349 -1.7299217368014574436 0.15903786153033619422 0.40946484689692480563 0.20137470059614728801 0.036259003036268298847;0.834521732136850658 -0.61754937733646153575 -0.12009988882437071245 0.20588749005801290637 -0.74347570954689334854 0.30248173913081427555 0.046252043388401317681 0.6013291395297732933 -1.5370531292283491354 -0.99535305669174167775 -0.80887364505514569579 -1.7261163294596364448 0.1314287315364891795 0.58268228869849381102 0.88424334821440475629 -0.21010122796252678201 0.98515461566589324072 1.651759337537068717 1.2376591290242968668 2.1375358521224283592 0.28502068970409744075 -0.87928641809916752159 -1.0288748722106686451 -0.31568245656735699489;0.81837599015037743033 0.76767556909918865937 0.36521092369424346114 -0.2872095427399692924 2.5117180036013957434 0.47058701749698517158 0.93046869513133800833 2.4041584446037740364 0.1072745929428359779 -0.70272294720916428368 0.33361713660424613392 -1.0318566668365980465 1.0257254536228832542 -0.86030400896987446746 -0.21621258528915052177 0.16178503535744900854 -0.42586758842937699754 -2.0153429153433064513 -0.0529227412131653141 -0.21963653931741466963 -0.94051718352153523828 -1.8026750889625904328 -0.44657777202924381355 -0.67046846145094018965;-0.36264732203112931552 0.097573853283642431045 -0.69215027950357932429 0.69876840523043770581 0.31658112062877918902 -0.24637024258123424447 -0.11473815323115299503 0.8342851599708959176 -0.62749836256583080285 0.23915657238643051041 -0.29509649086482098168 0.47380890280758325428 -0.032530743277183193918 -0.73988590640651052954 -0.55585551162140289794 -0.13314199465005024936 -0.56049882468511524891 0.19368182159787561414 0.28753721607482729539 0.070800090983944463652 0.33127753272926635519 0.0020562486344774255631 -0.31323972903221508624 0.7380270558516914825;-0.024609784068300596949 -0.25101198247139139275 0.55290511351227766834 1.2704143298888219693 0.055967538309063487312 -0.46630802910085800139 -0.11099816113429950004 -0.30583505837153912577 -0.097889482677380207365 -0.38876732617395781677 0.06109367818904901104 -2.18947688200168189 -0.39394706033667109546 0.32165903039302973232 0.55482494732572185114 0.78586818864544616403 0.99659114670391590884 0.063794286240718492409 -0.000427382114768788679 0.79986735749814497076 0.55180132107867974067 -0.051908625522776336014 0.31302319644840698176 0.57686036178271937747;-0.14602285783158650001 0.10250748102397723438 -0.34685142194899021284 -3.085561211613005117 -0.16138335290757774287 -0.38593739194078435784 -1.0159580802295380408 0.31840128576171705665 -0.46662022455986651437 -0.43417663427956587618 0.81373111838391820605 1.5362362471159538568 0.32133585568788181064 0.6304918954789879848 -0.77945822670290820788 0.77947087616846699731 -0.068444304160474978005 -0.095150173787946712434 0.48962849684341291923 0.59417508638665650356 1.0690770549523149757 0.37987613274264753205 -0.062794101860696671658 -0.15858710917543425434;0.42810458079826180233 -0.34231083115045157772 -0.83787758619677199512 1.0513212224415520168 -0.70283745808602016147 0.71576661330688251539 -0.3487452375426936535 1.04504488903616366 -0.2656280489234577602 0.15081296669526389476 -0.91587860087355665861 0.29274289905365524778 -0.47197331254353386276 1.1818277581113751928 -0.12987792737658337971 0.77970761089042073255 -0.36441058360664180249 0.78433662173103968485 1.2876901916237630807 0.79477203143720687173 -0.27216936117043993848 1.5303877614271292895 -0.42622540456462187919 0.21751361867622701074;-0.4748547562432012259 0.92022839812497092549 -1.7481432014743232273 2.0762261364920200357 -0.49203815024894387298 -1.1713021215736532099 1.5219822172557917472 0.76111564513828144918 1.2654152928786746024 0.13340792718675098527 1.759595028855925225 -2.3154938749292011124 -0.10076651750636754501 0.61807502434976613337 -0.78446795928167512013 -0.48492224375767722933 -0.68845970021620872537 -1.2284432360159183162 -0.16725206006395521019 -0.31100612835968932668 0.86539598556381280847 1.5000660210387539717 -0.20493537149943183429 -0.61284900812651454949;-0.24812571451956633162 0.0039761619108727754013 -0.77543379211648444382 -1.0275411462884462832 0.31208502420337225214 -0.4823407730882791622 0.76583839759874172692 0.089641854847454266464 -0.27380358373849528197 -1.5198049790291670025 -0.56610205580918282475 0.40708806781187600876 -0.61683115765790585971 -0.6300293098256940505 -0.73226711785757958584 0.7454547130721025372 1.1258596150461022134 2.3700283755120050699 1.1802720382076601346 0.62850915717036470731 -1.4914475029599376654 0.053152702585370734112 -0.10795136760807391707 0.50760912452521333993;-0.50180722919504261448 0.2546030242090304152 -0.039266092432935148504 -1.8741457518639337287 0.3708662816386047445 0.88996803959185089017 0.35643615298255731938 -0.59084988246140568435 1.00790503528735087 -0.60024217872580221123 1.189475401407241284 0.95980470200211187581 0.074829593672198338461 -1.5190836706824895064 -0.77361647688453560878 -0.39342324221406016482 -0.048558705573579608039 0.25451423115415350296 -1.0859149944272161736 1.1282497656317378443 -0.15265827489054298316 0.032379189149450753049 0.56776006857283611851 0.491602723846565004;-0.61482919135929958721 -0.15745879536280932287 0.99436168785491008126 2.3173226135086242294 -1.2168838728649100656 -1.8592883935975743626 -1.499627806004790731 4.9526790129712425781 0.64354278887177096546 -0.0095341905048300507053 -0.54405208694357998223 -1.3382866348734905326 -0.94358166880598381976 -0.11045916389062067353 1.0587339028334494806 -4.3094381847299807475 0.16351126194985091122 0.11061674064422366559 -0.33525792374474333579 -1.3423078992194867887 3.0587490182843102282 2.4848837284041014328 -0.2716620598917587337 -0.88346679972672126357;-0.45833464653147693024 0.68668670588508884389 -0.20557359877677752746 0.94426586363220299525 -1.0881263038314810121 -0.87737233244175882874 0.28345052340340631813 1.2678783392862262858 0.019939532703283645992 -1.0131079245687781842 0.70371162164029188446 0.60964196858367269982 -0.51400107313576726131 -0.44129479498246687585 -1.0048798317881983966 0.61735600381110733448 -0.40876867067568678493 -0.22244971754087750071 0.25729318635694470307 -0.65288406277327115657 0.58341089703411541656 1.1944910079040946815 1.4983270187436865672 0.96457162603926616118;1.0921547864563534436 0.77262297720946826463 -0.37452165606279719245 1.1810988762804794927 0.68328049959449099759 -0.77830485650670688802 0.73125115586899269715 0.05397523971995763642 -0.026781041912973146957 -1.6762708860836430524 0.47381625735698257307 -0.081274584138523703336 0.27657387205375538741 0.94135408895481953451 -1.0454466300938827228 0.79087972929897876195 -0.46464541373952572556 -0.1947767122888123259 0.34236682610459867604 -0.27255663519805872763 0.19670820636145819327 0.28643656011255125282 -0.60776776687665234888 -0.96172898150264640726;0.8512651441810756836 -0.1694856879194838184 1.0915088602917419891 -0.99589685949736228565 -0.54791922159387740354 -1.1199632342942493768 -0.692745290280362358 0.2054386730514231596 0.1492253425389320487 1.3834132334533855158 -0.85564700638768631524 -0.048826448374445982625 0.87985485307008914901 0.92684585301755140208 0.62924996868523175308 -0.071897164261502638505 -0.52238437262447356968 -1.0194273024414011175 0.52014537555043105499 1.3989336544003438956 -0.4527093747527679013 0.044512529613337389889 0.25697503996177345487 -0.62422626172341411088;-0.7056149032645054886 -0.74425863451043061669 -0.6004843267191116718 -0.047047302603416565892 1.3505102397775956558 1.1840088221985740624 -0.037214640001392587654 -3.2305736582355004671 0.69651712472514548669 0.38531759233289353261 0.45499264273170753059 -0.26026620696578323111 -0.009830740233721633331 -0.23537364573577324034 0.42263067616027721884 0.66569732594111397095 0.004882082369240828279 0.11050459881301766263 0.024715354205163068968 0.12365557355866163558 -0.95325134903127795027 -1.4987226172710899075 -0.65538751561437891269 1.476912366957018774;-0.10004356051648985448 0.054726827208243830625 -0.5906376371857201546 -1.4540569561236087459 0.88455429124792028794 1.4635345726829771529 0.44863176295695877949 0.37475834985543121647 -0.31864893527247040161 0.67511634709997814241 -0.19911797999246055868 2.3356609626971733817 -3.3614476905606807122 -0.91332281666634473893 -0.69967303379118972462 0.050246735262111319464 0.19514490044292742699 0.51684914364678413712 0.0019994756424312892795 -0.57894147318901956201 2.1194681835779585199 0.43338466288414179139 0.82621112890662229411 0.51231187468010008779;3.282665347648247689 2.2995188562198896065 -1.0555984106193228023 -0.33851185162633468106 0.90573281345146594568 0.23546251165390014171 -0.16766434219789116966 0.65792946076400671274 -3.9677020957337525431 -0.78212654438707485127 0.75406011886570534219 0.088959757722482477038 -0.77196041001614823518 -0.56860033533532750027 0.24847690323981924676 -0.52251886811718895043 1.2371308731232144584 -1.844605853097263104 0.53213124223570185123 0.24722720398979800005 -0.35710019237507656387 0.21170720581964688756 0.16670405121883677402 0.038233145800588966279;0.034708693667232802527 0.32558579539809523462 -0.17042573528348711753 -2.1082688506151030516 -0.95250118336217548531 -0.8462796034303705639 1.0402434321309508292 0.39087695868762789564 0.47640142507792182514 0.64065083998234340079 -0.49104245555754161279 1.2982956491080313022 -0.67247972581896631183 -0.67669902377618396105 0.6424628323812602293 -0.25554547625697138225 0.65319565481010599672 -0.024567681754039470687 0.55189397147422258882 0.59244443379730915566 0.77123656407856622241 -0.30844145695798314 -0.302246014774801397 0.086368760836245034307;0.139066760847783355 -0.26470674408446981385 -1.3377623400596698744 -0.048438585146665269487 0.41265111297635537202 -0.63593585429765708827 0.86885703847604955907 0.10538996564121724808 -1.1309311587827162171 -0.55087906757479065956 0.14078497194173719698 3.5834775517083636842 -0.10958123401612367143 0.056637039133283176295 -0.75474141483650947215 0.58488850708543138612 1.0059092025655369529 0.9971501964304124721 1.6621913745423753106 -4.0953010917191994267 -0.48882281947784567144 0.74668559906535147963 0.15353297911825064537 -0.24352867220699117579;0.48577740809657138366 0.85819663859411277063 -0.040059248913467473963 1.2512802071926847347 -0.96995114114324287868 1.8464108304173811881 1.9384613596635811295 0.93707756901330740984 -0.37760226158770771043 -0.12001950354176030289 0.30125016674089688529 -0.22260961097474141202 -2.0550205213354670875 0.93072334289657787654 0.60057086963125372314 0.4644243030311038245 -0.42740640572726246171 -0.47000895373955076106 0.11886947706272678327 -1.0418449600338277605 2.9550306470086389332 -2.5080093079750080953 -3.0832103861825399527 -1.419245638221917627;-0.16177374181198694858 0.45108185804573358579 -2.4918126849089197172 -1.4700370834036045053 0.74194488625413801408 -0.19651062935511406926 -1.0581448912969693144 -0.93969392423745645715 -0.195263340206660585 -0.10669665875363333607 1.0150714522058850164 1.6974107610659636691 -0.69067279807834169869 -0.18656344235119440289 0.9101975910306231432 0.38113469153866774697 0.48311235083010506397 0.1420885769458883896 1.1226701640084928435 -0.7395655314057599794 0.46938716805641345076 0.060420830391389401814 -0.00905851729064739708 0.35781857615463041888;0.90186827656632340133 0.83182818575005645911 -1.0660817076883284393 0.38706601489523762005 1.1537672643959888674 -0.57042892433024194876 1.8069160479961627885 -1.3396853666667964955 -0.12124688782959917865 -0.27390884146404553823 1.0753238541683753926 -4.7067018241956608549 -1.9674574868240362058 -0.24581703539609089937 -2.5097934961668184606 0.024086794114606728534 -0.33637628006384789892 -0.65217740188623296582 -0.22477270433680607287 5.4103766285907850531 0.45381617245182787057 0.60617490110491756283 0.63113079868014654306 1.0023023020736894217;-0.94070548868162662259 -0.63622945756989401911 -0.83752984146491038508 0.067868009158355974142 0.81456753358791456066 0.037343160152267802776 -0.92051143762312315211 -0.097308165567869614465 0.69673702711049345648 -0.20857792826989701718 1.078584615007391001 -0.15463653469377769412 0.038682030650405666017 0.52220053930447296597 -0.39220871671830276339 0.5491922061341734107 0.075815101975823973035 0.16716586991220150349 0.51330747688951428032 0.35066754709704811566 -0.35180829284886516728 -0.15024345520960707967 0.23126029383188564936 -0.19241095432189664338;0.40146515047074377014 -1.4110576715503029277 0.19237773413197190031 -1.466499392535403512 -0.43071197261572291559 -0.88187023508660467019 1.3396396446859097917 0.47848944838995377538 -0.54993156831667266982 2.8910018597189441891 0.59331625856832004295 -0.79915668587892318975 0.61261536190690824011 1.3432905527963654446 -0.95136835320182777664 -0.32710677584777014815 -0.23903743001577895666 -1.8791322566440249453 -0.8960829650404467106 2.6363395661968600514 0.2681722119204267285 -0.1721231519139120314 -0.67206536461233112867 -0.35049493874234322055;-0.47876788864187974637 0.088243980393310605947 -0.51088337331486366466 0.74709792897069060569 0.75138691862456852277 0.56999471619815300638 -0.66062650858922289387 -0.081981677530705676649 -0.44441821998544206451 -0.22393719907307940709 -0.1639957242847473462 -0.13794947267681717529 -0.39824983089584525819 -0.60560062827308269728 -0.058296121544811480009 -0.86806021628575591453 -0.15121330885400044441 -0.014053843740666222689 0.37584976786382412461 0.050260069956769126698 -0.42246593320464553845 0.78358716768739067327 0.28872363155486263642 0.6109193407436602774;-3.3482416164616330967 -2.2057800133434213308 -0.3984508272651168248 3.2319141584033963532 0.21718250022685609002 0.18869315974117817358 0.2074416646226063532 -0.43147040039750311768 0.69458452991621344452 -0.26458197278378731143 0.9856665589170999775 0.1537706659204767512 0.1902787721659183473 0.19565495802663612768 -0.19874337148744317116 0.38477363428795424705 2.4195591458886287484 3.0639158280197222872 -1.1486341606382288738 -3.7303153707606528933 -0.33258768824075857218 -0.031316083058561865193 -0.044495677365689434435 -0.085414869402965831746;0.186423740444571856 1.3260053633238195747 0.54947509340212763451 -0.15600759851575735082 0.5130768314087580384 0.11458346612093203709 0.19145555431864003104 0.20966059673454320866 -1.5505952944461232068 0.79640226739038944004 -0.028186475970781929568 1.0965034820414512051 -0.37584244156581364527 0.17144059284265297793 0.27347238932029005465 -0.012017362283784603638 1.3055068721193818782 -2.8380920647428795611 -0.69550630824359382931 -1.3214963907212995409 0.07123498614198660317 0.14325210672003446666 -0.2176223503195638953 0.12140954529237989179;-0.73460144551878936436 1.8432966486805013595 -0.24244620549387382868 0.13775156422921405741 -0.27114962359931665814 0.0088140781818893502997 -0.77836444267191762236 0.052535001618256110811 0.69552577965703921148 -0.27172432574720306597 -0.49904016630339492755 0.28627515286155680307 -0.079671571292683374121 0.98202126519254195891 0.24000933604270319188 1.2147502282128601614 -0.73122234821816978201 -0.21167089385540496793 0.66061167759471162153 -0.92864823722266742756 0.025497556298875904274 -0.56972133892025211832 -0.13880933866095274132 -1.5257959231577975512;3.0311327046558909082 -1.1821830333443890115 -0.50317443782571080746 -1.1301124360203922414 0.5532267103219057347 0.96971971349723129485 -1.1249414427668686933 1.2693358346604246556 -1.5153601827344793662 1.3097496609275864898 1.1133443510650782304 0.25923855803281836696 -0.36311878426828503308 -1.2029618695937940309 0.89970214593194952624 -1.1679101479911468964 -0.92271812951598131125 -0.45028940858935423419 -0.27967860583103404393 0.904370777902264944 -0.072402156756481331201 -0.48165275288377973339 -0.267532899211027686 0.38572608640527933366;-4.5283952452324234272 -2.6196848966348960097 0.55347798493892408356 2.0129198070535729848 -0.21673101656028645468 -0.63618822876556169188 1.036171572361762383 -0.024731301584351286782 -6.7100414857690537929 6.4510423245093466704 0.0048322551580199657462 -0.16460357517197399257 -0.1566566719733515356 -0.23179542632125577084 -0.85315580368689536428 -0.51748783468067871549 10.151235628788876753 -4.2735648362481901685 -0.92750605863927537698 -2.5148551053501839725 0.60238717873753577781 0.47846461734878714678 0.00063591735801423257546 0.81667732795126091183;-0.37043982954049986533 0.15437083627838116273 0.81661192938704030286 -0.13111080991068457813 0.10102600376200791821 -0.71990505267260518352 -0.22179917266689774813 0.49963944445404612216 -1.0851051233907227367 -1.1054826058746438644 0.58564306998761439527 -0.084003684970506448115 -1.5650321360599308562 0.24112098064614664872 -0.76063897006338365703 0.88590310375771430529 -1.082605973421884249 0.51332925035370258193 0.91753815145847172907 -0.62074009869833624009 -0.46334847400595019495 -0.24234341938240619441 -0.77700198265029052358 -0.35670522590724151879;-0.04952282685836947862 0.32472725966776838646 -0.13217342224216038771 0.61248965915465813925 0.15218989543335009751 -0.26371530206951937503 -0.064528224086953300809 -0.27848511880812881758 -1.3621185627451533051 -0.42165504328501635101 -0.063624408385016137379 -2.0494506243406829249 0.42305865291910543791 -0.14976756144415781513 -0.66426393516526405225 -0.52047191123346525643 -0.34473952535209434478 1.8688745795765902002 0.78310141152352308325 0.071811166386824901164 1.6669492973878374809 -0.039668237011778864631 -0.22843557158948032959 0.66641868051807695572;0.1569438034774552071 -0.43987249395648603256 -0.83030888808331404505 -1.5554590851348557567 -0.19024046978437397781 -0.29332825626463782109 -0.84876432483358332792 -1.5631509036476896046 -0.20096909218141914555 -0.08267228840040717619 0.15773238437889475216 0.91324816229075655993 6.4661725527861104723 -0.9087653898891256965 -0.45049802820278855853 -1.5838752133450682003 0.10174766363966986082 0.49163868043552388931 0.84593105542090163418 0.74027235316559236722 -7.2663446163228933017 0.94382475553441436134 1.6600905061085156067 3.8389432947881640956;-0.033809424285420740242 -1.8531533446884871363 0.05906094020814435519 0.83527576138333481381 0.16553259668719952358 0.56742989044874569959 1.4952051076528423135 0.59314554971316602039 1.5230759881223989716 1.4934403459470841913 0.73836786158071765485 1.1681898000464061571 -0.48451683866743089357 -0.42328371714003099058 -0.81944923797096180795 -1.0103136671514600931 -0.037138359284015320938 -0.40753650602861263286 -1.1661357517329549172 -0.77222825103548775605 -0.98446040499991693817 0.11807842402507975899 -0.2524470099882896168 -1.0069470172702321697;-0.24527393604649430636 0.43728613741969246664 -0.71392360330749216057 -0.11040964765723550178 1.7520435110645629084 0.80509187511544144655 0.43822343936664620578 0.21879570421589220053 0.51361649985058799306 0.34364822407227718637 0.50469647483049073777 -1.227090579887333277 -0.19925748010141755562 -0.062009967615585664946 0.02341860451345822991 0.33341837781148492281 -0.080399480446469162587 0.042095861044205082346 -0.30899382505424477507 1.2446369097181357866 -2.8013823109129112332 -0.50890308941731254855 0.16057027076264163146 0.2466415251478141224;0.71567627972785408108 -1.4829614934161543527 -1.0309423965080066754 0.93747666831015430411 -0.83789816404777983649 -0.40073247911075360328 1.1165562039886336443 -0.16718706207650643747 0.35317701277390756154 0.95495571993016736823 1.1400356184509721214 -1.5123298993058562623 0.084796102212805798959 0.61365632835145411672 -2.0864758373691953963 -0.15234609933579859598 -0.59437022089155222559 -0.26301136262038160574 -0.75569053459791524219 1.2838225174482826851 -0.7271343982951686824 0.1077734610236429913 1.0286087589897929817 0.0080142061094256589193;0.06980536943145285167 -0.62898191248666990294 -0.97193372704347180679 -1.5597569947047740246 -2.404863958290551107 -0.19513341635297012933 -1.2626883415177339032 -2.3418956166719895329 0.017852462358604985482 0.12521982243365994969 0.34534795853786282027 0.77836862146889485015 7.9770210892786774792 -0.59682238975731238817 -0.74714023314774891116 -1.2200986911977835803 -0.0024783258203467870007 0.35297103568922022498 0.81253128283835507339 0.96377746622034321522 -6.3929799074381152835 0.55487164995383364552 2.1320740219109004521 3.7964055430846266326;-0.21422712543503735771 -0.28779318308941892468 0.33916054737905232397 4.4419691653410833254 0.74794710326491897767 0.43734521824477001761 0.4812693247924497153 -0.45461027710932122581 0.85190469656367051599 2.2361688417654095318 0.50212289738312698706 -6.5551628785795088561 -0.29112465584542457364 -0.71925274448188392107 -0.44708253490267535479 -0.083363923200630574151 -0.60566272913859264815 -2.3412671924249077726 -1.1479550292431175418 2.7371248740449543035 -0.40977560244817579083 0.20546212646421727066 0.10260617449081321784 0.27193663602696066528;-0.0271150611584474871 0.82084475659470035325 -0.7482428245925847321 -0.59482430131175278998 0.55747794214279622338 0.62869528689516707143 -0.20054796281009817926 0.32031213993604312762 0.20076526398778093974 -0.55070065787631339305 0.35460197963242001684 -1.138410490780959794 0.75461391965182078589 -0.82108576901815166771 0.44599559727646470586 -0.13308666166500887629 -0.31063668100168950748 -1.2108914288186485297 0.39864110104979638693 2.2397901874999597283 -1.0724678785869496966 -0.10920212484085629889 0.65460607512860380375 0.93716226333545693539;-0.46886045157001754458 -0.20937335816046537262 0.43537933743322410063 -1.0072136657399348714 -0.20022543895161190597 0.31023952805579013692 -0.14481856847493673746 -0.98739060001176381931 0.031867209004224301971 -0.87418797399462477848 -0.48045216142408603277 -0.29880273536239609911 -0.5445793059109100831 -0.042532859985557315563 -0.44411371290122242383 -0.40084468301966069692 -1.6293729525600999519 1.5298921264398654962 0.14493563143204096777 1.3536092416458953558 -0.10661453940642229288 -0.79116774890591978764 0.39218745294149709446 0.48316761045080236503;-0.96865838558000860736 0.40399133211569854263 0.14485534454141388294 -0.26878840657005220738 0.012008719336302112191 1.6682875339808296289 -0.66506701821644442774 0.11159058017561911125 -0.64855634996204936105 -0.71882669101925056321 -0.63226590119763026454 0.12638056064362215847 0.74622091457912165247 -0.11689892314739822043 -0.74511394437870381857 -0.7323954585627472369 -0.2857087059356013814 0.32619180034308459248 -0.17999118437587227626 1.1656131414975547944 -1.2377590953598023304 1.1738437221224105045 -0.33987094368348053086 0.65906913774149378238;0.66537322518416408546 0.67450332376746302554 1.9556574333742720029 -0.74158737108882555322 0.87301376905848793175 -0.32476721429321864232 -1.0106737063020903022 -0.41864517028494441231 -0.9854604523882745104 0.26805471519878132369 -2.5635049544523464959 -0.036370743697393174976 -1.1100976214286846222 -0.11216805814318296652 1.1924911297175497804 0.39168431386635721436 -0.079188987016775777561 -0.49269409907043537622 0.86913482931224816941 0.4047084212697515393 0.51390723293495532698 0.74507892787085361341 -0.085015609644363526742 0.34853910202834492704;0.40038740195131894417 0.56331220203060450302 -1.3483150973274533602 0.16355249529674337206 0.85962669279656611643 0.30444298439269756873 0.052771265439383624463 -0.65143927486142916283 0.65576854074746382395 0.47398840188340873869 -1.54665700620407498 -1.1024779993096012198 -0.39384552868486705224 1.3848001015509003864 0.050026681863819880136 -1.4483591751543882786 0.48998667409603752221 0.62759501579394183501 3.0998532032586734175 0.030369076768781450015 0.98917431100980257597 0.46065212468695915238 0.65157492502930125511 1.0569130619123510151;-1.5742718690776689172 0.9352297752978966372 -0.52645416800012523328 0.01743689267057382114 -0.35877025573490739507 -0.80675623771380311489 -0.094163018229716829999 0.83488964895095008067 0.15513080039683194156 -1.0853090171648922535 0.17768252096125619621 0.54195000364850820507 1.0121778934420018192 0.38112545373927292358 -0.22419278341628434692 -1.4527351640945627143 0.011873206648741771105 0.49441234001061767911 0.24246172199187998597 0.32753092527194893613 -0.05272351425787766277 -0.83877839162441281129 -1.0084646997798125678 -0.67437999452916641552;1.0265254175410902793 -0.38576258139451347073 1.0257530576550344392 0.37926608838471459473 -1.7792061871297588649 0.66089661508914676613 0.71883012348705366268 0.47074383735820601871 -0.84086617520037676421 -0.11142571330528597273 -0.63058128714719452468 -0.60760188259000036393 1.7550875886813559479 0.049204081764620211104 -0.44920160997387426072 0.25155687336959881018 -0.42899972897042232267 0.11118410360800379255 -0.77806085121755508283 0.33561700487325446529 -1.0415783314847699703 -0.83568706652334667773 0.012650464647511933114 -0.6987620088690900122;-0.64212245115905575155 -0.44744892812752590228 1.1561215433499081318 0.54784332274580704869 0.9386438875245175506 1.1217120844646877309 -0.10380422084662199733 0.15328619670400966957 0.018406937683984710835 -0.31899848249594781047 0.34414629682491015839 0.068093739877853859399 -0.64726501493455290692 0.20863314379286670985 -0.7473370670766061874 0.76788749435507763774 -0.57075115303256940269 0.49670530130188805806 -0.34165880470617449038 -0.74347980412663650096 0.96898362441283092394 0.0055675767200075304553 -0.45866792139485196289 -0.69337304139568134431;-1.2583007146763411921 -1.1556723150520242793 -1.3966256679936985829 1.1017471746948264144 -0.4551087350210108462 -0.23568855477941641485 -0.46543315442334787235 -1.0275515655535489845 -3.2154875664007702696 -2.0355490828645739221 -0.77108615597867746771 1.3900900440837915539 0.32640975880045092206 -0.16113676941590585057 0.0093013358667626000464 0.41558024579305596902 4.4221177500715613817 4.0335425839021681327 2.5595411546173116868 -2.8711218182130076038 0.0253751042781899111 0.53917902464207423385 0.56473102944572839412 0.42260474723744567704;-1.0248835250180825529 -0.37083166608813372678 -1.1126747177475400097 -0.15584227409657958052 -0.9338076338982773672 0.36460213723851436773 -0.22139087600696363833 -1.2305176912255875177 -0.4441829396821285747 0.21937552322355174939 -1.1378499657608820428 -0.13788450509184457804 -0.85974967754447217949 -0.32564186834097597067 0.072558177763995090892 -0.086833341024639312811 0.67650779056443355319 0.39632539108947323347 0.25744978583931016347 -0.5064243412626842078 0.61930649428558592895 -0.41139126909931239551 0.59431248989145613049 0.43783592125723436173;0.5543718470568671508 -0.37147850261822773499 -0.90404620933452373155 0.10479547950879888885 -0.60718878170445622633 -0.29798155930451358797 1.4147830690666098885 -0.31697818374813940823 -0.37246047997149983599 0.6136684699451330216 0.44798906331540916392 -1.1318105620172975723 -0.062792697958836074523 -0.05986428703810525026 0.082526948678319458907 -0.076101906558160528626 0.98864095596420242806 0.039550838112041401817 0.13817365284323585017 2.2288043586342314306 -0.6615872490788725635 -0.52521301442618084643 -1.0447056003254744372 0.12571578079697875996;0.28910111835620738718 0.67240410588135812731 -0.7585255281186810139 -0.06642247858285055262 0.072061742833472580694 -0.37683582917438057658 0.060405418769063662365 1.2610719326814257002 -1.0651564349348192628 0.39442493047730464717 0.049755187385112899234 -0.49077327805920001325 -0.29145614657900142941 0.97539655665220825753 -0.041397585321323045193 1.7303208053665419808 -0.98180842643196630792 -0.42927550163566841057 0.94068643148336406057 -0.22339324585377073884 0.59633933597206434385 -1.1782792409411837475 1.0929848496433294258 0.24554215772884657731;0.4684034593854856654 -0.020927113974080674419 0.010803300985137140322 0.32044327068608835507 1.8888001314175413281 -0.096409720758298872445 -0.11659699215670552008 1.1021524118965844163 -0.015222584084521748049 -1.4846683182967230774 -0.11651749438112188328 0.40317832329506098077 -0.38425230424515433025 0.044784330983850616226 -0.97861760520924023776 0.211963433159518988 -0.36450591178734775832 0.13537390455543363288 0.017092002535947507097 -1.2042825630010345339 0.012688081090438341203 0.52593997995777208576 0.055556430914713232638 -0.90122114165795597085;-0.8320313609496415852 -0.11935071019363494016 0.20628097488634539181 -0.060445373537654979723 -0.54208221098988584874 0.44905233585539788832 -0.17800587885581756198 -0.51579991880554354466 -0.37328641622220920526 0.019703887595671862321 -0.277985749614160782 0.36138042998806618744 0.38065734896918934638 -1.0074189684495069574 -0.83956041706460626806 0.85448102981260753985 1.2267388694311560648 -0.60386333539744119214 0.6677583872620319605 0.95136548370296569743 -0.20056820267107183797 -0.74514869934966165843 0.051464257079900856129 0.40203063602601540882;-0.73582266289452058494 -0.38403101526457061876 -0.06657757504712667751 0.36683857552217025155 -0.11388324256889559294 -0.68895417622229904175 -0.02980345506331077976 -0.16249311129370652695 0.22440902506977086772 -0.5579332504136612636 0.41244779854979596312 -0.19389398472692431774 0.092288071352882888876 -0.61303227231864987345 -0.37508455566295523242 -1.0425536750107788908 -0.04868624815715739268 -0.30988901701407556288 -0.57708782500881450339 0.095371544273712582918 1.1692891319691651741 -0.22710758568836267313 -0.36278349633185075218 -1.0769868898268462054];

% Layer 2
b2 = [1.4764817091007704786;-0.21064050291644667579;0.2248946396850273477];
LW2_1 = [0.54097471483567738382 0.81041779601289132273 -0.076375299951269542964 -2.0765661573036666709 1.7763863400241630686 3.2224700202966483076 -3.1279181319785820392 0.029926332003864013209 0.90716385322554771165 -0.34502395862018042649 0.89393617255328194915 -1.5292430341532849969 -1.0781411975571442152 0.938798802510373398 -0.16534643079117786191 -0.32465042089222095889 -1.0430744759040666558 0.28753862466839313905 -0.052324301527606739692 -1.2796833572303036863 -1.400648013337861153 0.15040207131354563219 0.25518553167315272123 2.7306274966224917122 -1.7079177620160310713 -0.90787252548954600062 -0.33880351700492566946 -1.559430505367964459 0.26965749268460259547 2.2783507329475733982 -2.9678506654741294568 -2.6210383328406194892 4.0140230900116264934 -1.1583775789442301019 -0.32660664493465285663 -1.7761747951849300442 1.0961611060529699024 -0.90591694273202372223 1.1748713691665366721 0.1295582216045413626 1.5259070857607366367 -0.77157813758266258208 -0.92636873879901970863 -0.031667879410822843966 -2.2323623028718007077 0.71946560770056722234 -0.00057899526694583924868 -1.736598257958325231 2.7556923014756700141 -0.44930520695052955649 0.31073112633391908322 -0.19873342189507381406 -0.75608113479776906107 -2.3284517654651004648 -0.11612374602263508816 -0.0033152128560579030569 1.738508927250468572 1.1883318670399172223 -0.2370175647311335565 1.7892382394749120067;1.1048154997079542294 -0.94407273288301962744 -5.3543720032703676637 -3.715035954012138486 -0.31394809003770607347 -1.4784979668369351291 -0.40070519843184349007 -0.9187144721530703384 1.9974686247649324766 -0.3289999788695753824 0.16906265478201112917 0.37731629868061611344 -0.35973802198523846529 0.86348766323925074673 2.4639631737350651264 1.0284927788307520746 1.6064080077739792962 -2.2960833582660420404 0.80090459385193313313 -0.73065934730878290271 -1.6808228878931341654 -2.4211615842974385515 -1.3012515416856293982 -0.40177267455643494998 -0.49623199423788300066 -2.6174410982364255673 -1.5661830146250781404 -1.9808716041091425364 -2.0035419393781630504 -1.4352256586602767374 1.5106078632522574878 -0.48122795489019176696 -0.70190674096252991809 1.4277468394093275617 0.65262537080148064206 0.5391748152836098873 -0.10158965160128888283 1.462784694843181077 -0.35706504707009728561 3.2392479489100565182 1.0355915225054566076 -2.7332639060891170679 1.0198804383242470184 -4.6976192227416815328 -1.1585148623951309066 -1.02399983419630769 -1.0376199347736061451 -0.98899641655950965013 0.048662625966344734418 1.4108747539420634087 1.4843087054573473882 -3.6596104728597502742 -2.1849865753270263369 0.2268648554741617418 -1.6250380625231621856 -2.0250552633182259399 -0.3176109230278403861 1.3307190998245410629 -1.362318837158755569 1.7148038670880783041;-4.3640788751790615674e-05 0.53935996243770145675 -0.66210817976378755212 -0.38164382218608849939 -0.056397567760417474658 0.41484958519728515336 -0.34205945482840799388 0.28060998435292799913 0.61910033228509109282 -0.56454070639278008947 0.28994167178995805534 0.44316001166984431148 0.032525879206084018502 0.36515757327795139719 -0.45656397957845762381 -0.19800946829439833308 0.24973563634332246464 0.41687520122909477172 0.91801313464547051879 -0.58749436347011130266 -0.29762906118542153955 -0.21387334654779069365 0.10735449014185077798 0.133223927841835732 -0.6819838507324011978 -0.22699043541796878887 -0.74347354068153470585 0.30371694757420514277 0.348535454659442967 0.0052216344239065341781 -0.27634408192392373449 -0.061903919344232789801 -0.40259117571462488261 -0.041852826841073616226 0.020159247305956945473 -0.072507480350942218883 -0.12685948278957601132 0.89605824495386510176 0.56519964741007933107 -0.091291402791985817866 -0.24770545360687426517 -0.84940613517322627324 -0.47279955397507145154 -0.08088135178653718671 0.13811225565403897897 -0.47819452465831668864 -0.51468494798490316278 0.32411802560769642501 -0.25362398535626046181 0.52400447790353055222 0.3282651984842099302 0.082632924434127230651 -0.73508482421653420502 0.34703786867641056579 -0.86721721406290719347 0.45488955745967424305 -0.82416064678204015159 0.43107414337955829442 0.15920573973027155046 0.19510081921779684477];

% Output 1
y1_step1.ymin = -1;
y1_step1.gain = [0.0580387919943349;0.0580157666500324;2];
y1_step1.xoffset = [0.0294118331240885;0.0242394639613811;0.5];

% ===== SIMULATION ========

% Format Input Arguments
isCellX = iscell(X);
if ~isCellX
    X = {X};
end

% Dimensions
TS = size(X,2); % timesteps
if ~isempty(X)
    Q = size(X{1},1); % samples/series
else
    Q = 0;
end

% Allocate Outputs
Y = cell(1,TS);

% Time loop
for ts=1:TS
    
    % Input 1
    X{1,ts} = X{1,ts}';
    Xp1 = mapminmax_apply(X{1,ts},x1_step1);
    
    % Layer 1
    a1 = tansig_apply(repmat(b1,1,Q) + IW1_1*Xp1);
    
    % Layer 2
    a2 = repmat(b2,1,Q) + LW2_1*a1;
    
    % Output 1
    Y{1,ts} = mapminmax_reverse(a2,y1_step1);
    Y{1,ts} = Y{1,ts}';
end

% Final Delay States
Xf = cell(1,0);
Af = cell(2,0);

% Format Output Arguments
if ~isCellX
    Y = cell2mat(Y);
end
end

% ===== MODULE FUNCTIONS ========

% Map Minimum and Maximum Input Processing Function
function y = mapminmax_apply(x,settings)
y = bsxfun(@minus,x,settings.xoffset);
y = bsxfun(@times,y,settings.gain);
y = bsxfun(@plus,y,settings.ymin);
end

% Sigmoid Symmetric Transfer Function
function a = tansig_apply(n,~)
a = 2 ./ (1 + exp(-2*n)) - 1;
end

% Map Minimum and Maximum Output Reverse-Processing Function
function x = mapminmax_reverse(y,settings)
x = bsxfun(@minus,y,settings.ymin);
x = bsxfun(@rdivide,x,settings.gain);
x = bsxfun(@plus,x,settings.xoffset);
end
