function [Y,Xf,Af] = Healed260Neurons(X,~,~)
%MYNEURALNETWORKFUNCTION neural network simulation function.
%
% Auto-generated by MATLAB, 06-Dec-2021 16:31:06.
%
% [Y] = myNeuralNetworkFunction(X,~,~) takes these arguments:
%
%   X = 1xTS cell, 1 inputs over TS timesteps
%   Each X{1,ts} = Qx24 matrix, input #1 at timestep ts.
%
% and returns:
%   Y = 1xTS cell of 1 outputs over TS timesteps.
%   Each Y{1,ts} = Qx3 matrix, output #1 at timestep ts.
%
% where Q is number of samples (or series) and TS is the number of timesteps.

%#ok<*RPMT0>

% ===== NEURAL NETWORK CONSTANTS =====

% Input 1
x1_step1.xoffset = [2.12221491333975;1.52482943636312;1.54192576589192;1.23698747572467;1.46170473103475;2.01618450040447;1.40212514934689;1.51164787308598;1.89124958587526;1.52269244057802;1.54340526091286;1.23386411122787;1.46022523863766;1.92790810386643;1.40762130813367;1.55793883101027;2.12385875545765;1.5276240654642;1.5424189315995;1.23698749173536;1.46137599702794;2.01618449703113;1.40992273683134;1.61063973509424];
x1_step1.gain = [2.13893226906388;1.78234918751378;1.48550648074027;1.98634411989658;1.41798416245434;1.93853648857853;1.52165825129132;1.66043439782169;1.77247462071431;1.81559732197032;1.54081831462398;2.01130079960569;1.44167625196248;1.98389602959713;1.57370594061458;1.79402074792849;1.94097269738944;1.63087244787959;1.24178457755755;1.83003382486486;1.33170547335403;1.2368895804007;1.37818292514872;1.6944708578462];
x1_step1.ymin = -1;

% Layer 1
b1 = [-0.87772136853089000041;-1.1688886380987077995;3.4373689280707457883;-1.3426820532718750645;1.0882735541925647738;-0.27680825324642360785;-1.650775437885837249;-1.9451223305156164489;-1.3607031650691703284;1.3004446579282329388;-1.3582373187480836219;-0.91552677878514332477;-1.4852469900047944318;-1.258886277187816205;0.52767073475240844349;-2.3576050131167800572;-1.2291356929867116587;0.65484820914731289854;0.39241042134605352842;2.322529300746551062;0.65205190773576870988;-0.75985744322278581109;-0.76537500107438249941;1.19602875345450399;0.26583559364815695369;0.56488960941315435882;0.18424579419579478756;-0.098303456583755749465;0.0053937091251925455698;-1.0665998469068378451;-0.36849394755570413773;-0.85274975864578606011;-2.1351318525668308013;-0.91442024864481996627;-0.70636894187888465968;-0.38519993437322580521;0.37277137037293739397;2.6323974131729510617;-0.11252986945167962884;-0.76560042176860976237;-1.130847302414803357;0.267879994520203224;1.2053294828302438813;1.8049289274071798062;0.65181519602437920646;-1.0622047660873759067;0.8599246266793986182;-1.6180379164804430392;0.96404482561867843593;0.79123343814055790979;-1.1625528746567905802;-1.2157388152062624798;0.69417850092874044954;2.5112901908570743892;-2.39042260341361823;-1.0317117391484931233;0.81524284451023920628;1.2878392014419537404;0.96575475489568962661;-1.1201768690411413321];
IW1_1 = [0.53681704975502453348 0.27865822379590099445 0.42285317026312679856 -0.25250985323217001177 0.38648912575738986197 -0.34360937115117823337 -0.49213717584976141017 0.59892806065975789931 -0.013655172103793692534 -0.82296338701165883123 -0.26642424890486077205 0.30619088429859120382 -0.52562394429844383481 -0.50208709517360250452 -0.2070965687104369124 0.099989675687308057772 0.052413355157151592101 -0.22817948508397659091 0.87367788714333527444 0.051300456645464773131 -0.18782089658819034472 1.2643075757349426791 1.0229940426386971986 -0.20941008487249621051;0.25664516974487600054 0.28407246423751697506 0.023171294207574195945 -2.9841537754872513588 -0.14930311619214781116 -0.078907734716212457604 -0.74097420473880881708 0.56681301579446519145 0.39511583871152955449 -0.13380989466699022561 0.46248047947770737354 1.8701699182709510261 -0.26345824230893882811 -0.11653396273305534347 -0.44148101799201022732 -0.4076276663396612987 0.15712782003628542049 0.7683441974661380236 0.64523258608496369959 -0.20606084189991358269 0.4729539098684571452 0.18945464653396221211 0.56193891850364052765 0.45387227467002666526;-1.2315672592861008905 1.0618458330507927201 0.45631015181659362323 -0.28115362234023283383 -0.13695122137248655347 -1.4938083054243325165 -1.0748862532009315629 -0.7751480633105788387 0.10364833308389594102 -0.81664939124269864124 1.266069331698863154 0.26993864944376377846 -0.89150550539908146597 -1.3855267861830093956 -0.7266445172096890337 -0.6367730203104706721 -0.31850782521702658556 0.66026126760289793882 -0.17366575379079124408 -3.0427025460149317304 0.2276828402236745208 0.64807904965575291456 1.277108327731587778 0.88937038105357502094;-2.7167497775844204888 -0.38785157403673131693 -0.51536745165917929867 0.45418408937998833164 0.96340895286445382695 1.0888995200692626053 1.2560598410668739611 -0.042104986171570553399 1.5760715630288852918 -1.1092260413544372533 3.2658729244652771051 3.3431142352779841254 -1.0405269806318218073 -0.78302035732718788807 -0.96500062298319366771 -0.038602268377123515053 1.7612582036634834015 1.9388234752596087418 -3.8775563796629421986 -4.6956217477211570355 -0.047267868594796307036 -0.76071336186769000776 -0.84532717028116277636 0.049831662310623421608;-0.40242630553104696833 -1.0475856114381063566 0.44581208680184114534 -0.8624899254756749345 -0.19777202327468534904 0.022391690226082599374 0.97752052451240101227 -0.76253204296465315615 0.090250494684342610907 0.73828577067805900569 -0.21140003150173264368 -0.16039093408748000824 0.34718231960579637452 0.57634183952155637609 1.5238223715052259255 -0.4590730188512436305 0.82103681366977498968 0.24978674197134317914 0.010294374366538495968 -0.43032225703051996124 0.025915121582346042212 -0.35482774391591687113 0.97634234505465422593 -0.11460542869690523715;-0.376488484335857021 0.48256259678070817509 -1.2929650051850896109 -2.733985515459838922 -0.012713965610517723864 0.78968211673440957821 0.87284153084839988246 0.17594953198128912564 1.0350272565012983428 -0.7995001270591903797 0.48944757248134124206 1.7594139712779479634 -0.043676724415047538108 -0.17051073988439882645 -0.59261420530836816933 -0.20773812174439404421 -0.37399616706154736878 -0.057794461948121225725 1.892047218336509129 0.66868459924149381557 0.01853198984239368477 -1.3052982537452200162 -0.11130673144743963299 0.24259208435117238234;-0.028773020168939095198 0.57786993036860379025 -0.021367531948863583563 -0.26804739984396819263 0.13608426322680186593 0.99019769172155225334 -0.084711754719317688966 2.4425752283832777856 0.51761917528085288343 -0.9059344007966307899 0.42193719606376850484 0.26214342735842116605 -0.73153154453091839837 -1.1388985651158134438 -1.1655909794023733284 -1.0273547459846490426 -0.13897516526932834902 0.59868336628812512945 0.12305878573106140972 -0.20354305513848305886 0.15761470944692246299 -0.18123724223193876659 0.10893177758972158453 0.061414245895289813759;0.38375226938385398334 -0.44626986281318664629 -0.1414996480295695469 0.94337863444345404496 -0.72328081596524740338 0.69413786440376823439 0.47383292527160419949 -1.0582220782591298391 0.13181227783493615346 1.7555056975463261271 1.2361425395095997359 0.10937764861366675029 0.60017008062625898379 -0.71498910511711399884 -0.31736721501343156948 -0.76828027017578492952 -1.2541784867782743706 -1.2584073800473214444 -0.99660987336580308948 -1.6222657737506946951 0.54256973406369402024 -1.035976740396731266 -0.06057860624603895322 -0.18577438316190109102;0.591333613028020455 -1.830225213870015688 -0.55113344579305956206 -1.3135388166921728725 -0.87109360481952502475 0.21863496402499596472 1.8974743282542345657 1.2625722676050632476 -0.5380011891719974626 0.70772185079963201293 -0.10763757838913791398 -1.3094533244604364963 -0.17748241193211675149 -0.16788614466913853729 -0.49217678201730391541 0.74002779832799647775 0.40206884860082747757 -1.6228183405678375806 -0.23250254551519239365 0.86379899830580075815 0.049275349705539060741 0.066268213336351758369 -0.65940967785828741299 -0.54495354272650076144;-0.60729123724734823675 0.98667605575937444851 -0.43345514507919152836 0.90262057449291999145 0.79151999358217273173 -0.10062715185757481473 -0.34624367742681921856 2.1647648186399921499 0.32471521989947882414 -0.46067824398863832513 0.67083144514033443695 -0.2966609846994651134 -1.9790120479274906362 -0.2603108009774402487 0.47061498844349292092 -1.9253895881273088708 0.096423938536555175993 -0.07441740778917564636 -0.27180733295723985554 0.20239595167611437732 0.8794433882396882618 0.99621116825865774214 -0.72765003160224850376 -0.90331383899780803848;0.71099983338597605442 -0.12792352506842519233 0.42489933716276417908 0.21606976149145640242 1.2943242020435459239 1.0775901160447332039 0.098099011864587276621 -0.85283824079092218629 -0.12831822453900787462 0.24364985008116610277 -0.00014311447633953700009 0.40909184343930399264 -0.40596261372191150274 -0.51379030726233676507 0.17519329874984904127 0.75405638427514376509 -0.39210167257676659114 -0.00068453268207278178403 -1.2049495155626814835 -1.5189390626778755955 -0.47216600590863722076 -0.71772310656099236326 0.78781921185150594056 -0.72537102459445634839;1.232358395127988393 0.062785194130330901352 -0.69180088340974532635 -1.120994722188550119 0.095869929103118783908 0.85529006008941688144 -0.98400207549675966501 -0.053759000200685712334 -0.3863704858391421304 1.5064119025457922696 -0.68405805790734119931 -2.4411845339002380406 1.4190303266528847548 -0.38176701086937531171 0.058423907758258605827 -1.1103682063138933245 0.18838627917027039871 1.281369623918017453 -0.26843580762679941643 -0.41512135626963553303 0.84664880036568002097 0.21588472791063850753 -0.075463679229637078971 0.72664463631143427769;0.083783116203819535395 -0.064872619516380819471 -0.62223634436110741852 -1.7590053548344897205 1.641525829528398317 1.3951027647780671614 0.56659415403806989708 -1.9091629450851597127 0.019789844422329783136 0.46976235000939842168 0.51252416150678736795 0.5152374443761936762 1.6573092988432196471 -0.10541228025943667757 -0.047735533374711348886 2.2610448003817569251 -0.10353834083475939309 -0.17692876031887183608 -0.10471466948633473271 1.4768722983247719593 -5.5251391108245986317 -1.5310854818159700397 0.82834813050256850264 -0.19927491428649246608;1.0482291943202821649 -0.055089213864508976282 0.066494113724927111919 0.27993627007601679102 -0.20394455665596578076 0.12232402759136615233 -1.0457087960372235536 -0.42406390339892974239 -0.94389850041076606146 0.39669765978195226097 0.90302065262684483304 -0.28364299594845610031 0.15372089972222752197 0.55821239565355107448 -0.02146158014537083436 0.42700387028523945077 -0.13472134094552948302 0.15153111482799330734 -0.5506633695271456741 -1.3482012513262640052 -0.93954540041418133089 0.14405693262498334151 -0.58748310314803187104 0.27501732872311840383;-0.69495533700019762602 -0.14359070984869395926 0.64086877512418571889 -4.9987725395332001099 0.096572790843261022142 0.64597517684737848498 -0.32608906274998311625 1.7146862699803204766 0.32914246173883204838 -0.55059018710300045019 -1.6006055655240369884 5.1664973724897871321 -0.45758823192490000187 -0.72864495759580549805 -1.0093546806920219439 -1.5028220144681847525 0.33253877534622694467 0.66549468160569336117 0.89579949158452254476 -0.28761609332131227168 0.14524860510928713775 -0.13370458192511211482 1.2503913542877520548 0.27653731547395543622;-0.12985327011661870755 0.03610034214239193906 -0.26565610115675408753 0.74097132492038064733 0.44449110044516515483 0.90238279570907020677 1.3106502952714138566 0.31536699689265607072 4.1533355890105179142 4.2566748200332638064 2.3013307770110054129 -1.8764487731283463479 -0.055347342399815285807 -0.62005068851522227025 -0.82270874861549148083 0.27834570306173678222 -3.6529402164289117572 -5.3138426822319742016 -2.4015853785641954055 1.9786506868222910605 -0.56490341075483119226 -0.91039065268242136408 -0.68575018036575863256 -0.63495620918062134486;-1.564848713643590461 0.53608134970448628742 0.14457888930600518163 0.86930746360097188585 -0.32840856962869890978 0.068853986318554522006 -0.16314772047296072222 0.34861185344475226211 1.1074262912698085159 -0.71743835732047323006 0.49466135636778285622 2.508417865062873009 0.25196535524812663231 0.21005621832472884392 0.1718395261722306111 -0.47414366456432049945 1.1088734614919544264 0.17569723117494620568 -0.6507738897916450771 -5.0397713390506488906 0.18773872227833987569 -0.31968129236531084292 0.74771444680825804863 0.10058599956427799471;-1.3734517012409828141 -1.2124436438158321394 -1.2501441776049513344 -0.41297293702163523355 0.24855664287647838417 0.33687787943896391196 0.48686568821237480309 0.759405740738439472 0.65557154770254622012 0.74574985698382023624 0.78715623959162261958 1.2795673851208830829 0.071929977253356036648 0.32424050704193263517 -0.46554452459433071088 -0.51673852295834599158 -0.13573554824346653613 -0.024783713362502495653 0.21812808418310275504 -0.56746829123679998208 -0.14139662824908810768 0.1976004047539851316 -0.19371488753823759565 -0.39402584292496833918;-0.77754593160171148192 -0.2057053436662807655 1.1743761592147381467 0.90671398658459578801 0.56394765319144013471 -0.53768915861576793702 1.3220628290298432894 -0.41280487363258494549 -0.17330634458065460879 0.55831299457068228609 -1.9236643069133849693 -1.5697865484232778055 -0.17430146109056002257 0.23288185974574857062 -0.43446991274195362331 0.15128032039953245858 0.52329702090874541387 -0.67221789139712384564 -0.08506530410454810065 1.0793983708089958107 -0.20941461798814209327 0.17532848218797375539 -0.062585754773420543273 0.69589196771007344466;0.39306792648416788438 -0.43531701431581987238 0.30910860591719097057 -0.6962848744155873959 -0.44668687719415228754 -0.88458904962039652808 -1.2572607937721735905 -0.4475591481431255847 -4.280920963133005408 -3.2998945083461119765 -2.1323016672326029486 4.5820917849397631016 -0.13082398806774223066 0.53201361842063710217 0.85616568560195949189 0.080111076078075910134 3.5073061992116576491 4.8133114457776153827 2.2130655037030719789 -4.961029034454510267 0.78971737207076775356 0.96852953249669249125 0.45768627680323581419 0.37836110007449691439;0.97151028871468614323 -0.88969970922716179462 -1.1378524433522361203 -0.31497147148719079057 1.0439267968204744008 -1.200995679438822572 1.7387986257920593491 -0.15643011086382394015 -0.65506596581508869104 0.36676583229298281852 0.60604854892208404049 0.43093667185620659899 -0.40550244010250385829 0.71580965208101632324 -2.7211506274838410668 -2.510476801840776595 -0.25559106097054473672 0.60002705775051545789 0.91541646791664199601 -0.54076517246490229951 -0.85423576124752920169 0.48770748615322373487 2.0037621322376160116 3.0511337593816718616;-0.55676252834918127377 0.78369215769096367552 -2.6066420790707609534 -0.050773822292252225596 -0.29091869609197601454 0.36486870245758901143 -0.081990878772802297525 1.5683006412925530881 -0.17926131353463412021 -0.63974101039699227123 0.4334089826245789423 -0.3962500544661470836 1.0414285167920709352 1.0335220500060382509 1.1087937556682669893 1.1314112333542589717 0.93108862723104379722 -0.14153389662941209814 1.6793153720140925333 1.3738615175603390295 -0.34839423121552820506 0.12318657481635897355 -0.34575509095617534827 -0.76071899242204188418;0.25130669898892787906 -0.55091319157175733245 -0.67462754609814712392 0.64895400768800115543 1.162139700548361132 -0.76909101145914859909 -1.6061732994228912208 -0.93544519785320479066 -0.51838439268627001244 0.20443750667522195275 0.5613960721120014874 -0.56625005884496104613 -2.9469763610454746683 1.7366723925384091043 1.3203917378102434377 -0.95163154846433362088 -0.1013792862480330792 0.41694186034929825446 0.36619513880114318294 -0.56841691958467477352 1.8272754916175286688 -1.7686539352742753906 0.23401023890546712725 2.3563153645106242884;0.21587248727804328463 -0.25299497610289184424 0.31167444079995298978 -0.25428027699969596442 1.5349279941394773363 -0.9510326519632095188 0.65828008143770488925 -1.0819643302746699831 -0.268608201486704945 0.091649973366386000562 -0.19289952961990819436 0.30827510984740008615 -0.97243844884835950459 0.040059457905575454606 -3.4414744031522759293 -2.5161532973430942306 -0.012897515330718034576 0.40270606699650635107 -0.3170591241332614274 -0.42638653771709333906 -0.99324118085895496399 1.7083856987105454639 3.4963720919502980777 4.078439340989161721;-0.48232383557699132215 0.26007313293687217559 -0.90426281372012629056 -0.40672932530768418635 0.68727688420536992009 -0.55811851941751899897 -1.1820244639931098973 5.3562378568683719493 0.178080015562073396 -0.38723184645233316159 0.52483809002934944665 0.08571658620679527274 -2.5789321124679034369 0.023800463602180008116 0.28542632393356154319 -4.1202729587284983026 0.18163450578990947282 0.11105534534382273393 0.52323248102157493555 0.15729797641230716665 2.0932810274731994404 1.1443225129895973069 1.2380186888007258528 -0.76406482692072164031;0.57230073296556749352 0.30645036016389792799 0.030751338707632427938 2.1811497710902822966 0.61126201344955177763 -0.53696272803406974727 -0.27234993975641785813 1.887696667533035999 -0.38783734344764769775 0.034318415159212474486 0.2917087713686820627 -1.7902993472968660171 -1.5452429695811285004 0.14651360170231947366 -2.1156981803524361752 -1.8028434854838684132 -0.29457869883610676709 -0.61614003058902799825 0.24613468165950011524 0.28908413659289006192 0.001992397411645115482 0.18471809754191079178 2.3292585323955123933 0.80969801903192417658;-0.45384041480356890341 -0.83227543814799831434 1.0983886472602035766 0.66623211207967925063 0.65423923597576050248 0.22949701689458085196 -1.6890867527333075504 -0.42259867836190595503 0.60225280775365275243 0.026367926318230844318 0.42798112262578591469 -3.8203347605596014169 -0.1419857804724494188 -0.039821887371038151848 1.2260818958819001967 0.68367407572386618142 0.064638371428220459114 0.7215287525573786942 -1.2719858435332751512 3.4033940386592531624 -0.8851688734342454401 -0.01560865260330051088 0.39600261812365089575 0.1136574091578982787;-0.93711871057540296892 -0.033093780540655877431 0.98628855704456785958 0.86362347912584747078 -0.57152092378195162858 -0.42380046063863230366 -1.1788708863208823274 -0.41544280218065171573 0.60132298455669241921 0.43864430639969631542 -0.25370472301908930657 -0.7993255799819009022 -0.044520137010598245797 -0.038391157106947862432 -0.38768821720535473485 0.70222883051946705102 0.84807763599487961947 -0.10533880939062112425 0.36910944149406604842 -0.24938549872003465402 -1.0193524747579727485 0.44261695444496129692 0.045566575314549710718 1.1447345895258325132;-0.079083377898514981008 0.22558864967064945484 0.36655310810037577962 -0.81904936335208811116 -1.0380661784160281069 0.49863801611165170513 -0.037863097395960373936 -0.33103911280155667862 0.17017816969017152129 -0.86293735914741753756 -0.80934953141953447364 5.7708934928610289283e-05 1.7566311957562708024 0.68006236822196863834 -0.52397684717142167798 0.31563046191975985266 0.93962592984005099961 0.54350543519222616062 0.56925686792500873601 -0.2807396384537261258 -1.2603345633611240384 0.012786754711895546854 0.081321685413404676268 1.0435613583737353149;0.25459496731594460917 -0.20792948366947283656 -0.8846172817561812618 0.58760735464059921096 1.138430818313073134 -0.85246740690393751905 3.5023932799782406811 -5.0332676489603924708 -0.45975139499282574596 -0.043362435613981412108 0.5293890933233326157 -0.299789493844863697 0.97869509602131654624 3.1803234149952697152 -5.4236501090459467989 1.1735234769670976895 -0.25495932160957202051 0.29978838443467553665 0.2403908928511460652 -0.78738203746808943517 -2.1811704033447529838 -3.5578786886162014902 2.3268097010078352405 4.1990979724768031645;-0.070875059541612328573 -0.65105967768805639295 -1.1613896453083800697 1.5834381504820329578 0.6425721117442741992 -0.60037365551143528908 -0.77608449486989183885 -1.0963053083625773354 -0.34094309615079576581 -0.8631152469389731241 2.5792522613572765877 -0.89941465058241520936 -0.90883879403004574904 0.73581757707584327655 0.95214830926001858824 0.18993550690022251159 0.33668565856013626947 1.9586111894773661213 -1.9094716918850196397 -1.1496468880206314189 0.31440469677819210537 -0.2246921692909279733 -0.50711482655464623637 0.80883589611183837054;3.2597823117830859729 0.068584465041102105065 -0.43645928284236273909 -0.17144029368002636216 0.55311529364825240407 0.19396764934408880499 1.3274039360899494433 -0.16283717620495133382 1.2248866471470498674 -1.912717956180670198 2.3592842214773370735 0.44303959832282518994 -0.17190421392231122755 -0.10267658511784089059 -0.88187566027965702542 0.60502646085517042263 -4.6188580042401934378 1.9146463577985264326 -1.7821244560469715612 0.41423214871714375551 -0.31196467695814422694 -0.34474599593716542811 -1.0409630952501320866 -0.64055065150305767752;0.52256914869315185257 0.060606315370215595173 0.56887695343510280566 0.46896776682937474368 -0.55931952764214676321 0.054578348431669046481 -0.036583118441586293113 0.28243155893490923258 -0.74432756057523152826 -0.3976981699564039463 -0.92484843573691910557 -1.2371057302798593724 2.7194029882931674003 1.3567087895724141422 2.2760684632073902023 2.5663319513758859891 0.046453344187644178553 0.12670869222111127983 0.54890986920410789196 0.82530752239508287094 -2.9283110891510566454 -2.9371638796346410949 -2.1105095803777715879 -2.7376057465667540392;0.81903447436990339803 0.91885517444040032409 1.3934490652873825489 1.7967046411689719942 2.1520009244700881723 -1.3130384934328791502 -0.87237140406593960407 -0.52475651426568692415 -0.33712124618846722734 -0.40130928518299491259 -0.89013908630339033667 -0.44118587935055147975 -0.96200695061878593872 1.1358835041214279116 0.57532668648923113164 0.61612793602160909057 -0.53483976675409983237 -0.4347846345825107095 -1.1976319179024916828 -1.9347298413373514858 -0.12187828469769845796 -0.39725645343750859428 -1.0770045332040145691 -0.30141903461920516172;-0.18550606986597920067 0.29620775833233292662 0.20900950508669433048 -0.2943358452381785173 -1.5473341080231148847 0.44708824928084600625 0.25319599870717701684 0.23667747584054737997 -0.22393038524871591854 0.17224743539411385695 0.49221375973932735004 -0.25671066630584077339 0.46329628647280057807 -1.017230145453849488 -0.73156083819526296352 0.070690225983284699085 0.88290134544509291104 -0.1141073887651513491 -0.70427489244585783634 0.13441708487051190479 -0.77835681146511936923 -0.3495945362475291196 -0.006024977007934344958 1.1214642625420101485;1.9377254527669205419 1.24131866655034373 -0.26285701101729314066 0.28509125608701141319 -0.26880403491860777043 -0.58798484981655041448 0.87079321089359162933 0.66347774942427206746 -0.9495511305153738757 -0.83268063006424675176 0.68651383569666735163 -0.64475158198129645104 0.17224038287185891583 0.067502662171891658627 -0.76535608904395224794 -0.40132464416919078065 0.06185316302273243666 -0.01961067894701728348 1.1336116698912146461 0.79810181135189994794 -0.46942041617451502056 -0.41260799945375931097 0.044504329400883647916 -0.17805515597016052798;-1.5487691491261559307 0.88215047049791761591 0.29936277506414232796 0.29999028338901906343 -0.25038256172110667785 0.15160435597914490025 -0.37236511823040013835 0.13248442212104824534 -0.33688332235588885899 -0.7924567810825546843 -0.68432168525710079798 0.28496084107629332527 0.29463939160272617501 -0.13522005352943927692 0.25329308454775439907 -0.16655050198628384983 1.927161045285731289 0.27982798871033015553 -0.51360909593522752203 -0.6343580285704670807 -0.24912681999460403737 -0.47950185099413505929 0.10697422710333953644 0.03921064994617988464;-0.024761114524256413322 -0.41392823205683898502 -0.6423835190399624917 -0.083866595902397006457 0.66033211894819077159 -0.43192043220521025848 5.1277757483819446094 0.80466530030800309525 -0.05000062608490676852 0.25363926857168284101 0.43572333066768237364 0.099190651028281090484 -1.7163091838318218496 -0.3714833092290919514 -5.3163957086349231673 -2.3883546090223450875 0.072667127135271639138 0.52496135725258630256 0.47463156240329101854 -0.45929349974820998792 0.78150959548427900714 1.7416574216802560571 0.46236437687493148196 1.7564924724850754512;-0.015873099727585888996 -0.15016576604264397776 -0.34747948219683211235 1.7629894434624528987 -1.3755675466540657759 0.015794274512210236538 -0.19418387685135132803 4.6099173949474936407 -0.12020998983845188057 0.30605356951352957751 -0.19619008011925678781 -2.1552299128181853227 0.58285829814496248336 0.23101652652596546544 -0.82146203089030633837 -2.9006441376979106295 0.083701400272322340479 -0.3332231849207740737 1.0253195910038097605 0.75031140960002817852 0.79138428051418308051 -1.0696869189070417061 1.033928814904685467 -1.0860632292329788218;-1.6689969801095323465 -0.88401125806616542846 0.94094455200426374564 -0.61462381484806660747 1.0562589668487765149 0.40385587445632181725 0.81791280863913162769 1.2603260081480054389 0.96922457354028601628 1.8477115528262240129 -0.68553563166659581274 0.42015780666318147674 -0.026013851380891028081 -0.069042578428104947608 -0.69667073005437563094 -1.222302428072637559 0.63775487646547135423 -0.71733998895988648759 -0.81525394874355971986 1.1576545778350382232 -0.39466746858255108421 -1.2376389155015150578 -0.16206870571799086855 0.23495664973204760662;0.37618917713966854022 0.21994814750809102422 0.88450413900459590177 -3.2573406676998870601 -0.15274995411206210294 -0.24985436023843718423 -0.67470089293566504196 1.8023216490350213448 0.27510354354720445436 -0.50259698195339230775 -0.15557180821911859026 2.3557027397260612567 -0.06073148657331313427 0.20072534894621416046 0.7357106244957787311 0.017803810607222945311 -0.24666241271347155717 -0.13414856218091483764 -0.41510826723829885587 -0.091428282017233061807 0.69858557138873000891 0.3766732654982675732 0.5609296115906130531 -0.9465780943623177679;0.84017814702222004541 -1.1271523551595679091 0.091964832791455591865 -0.85638616805235068252 0.33996330541434338635 -0.64309309157150307268 1.023449361961593862 -0.75669093878964055477 0.15706614806896174175 -0.55046464600512079457 -0.52476741630823653395 -1.046195418622957618 1.0682343790885115986 0.58797195029045279391 -1.6370023159634108367 2.5316097304948770308 -0.59491007823721708814 -0.32144788087868836346 0.092213069806692013475 1.1532344537102030557 0.70148505528856797131 0.74522918180364883245 1.6307035748945084563 0.74784056024963407872;-0.57816210745678053851 -0.40141675623956057928 0.27823078177295262892 0.20083360588184381856 -2.0138515882081744479 0.82429555812624921707 -0.36245365245948502064 -2.0762034631366814708 0.6183297907574212271 0.369881151557904575 -0.44018544526706887554 0.32256505159824022666 0.83340775155966140275 -1.3039177809129007812 -0.49459733246899079129 -2.0507985904423704504 0.33533956352432620074 -0.24207725936636093067 0.3387895949860115774 -0.10846187387658910717 0.25823889178180731152 0.52809693987827865946 1.4576035766121582249 3.7806777128716211323;-0.59415556559796423031 0.31322898749566463472 0.3124632180017690164 3.054488156247508357 -0.010812858209732699802 -0.29428561378129508563 -0.60831609096121674884 0.60632407159757617521 -0.43015201765930904942 -2.1280754956461094274 -0.98109714793316793457 -4.5840893279325323206 0.0084497054280391215714 0.20440250408883145483 0.17258038562571997865 -0.97473734099126874142 1.1060349012734209673 2.3596779223811656934 0.73233439398615152172 1.8087985741346952473 -0.067167299627436352627 0.39789072746921477775 0.62736646981496047015 0.55919295724022732852;-0.3153686066279342004 -0.25841710960698788258 -0.75511766483270692518 0.19381749971291317713 0.05546545284146667254 -0.5657971910717641828 0.38770556566235697682 -6.680934981342352863 0.62089996159512927942 0.28145725494008561052 0.50743932440345385082 -0.19772666112592177101 -1.4427506633459190599 0.084523975491715253039 -2.3195963627063131973 8.4753175202062287497 -0.26225540896338778163 -0.2181495212454980237 0.16785676275480720943 -0.23256528292573291905 2.5098132920740940932 0.95897544056688655001 2.2467922728078515426 -2.1589176524367208465;-0.24639208352212385589 0.083908286942063398106 -0.12649880916594394287 -1.5151337817124654883 0.26799168337202122769 0.86558977612775334087 -2.1891385925407056412 -0.10728211922502602083 0.02669987565161603682 0.25196704025411492678 1.507112073788838158 1.4216298268761304868 -0.39760193812109834166 -0.53407176958762958563 1.3638965493825272457 -0.29538223097705262887 -0.18792506729760585782 -0.58507716306780166438 -1.8325661590914521515 -0.79551765573041999247 -0.16979514251128899338 0.013211711275095464752 0.72563904162980996659 0.64743331385382640875;1.3740715783545294215 0.50408186313363390063 0.48926210879262077569 -0.07178536606883248461 -0.29447662197725665845 -0.82062341794239324066 -1.7041586120609837351 0.75353513211473754918 -1.7994923256532826539 -1.270477182294533991 1.0110805738544297316 -0.6509389394214364355 -0.077091818062640843356 1.1978962889096733679 0.89915462047915750698 -1.2118963258692092566 -0.070530309323210513273 0.76645656502703951585 -1.7952958373643261858 0.39205441555379866303 -0.021967098343986090486 -0.89232704988477840047 -0.39837525336268775344 -0.54834448536279312147;-0.83074505926972286307 0.32628146280174769034 0.1201205352964237888 0.068652580202716001478 0.082930450777746522739 1.1360049325499796957 0.42084762085519372699 -0.47998248254485265107 0.32855576074677256271 0.68763755132961357219 0.43686902287234652409 0.24744206364656895492 -0.12142188620236404883 -0.41804273157969762398 -0.63203509221160558695 -1.0777032747418477943 -0.038209843614524556521 0.57758570582067125798 -0.93562849323158692183 0.19416968561314729147 -1.4569502440733397286 -0.81012582769862728771 -0.42018704010342111665 -0.022971186126145251571;1.0620578339191730777 1.1553839660274396461 -1.1475621246591389824 1.1663362507512411437 0.47001347571626361788 0.82156278996259268776 1.1412484617417297805 1.0846630968110417825 -4.6258348204753891864 -4.0197793669940375949 3.7563859426738015479 -0.29556390883081740117 0.15443675385754587759 -0.67430007438922123786 -1.1435178068651710159 -0.91404384400458660309 3.398700556755153368 3.4218612436240443131 -3.4628994823509962053 -1.3393771662279747581 -0.80685635148787182569 -0.33305527090549186253 0.037097496115172094722 0.0069770002280782729767;0.32347908661693758336 0.21939761779507338524 -0.52868027663060557231 -0.84033323784927982381 0.18452710311221481865 -0.66772360194669355682 -0.3446843209182766099 0.6296196648685375985 -0.055064708105163576168 0.15569943321969290095 1.4938923649451050224 1.0219813199085632238 -0.072817872927795526672 0.060129831676868777945 -0.27583822191412987745 -0.32476645385933200494 -1.0162799212014326233 0.062872073860698957093 -1.1376345962948755108 -0.58498045942797383123 -0.47581943522028147253 -0.8856722094943741963 0.070303084062038695423 0.18066018499616956494;-2.564683307978042226 -0.46635971159008121623 -0.67791474459523337615 0.23602325346001251649 0.82008853507480339307 0.8221636873913961141 0.85742871757744176797 -0.16234955929267949615 1.8709364768658114375 -0.61864787110969066131 2.8813728119700203756 3.9568716464295308199 -0.96858649304437072214 -0.5321535554466654272 -0.63046221248474199061 -0.05906136244963240689 1.2743080773963118002 1.5168381338725613894 -3.1053730055026855794 -5.1340850409182019476 0.066699512375601427427 -0.75068510958793444043 -0.60670553474064992105 0.16894010291476369012;-0.34329412278707271966 -0.036048353190719417682 -0.086779546376802449426 3.9128420560942425155 0.6387624036221225543 0.52994583972175224318 0.85747140022617329702 -0.38885286571724481108 1.0883181546649511873 2.2807966332498375017 1.0878722141501731002 -4.8566742301495411382 -0.41712122876878038324 -0.33910896800357265279 -0.47414748951318014258 0.085174385912514860575 -0.517030863941712715 -2.7025968592454923112 -1.2831193797765672038 1.2211506150007198634 -0.049085190755641702753 -0.25375339737281732422 -0.40278952460373257383 0.26479163011598455535;0.26946519355740389257 -0.92569722868155934759 -0.60683477417274322985 1.4565034840615616041 0.20719411287747874217 -0.42083343979133608359 1.2177790726643837882 -0.7114296092593666021 0.44466290710838995981 -0.45979932137062468067 0.061423191776248720064 -1.9212677560489683781 0.72359010167829107552 0.21170986481297443538 -1.7860954704714058217 1.3439248606125064889 -0.33674314531473159562 -0.20257683440917587103 0.36443426106604948078 0.34911378747602406225 0.63755204185558878027 1.3388700383617342382 1.2547052218960164094 0.91243736623945137509;-1.6797724395841382439 0.20729613958203821356 -1.9204024011567077945 0.028365741329367616386 0.87849917851692649329 -0.99427511249262789939 0.9049395070942120034 -0.8397061512057492072 -1.7482219930967783927 -0.66904345511815244141 -0.19934265812793039441 -0.058603387369134792018 -0.44247757472641546794 -0.10025850616659820469 -0.41422430492921430423 -0.3483682995841866914 2.1770047870554143365 1.0669732434401202337 -0.57054731569105177069 -0.20959656328933856662 0.040853268022152611216 1.5182425901564848836 -0.59422874078051957092 -0.58452094622908401522;-0.95491457267478541127 1.8467540168094880304 -0.98888208876879335474 -0.19416728343584263583 -0.17157924475987679225 0.8675882517497215396 -1.0316501240221953584 -0.67654100384819781944 -0.62032142972566362005 0.21210031488523983789 -0.68783054228605011726 -0.20585478458786124478 0.45270687786337399094 0.95232891708662004149 -0.73882356698198337064 -0.066159652313912298283 -1.2277456281590297671 -1.3091140393199407477 -0.54519365223681648391 -0.24564177496393677091 -0.100810597607934746 0.22090754165036638468 0.76657292166879786866 0.089111240078761755345;-0.85752609107176791525 -0.76318952994324695815 0.88252089788576271179 -1.3211618308343489048 -0.24513549703933631974 -0.22556475760681748977 0.18586287178587349023 -0.68297048611081878633 0.56801936818545328833 0.99262863208844853702 -1.023147199354447423 1.1022736916370408089 0.097034318378433445651 0.115717125039468266 -0.65365780061030942516 -0.032818303331182692439 0.33695468566816072498 -0.45023333916752494854 -0.63936733208084461921 -0.25219494707065859274 0.18013798866120503406 0.26456178656327938858 1.5215491854179925557 1.2806685740410777008;0.38500726351117564583 0.40480043742070909163 1.4092819075500053749 -2.1363477406778739187 -0.60745374940106100503 0.51865677557088951666 0.65825921349941263205 0.4992262140144608229 0.62172874345983153432 1.5098147886085129254 -3.7262042957381682484 1.8604906876191675824 0.65093752490806378042 -0.62332743897452846937 -0.60902158662377492426 0.097401569698272752462 -1.0941932976841231007 -2.3744518392530311601 3.1435074734642296512 0.77381174536271757347 -0.095585844528827970668 0.12235154077193234612 0.24700414886514870938 -0.51633211871112905111;0.44131495196488246258 -1.1654414555600245418 0.19484977543722181714 -1.1895983696215455261 0.52500852971394507129 0.58107940390875834069 0.05882835487669899055 0.79028231668647741515 -0.43547319258116018448 0.65950292881936223299 0.24003209588208732073 0.037141360396726733062 -0.40240001570380701246 0.050720730796193734535 1.7050235696830382537 -1.0080436786654958237 0.40603796087148369409 0.24903121422140872543 0.5403365247478197908 -0.79974091087917009713 0.22512203060995800152 -0.44901040090994492893 0.71215963035533025316 -0.15949907697719351019;-0.40751494130787008219 -0.29784693025552427814 -0.41349761278063423831 -0.75186167736377140791 0.16774967655364750319 0.03177539893691180839 0.34585147336994154221 -0.043075263936756431893 -0.38046450589201041836 -1.1743658577504283436 -0.58345083707052436406 -1.7222665682955009547 0.68449445206318249024 0.244150100352449273 0.44262742253062264952 -0.16484530888455733999 1.0359514458366636536 0.19946390326583557373 0.46042470763056558836 0.82386541461134843445 1.2364946798133911177 -0.94892820727719817686 0.38070530918950651333 0.3131393117862494857;0.67125071246470935371 0.58340609305666346618 0.3047607466387598496 0.36451618007417641021 1.7986852921182214793 -0.91647509411714334071 0.25305446067448700287 -0.77277293985508666019 -0.65300496691885812073 -0.33474289374434362809 0.040256149720002805392 -0.42230099285521632835 -0.42925918472327212472 1.622894718118490287 0.86922247079932890568 3.9753227246478957113 -0.47878813482784021716 -0.095787959898382138424 -0.73680733601999459648 -0.26382241958761021294 -0.47369638375625378046 -0.93781870475638029472 -2.0132850614472670436 -3.3407112173580308934];

% Layer 2
b2 = [-1.633771270666982911;-1.4613519671664405575;-0.85046923930548923298];
LW2_1 = [-0.53901524694550251304 -0.62317764363424399399 -0.066626626203040620333 3.4807591250098153246 0.90754084044236049689 -0.070644782999216171326 1.1200095935548841641 0.39949340521806614435 0.37232790110995728217 -0.22791774864526698208 -0.10929938077926373841 0.036307204391001018928 0.090156149668938076469 2.0377382505129397749 0.46672544976427821073 3.3641046595536261421 1.0330095287009528615 -0.76303719550999948851 -0.093097546973812353444 2.858064447103864758 0.091942068689050207575 0.10795359311219303311 -0.25962143525743519579 -0.2692693465010699283 0.3671844545158494677 0.14490712780976719443 0.2881555697519850856 0.46043739415030549011 -0.12280646200571647408 0.16138775560819423882 2.8036014401415800812 -0.70688915199841428905 0.017375711430057384083 -0.056534317738945086274 -0.48211056496162385532 -0.41469665286592455322 -1.4396542863376664556 -0.3012717616144247601 -0.32694251578625532773 0.27673754803208233666 -0.5582170913675498225 -0.1788631013877089726 -0.037418118980565927278 2.2601732166476828922 -0.014897634539243236745 -2.1311988280081020086 0.12175072240390269473 0.29060513073933158523 1.2555574906284354686 -0.049222122461091803725 -3.9651801697802397939 -1.0810895101688136055 0.16940030958418772489 0.22389439970403485214 -0.41644840386705778146 -0.07513829092975296553 2.997992536766252325 -0.94661037337872544484 0.45931532950505399304 -0.06789176413046332792;1.732580359759051003 1.8804991833288018377 -0.49544153908450100365 0.014438490120755691909 -0.44139642698693820622 1.654775339100331033 -0.9148332574380979576 -1.5792502735641114064 -1.1816876498709747434 2.9181064917477086418 1.874748193092961257 -0.26791963320138206806 -1.4544557964510507198 0.77718384246371996493 -2.1639495335346636828 0.43101862236626092839 -0.79568029292950337439 0.97391992064708554633 2.2470469225312750261 0.35446953417968074529 -2.264343515027735787 0.39520486617770322901 1.5786807932546220723 2.8706094930843590873 -1.8775838139914384772 -1.8269749337975575987 1.6233158891771299892 -1.3383510574099120038 0.63640814454022187618 -1.3992518933609232601 -0.47022423333987894978 -0.18313932410772154613 1.7902448727447737298 1.6514056257545446371 0.94417752736534810154 0.83050903950674270781 0.28486584635414752276 4.3863405834180797527 3.2261759264549945136 -1.2114269941283410947 -2.1226557284479006249 -1.1274368970186383621 -2.8203111179115047946 -4.3748179501823667437 1.5388117196768247297 0.86143967644948393758 0.52879879541211549654 2.1640520739370452397 0.04958462122014108131 1.1678155958435609829 0.24005091294242306144 -2.5540874527936945348 1.5496494759621417536 -0.23273947684761042698 -1.1533818986571315879 2.768885515387706775 0.0032998143995503145809 0.42997326639559607653 -0.46444848000223437623 -3.7187231423694031562;0.33366225155217005272 0.094504516716728409476 0.04780468971577558901 -0.065655388966073757739 0.45529749624145171571 0.33029492715430530669 0.1764996979017433576 0.32602117485675341513 -0.22417488266653048945 0.28202545846948806618 -0.012467922063906365648 0.04108569881501945853 0.16521603768628365105 0.47894013334602575371 -0.054462590577467134834 0.30777603567872974244 -0.14848790711236095619 -0.73074672566695897391 0.2067001414096880374 0.45069904385663689395 -0.12112171645349936733 -0.09776027370945856998 -0.12632603227563943271 -0.38364378407871840837 0.30851020751920255059 0.25005110754303822018 0.63243242492242146557 -0.26011962641514024819 0.15455534330888973105 0.17163183011524757449 -0.19300819063353627514 -0.1800053453931239611 -0.23219725784235586974 -0.070966652063936930261 0.19284862901213165043 -0.48208994071163374651 -0.33760805417283018537 0.65960704421347682302 -0.12498945715133132073 0.17234222357687287164 -0.40185912781712629371 -0.37942556237110280914 -0.40345732129772221564 0.58021639016320991633 0.078939269115976248847 -0.78148623704439501569 0.0104927329912466831 -0.24882495544509292129 -0.056710085817811978215 -0.40470323147929460061 -0.34631305755809566049 -0.6717877087264078062 0.45272039030889149602 0.17582286909767849692 0.4880891943237820052 0.30954162430925374894 -0.69568330419546420273 -0.78823350667497482647 0.38777272193737399864 -0.60861031099312368209];

% Output 1
y1_step1.ymin = -1;
y1_step1.gain = [0.0579977399141592;0.0580042971839729;2];
y1_step1.xoffset = [0.0153904142042516;0.0050689912864329;0.5];

% ===== SIMULATION ========

% Format Input Arguments
isCellX = iscell(X);
if ~isCellX
    X = {X};
end

% Dimensions
TS = size(X,2); % timesteps
if ~isempty(X)
    Q = size(X{1},1); % samples/series
else
    Q = 0;
end

% Allocate Outputs
Y = cell(1,TS);

% Time loop
for ts=1:TS
    
    % Input 1
    X{1,ts} = X{1,ts}';
    Xp1 = mapminmax_apply(X{1,ts},x1_step1);
    
    % Layer 1
    a1 = tansig_apply(repmat(b1,1,Q) + IW1_1*Xp1);
    
    % Layer 2
    a2 = repmat(b2,1,Q) + LW2_1*a1;
    
    % Output 1
    Y{1,ts} = mapminmax_reverse(a2,y1_step1);
    Y{1,ts} = Y{1,ts}';
end

% Final Delay States
Xf = cell(1,0);
Af = cell(2,0);

% Format Output Arguments
if ~isCellX
    Y = cell2mat(Y);
end
end

% ===== MODULE FUNCTIONS ========

% Map Minimum and Maximum Input Processing Function
function y = mapminmax_apply(x,settings)
y = bsxfun(@minus,x,settings.xoffset);
y = bsxfun(@times,y,settings.gain);
y = bsxfun(@plus,y,settings.ymin);
end

% Sigmoid Symmetric Transfer Function
function a = tansig_apply(n,~)
a = 2 ./ (1 + exp(-2*n)) - 1;
end

% Map Minimum and Maximum Output Reverse-Processing Function
function x = mapminmax_reverse(y,settings)
x = bsxfun(@minus,y,settings.ymin);
x = bsxfun(@rdivide,x,settings.gain);
x = bsxfun(@plus,x,settings.xoffset);
end
