function [Y,Xf,Af] = C100NeuronsRawData(X,~,~)
%MYNEURALNETWORKFUNCTION neural network simulation function.
%
% Auto-generated by MATLAB, 14-Oct-2021 12:38:26.
%
% [Y] = myNeuralNetworkFunction(X,~,~) takes these arguments:
%
%   X = 1xTS cell, 1 inputs over TS timesteps
%   Each X{1,ts} = Qx80 matrix, input #1 at timestep ts.
%
% and returns:
%   Y = 1xTS cell of 1 outputs over TS timesteps.
%   Each Y{1,ts} = Qx3 matrix, output #1 at timestep ts.
%
% where Q is number of samples (or series) and TS is the number of timesteps.

%#ok<*RPMT0>

% ===== NEURAL NETWORK CONSTANTS =====

% Input 1
x1_step1.xoffset = [2.74113915322177;3.03556137664924;2.86048604399991;2.78618189708926;2.89172011011574;3.05906917681429;3.26291337299475;2.78996285855001;2.74196110086562;3.03638332757205;2.86163677251819;2.78667506596477;2.89287083911934;3.06449405488863;3.26505045248837;2.79012724818301;2.74212549039544;3.03523259628278;2.86196555209811;2.78683945559066;2.89303522897846;3.04887698277458;3.26570801542327;2.79078480671856;2.71434366482222;3.03704088831717;2.86311628063928;2.78667506596477;2.89254205940219;3.03342430429455;3.26373532663803;2.79078480671856;2.73259089824514;3.03687649813032;2.86410261940303;2.78733262447044;2.89270644926058;3.04624673939051;3.26455728029145;2.79078480671856;2.61965538672635;3.02980772045647;2.86837675419725;2.78634628671407;2.89024060142322;3.04476722753002;3.26883143945267;2.78963407928509;2.61094275571118;3.0312872320043;2.86854114400194;2.78667506596477;2.89106255069318;3.04624673939051;3.26735192278891;2.78963407928509;2.74212549039544;3.03769844906839;2.86903431341819;2.78716823484349;2.89237766954417;3.04624673939051;3.26784509500651;2.79111358598847;2.74163232180703;3.03556137664924;2.86985626245257;2.78683945559066;2.89204888982922;3.061041859702;3.2662011876287;2.79078480671856;2.74228987992561;3.03539698646582;2.86985626245257;2.78667506596477;2.89303522897846;3.06153503043257;3.26899583019512;2.79029163781637];
x1_step1.gain = [5.40239555723872;6.64816941295746;4.46956934744448;4.69374321830554;4.74314409738368;4.31270143664038;5.43614909957383;4.10326355077354;5.31274852754034;6.72162993178741;4.49599696857086;4.71009774147989;4.77478989698533;4.38419115828835;5.49507753346461;4.11993788448515;5.26219454739801;6.73278938953062;4.47450075395278;4.53961979629581;4.69917498182691;4.19232645671739;5.53256106072786;4.13956334191427;4.92160040035343;6.7664906772004;4.41923968503803;4.74130269229001;4.62591768548412;3.99938594914419;5.45320557569751;4.15369641721509;5.12908707688239;6.7514707033603;4.42889216188627;4.87427227272374;4.54470033382424;4.05537678336748;5.55276226373261;4.03923492974862;4.3700457850815;6.94018950230884;4.73207646533118;5.1011259265867;5.17709276880969;4.3700193763052;5.92601242071456;4.33268473773923;4.27785093655386;6.9960621860422;4.74314567296143;5.11399132587016;5.22153139685073;4.43695635183178;5.88302879277782;4.33886547824245;5.11184573242974;7.16498916761789;4.75984690784205;5.10540714398383;4.60839522531233;4.18223848484041;5.9346847489788;4.13956332271707;4.36376871694433;5.44346485889707;4.17364092607843;4.12412785766263;3.73080473906799;3.38511918510957;4.40960227816613;3.1227316919799;4.43051262433675;5.52504290923736;4.18224935984147;4.1622229206497;3.84883124692456;3.51215944045601;4.57543954940739;3.29706390303365];
x1_step1.ymin = -1;

% Layer 1
b1 = [1.0973312910483488114;0.51016273560039582247;1.3875405379135685724;3.3386965897977463058;1.6927219602860708036;-0.23852731083664546752;2.0903721145470828269;2.1539417774750684309;-2.0579623261899877562;2.001918944453530802;-1.6737324804288651325;2.1131703250199449506;2.4432645689526073518;-1.1497720297015212587;1.2404733237194174311;-1.4035269773618643807;-0.28140969915774832755;1.7759613687656763403;-1.1087174426900354707;1.5609412798574702208;1.0093911641831216919;-2.6418428399921651817;-0.93826935720363235927;-1.7828578902376588378;0.086463062129919707188;0.90765767928962026723;-0.83573075974085508921;-0.80685796469117032625;0.22831728997022893157;1.8035055958776819995;-0.47605922358819136031;0.39793348657114885336;0.9813392385823821451;0.20934932849696830104;1.6212752808435737517;-0.86561417482827529568;0.017047134245216553905;-1.3393750381027149654;-0.5026852168740354454;-0.18285528804093786892;0.0088102456061108641583;-1.0924263701811782745;0.3230198603697993498;-0.22275397279780731474;0.48907272236905535712;-0.056870346985574249388;-0.33626091184354622854;-0.68224711935375426108;-1.030274015606010396;-2.0377282574039052854;-0.2338095268143997596;-0.59096883078668815958;0.2957231472952268625;-0.24986166463647707658;0.53565931770655283994;-0.9821793411210714142;1.5957283940135202904;-0.32263734410881200754;-0.87835779134998415163;-0.6712541690082688417;-1.39505120701328722;0.16781413632138997283;0.43307737055400818971;0.92437614231671805243;-0.32231854961639433421;0.043930921781574427953;-1.1424144045376996015;-0.42006335936212263471;0.034324613678637538872;-0.79213444474182259647;0.15404029432958515899;1.5504838898133688208;2.7518963801536053815;1.989477947540512881;-0.7604772068732404966;-0.27944336658455570799;-0.42168476610708727215;0.65829658935653689866;-1.2465847679163655215;-0.31183020814708084512;-1.4593889920878004851;1.614391662910324321;-0.29042764832597545155;-0.8907687643732133953;0.83564073965442220437;-3.8993745449963079786;-1.7335620626676033762;0.75990824873401008333;1.1105257583964576185;-1.3063208431435959778;-1.2564394234332596501;0.44886851458525028891;-0.065817425331332446437;-0.63717842108561106862;-0.43690371328257066041;0.029811396659751410176;1.2577616125495034716;1.128047971971329666;1.1969749673689704661;-1.4145377394600526788];
IW1_1 = [-0.076181503974259240364 -0.62174561758784518961 0.25940262652554124667 -0.10849955754005638497 -0.20882410643700355379 -0.0059068404988552938861 -0.37503036477495010903 -0.31099206617345553916 -0.82971448730980212893 -1.0198229655970594276 0.22151014584480088754 -0.47890417443919819362 -0.092135104834516687311 -0.25505883666165418688 -0.98810999961036904971 -0.20315455150665259754 0.91750909651461887151 -1.038734152577873715 0.53841233467670446267 -0.70746831125544984431 -0.58508418134228323826 -1.1528738531103832621 0.15402830877100556761 0.33996990918803737802 -0.042384802401581961329 2.1005342631642252016 0.32803554242506810512 0.29664905636962179969 -0.60984732554637344215 -0.44965669809536823465 -0.22844123499675741962 0.36533269385775035687 -0.97572352761199765414 0.85847346668622481758 0.18019630148472948195 -0.99246150717486014692 0.50871627541681663232 -0.018148151415388304869 -0.4076495449473571675 -0.69354866455154562388 -1.5106100810745626273 0.09240071898405902151 -0.14333675083772340342 -0.59139561140534924188 0.72231291930750707309 -1.1439818414835052351 0.088263737580300163921 0.80349063727924152634 -1.2336951055538136757 -0.17694540930151289593 0.1341449311463680516 -1.1306092844126609531 0.35190603817354143557 0.4083495752196527051 0.15145017420170664435 0.91682226277866341047 1.3752979778978895453 0.35060517750585823427 0.15175636487679022846 -0.37902633194839335795 -0.016635756643408050603 1.4858654071457646495 -0.0040283110574547090904 -0.31255043694262663045 0.79902294434791887312 0.61232470501257008078 -0.63804948386048165876 0.37320882343836875306 -0.52579592004151909368 0.37492768088635336499 0.027992967539132829202 0.15346264927078701046 1.0619681452618265904 -0.18496411308621490965 -0.21904774320744696547 1.1889661099856607684 -0.46321387733531194097 0.9259792413112688525 0.015921831117272647327 -0.042354126001963990356;-0.40882450322641267215 -0.33172818265147957506 -0.51544284966871145581 -0.62775975784341642161 0.34486602101351382377 0.58325545206366258277 -0.64953816935606456529 -0.19482964237800870499 0.21767904871559948243 0.71562806352996777282 0.03522626537151274384 -0.30163545286865051098 0.31562585203110699039 -0.79549185422871826479 0.89629721490885150281 0.90967052543683568633 0.43659381315532197476 -0.11504377635678234015 0.081507002506667508568 1.4514979152881295477 0.034117837124904126789 0.22271454338682739049 -1.4019975681071121798 -1.0965796009652439835 1.3213610655364997903 -0.92872471059081229683 0.96115526942530715715 -0.85946348175558739957 0.72693878931225430762 -0.52677605576519193065 0.71419206323864492525 -0.62494348595475923691 -1.4308900424020214448 0.12089676436678735427 0.39166724075453318576 0.19487118018966270716 -2.592877947498998914 -0.097689943327699590991 1.7394459764271261726 2.1462973489346142131 -0.31579940142682028092 0.94245844732913397479 -0.41764309951907130358 0.45394187717591683029 0.78916359874827302079 1.2608712965072876866 -0.90170794685141719693 -0.19120977250740836539 0.63443263341923894494 -0.091234594516206163339 -1.3283451023150145698 -0.024259372487485938302 0.14666914429244271023 0.29282030995764007919 -0.015083234228106950914 -0.52994334385722208225 -0.30193790942987142056 -0.073115683709899945142 0.4993501202465482347 0.063946563642324025234 -0.76345495459631296242 -0.81774917304547678487 0.15129564386751059857 0.45716472791611068027 0.25638250383819499723 -0.37523822187468769407 0.31617578501402637814 -0.10803953009771034843 0.12958191506599589515 -0.25289387144862657264 -0.15995272808864696712 -0.60375498789549364442 -0.27191654067871684486 0.1187935069117953546 -0.13791564024040278702 -0.25875101087718199722 0.85085073576228587022 0.1536957769191986678 -0.32720114765599778162 -0.3715157262190861287;-0.0093034530022074127947 0.20024417285466900029 -0.43773127749240209328 -0.14651893817988889679 0.57178503994869545046 -1.2698659345913261287 -0.2033126971148481732 -0.60350609120355647175 0.1777966429407041582 0.17805886332040282705 -0.1263829257122595362 0.18641507348925132059 0.011380652788266241993 -0.9057566201097347891 0.2558951729064105618 -0.51225694377313368832 -1.0215396616885028536 -0.73921330830723797067 0.35147638385025703478 -0.65986984975174811652 -0.7656595329846320741 0.06725809190669559956 -0.26397571186876916949 -0.76396844885934367397 1.0949383549067654986 0.41932774391529498148 -0.78911390181863616533 0.03018931977931451488 0.36369811175020821947 1.3437974626587521065 -0.72194640729114578637 -0.37487063625609545747 -0.0016920987652585253377 -0.52189964162942414916 -0.21479816660527409344 0.87209489036342180412 1.2124811224488269978 0.046217782650193738048 -1.0868540826553791945 -0.60391218236177957035 0.09117064876851960209 1.1491068005560651777 -0.98397894130903051924 -0.3100229048971829271 0.82077143607492031308 -0.90274088795208651259 0.30117605811288711282 0.18097211413503488942 0.53789992015459453523 0.44093338572968832079 -1.3853189638873630862 -0.15901750684375751121 0.47920137983549437877 -0.12321300887156004522 1.4614771489952012029 0.5277194973930813271 -0.28915028269426579222 -2.0786446004462377779 1.1233175877074661475 0.22454255567044956177 -0.2580680012580370275 0.38625078790819777907 -0.71500577518599206517 -0.24426447258543540486 -0.20563362230017839805 0.89152247042575150093 0.7502707858851292988 -0.82022382746376443219 -0.44626651714674564486 -0.6084221544703489748 0.73018282929773492551 0.86277200253182750878 0.66602135523558314567 0.072956271908983599817 0.56392451897433815144 -0.39547804159351657161 -0.74432292750819684102 -0.54008031204318374119 0.046747072417873972161 0.8734229665817189181;-0.32026089547378072675 -0.32242438462626182849 0.15067556651683028379 0.014530798099521544803 0.29382458558378748981 0.6038542966849996807 0.27413407059510191965 -0.60214039587065937287 -0.15160386816033322166 -0.1289410234116999121 0.50307696557808956328 0.045769762942281799756 0.66992721413699918287 0.84673923765742720171 -0.5335705364106113624 -0.68370650188734072294 -0.2202846243083227129 -0.42672439825675334557 0.6144994886106363019 0.79339234874896280569 0.0067760804609208070276 -0.200616388674777546 0.020042582330464509682 -0.1786832181388177121 1.1071714593425938666 -0.47571698312823801347 0.46987124584295569818 1.2400690857615594975 -0.80632109143366015314 -0.50473097107019804231 0.74173762983286062322 0.48624025190546926734 0.87633894206510309921 0.097383816904080031107 0.21192645537300644487 1.16062993414346316 -1.4399217186547890179 -0.04548965203260681156 0.78114601122640892061 -0.08311735379396606449 -0.045961488614099453576 1.0418108034905144699 -0.97702791134662492212 -0.27286545152237456913 -0.52175356194307509483 -0.36818375883469917076 -0.26490372240235943169 0.0048181902049734236237 0.0048177291856006457249 -0.036309148585554999744 -1.3471502614855419555 -0.60104357947871878132 -0.66890155612803203766 -0.87590032214820778833 -0.36658603071066236945 0.5154317541099341371 0.89029011471238095332 -0.49352422286882430269 -0.32039161417563916112 -0.36370344906184121081 0.55022408941417833006 1.0089770811701497255 -0.20410515260906561541 -0.96440808987453707779 -0.74459295208393350141 -0.27149109902371554304 0.043981131158967491646 0.26214194534461576769 0.89655609223841592481 -0.47108730451608127332 -0.51289792709638026835 0.14423123865775486219 0.28240035968644172648 -0.67307829250669393151 0.15742278085112201835 0.48619385159643341288 0.75886060356240103708 -0.62006276141069960328 0.19200027431579891335 0.15209050961666795154;-0.78840157434812174753 1.3756642495286575123 0.17504066259150630191 -0.55086385853329977724 0.39577863968931781269 -1.0387711622530415578 0.15867154745831227314 0.57601976970427426483 0.06352175596695419646 0.50400167331344292165 -0.47071425360087953971 -0.51376476852649755056 0.5596062228499227853 0.83863596844766008509 -0.49394242585877679019 0.51229926184102902997 1.4123717473570838177 -0.19206355286507575952 0.030650586902255715083 -0.033052910522922474001 -0.26115264996528153585 0.12013572362652560899 0.3153708949703860065 -0.57715265603126175709 0.605708750350453351 -0.32360656212916072416 -0.54761175786214499883 0.2824737786974507725 0.6455904325358516882 -0.19510001300786922185 -1.4799460870424994141 -0.052683733518066551416 -1.5474838897641232105 -1.5581406095231731257 -1.1028352496373183822 -0.30474679007885696613 -0.90178936259487907368 0.8862473314665286761 -1.3964055945218365462 0.19429155923692512098 0.41556328101792644469 1.1875688698511790431 1.5371070250649330191 0.46960248925390635222 -0.038631881776888914171 0.50910838309175843186 1.048822296827287337 0.48134008585254139945 -2.0756981356450818765 0.28589668171325688384 -0.0096900731710469600183 -0.18905373467678746047 0.89571133477521647226 -1.4181052397924500674 0.39896330067575092038 1.0252283894792251218 0.18470167199454140539 -1.8989809282090794884 -0.25246674053041334718 0.56983122756418091992 0.0046022060599530817404 0.61074602070049155422 1.4350187549280020161 -2.6707595474550607229 1.7887339239828139448 1.3613013189027816097 -0.41782848369547920253 -0.26635630222368733566 -0.99041678704662483579 0.076067670555256830522 0.13829851905959444913 -0.17067609191423746551 -0.95236688218805365391 0.83933974453208881616 0.66228021261133029896 0.060973481356398365194 -0.043370568527255126678 0.45614013507008199788 -0.63887087573469036883 0.56585490609754529601;0.71793490459705455731 0.88464666328322283384 0.30230585604788984266 -0.46644805154590712748 0.48287738502935151352 -0.61276619108492347276 0.47978525838202579212 0.8669707820211204341 0.32657413318238726063 0.088070033084664142708 0.21487063068498479801 -0.75081026695119401637 0.481597889003346602 0.6787071121589240974 -0.11760062123741371609 0.77400276218256780503 0.72567551069109237361 0.50252493155453958895 0.29927601649914997717 -0.4559797204760758782 -0.36092173322990378503 0.68025055568634740233 0.51761343402053483498 -0.24000208666353772813 0.69463955473163119247 1.4144442033704995865 0.024613339008459425572 -0.30085361957862305493 0.26179205510463343654 1.3627730837525995344 0.017840909107371103609 1.0994801977517825176 0.33187053313378200858 0.51313373914958948507 -0.17723322438009136981 -0.22436073336732564876 0.16594381420949005923 0.43078692957374359329 -0.48280850269951880449 0.96310045577426095509 0.26466779722821298648 0.48569711078135674454 -0.019191771393928164224 0.7039450324210373422 0.037160283704250576808 0.091514430593362450228 0.42371211804988812011 0.47566968922974084411 -0.10794930796477344992 0.14162072327914904113 0.19382553793446088974 0.68955398639674247985 0.032163338809474278923 -0.29860162292475272983 0.719310516159603619 0.34278156606513876525 0.031457405260406412495 0.58560968451617734232 0.85286073351056101988 0.43739354575408095904 0.48725111459769782085 -0.72354866830257036359 -0.8706783782016108697 0.72335573649005280306 0.023622196426238622341 -0.72369278122878877291 -0.5514871385893216349 0.42703804022131075513 -0.037939544974538205735 0.53360533567727230775 -0.21555585237494898077 -0.87611788452131056371 0.2279130377366250515 -0.35618488951537569109 -0.15072974194037966345 0.82599689218122540613 -0.097459732902532542065 0.63475473043228547443 -0.73754561765114901029 -0.38691263617364163307;-0.50288729925766273432 0.015820544493260133012 -0.28153137871534655856 -0.13930827276033599937 -0.10222300572090892157 -0.82466634805121008522 -0.8241271519192336914 0.47328774362163889 -0.51117879360714846282 -0.30043414211629215771 0.32479254525009249033 -0.064574004243221128085 -0.12606214016578254355 -1.8515176024507091768 -0.30886553188829929395 0.60496748407674738601 -0.4673011468704627025 -0.20161221508212123776 -0.60824627960072863431 -0.7049738349211986943 -0.16602201550552500575 -0.92700032761201167641 -0.54883728736570935869 -0.35345622908081614222 -0.75819601004116443654 1.1507109613425337002 0.11882345743423938789 -0.088767702607648032997 -0.38481506878763510615 -0.5700473106633971998 -0.31773419557256671331 -0.19525647465959405924 -0.60421681237666069464 0.71533880049874576379 -0.12905651741834534008 -0.61454691920551285378 0.049360640897953202144 -0.005698409804309148563 -0.53674132053648726526 0.21634806835238759581 0.57660577303051741005 0.15325461911481835786 -0.17147278941138033304 -0.0309745854263991649 -0.069485105912613101542 -0.33382354161759220101 -0.9897721417959445267 -0.19485578482010751378 -0.13559044640661638281 0.27978727674301800965 -0.67693128460357887555 -0.41772729297232336076 0.46754113352412363103 0.18073188741858997597 -1.0041946165464374907 -0.22158275973403054881 -0.46365455104177411005 0.88047224922352074206 -1.047291578451411187 -0.12449001160818072564 0.16532883246032850644 -0.09153129388489365803 0.25989550553482071438 0.045759827058368521269 -0.52909022482434975299 0.24446778712378330889 0.6614631489194061631 0.3740416876876879182 0.36865385996206639918 1.2363854490003380882 1.0525608416100145082 0.83022727889713443528 0.64166228381561973837 0.29614318026812136431 0.30485734686577975472 0.19887438326856735071 0.32937249587194616929 1.2574382555610890133 1.332102811397897657 0.61881693266728265979;-1.0614154473914363397 -0.95149657051329983304 -0.20173159632289347498 -0.84184726128281284208 1.3960011418478939227 -0.92624277728165060886 0.65885682873732021037 -0.86095604479393794684 0.44457521972346469852 -0.077662372488543934823 -1.4937706073915071325 -0.25315589755980688613 1.8458011031277872238 -1.6342677103953855422 -0.21892746704748514142 -1.1902968092564216729 -2.1635345860410786223 0.89862876483766074287 -0.039562942518513388723 -0.10813225173615494124 -0.071118880255353844611 0.14544330776216271572 0.17085740675731139748 1.4212610967064807088 1.7688858599744363698 0.70277476425537610538 2.0276171427791069846 1.2051872407926145225 -2.3513559036059614726 0.44367341085892397778 1.7282699527684539653 0.30657632795681116766 -0.86868066245399722103 0.10956989183763371498 -0.64001718917336136716 -1.2549297630922597868 -0.962701997298893275 0.95587074554221973521 0.38697132272607120962 -0.14843990447766311491 -0.10894693500804766839 0.32371449089350623485 -1.0454069331908446561 0.65313456017196391823 -0.49242342863865667946 1.9294391191370581229 -1.6878009223839751662 -0.28468208787448917585 0.87019635283647234214 -0.65517945858798987135 -0.21247973046999299451 0.91022691028226199172 -0.16454647822238402388 -0.32517820476907977056 0.12975707249975521052 0.58553631110168191665 1.2176433367622592208 -0.25379349457985578287 1.3438569822752317595 0.43831534413591527466 0.30973452939196743916 -0.59147666616455152333 0.047184741141183761393 0.11171539599377658392 -0.018226795580592442675 0.5250174643786170714 -0.23947004899990040339 -0.42836047462590748358 0.20665632293073499248 0.09227164167652789073 1.3211301273186286664 1.0896658850114928629 0.40229906452369706971 -0.34250524813407040581 0.81927054875797555855 0.11620128578796001806 0.51914537128863702531 -0.74972851730673506498 0.38908966447205056705 0.093197985728032992081;-1.3210449766962357732 -0.066275680610000609061 1.5471286856646113694 -0.084330738824913292762 0.67292135157574717308 0.35054267881567596765 0.44489977840610483995 0.070521773855394556674 -0.30603569872471558799 -0.050536334843747837686 0.44616245551676336767 -0.16003045712388527799 -0.004549147840568324927 -1.0678399600416068616 -0.28063489614413583695 1.2996966661142825838 0.088737684890312973351 0.74732208052059367898 0.41422250244774638794 1.2646156605941267781 0.42521175921314635637 0.27756400300325362318 0.18256072311508886319 -0.04261077939199370973 0.40261296126495360603 -0.61538661687578499748 -0.22239790927202887638 0.27544035282538820164 0.37712891660441083541 0.79651866623098632747 -0.12431016091400118317 -1.0251492381442446344 -0.22191468663918337278 -0.92301103606744427932 -2.3990025003636392675 -1.3806159284892147721 -2.7939292106333137866 -1.8988048393525305269 0.72442901364362133343 1.7725615430371928216 0.77231061784651167113 -0.19765374348384490144 0.77323099043427068189 -0.034909504700281708545 0.98049522240980135912 1.6559562971363450679 -1.0117148173724952454 -1.3210165441812082854 0.80890284747569085599 0.13770000415478916844 0.95242758909566760384 -0.0062692400143202556273 1.5875206539451540699 0.30283377371445385773 -0.16329143850720795328 0.19560249337892757215 -0.10061062755715777239 1.31998205610035102 -0.25224489887200934879 0.32093882239253601618 -2.0329233290146437874 -0.32111724641133321256 0.13482917728886817388 0.22345662249008532707 0.72286678792140557359 -0.04199829836579391934 -1.0451719237516792216 -0.21981063581039980703 -0.30261353175534072557 -0.61150548784047287221 -1.0853446092869030171 -0.30137720714506455177 -0.7093015270441122011 -0.12200658217181813148 -0.59678812002029746342 -0.051722871522654263743 0.95806409304368633784 0.17461529752218252209 1.0219182692577979399 -0.99495999652602640229;-0.29306787713869564271 -0.27520840941299989924 -0.23808823474290724542 0.24327235088610230096 -0.0092167945058086730992 1.2594947917843328788 -0.07974421643065458809 -0.64818125796062642241 -0.95011047115102276184 -0.46894760660643786121 -0.34512351743053104602 0.45120231207170519161 -0.08079697006631285372 0.74413847372048824713 -0.24354328672068970008 -0.3576721838623997396 -0.18001304198086093278 0.18917328185984411126 -0.58827152211800870507 -0.79667957758817364855 0.64100437413532540543 1.0426452507486005938 -0.38124647116184839923 -0.99759421148905480514 -0.47725075601735278408 0.28872552263337519785 0.073205991854404156571 0.79689651271392636378 0.1163223469139425259 0.23955220805402066553 0.77423767993161418666 -0.72575907910067449791 0.090373801267792014391 0.49848414154000897369 -0.42196044388361247934 -0.092451650432233328791 0.45166021217505286645 0.12754520991890924697 0.13112879307882627233 -0.48016933100048647676 -1.1885838363429266362 -1.0872673380361594919 -0.20876136961836055939 -0.5961934069089646071 -0.23068863352899410257 0.30870069444032954831 -0.31658621414775467429 0.23398335568141495622 -1.0041572909652332068 -0.41081793196431187765 -0.31933005162751182393 -0.76002687123768397637 -0.38152442917308548864 -0.34001211512269657877 -0.57324730904863874237 0.10283351580442794126 -0.76960859079121435311 -0.68320195188278820542 -0.19844155841889565828 1.4945345029761851752 -2.0058302489172441518 0.36546458914092505577 -0.36915397329571802976 0.0061200732472151738589 -0.21322508144389021312 0.53000019824440314231 -0.32546829757107265113 -0.096207818757263363629 0.00052631678515543955932 0.49012165574092847464 0.59141658842769051496 0.37889409695501241604 0.095298515012495088605 0.72769479500166889263 -0.39614020298389002184 0.010073231162899978428 0.34291128953940841484 0.75237605473208690743 -0.16858535786851727711 0.47045241270235338416;0.31853351241029109753 -0.35824218856085432439 -0.18268868461293205629 -0.44540965242644370292 0.16753766762847366323 -0.13242209424989831446 0.63968653789804641452 0.095180171701631163805 0.73808271545055248453 -0.10514542291420654607 0.11066255946822090017 0.14623561311521485195 0.26745833013508690801 -0.46931779277393465 -0.14986820198048650399 0.44410540905939061007 -1.0302083449896108913 0.12526161378629671606 -0.21223141020284194691 0.054889976299296129592 0.2515892040050202727 0.061553315388456222856 -0.033574795841000239227 -0.79911772528193647513 -1.5901075525439822833 0.019272571255605427942 0.76587343945673624912 0.29418214129720826611 0.54750715540718086771 0.87485641984464912468 -1.3661830239458279124 0.12147333490345506302 -0.16876946610591209152 -0.70990098363194120701 0.57300106550529861238 1.0338364550555583232 -0.68279711522923525191 -0.022065769999031877024 0.071454159064342076535 0.94580580917499901261 1.0669810224577149782 0.43637550887220660778 -0.55282245191989787259 0.35834936795688754341 0.55446939344893930723 -0.59029444070927272747 -0.12665496346949983719 -0.017511770463832905531 1.331369452982962942 0.66323474141413829575 -1.1430926482193684013 0.41482281898101180939 0.091994428253516322136 -1.0852469496018359862 0.3544062009219774434 -0.11200787002141769644 -0.039825579486798885764 -0.77046119012536107284 0.8207798886177101183 -1.8654127906390400859 -1.3048350228936222983 -0.45869360960971933272 -0.51300459012055177332 -0.31072543120374279679 0.064062909287553135296 0.06488961284628871895 0.1304225927491724224 -0.40687528519259463788 0.057339354492708445588 -0.32442433675187143383 -0.14506020344416731271 -0.10942069137459048411 0.47943581292402193128 0.28565079469075482788 -0.034490356575506801728 -0.19790285805217927573 0.58187674323480265137 0.60170492919000662102 0.30285193061170784246 -0.35588067741739010108;0.50337646290212778588 -1.2054209998963270056 0.40670545980162414734 0.28332744594125508497 0.67953590744726954931 -0.86212973849646046265 0.032145389652163527949 1.0124351120610572963 -0.099023319143745514026 0.31333610297446756743 0.025397253329519153126 0.76928861282756233475 0.99373899395604670115 -0.58842005937287444883 -0.2340217120722304367 0.5673496118362704177 -1.0484967629563695102 1.4535349985368168912 0.44082614816151299841 -0.32296451626872096918 0.38890102427812767161 0.0030552386216757820847 0.96255659219830080886 -0.52468758496439704686 1.2640714488359396928 -0.61688157118810660329 -0.68560649874268153603 -0.56103150626436115722 -0.18950258136157699385 -0.80531176467513154726 -0.14828178882301906727 -0.21636131312790163328 -0.28662614705953948224 -0.57419062116327279632 -0.91121825041176518489 -0.35532445472586876578 -0.36849414717190526192 -0.46518335473448535478 -0.91785512167816207807 0.30768207561620303236 -1.0121579116501597806 1.6957177895749391272 -0.36831481386710951398 1.7169167044823923085 0.47576984739168953764 0.36072716059203313588 -0.28021179329397305491 -1.6403964099398085086 0.68473513257477758298 0.80420339243453442535 -0.05954566456480493708 1.6408239017028389828 -0.30133124077533318674 -0.70343950554704159916 -0.018519599532661884522 -1.7498616817899903531 -1.5555777621516784226 -0.30127651404133359847 0.025260678105975931107 -0.48393928219506926469 -1.9700375381128354402 0.173672172453820578 -0.29679109597016678501 1.0591408477490189544 -0.29358256687358108561 0.6130652936981354495 -0.68003564714810171843 -0.76127988259928003334 0.36533077094637400606 0.24187959378419393586 0.58651509023014014588 0.13096624316580979253 -0.096592503832431592103 0.79698336475249043076 -0.038346850176344024486 -0.38426569742859634227 0.069391550800350060291 1.6628877794671295121 0.780264215252937543 0.033528307293971382208;0.31746633754747227707 0.18838371347624041641 -1.636988577944226142 -1.2730896900129615723 -0.36522336932972088164 -0.67311513543565093531 -0.64221379150342705611 0.2200674229051852171 -0.24140137356936805513 0.80528189251801074455 -1.2932049332513531059 -1.6010468873176262328 -0.58992056398464542966 -0.84979509262687036308 1.1925760053449983022 1.0032892445415271254 -1.2448033822466755272 -0.21645581929737808813 0.165486996661668051 0.54624369671604344756 1.4989381227670841579 0.74940079499722411782 -2.083757117422395666 -0.64575927527370002856 -0.62358781687412923045 -0.19371086977570015075 1.0798624141131705212 1.0780751770450138771 -0.32725953543407126922 -0.55133274628253181593 -0.33869757209740469772 -0.75931059780766163581 0.010125143022631691303 1.9765398452079916414 0.97695195178653160273 1.1528842291375929197 -0.97503461552587467054 1.6417272417099082471 -0.25125070876952459997 0.14054419315875024687 1.0236383180798955816 -1.4395548880383883805 -0.53255929573568916435 0.60357151021833288507 0.23600981678904450756 -1.5843773801303762117 0.78390232968290973758 -0.073218524675805640722 0.24123733861786661459 0.59313616528385137983 -0.44602274173954531422 -0.29570895307607397706 0.83209126835647173603 0.82953764436373722546 -0.053702185365692697849 -0.14589881828321218937 -0.54031952614842937432 -2.0664002151939047103 1.3861774746679000891 0.66093801629384663077 -1.7285232691963630103 -0.64445726005892645105 1.7470077592889974305 0.48607847006790128042 0.70964182277382836794 0.52770667861848052915 -0.13242426073454949265 -0.087594095106573163778 1.0765265810038440186 -0.41408410673173889904 0.35993053557605247939 -0.014416040809261268865 0.81618302815848653431 -0.28361299051157295992 -0.40227773189072768556 -0.34622575119533982591 1.1834007802585282398 -0.1321888743266689259 0.849041539848341964 0.58230010238436569203;-0.17963365938255224097 -0.12612378142096580813 -0.12859622259442810011 -0.89916472560835492001 -0.29663229184263684157 0.40250954735381877514 -0.10185135157253065452 -0.41055231879186659949 0.030384765068642780039 -0.52845464312654844008 -0.16285939723654885292 -1.0178503467041815078 -0.31830172489563618443 0.1309292844222599006 -0.6297562140680698084 0.05405318844337657358 0.17418063049114212992 0.45168014974467907141 -0.41851772103165563177 -0.86650538044722402731 0.14300928872739293585 0.35530169841541264786 0.18752255908465265133 1.2461947693729185094 -0.070829138689384313343 0.40768752188899970434 -0.1699133166865800515 -0.30504883314053371501 0.33192654322059217398 -0.14847152859002518688 0.17605616149977754148 0.12738202689446612159 -1.707409102368571574 -0.28971186408432358927 -0.89054277682263771609 -0.20076369774281294101 0.50294288600957293145 -1.3836517843257460925 -0.35288147689135740404 -0.77844427085434786395 -1.2951432010046246557 0.079441651566814694418 -0.51567544333872028517 -0.10240717221224859834 -0.64603944547465308457 -1.5796288977024668387 0.11980614459073350708 1.0895874952472255348 -1.0891203865748912971 0.52141172877664287988 -0.39718629278278494432 -0.21192247725436172412 -0.14535896217427615729 -0.94626366158628671954 0.14118483882843005373 1.5522171532761175339 -0.095209557148362822243 -0.71721881235980200486 -0.80994327503505214594 0.57040766764125216959 -1.2231505015861428021 0.18646517314875388216 -0.44490299722563697582 -0.75286780399658470575 1.2847313513821658759 0.072515107939216116861 -0.10089373550128397095 -0.55221608839682212455 -0.0196640962820426278 0.60637699043554060818 0.36855881356309916352 0.0015159495576304513054 1.2004203604492649227 0.33627141560161977196 -0.11267444492596839778 -0.12410847123297824579 0.15294303314870030808 0.13995840806862419603 0.86394645738618736086 0.17717314503812958693;-0.48231143304745272005 -0.28853446417227901488 -0.10400475335949622979 -0.85819870361392702751 0.38939121481088911914 -0.81955333465553814598 -0.43379606086390515296 -0.52681653670828554326 -0.36452120897821482792 -0.83980867529956715334 -0.47779776295030829125 -0.46954840053974977732 0.41555700121122562951 -0.35727376246917680325 -0.95861546392078134105 -1.0173418663838722509 -0.6849062976597209973 0.51965422593698640252 0.36868465159130842101 -0.85208593431539614294 0.78230357775141290411 0.46499949196600692813 -0.12724360088874037134 1.4506097782403439833 0.18043881299940914276 2.626787342204295328 -0.066099856044136318101 -0.30277753282846414651 -0.53987327929920347902 1.4409990115938653421 0.1952114735195926154 0.95981946495810555042 0.47250323798288956789 -2.0591293548606808272 0.96265796104517797893 1.7791106776481335761 -0.69122436793201846861 0.16545510584910172458 -0.27904840335914099514 -1.4346424197003997403 -0.088540602596628034671 0.11327127797556685307 0.030991441980335696083 0.62960191376704810473 -0.58684120397428096716 -2.2043875380620532312 0.37360150154735727313 0.2229103851772159528 0.58093949092812080526 -0.94193568244084169283 -0.76199463889267682326 0.52306647883852042114 -0.13732040427236652524 1.0519430870838093472 0.63140198323705110095 0.13336399292426290297 -1.4354633789176760583 0.057566710895261039016 0.80225685270204016852 -0.018156095922590369252 0.76044404276541055498 -0.23742486230351381171 0.39880421517741515558 -1.0566273181240775081 -0.14384190223423173882 -0.39540499227276881822 -0.5105052684492669135 0.22858487000966598579 0.48488190652024676375 0.21257272801788415495 0.9187455877486283562 0.77843487716004045041 1.1609150023729950529 0.78634199471068799703 -0.16326180693657704746 -0.083980532551915343387 -0.50538031756243562143 1.1351205933508869972 -0.12745601607957252055 0.46132147940031159594;0.77812579533640924279 0.58756944928965149089 0.7552745326503862433 -0.43830584575865605412 0.059770121772222059575 0.041231207200671839141 0.056557042744756896857 -0.38326484563986457088 0.094962868504190139918 -0.72136034573080265453 0.73326181457737271696 -1.4076816385657828778 0.10793188879802778635 -0.057066795832625152873 0.48647491426063094178 1.1835437947480342835 1.7592537607703577773 -0.99434066140331600625 -0.38500767093333115865 0.38271120605493297306 1.2930085298076607891 1.1355170184642300324 0.53929630077914736397 -0.33885531607434093981 0.98945570810815419716 0.77333463334297836145 -1.4171340482669401162 1.0263827799920881567 0.70378847806640654206 -0.50945317278661261806 0.51322630142669067865 -0.31208350125918837836 -0.98597832482713387847 0.13722557035587129581 -2.1526886482001015288 0.0081487622413809364386 -1.6624901939256921946 -1.8252342288004110848 -0.59441836598299313543 0.69759225637966260081 1.1363763208299064722 -0.2346710693787943669 0.82624836461849471281 0.91019079905929078933 -0.51012935685420557341 1.5522234003386068402 0.5741422566755569612 -0.33099715760704528922 -1.533875894464716616 0.56414044222505055348 0.77250875923527462241 -0.029391692221913616467 1.1109075798967953386 0.00066815810710697809416 -1.9601062645730342737 -0.26145595614060235246 -0.29889245241405687503 0.51837420965406799667 0.15951178684100206229 0.020407983546194611441 -0.97506215694659470472 0.38825844233412826201 1.6304847255277272744 1.2408515568100624282 -0.37594708123587811111 -0.59689254509223010903 1.0459665099137078759 -0.68465771818959875183 -0.78303939310153314324 -0.42220112126854031365 -1.6856146493939365705 -1.0038011220467439877 -1.1926806216780370118 -0.1740202967709145454 0.3150878330353841239 -0.048310758658352319361 0.72648491010017235414 0.19869072457149483668 0.74015602647736988828 -0.64976400809929779623;0.8691022635717494671 1.1281685827969154534 -0.1721842592447464515 0.22820630817383225075 0.12531435634258927814 0.73368668099614564593 0.50692005768886083672 0.70224372476138974264 0.47916523263112364983 -0.18776849748538934626 0.10858561748034674388 0.39363609558900047869 0.8360182757608887183 1.1614541445382478013 1.2290788315006198061 -0.034778143957762103211 -0.75566290664587532078 1.7368916857314844471 0.022576951314674680027 0.1951368981382459733 0.4031474135630588318 -0.82821971313524522795 0.24229386209587677747 0.44859168733128612638 1.2825996871787972431 -0.88123881054806341151 -0.50652590597490076973 -0.81563281087050787388 -1.221695071323463333 0.19874700254746283101 0.37269015475767047763 0.0022662532194245958717 0.55825404981887982725 1.2663472442421832564 -0.47274546010278628572 -1.2139321557954010355 -0.51106207181879226287 -0.67128064805296006057 -1.8162685373492089003 -0.18353250903103771052 -1.4358354909924615495 0.11932582099160163325 0.016784004245126153687 0.95363705361634942825 1.3067077252888246175 -0.32138242453262361176 0.50853394005509122699 0.23112512786046354729 -1.5285440134171608406 -2.0074196754130873011 0.10350853388156923407 0.97653244479788636756 0.5875807647195664396 0.23855330571678040608 0.53348754664144315552 -0.67297447845530011801 0.96882566997534769193 -2.2762625025086666852 1.2006096239919350488 -0.92631535334963199801 -1.1538317641415565262 -0.12631078086933753002 -0.85845822923949055561 -0.54001908571128975911 -0.26617316163218635028 -0.27367163445237419062 1.0204912220264197309 0.44534938162999193612 0.55641743346609051635 -0.25650694094548820434 0.23122115092578693352 -0.22923696239716859213 0.02284912651072391887 -0.573534275859684195 1.0706426088708000943 0.12312797181621838727 -0.49395462905449055713 -0.49539187591979916281 -0.32493728893942397384 -0.93981631550778088613;0.064283466848590986586 -0.23419056798702928002 -0.90399003788113707625 -0.031083831134415276787 -0.25394447339682663101 -0.56913912190538273883 0.010681699895205839373 1.2036447031509263095 0.24903230615220806055 0.45587506181197101629 -1.2449844204057154418 0.15540232389008473701 0.39221061553203795391 -0.010307667854754121173 0.082284515765242371987 0.89283751031752300875 0.2486801639047504231 -0.22886778280843511624 -0.21565460947224093791 -0.51132384369125616352 -1.2762553555893851875 -0.42942387017569805252 0.65629325834437790554 0.2731610069527982132 0.09041678115617511613 -0.28763397592274825287 0.92967040401518719062 -0.19114980139002366033 -0.17449864335630349554 0.80489858928106106095 0.050855631913044610504 -0.8772890672919918531 0.47531737639919213745 0.16516129762724260366 -0.046621849373506996095 0.0062290086312624393106 0.46522216743751193535 0.79237134949327681088 -0.80861400129876515042 -1.3463181680470726054 -1.92445924064510554 0.91979796418044057482 0.22417010367142287119 -0.56570572485065073742 -0.037222173809299916036 0.18076907959369767354 0.092606930268775408677 -0.29608074055689720394 -1.9768149474113234643 -0.73762621971647823749 -0.15824926297382893581 -0.16752065935602489244 -0.48627481136433903242 -0.12915833648429006497 -0.023466647856186295673 -0.29379986367656979462 1.4374689478222177907 -1.288324638973680436 0.020173512836865345466 0.035919199215750693965 -0.05457896809149999362 -0.052453710032732345225 -0.85916299075507673866 -0.25015540998764307368 0.22985650347139199856 0.48837411458792479024 0.69443981313941083311 0.2167975361867846007 0.66032809303893258424 0.052274059538862785446 0.057827113143763396452 0.292912830614366404 0.079199063005501793566 0.96351478248756283751 0.69297811069527293082 0.81409382633759186376 0.26630870281936758204 -0.20322964497662199257 -0.2388747873827669066 0.22179369079441291213;0.66074010467815469383 0.89270776997399792219 0.19688963882271748318 -0.083440765767132843433 0.061880783765249448847 -0.15592752756897715338 -0.31442941801204882246 -0.043340066412821370845 -0.29174251170237147646 -0.035134133218319728298 0.30748039149490263844 0.89131446826894689117 -0.11892933771469509086 0.3318869584887683688 1.1711526591737115854 0.33786050292579505872 0.45923407634820945233 -0.34436193339596404828 -0.01356504097073650203 -0.31039985517844570495 0.94111647063393144563 -0.30086251369809019485 -0.18344756225146954809 -0.45608030245741609798 1.1873960777695902191 -0.20601284111377859976 -1.0907767749976513549 -1.6637192869154284747 -0.128875228808470077 0.19369395768607669539 -1.208560328375019477 0.30990128930511007255 -1.7040389397442512465 -1.2644336007018177614 0.31238205093662352319 1.2383206836726918798 -0.99126228978954322724 -0.73802729087730067903 0.76527295972575715144 0.16954580579374511906 -0.41811363578424964871 1.2275789614007177608 0.96507593066410868321 0.034064855425016901669 0.196181411104714154 -0.30823115452795313285 -0.33958263189480725197 0.027596645584385237626 1.4400516646959640177 1.1798437593076056551 0.3307978893689331179 0.75310893611812856907 0.38303868989121142574 0.48142613362637193264 0.28171663161506632633 -0.18650595771189310002 -0.58989654602239505188 -1.1211943085074425053 -0.85340811205964917097 0.0079131418547704335253 -0.79323276516135754477 0.37902029370531542529 -0.12025563953759646485 -0.39607739912869660559 -0.22511384329207625998 -0.50363979980409878667 0.38531519020238608197 -0.029498571294081562394 -0.24735465608937709514 -0.27181246888229770864 0.29604248767610374937 -0.67843157292929079372 -0.25407031606119351297 0.1809129190156672784 -0.86187383519469140669 -0.58413170726562269053 0.56901897922214750292 0.15705532653328224679 -0.18998000033941234155 0.63516195490093907416;-0.4875629659275560468 -0.5692785349563459496 0.69797819136672945017 -0.09761824147776557159 0.71734137932126817994 0.35061170932886204232 0.75279107235742914739 0.0516190791080343922 0.7430150642655078963 0.81969134749645700122 0.033235625288268448585 -0.47098715291084997103 -0.53404639003663811891 0.26476824704338453031 0.25150501149977683157 0.85813335249593181153 -0.42529844086446161322 -1.4622652758823531105 0.36284437387445822587 0.70689361536153116905 -0.44219106454276491114 0.74128172522144664125 0.046064219174553923397 0.049292671419953679179 -0.83105732510817631464 1.2777707653161229917 0.8298317741847301976 1.1737410923754671987 1.0067619121130371163 -1.3925561236733425829 0.83704826718954672415 -0.50290508139708878232 1.2495399208220618892 -0.33774780757621525318 -0.23530998270527572758 -1.4034000896596641184 -0.77149998133334696249 -1.1220661526126800567 -0.49861274041555270209 1.9832433432196163725 -0.5616249811677506143 -0.82364573057033030334 -1.0408953707383101772 -0.47515085504403964389 0.50346615115779858041 0.19102568587936988309 -0.30828877868521709082 -1.6620337863505441067 0.072761758059936079701 0.079649641379102048555 -1.1094147810919587904 -0.21613112419092408989 1.1536449052262018888 0.29626026257792481555 -1.5993165113129685917 -1.0763953185123222855 2.1174840143970690143 1.8791104932528521765 -0.022183462329622542081 0.62787927674849608461 -2.2077836840953248831 0.4555340568701857773 0.95548445745587595734 0.89854077585881508838 -0.084813608076950361414 0.15695341030330844934 0.080858271627707006823 -0.22457164109607702374 1.1554456684731451155 1.4172993879300586073 -0.85122640421673956279 0.36202884701663784472 -0.8024724862443491924 -0.92190227813533098811 0.47576198741803121806 0.0083568556956656499246 0.45075709078787523643 -0.89792506947057626476 0.61697222549772245959 -0.64274111516203880079;0.2102686194664480368 0.070407370337197947019 0.69198347605832155605 -0.79538255925537626467 -0.30242536048516494018 -0.10082524877191106905 -1.8369863009064153481 -0.49899387715404724952 -0.23530571049438900322 0.12665371487659995986 0.75890590971111648866 -0.11407490801724848306 0.36093659448961606939 -0.18580856027818709597 -0.29300633360371231007 -0.49520524947291000295 -0.98186071783069328589 0.26572300955343775009 -0.75996839704111429636 -0.11786412087964265316 0.76272043666052657951 -0.77686843211404088549 0.73525795722890485706 -0.0097899862429414660769 0.55309980292086013964 -0.72467010842470214182 -0.61690136919735116816 -0.84293742591508047379 -1.3127168334530983085 -1.2298398700201829126 -0.73778133319481975505 0.3592552019534488994 -0.092844601594476217077 0.78761519243834487991 -0.82370146082116391106 -0.52092312678903684997 -0.91077822254442264427 -0.69372894811927232617 -0.54921258697891239819 -0.873683265467784409 -0.61845013789374980728 0.0025186969984799315037 -1.5399523783749737849 0.17237513766743217669 -0.63194532991266727517 -0.59514015108089468598 -0.059147578131192299344 0.57511055691870838213 1.0817412349893940071 -0.058035723659111179695 -0.97168130236825189794 0.24561464459302750907 -0.70379360497844301037 0.10485464681478780247 0.95774398991320597307 0.42794914550733720304 -0.090713943566780530503 -0.148702026995552683 1.6314697247427392135 1.5529723816248157675 0.685836981878491736 1.9145740511763831293 0.59271745123023800161 -0.016756590930747446155 0.64496762067701329801 0.74468569949357199533 0.37741879093634900233 0.0031563067557706945068 1.2268656313120303025 0.073964790025092985726 0.040615789119472500701 0.33446549000134734309 -0.52965651803975499767 0.3202857196394892636 0.12552223423220235099 -0.087801963378452516085 0.85925940528573163668 0.37571084726425935107 -0.21868489949064465194 -0.33643568636261467208;0.72498540570733815969 0.037642392530616700097 -0.78257151255292700665 -0.13911596487892166629 -0.21005673767616239722 -0.47726169958322456344 -0.29790805074505466443 0.53388682003134790843 -1.0685634424285246347 -0.16847691260612868147 -0.25551906498280996249 0.22720498284042769943 -0.39881708031609586218 -0.62745162443986601808 -1.0199990586881730881 -0.053540104456640882913 -0.26368293296481254417 -0.450311878233269125 -1.0702194465729450989 0.015726879563520958227 -0.15535666336617301453 0.17476060752858643688 -0.62981061075180000408 -0.34007088540822177913 0.5748794077314763884 0.18381125226060351929 -0.1719412848755947909 -0.6646148203642601171 0.34592242064279732361 -0.8300019934807826294 0.73977454481633853067 0.75697952767415555009 -0.39217428043845925512 -0.76404490194863317054 0.16121840601568962481 0.33796815315415784653 -0.44640397965388906032 -0.51798839061792489868 1.0114913574552926168 0.62206993871867533041 0.95910375212709553239 1.5987829594713580672 0.46041379824927464171 -0.1552188191446009502 0.20608787959336755113 1.1199584821728323369 -0.42279416124935065291 -0.13371998037068325016 1.3389193336406099988 1.0493401630942358338 -0.14649750709455988673 -0.1044917748216165343 -0.68116125937321181372 0.21289570906027263653 -0.30785777284681109522 0.013536019616096385543 0.13594600486557362196 0.0074107247042563550998 -0.93910243739529764007 -1.610559379007715286 -0.76733275834626357703 -0.13007890421450907237 -0.057007045146680521142 -1.0535079428468747675 -0.7524448742028199133 -0.96791986599456525386 -1.5756793347413846629 0.54801932283114884736 0.79972201009345611489 0.24584890361349112653 0.36688575385559168973 -0.79589411670930654275 0.042022159789148964826 -1.8579577697325448948 -2.1985599664232764461 -0.25286958909706463983 0.95472473099525323459 0.86687967152610312382 0.44443037055983342087 -0.19002918767669488287;-0.74988349040194379747 -0.74334383104786594387 0.50276583871725766262 0.27385917070198623202 0.16935868420762484332 0.58289404556867696616 -0.68800168032583874922 -0.1656072298185704561 0.030735853666349649549 0.94723235832439878212 1.13864010494736978 -0.54748189524214796453 0.18635768410568731568 0.9905118778184888173 1.0174078028155868481 -0.035811081267184893817 0.030325775654940177739 -0.93001741303549889661 0.8704610283278458871 0.68253690111107345739 -1.0026271231367145376 -1.3436970197937210258 -0.083548105047419163327 -2.2640225533110078793 0.71002991722227459803 0.11205387682321595044 0.71549799273849457037 -2.0936472623978974461 0.28914319950471994991 0.20880133507472475873 -1.1411131390225295323 -0.065102935013207574588 -0.80564893836134487959 -0.35695842488539381021 -0.9013605147883283486 -0.50169210251930462796 0.96495536783155633209 0.32561686371430065279 -1.0472510115315174506 2.2681789175533459968 -0.53684731580666578132 0.33017379257406070936 -0.69110685630307411298 1.049702286926844419 0.35096269818366632176 -1.2959495104309808333 -0.17226337704251945548 0.91142867960369766678 0.21416498667547786972 -0.10227950368155340477 -1.4251670982994024683 0.49036748480984460041 -1.6652783592150692815 -0.11467447086649448784 0.90097952803256176058 0.45444760033037001623 0.68512460071923175775 0.33074493207711141984 1.2228666912560630653 1.1567737427545581319 1.674372450272262336 0.28513866360556128221 0.96553680022109156234 -0.56607003186464543987 -0.79092224942793420972 -0.31984352188206444101 -1.0993800944243550255 0.35250033820983089905 0.24504271365417712447 -0.029254734465936418908 1.7859945040391249638 -1.9186648260702148239 1.3730928675792852811 1.0894135328106249183 -0.095451851735953829881 -0.95701346095570527517 -1.1266728973324153795 0.23335088766639847102 -1.2254128614421200272 -0.012238832458601085762;-0.80700323677242469245 0.028973181148767693238 0.49964971543199104831 -0.86691740314943754875 -0.31772375725180029837 0.012481317419848449862 3.8645083069673442644 0.40056265334488289076 0.73072873533987403594 0.24706570842624611672 -0.49216683853876502797 -0.39827780548396946037 0.089745792209431185515 -0.58807271177069553314 1.4121350768649236773 -0.66884053009976862647 0.70940610608831233819 0.10840726079525249415 -1.0518033650132925239 1.5910152047682000198 -0.97087904523634760423 -0.29473930277834153868 4.790513480639106092 0.40135031005245042079 -1.0639421763687730849 -0.041873609479470663697 0.64788518257819127655 0.95742894347304852154 -1.5163012129208248702 -0.017772446605133877806 -4.014671299948433969 -0.71313960880117654995 1.905349971572861012 -0.11498670326984702927 -2.1357796273571256762 -2.2400101093444106937 2.0408764582897571671 -0.33178037033143537027 -7.10235981452848808 -4.0542500869087714221 0.12899636350028548248 -0.51217759206094370938 0.54216929379218181673 0.40995411749476340368 0.28047716258327731742 0.91194601954371945496 3.5917216443232611311 -0.25230890250730675373 -1.2991802094452358229 0.40942204470551046835 1.4515511598249479785 0.66383975567312647481 0.71992683003924751173 1.786059346975147788 5.4599255962294774847 -0.49772040235739989367 0.55626313678785188621 0.31864789947059979358 0.12168951867073847517 0.061658226815898956041 1.8015128588296178691 0.49579565674663034214 -4.1988856596230501594 2.3054055783619187281 -0.83661307557739661434 0.026105530506404073243 -1.0826746840651371162 -0.665690800755864176 -1.4890234855322976859 -2.2769045807956573846 -1.60204632019071469 1.8971008700941160985 -0.2943394835324945058 -0.51391985744058998886 1.0387159309974562937 0.24270162002770012677 -1.0617479856348246425 -0.40361095071407848689 -3.546241604698413763 2.1610592441716143242;0.5686892737016235877 -0.3453778334786247739 0.0077046336930824479983 1.0905430643003195534 -0.52976563033957402293 0.096017582344114962845 0.35989272009719625034 -0.63338746116803612551 -0.21367610167904740881 0.15410114102111666101 -0.32832976287463216947 1.0026221762533393811 -0.36139012210939097658 -0.19542803477545936386 0.1656296568300871519 -0.83656044589376898912 -0.43850927339752354683 0.67172332334802864473 0.10958297902233185561 1.1699437421645320079 0.37442018481241823302 -0.26167690209313393401 -0.75625772166085802883 0.0594188489835847794 0.37006955552342363225 0.60576878150853863403 -0.13639805419628017735 0.66036910794324055196 -0.25548239404808886777 -0.82166056568222722856 -0.17729872054187356678 -0.46641675408149785298 0.73496668270549847524 1.1455870336937947762 -0.90783485434075572584 -1.5024277613254088948 -0.21047973598947322671 -0.7350524540497401782 -0.3872747525009739844 -0.27804006682581627885 0.69171166580719012362 -0.26301928335162494399 1.0197357296601901044 0.5218180313706889395 -0.33179686178258915863 -0.172006488052029477 0.19851855047896529993 0.040604796425437503227 -0.45386525385881171246 -0.10910487666716239818 1.1001224605355339747 0.56183739916213282228 -0.82179004453474113756 -0.27140087063903317599 0.030104388053557175342 -0.062356754425588967194 -1.4212716426480849208 -0.95153846628252414241 1.6177344663389054968 -0.036772675499272440558 0.9747574030999734962 0.43212833720962418038 0.40937882544061415802 -0.1203615154602640791 0.46058463312642050624 0.16545484415285913182 -1.2147116912613089568 -1.4268104706097270995 0.20350888887530813043 0.19334547175076968739 -0.20272288995844378601 0.44295669742209853315 -0.25577051578957493705 0.19638834535882188082 -1.0161285770719248323 -1.1630206680127570529 0.58989083432808431251 0.53649836506588255425 -0.48469960950780954789 0.64966217792279778998;-0.93249939501554657273 -0.11777650785970270042 0.057030859509445377964 -0.73461076947884873523 0.43349976162471620666 -0.10867139495477250166 1.0784669621083198265 -0.16953193395869711746 0.10566431244718939297 -1.3187690853449274275 -1.1584236399002083573 -0.38013113015515376247 0.53652249348950331598 -0.83157975553370577781 -0.85182202031389242514 -0.53646729131989923101 -0.48074757646514643117 0.18609279492917862875 1.1208853705893127017 0.092005508459044496594 -1.0010445684391160448 0.92450140308039407966 -0.4809373640956671192 0.079257516719518916748 1.3493885825758853425 1.8379211401999329123 0.56363508297739306485 0.97536072249099148301 0.7061181307794318629 -0.26921548407024092908 -1.1052480033055172015 -0.010003154298159254443 0.23653725398441793892 -0.29418511485346438006 -0.014323779808528835922 -0.71651864415926502794 0.34609776080019427624 -1.1855511603873813975 0.48613860951481258077 -0.35492921478160516235 1.0039189502439591628 -0.52390535400015447731 -1.2001549727973950255 0.43903941065395496457 -0.43074803232767922001 -0.21352853392177509328 0.042043379302345945669 0.27834307957059761796 -0.66515714342607945575 0.1741660189698670258 -0.49738148828533113033 0.11215074051728596283 -1.1447482261890267186 1.5770504467129287107 -0.33256789075153869728 0.090964418932362289816 -0.70903756372057846757 0.05825947412613013271 -0.33050035197619309635 -0.31773654381410065817 0.68524567547578008053 -0.49414668110934306666 0.74191749410050555902 0.3222234728982545926 -0.37098339940584440511 0.59494904002807058596 0.34011584529041039016 0.27914395945594461246 -0.24704505317026265176 -0.064667594191300289963 -1.1500762358879155212 0.40932596959531758474 0.69742914045107651244 0.80825467177124032947 0.41082694991916129945 0.24421172875665586588 -0.14514957678276449449 0.55677843601152832154 0.79558983809496541806 -0.4117459937443819773;0.93606930070553673318 -1.077675140513250307 -0.57122573247534003116 -0.15250756697715475707 -0.063132189413938957778 -0.94318732805320160129 -0.15765363488072944853 1.4074178791030655944 0.35128217146287105122 -0.49703301626746310138 -0.83118817284671986378 -0.34487678993021436691 0.25543573216098569567 -1.2574259037124693172 -0.31691075542936614218 0.74785019051632584119 -0.27181053082579265112 -1.4399797709168999926 -0.92289275731048192597 0.12014861533048055986 0.1414574880738714846 -0.7462368232791436462 -0.78285124144151152503 0.57308588822593709011 -0.48237599262545494128 -0.83499140996079823651 -0.30189406919270606044 0.40466924173778984208 -0.79195170395689706844 0.12773334151682294579 0.098306234297486944085 -0.12496415604609267813 0.88453001621593307924 0.55718184222839839403 -0.016676762442567910627 0.22032863547884021238 0.50669778389369535265 1.613436137516911506 -0.714794367946168685 -0.61178607941611928833 -0.98205953990072381021 -0.99667030317282112595 -0.62289662244596699647 -0.57247638050731242121 -0.41437243044488131227 -0.62315488197177137941 -0.26152411605791797689 1.1369575535083848994 -0.34854988651737933703 -0.32509521611280534081 -0.12479061164462497413 -0.81802464771658534026 -0.70015774614705583723 -0.11067705449798082018 0.24345050968423787019 0.52112049173860008899 0.28094047189898269101 -0.59556838333413075759 0.19324451881845666756 0.97596587930526801369 -0.99054995774108656192 1.2790890749704073581 0.47141641806103723455 -0.22779282032118999823 0.78816182013939695139 0.11477085389467470145 0.51308383746386543312 -0.30936419550978649928 -0.51282829135031737788 0.34437187030277482958 1.0680788487810635168 0.087897002958021719365 -0.28256101139516465182 0.88893366414415608823 0.4788669917283204791 0.03335223189667747834 -0.43199237160149173143 -0.29947600198341878253 0.60479715516127297015 0.026162770653367362073;-0.77519948272151628643 1.3286322962413346094 -0.063685155893683093042 0.45125436250340694722 -0.15227977305483081372 0.52386662926774774096 0.47872326134362108707 0.13174091686685907021 0.7243895931541352029 -0.60292636125130993907 0.46927945808048399101 0.35506187792013993443 -0.30689598882098656496 -0.49162980469951195195 -0.38190031672824981124 0.74005837046719324945 0.30199313418843415358 -1.224961297433573737 -0.31660048156726844359 -0.12632421986302949657 0.35183870545570644639 0.5304338511496875519 0.15947138577105862689 1.4664622933953050943 0.63879669155056062468 -0.37364350336618112891 -0.11915087417203133746 -0.91378531878632529573 1.0931072488527380226 0.51295692286127259063 -1.0324735132999602882 -0.33458079380236988021 1.0406852698532358392 -1.2611306133771640337 0.83239578785992973664 -0.25425504260504505627 -0.70341833139349141391 2.5746796061744259276 -0.54626306583223760427 -0.46466600543803709966 -0.64244321813695193235 0.95801183164042924556 0.108459290972780939 0.57061780992399713242 0.46223294911886664282 -1.4532312169850498673 0.88948458582634981617 -0.20314511228160339606 -0.55352489855267461571 0.96135077589181561208 -0.327788631505031125 0.98586249750065302333 0.41406390060487696658 -2.6778410735138216126 1.5605800807708924971 0.29727085188379187564 -0.34122148416159575612 -0.22341188632586703178 -0.2648797690387965087 -0.55106079133128971215 -1.6766837806797862953 -0.54339242811691124135 -0.88610204064652897671 -0.44664780446630214517 0.15590150159666404939 0.41238718043427824433 -0.091716387576382146785 -0.36233686034629564165 0.072181400582820950951 1.954730469126910064 0.17476414545904273012 -1.5362900807595565311 -0.76511819227886945782 -0.50029143840680878608 -0.34541797683677943898 -0.20043866965091400312 0.17416012579150058626 -1.0766916131658870182 -0.15325841803018735998 0.058871296395484593034;0.19241285861550214142 -0.37910605970276967103 -0.17937738714280043739 -0.32258729940855207508 0.12065740197256304145 -0.86462710362951322729 -0.67372817498813730719 0.021805732324932141503 0.2998214557531355684 -0.66791250777043298381 -0.054403159002354900542 -0.085576183304383879324 -0.019910843135782584079 -0.96451080710711512012 -0.47639722198689971044 0.047070189289726602211 0.35664711698077228297 -0.22882239177143903763 -0.8726764891549367853 -0.09655633272192930272 -0.068144294586770945421 -0.92092478490696483284 -0.39803247702233945926 -0.14764627911145442041 -0.057325350350016825163 -0.61854550997100521403 -0.18136853397678676103 -0.25999373186763857779 0.34215726884655572881 0.33865278131578829823 -0.60795492295412223438 -0.54272239903555030693 -1.0239087142131453323 -0.66874377518970007372 -0.11247313328045642489 0.21113665450538351975 0.64392808563997550042 0.46152261955192275256 0.13208522513236004015 -0.76346262070650561249 -0.93475949667286262201 -0.70077315100902137779 -0.53684855142329823696 -0.38032727473528005202 -0.32608118091227983326 0.45421390204707767779 0.53748764716308672362 0.32255488124967396368 -1.581874477287115166 -0.94814464436122891655 -0.91880533214088333516 -0.44582653838909058752 -0.60887496944943009236 0.097719881596161198289 0.60592039225177718453 0.48412728207291488847 -0.39135974644900650699 -0.18896335568369884705 -0.91975757887868458962 0.85211091226276747257 0.11766191186509020183 -0.20173174232199125866 0.2871212256657952322 -0.50474506268334839998 0.84242000347027834461 0.7077594251960159788 0.37090526851294741695 0.14235652341442067703 0.48118096463825782427 0.4557902414580474737 0.21812335371360397351 0.35853722790999398295 0.31674432696798315856 0.40103968754588525947 -0.040981065146082115702 -0.088405064140290562369 0.41406613115253432245 0.92729237019870092151 0.69506525946787001136 0.097486460885241890684;0.34171313244113288299 -0.19484869080780797823 -0.070454471935849208308 0.31993764034773519711 -1.5255819700693062924 0.76321054819857481188 0.62548002449419781712 -0.3759403490044763152 0.17626396942856767391 -0.53065933744735949151 -0.57831385647822253215 0.39418637258563488102 -1.3702048449226247318 0.1915006997779417075 1.1278396057192587865 -0.42531322255137637978 0.20313939908549291657 0.3935339423402724468 -0.73550041466915816457 0.1124380392319896671 -2.9948507405487982957 -0.63565178948379874591 -0.96755335354259619507 1.0444044915005425977 -0.25203184672581052661 0.86748233717503187012 0.91955883645754465938 0.17477518060551097689 -0.18228749853296627448 -0.53587301197544967568 0.14230785496808173729 1.7825134399789910322 1.0719769434261561258 -0.050782132774047750168 1.5278955895813088883 0.40552832605352373552 5.7160196046184950092 -0.42919660926146563362 -0.544740213601554224 -2.3403315512536542187 -0.060288678705420303827 -1.2601303650005579726 -0.59123123252634246505 -0.39046683221835798427 -3.3295648607078636161 -1.399122555520306399 0.16905068116736740591 1.7487097989506585893 -0.5635511252506860691 0.058003310104911005862 -0.45767888392705319278 -0.37308905137156533893 -3.3694060439494442072 0.61325511103126628676 -0.2179591693143050346 1.6554809540062187523 -0.93933085570004559717 0.75763739105573835175 -0.82597673906655311171 -0.69520372177537259617 4.5863570497982824037 1.5767108380769847553 0.42214757902219207653 -1.981015454498390449 0.52548543963918370459 0.11729108120924552905 0.59147143646720889976 0.03813742997759403397 2.5019050096033148556 0.27696936969060687028 -0.072379615667654884081 -0.50324327497381116103 -0.42728918159833950696 -0.31050510132576131239 0.10297442718315114041 0.15331709250984654203 1.9302725991275937467 -0.54685943126035685413 -0.87898364325231992389 -0.7789967675881462883;0.15918909805546871405 -1.306506937895949072 1.3375376775715619448 -0.78159295502877867978 -0.30562557550062963152 1.5957029504493969174 -0.92255262947602068024 1.0678089942928405964 -0.059432804474938746853 0.054971433981647666034 -0.0044988835673159463524 -0.8758830264690166123 0.36220677674010348657 0.84464721468894643497 -0.58013224072320113134 0.11072513809282064079 -0.23649605406732193691 -0.48164167124343110205 0.0016494640858596282262 0.2646038820016026194 -0.45075576669758904425 0.61920289754702595442 -0.41169391892105555719 0.3694293567325198091 -0.68881095086010080131 1.1629351351484538135 0.10547061942614832653 1.2105737618737457684 -0.037316018320521802953 -0.67704128376707417569 0.37685535684702597958 -0.71505273535690494491 -0.92533684638142454926 -1.3714227389117474853 -1.2919675789925137988 -0.2466433671627469848 0.63281428825555030571 -0.67148903756757749584 1.0031011095714317261 -0.39746985342615692716 -0.14961875537471830411 -1.0473957419669748248 1.1334998877284707675 0.62396122031345024883 -1.2733579783896795679 -0.71441433870904291759 0.59662522733573319922 -0.052159305882317597014 -1.6449127892254169492 0.55308845929283534382 1.2793223977064831498 -0.2248368015221544336 0.16461062009541954643 -0.045815481385354413224 0.4573350800696016627 0.059034279311117369982 -0.51279037719101627779 -0.33828548458374574359 -1.2144899190521483145 -1.3436501562960341261 -0.40144696464271928393 0.91917754770445991852 -0.28317115436583828458 -0.90745626436794690761 0.93528954274312170458 -0.53868157761424262375 -0.028837545723577277107 -0.068375756002092974439 0.0081865530903261242435 -0.33340270045004966049 -0.62398325271940791037 -0.070166287426828025109 1.2495930770098606644 -0.42800276033704398593 0.74904463350892980245 0.88408889850155225609 -0.080155940531350305944 -0.31759388136006139192 -0.64499374709143952877 -0.71964963541124471469;-0.11890648048303131823 0.33060610160017467329 0.16776260713334789632 -0.22193163798429291211 -0.028862928664382874605 -1.1666008961359009 -0.7032516223087504903 0.73317804062678981758 -0.4555994356547434232 0.28460247204275468391 0.12650367343513568841 -0.66575453821331953552 0.28292936761268661083 -0.78499111771512375402 -0.89717952037296178069 0.48596356144830499257 -0.58236451065031946683 0.58676458685740651156 0.15930456018475863678 -0.16817714912181311315 -0.61395316023489476809 -0.28403710815147631408 0.14642508975976681329 -0.22869781720913173739 -0.41909707188780637166 0.50746192706192594368 -0.13334914181656726262 -0.69402619055865610864 -0.24084011598900398332 0.11706208589644043205 -0.54895730859865665696 -0.5823557674441180998 0.25096860710760721114 -0.23820915534904432698 -0.095565312089229359493 -0.19445218339437750354 0.40132179498554215735 0.44034231320261130183 -0.79147028250820550266 -0.86187119400760836552 0.72539831459205017516 -0.39249871982991435537 0.3150793848171450362 -0.38353079236360215765 0.15221037077883745048 -0.31288878362784422471 0.58100199061016621904 0.45473977215660266182 1.4696231136314230614 -0.49921495344778032965 0.23190076135614742792 -0.52791873825449653346 0.10847660801696232258 0.35950867301002553678 0.90659421974121712218 0.32051128902039000002 0.22650647162099168952 -0.090526044643489053665 -1.3470022923626510103 0.86485473554677994024 1.0512285252302708827 0.41852906022980579381 0.010037683920077559649 0.44891535076453181752 -0.62182232475877385891 0.0040639006157614336601 0.096869118116880897906 0.2928167975685116442 -0.6887379391214125679 0.23702815203397742394 1.0551262660033020602 -0.30791950199272710709 -0.21941363686850515191 0.025676382105606812556 0.57728865828894260215 0.99816325315795384476 -0.14915839670342240231 0.23673681749853087153 1.4367322370483672778 -0.18383914774096382638;-1.1051123915226357397 -1.6194174986807319261 0.39090152788347665158 -1.1577093943862950542 -0.63568508514411581345 -0.78250870684118267739 -0.39774730094709925821 -0.77095913259457815592 0.0028183350307244975363 -0.20170742308855982294 0.30545298597650699657 -1.2141867367892063001 -0.074826477604671176591 0.18776151758170542272 0.070424634555338067043 -0.54311716266425680288 -1.0915312924006532747 0.91667881754752711387 0.73991663791077244561 0.10020939761138941693 0.029108348479903421724 -0.8317936078858402249 0.5829738675052338337 0.25081136589192626341 -1.2283927327170338639 -0.36006719380391027929 1.0520542461564263981 2.1015822259741669953 0.75062867699360558138 1.2155717733817550386 0.41544291764011898049 0.9104117219946937789 0.29926714347566968355 0.60891519704474217356 -0.91661086311413442207 -0.11463804688552430011 -0.42753319650272048058 0.59139169119023493604 0.036425955398332876545 1.5850233746602222507 0.20451732055656615672 0.88230224715239047306 -0.76203524769840957909 0.1936322583088839755 0.37226014136451612835 -0.30834228115651957092 1.0862069347575542544 -1.8020194343913666923 0.57835648696553310089 -1.6799334540010963934 -0.89692736869435707447 -0.13310885403178099318 -0.090159836839634036054 -0.34321496701546638786 0.030607642742936057301 -0.97865647499293395573 1.3557066227914680301 1.6123826748568630407 0.04496652031516332193 0.25435151325918869958 -1.0721703967242326438 -0.91273926550510064981 -2.7145492906780375186 0.71957487987952584163 1.3289819343900270976 0.48648246508072107153 0.016771591421942698419 -0.23524847725758191164 0.55111645114353291497 0.037153783994441781646 1.0014419052593799275 0.72038814619201818612 -0.12903075752347017979 -0.41904705591608965021 -0.053334740670830313447 0.30983431544767142674 0.87663747652865964266 1.5251538898296559399 0.46154145091736364925 -0.67952325898857990349;-0.75508493235373885799 -1.5029578918564401313 -0.62877008200070394484 0.60175347855943361886 0.078714895439471577188 1.3007483456606321326 0.37500875167647157449 0.14208726149283734674 -0.40393037558074396109 0.88974245580501665209 -0.32750911729732090638 0.04029957937502748333 0.063290306326900233613 -0.25227253188490678104 -0.79984723139124369595 -0.59545091818742945655 -0.76014908487537280468 0.32523084734063223422 0.55272250121886501439 0.0943796432492093329 -0.49597558902360300293 0.29417012337616160744 -0.86160475979063955165 1.1808248021061305 0.41836634378748011054 -1.4324271115066244953 1.5731645398724445339 -0.51150937865708523411 -0.20441546082494616021 -2.0093332449447962595 2.3362641452640260376 -0.53590186185287458365 -0.61822672641199749588 1.2112450011341049372 -0.41959243780236055166 -1.4173430277402860877 0.57599273823985708276 -0.25697646531512252643 -0.47565843783317690585 -0.34051958494940226529 0.59054865479730955791 -0.16019335932538242284 -0.41350326765593486966 0.18658571343222854488 0.3212760534835519266 0.61760092489573348296 -0.71542597138911334653 0.11618679741316881304 0.9852733526433775646 -0.63728031978795096624 -0.19953820947842493272 0.93187096837593086374 0.46220342298768529732 -0.71580990153719936675 -0.071197494338859121377 0.0074532950334732697012 1.5318200302633142584 2.1975962654238281324 -0.58891309104906164329 -0.0037592089779913753778 -0.54778853109651326481 1.193836043020606752 1.0947817777184021271 0.15671302608557458047 0.22552220919020785073 -0.090681702443959885662 0.24973002440584529671 0.033615968484971489594 0.29497967503362859665 0.082960377172999685835 0.097014869756500865527 -0.13444768323542419242 0.025052010839814627119 -1.0100397138959027465 0.0077410247243715358395 -0.14405606451607275154 0.11595218436862328448 -0.27505138065897244415 -1.1830110937426712159 0.098721632677877924067;-0.69962700454704718211 -0.26947734382625604388 0.21517490664289895541 -0.74618306010203205858 -0.50084419682372594007 0.64694940264700440125 -1.2816600546175183073 -0.45194360159523649934 0.021189103696215915579 -0.11618070975839056569 0.21596122537871678682 -1.0658349061267693436 -0.72200093728594505471 -2.0767122968064763988 -1.4842897574353033363 -0.12053795967396310762 -0.79819137059164935177 2.4587969101851734344 0.54312322217007824587 0.9486613600628951426 -0.5084064906899085079 1.2896434853614249239 -0.21349602617048440978 0.67352241274272683924 2.5934814350432824348 -0.095908005623259198758 0.53745748523024705623 0.7127448374953658794 -0.25659804874321689994 0.3426294878428159385 1.005302820596266189 0.28536028016451209233 1.7285305976416867058 0.76728255925176414021 -1.2036655551077855009 -1.1371918982937589959 0.62651873613533948237 -0.18983252085024354683 -0.4224712156090920101 0.25082736866400473508 -1.8279838641246477504 -1.3515459219175800509 -0.43607640256842400417 0.59109951208822852919 1.6915154972416848178 -0.084363108316115931196 1.398336282364289751 0.036408258908498920825 -1.4847627165477490507 -2.5322443418366193946 -0.54660045070373941556 0.89786857943006337379 1.5341539074155672306 1.161994913468193058 2.1962776810054069898 0.57758442978277702018 -2.9093587518866841357 -0.5523705622576787766 -0.64356416448883779768 0.05188013364947163808 -1.5729281420216869591 -0.79395233788920382967 0.51779469527264199158 -1.3130709696067202064 0.38164573783232491611 1.2128125896644832427 0.64973873864361919583 0.4713122344917069495 0.043306714053517686436 0.60211364793505817161 -0.24792206547961109786 -0.37316310659325629961 2.2996454007446285317 0.25479596817249028362 0.28807428560081949076 0.60179015547654313156 -0.2932485752319456962 -0.75439147241078552408 -0.094706953606207622265 -0.56636818307141501005;-1.1818025900041519982 -0.40110091934846364703 0.87058996734157867436 0.045711807723256336899 -0.41740673958466406601 -0.60739971834103323456 0.20829236645508564241 0.90907847149314136015 0.30073888004919901995 -0.23309270186555389182 0.8532134743089312412 0.42293435327809680846 -0.55105415570648963453 -0.1058442246552363103 0.1200244898743039329 0.1187911751273146993 -1.2981478526979872701 0.44092862573854479935 -0.067224928653711768511 -0.4125102725272401516 -0.021021539807291381857 -0.59624291557930808594 0.25839086832086882728 -0.0086952586789742214446 -1.2934955024824614789 -0.29231008436170308196 -0.073301793638766613026 0.39483238262192138501 -0.88099874249524912084 0.15674914075987367301 0.68302506465731194218 -1.3860196993751403571 -0.23791646753891163013 -1.3319728821685747899 -0.95094286318103049549 -0.44652363256541793834 -1.5556131738056122593 0.26618892201802557551 0.48185825243159385867 -0.85936822716899397001 1.3227016214875075839 0.84413994318298224417 0.11436816159865861864 -0.18489323166631144169 2.0754327364446925053 -0.10329783525506393282 -0.36192666466323814012 1.0997511483121977793 1.2519465217327554463 0.16721315490882576738 0.0064815862428965372033 -0.69958397826917617657 1.5049065346935230902 -0.5472438567325558223 -0.2703746365176392108 0.91457422899456053411 0.085479612717159966784 1.5641615248742317679 0.4026378602750944613 0.57635484788445723314 -0.24627524274707557339 1.0103180825831452605 -1.7807052189242000839 -0.73869465572269543685 0.056265392085951715373 0.07955092658005437356 -1.0986239776775619248 -0.63442228611732465193 0.25678443272998052738 0.51254957979782167499 0.35951984270174663916 0.54605574406224621775 0.89845022962947385103 -0.54618862398850587248 -0.43531526488736427272 -0.28328966887054585211 0.50843112647745092314 -0.14432699567721329892 0.28132146431640309148 -0.18972310476754830622;-0.77658984698008104441 0.21616254826415423618 0.28539300647079524076 0.96931029901982623809 0.23817279945572167321 0.096994809500520987045 0.90412714594820398073 -0.032310731309683655976 -0.4485968249863599433 -0.35921499526544520275 0.13577869418086405129 1.1129363101109146506 0.1310678972386881691 -0.084393059576423845591 0.83168084251409579721 -0.96716680747818062347 -1.1126115926275879087 0.29881060042998675019 0.4677906225011730923 0.24966952315315715794 0.6145567172734331951 0.83146598177924979645 -0.093342613622351799929 0.37552360848983568076 0.16398306734781270544 0.69751688055907345998 0.42537265985426125914 -0.72543991709807886803 -0.10391046165378289845 0.86320541734519384836 0.55904248711894777291 0.39024653598801556376 1.7037142777393246007 0.041595960020600633578 0.38842998682414747735 -0.57177188473260731616 0.21428876890846168535 0.99427275302912121457 0.69288054497065054704 0.1254995267886407917 0.82042322519265076242 0.53639073941075343654 -0.51109032516876184982 0.6496476794442058722 0.22242900376709617838 -0.37925445751365594038 -0.10883194110513555453 0.37148929290406113024 0.75933346803773893452 0.5211792542137569928 -0.14640279753975193877 0.29141823443049047482 0.18352391179664837018 0.13317087367428914746 -0.070697253910330326576 0.59058677460001873794 -0.37885700815738720948 -1.1600116539096059221 0.40205099344416100893 -0.45697113711277104198 -0.53141609446783721893 -0.759325705937343165 -0.77151470017627876707 -1.0905019109977804881 0.45159402962006955917 0.077866798532632119922 0.11121536064255374554 -0.26782726444650101216 -0.11364122212949068214 -0.90284411939880993003 0.23902237863854694511 0.14715907149810672494 0.22467424741990524306 -0.20442260196284262053 -0.50310852209214251829 0.088956063162031487335 -0.34156674524794883308 -1.0950961541294257362 0.19779380113552585962 0.16300380548180437579;-0.3672026583015988721 -0.075472972720100436894 0.8665672667064857615 -0.023467351730700660578 -0.12274561438369321897 0.67769651330038238601 1.1155265547554669148 -0.42470132565177054484 -0.72924104538748613091 -0.48702790669589768324 0.78543297856271565571 0.52353178404309885785 -0.26922726711185307469 0.30810864148561067921 -0.096938521442200747957 -0.80753448581354447811 0.056421937289189191822 0.26114136402761950473 0.21052322319333610645 -1.8511944181161303913 -0.20801604478361881978 -1.4145215247662346059 -0.71791631569667657686 -1.21231722765288219 0.10817774786465485237 0.72108231906948805356 0.47516138058236306874 -0.31423063926794270184 0.73644710079658715074 1.0994534764608174804 -1.0799615623968465972 0.54386629460889190923 -0.55409695717161644435 -1.7124217051119732247 0.089585731894235229311 -0.14783323945574855518 0.3961904882372408454 -0.73241511881580600996 -0.81049673946318756546 1.0839328467356641461 0.44702090016495754643 -0.057219028893228232602 -1.2270263150037767907 0.63100890865109726668 -1.459629045295382177 0.040890060925768453859 0.87674296182319122472 -0.12186159343641345121 0.50986861479358547289 0.79695332047088440763 -0.95503959933826076956 0.78046736599970900627 0.52054668364705225514 -0.35886060192712110339 -0.42572949513927738074 0.75300867892738498899 -0.45792511698232407635 0.25887700558961768138 1.0666750382284724274 0.9924873858416376482 1.2008268411520661711 -0.28590290543913587928 1.0240499741504645037 0.35256847048504619258 1.6151906068190424737 1.0885362103124041067 -0.097301638408779644873 -0.99997521961340496421 -0.7715451893659686089 0.021057892711434676725 -1.0232657251215084848 -0.079351680632996718368 -0.093640968184055262125 -0.11809044578662236669 -1.0469726473834264358 0.36248338485050279889 0.07859828332583360111 0.5294134320719792175 1.6036247426295506813 -1.5811847349199972257;-0.28777970109788802988 -0.1607566036018338862 -0.0096800145658060207654 -1.0091130328544628547 -0.34218012318002538619 -0.81332246502288163548 -0.38350934351048243665 0.36294313974105668619 -0.043340443697595439076 -1.2848964876731308049 0.30111246511104089452 -0.50794505001199186101 0.15772887251058689828 0.30145033714877755848 0.037318120993348018188 -0.1903499578030919126 -0.12773127266708936278 -1.0167920977706004226 0.22749126086287471682 -1.2131387222946270477 0.33106688686925656029 0.4299436807339936939 -0.08459866498744780805 0.241047352916972768 0.80660039093816604527 -0.99015703897236062581 -0.25467262880691798888 -0.027736063777121643115 0.44801826141256922975 -0.035156746186486551031 0.095603264192100398389 0.13938447760358452232 -0.38774404766404790834 0.21128913411127681066 0.66638427117426912716 0.70787716029968972276 -0.63286791691458010867 0.36858134654858770718 0.030720010692631787713 0.53409335826657666768 0.3552799938045264061 0.20148917622562961816 1.6789981173560681871 1.5465464746544517194 0.62808230491413752361 1.6024196957838048316 -0.22578096464923166908 0.55092267914897008474 -0.79702022135842043316 0.57899889022008421691 1.1024024435560799695 1.0838542172998089086 1.0918833889509247381 0.044926714650630347747 -0.40504723972092493423 0.49653695716577600505 1.2980239463223031127 0.40948118928144605633 -0.61979477867341215003 -0.13451171952154200584 0.30183618120651489747 -0.020138487797911427957 -0.152941080032627158 0.10427532625968001512 0.86747735963720196128 -0.36364413281310592474 -0.066586644249068654977 -0.76699579574566767448 0.33895518446619665731 -0.084872403644989588556 -0.5323019290901660483 -0.34006786122649923509 -0.84291967161911385276 -0.68530736725685414967 -0.44301056947969091881 -0.71896968192902588335 0.058048804468442224969 -0.23094328560329721589 0.3963943914265817825 -0.24650080220301415213;0.11854550285715453883 -0.32314861652010545834 -0.53192353689215343682 0.042001118555153101053 -0.16797774192334333221 -1.0541898872734356551 -0.55701888844935887324 0.69883407308125078394 -0.79077570060918778161 0.39723351196623751802 -0.69593734706435317339 0.40052796574962351572 0.044410742910373002257 1.6036572591887774397 -0.21041915027394869631 0.89975111357008963342 -0.37155159469401205508 0.2464982180132474221 0.45571602961235924134 0.85516337324006053144 -0.30406322319692435929 -0.94606997358695177347 -1.3788655977437351829 -1.731330508178705152 1.0615667394264614032 0.66465038074019600067 0.62271756386009402551 1.4650721777040569549 0.70883665711267884735 0.29112373822759779474 2.1299451430325349044 0.8319500380811059026 -0.78880613430034363098 -0.39430224051220291726 0.40426844435691999813 -0.81554453106154256581 0.52035461771205371306 -0.51108477123618922811 1.746763954459481516 1.3962356045312922515 -0.82181022833565176011 1.8273901200933169164 0.072503701447765328547 -1.4457443240605538648 0.19658117113311940338 -0.10797377925724166436 -0.033541630103334385549 -0.24707922921851158127 0.46095188943782722246 -2.6418551540171271164 -0.70303538056735470629 -1.2226912221895900323 -0.72669591648174802767 1.0295854270404456443 -2.3727083489524392057 -1.2499157698434075758 0.2495943524110674494 0.54673408561110414805 0.76559790156051621413 0.67105054513522299775 -1.0364414159983001973 -1.4807919874660679938 0.98728355339834616977 0.84222229889119071267 1.1252418167520086278 0.61875805343494338917 -0.19156124214270475736 0.15656672910413482747 0.79235245231526385545 0.06746004285835167924 -0.81093628330383016323 -0.63044234749256777839 -0.38810135946843343779 -0.96230385421782871358 -0.38692653403285270919 -0.57573902301374368928 0.53017340319842087837 0.81629995820067013934 0.38034010393940043127 -0.7807618824751635378;0.63071024371070238956 1.2927451337804747311 -0.26412018980685525449 0.12052476343716238272 0.8519856094910835953 0.088792149045732474133 0.56979497056887562501 1.1616697191617069151 0.23346217313258460502 0.92245990696086399563 0.18018001199613264962 0.39283318744769729625 0.57872651832287969054 -0.59067407049322939727 -0.28556914663311344649 0.21317638507739453124 1.336603134299311213 -1.0922532794705497317 -0.39590733955659074272 0.12395740736440162555 -0.35367538197476244832 0.54130063111756143712 -1.1268909635868753494 -0.64608143673268481066 0.089809033379335601044 0.40675206099515992531 -0.35461253092878214366 -0.59818108556820992483 -1.6276087262336769168 -0.49042711380680520383 -0.76060493313081845024 -0.0049949576315925225956 -1.1300475733644483878 -0.12012070201999085206 1.2865968890236314515 1.0899667582422927214 0.0097191982769070043441 0.24359711519839594152 0.7745256637942183886 -0.019722165048526085762 -0.15087712888620924412 -0.46571155680790143894 0.17012574857509962789 -1.1106383123444878436 -0.12313407959537976677 -0.26251587091459971379 0.18928034251573316871 -0.77280555088595248581 0.70272599184648176784 -1.1946116340911581144 -0.067979648490069211064 -1.0269408581291037397 -0.45455490588512864614 1.114402297876104786 1.1696269424213494581 -1.1593575901494197478 -0.3406796689712285886 -0.47649346277671633665 -0.8473773975837058936 0.81082447843888727501 1.1313507248121938975 -0.015072172830465569576 -1.4028511631321651798 0.29035668985266299691 -1.0253200381392393314 0.2295285487282016923 0.32104194903103627778 0.07215957835944705745 -0.20798132451069806237 -0.25375586075348705029 0.45745608537606269328 0.33568223362405913424 -0.17331178563995341957 0.44611194708608903348 -0.19441146048872856578 0.058930180737786178047 0.053719229102693777378 0.12235678609875466627 0.17863284250794153607 0.88127766279931274429;-1.4784795405784818545 -0.028012951520498957647 -0.31961952736683768572 1.0847527024310541499 -0.47769517882908446582 -1.513423419593823871 0.45507496664569829781 -0.86320960378975220006 1.2915952605098022232 -0.3306305303420460362 -0.35300080453495208399 -0.40319627547877984197 -0.78195319061229007218 2.4031892911252308309 1.3566731674027823207 0.54324578561784442332 0.23479606198407082518 1.1451928268286901691 -0.53757763720521212214 -0.58560272352367803705 -0.24419411075155345037 -0.29286767176063566165 -1.4062303913635481045 -0.16933394428645692775 -1.9440979473087864893 0.066697467339405555609 0.27500051265960934188 1.2159274289655954693 1.5294810270481467018 0.63436577507821978461 0.30268609846388438989 -0.22232069253260172692 -1.1627728649781547965 1.2041702652434165266 -0.6779255732686252367 -0.76116388261874479149 0.5908347926063600708 -0.99005149739788966823 -1.5571819204909678191 1.7881041939930473195 1.4766306498951469184 -0.99334240315880284466 -0.34029323875703643143 -0.083612066211561308915 0.26796012593523810263 0.71766269359263412664 0.68175548778357819568 -0.99846762148193268782 2.0570520553585680545 -0.85888925042855579495 0.51549841421253195239 -0.50991652390824881991 1.2681396154580508728 -0.34619603625146011527 0.53905662662580233757 0.86802242884582181404 -0.14271970437453221359 0.69641698806532625898 1.3535069160405450717 -0.50419268084638368954 -1.4340954485541705932 -0.96355705961165216689 -1.313650716687229103 -0.21603604825649572185 -0.76040986023831946827 0.82641751634500015822 -0.33411493443604389775 -0.55847297006267859754 -0.038401984627683502516 -0.33512873871394710523 1.0437234552183007885 0.4657482285188965232 1.0297754225077633272 -1.7780783753420570381 -0.10061922621816651868 0.67614355255939695422 -0.1901045513689299804 0.30958585514623548907 0.23584841173025178351 -1.121969868067177023;0.014970495812940869465 0.1117835761516585702 -0.34363828612279467833 -0.021477917238260629124 0.39590316346859183438 -0.034560749828112469206 0.12978084761371949662 0.29995016751783587505 0.64472584484937445204 -1.1609241551193421049 -1.1590274077790694296 0.090441008440716744166 0.53227352122965954084 -0.77451955679432471502 1.6229729080759169868 -0.65580921997019470115 -0.017151196285794798047 -1.3244797537103030205 -1.4982829933509358433 -1.1856976403601044989 0.49450298529492930921 1.5340294158901541799 0.49754120017840225421 0.94734899906248926094 0.85411671125754562439 0.007677166722786127849 -0.48210279869308209078 0.27463025673667279536 -0.6443941378665221098 -2.2570526809305779814 0.57245031171378890633 0.066358068433148370557 -0.055516413204723676078 -0.15006999827192282759 1.8264267234792896932 0.69194072725415811664 -1.7662121948569888819 0.96467127243563477457 -1.6696505023773247078 -0.60857434115420461218 1.6677951614299755256 0.52462319382861988259 0.62532981181522628855 -0.2116383563636776155 -0.72608720374970736611 0.15141871738349135801 -1.2967501607418885357 0.3450551796622094991 -1.3660731832950834264 0.53594225959199759401 0.53774878270257997492 0.021562305553859600904 1.0935887861748896377 0.34177118715434051666 -1.2919536121113763816 -0.59108324790658683945 -0.85550972440497374816 -0.30334360216328726256 1.6978625376135478842 -0.065986246103700144094 -1.8359715893287760213 0.23046081972000065363 0.18666094447096720499 0.27669453210307004554 -0.33247665831494760402 0.90595844818794746267 0.044328738127595683494 -0.074217296229497006776 1.3228286254288252888 1.0265196518624104538 0.31288900410933434548 0.29377062847507290355 -0.29324670750050441104 -0.48363220508202936498 0.042258093042751687651 -0.48960556097155710775 0.98428203366084643378 -1.5240572584786944432 -0.098373187046477766904 -0.3408195754471931016;-0.24990301141791018691 -0.46409912520718848983 -0.86320057955666562588 0.93845526274229529307 0.46944935754198380273 1.291672107169274053 -0.83449904754155157516 0.16089145207797683756 -0.21518680835180328814 0.36512210122630650577 -0.65408914403816842409 0.48359321070956573507 0.045042118815788227681 -0.41768757048973931267 -0.68262741673590354718 0.53360294578437061919 0.37379108530970012181 -0.53400825332597967599 -0.14168334897185980159 0.033729383648202368451 -0.016113286369049746594 -0.60418191048016256506 -0.23836923552312738739 0.60330228008442932097 1.1800799562834711764 -0.59119789716708848193 0.76753908762241140895 -0.02467834567918828978 -0.12919784082967042393 -0.54155602142566594548 0.64208671488488067158 0.23390843746686493243 1.1146095389122290253 0.9805299645687486354 0.02144837621513698972 -1.2847839994480731995 -0.31231485985627355229 -1.2654160522362747354 0.075248073536059140176 0.8282401277425802677 -1.0962615953368954891 0.73775013595275129585 0.027971274663939782457 -0.086390902318991602549 0.39281593364284406178 0.022660248555108817442 0.34429105457061903728 -0.89406164818647815284 0.1292299658490984049 -0.44648096491598388003 0.062792878042494351676 -0.25439854962963942553 0.24891211190734607861 0.047849143617840865506 0.74476698876283764506 -0.46782013670867522714 -0.98422030603321752906 0.70141716240073170852 0.063990341002518685842 -0.35952384686423960458 0.69124896489501452823 1.1875485549406541441 -1.0135009841221056526 0.98508420190783829717 -0.248636530782363252 0.051790582996618629574 0.24793313338344014074 0.094159874409738969492 -0.81885293030067451969 -0.21002864109327784581 0.27208515725979032229 -0.17264755823027211346 0.36426605358179753313 -0.44821616466386754452 0.21915300376616125844 -0.38874645411115776872 -0.89228507669290002546 -0.30079813686453044097 -0.26377623342576628218 -0.57388175004853581029;-0.3429813766355137572 0.58080676420905663626 0.47634854849146063271 -0.37109793646561151093 -0.29018334017780134104 0.071845328118373658066 -0.15021008888114115165 0.89709218438669446893 -0.37368994739345640088 0.24630525869963310059 0.0025310655800920706104 -0.18197801816273592723 -0.16366378547412871458 -0.29537535409427678745 -0.0032098767081075417484 0.57695672410537068853 -0.42381235180818138675 -0.008945394708919703064 0.14019889238624047567 -1.1751611277046971615 -0.18883045724439342927 -0.64415256810083576511 -0.23633909179066570072 0.67673382879999510742 0.20861983348015308848 -0.71523037998939609228 -0.05647645787261933864 -0.52466649800803466519 -0.28431096320795440358 -0.30536350350575991452 -0.15404485252615426893 0.24248906023672428534 0.17948123085610562244 -0.75403649059170752 -0.32547862865328675008 -0.15434631752124361448 -0.72214669746451320975 -0.34536746054286465712 0.57192913409601919827 0.29766282643350855386 -0.19016690112222395248 -0.54499500397509581529 -0.080882184976934848319 0.49148770584177092768 -1.4726916001516843213 -0.23658155161791782906 1.2235705235777893929 0.44804288653462048808 -0.19895919289186195233 -0.10370216712304537732 -0.47628393715461164737 0.72583013325837786311 -1.6304941824976861842 -0.098543661448070474229 0.65858968846092580396 0.25231727913405171959 0.71987362707148372376 0.35632858769623931838 0.60954094531481772812 0.21042817426767557176 0.072193203862061530729 -0.27504242635414244411 0.20698595036883965514 -0.23001099298872249022 0.12479307716695367536 0.21867018495071482986 -0.36127257035871862545 0.66737277551705187495 0.27032886307342746113 0.27675949345915851207 -0.3573876556439957719 -0.87014355842763924098 -0.57148333149694030553 -0.21505081885777524442 -0.56535590753417208632 0.71171294615874935996 0.4453527043824737075 -0.12666358918631007158 -0.023294061606926385471 -0.67473941580172636101;0.72248442377029531425 0.68540105962326514089 -0.47009051538830620709 -0.25154520446884343077 -0.30715252592405994925 -0.29698426876959843623 -0.016140700126590065699 0.27809565292816340598 1.5616130028125725371 -0.53577808665059012405 -0.2579591823135218287 -0.18938878922211502265 0.00014979447924982772569 0.55741797857891772772 -0.28185380086976785652 -0.52150693611289999918 0.076875130414268133539 -1.0073891765973890244 -0.7097138455967888504 0.25656747234814220038 -0.27017751094330133554 0.30889106549624256726 -1.7714755541897628799 -1.2433698849759746707 2.5178879407561476356 0.63801311574641950131 -0.50244549447147723864 1.1301796285223162375 -1.2560449344422057738 -0.40207268753110508852 -0.11065475848267315728 0.0028632493591451563253 -2.5002831091748065617 0.047971056679733017902 0.6786443029857335274 0.34022127793068324131 -0.20290583472442397239 0.12075245451592617196 0.48234849770552495896 0.26876591095225216277 -0.49303208440765428078 0.33944482985651869278 0.53107441146976264168 -0.14264014379709522018 1.3305315230154475259 2.0244761327470643941 0.61427980328044284875 1.1741675090806054094 -1.1874667814755301976 -1.0184539112449824128 -0.20885613326717633598 -0.58194445841053432655 0.76981252402709432481 -0.55091661512611667106 1.0087015604692364246 0.26809294499899766206 0.54830336421841063821 0.50814158184744984137 -0.40328495343389991756 1.7621403486022129137 -1.5965463268413222497 -0.71410473688937436965 -0.3409129323270647105 -0.95688293783361222378 0.19314758581295854434 -0.12296939878686913294 0.27043382763557810566 -0.37361308736015225174 0.15645931006371760486 -0.76849318631193785922 -0.032434356392558323645 -0.23923036888948326362 -0.98341868125049913818 -0.8934150339349675729 0.73926963167026826795 -0.29521579802882125243 -0.30882872908197978035 -0.46134116751617382235 -0.079102754406269598642 -0.62323975878434767495;0.68661670132213559192 -0.29867321770822596871 0.16126152504379359653 0.30215036528089322942 -0.10903764550264906374 0.074971922600460066954 -1.9210175429393925306 0.50026598356863172246 -0.76961930895891583759 -0.027184726182900877806 -0.015502387760439292549 0.8162953459694406444 -0.11916518030455043597 0.27142250688982222373 0.8951884129299494397 -0.015606107308394213951 1.2424119848643360164 -0.400286988480127226 1.3372378152445061339 -0.30991954595929077643 0.76499521117120461433 -0.3639432789608377794 -0.5206866686504598718 -0.42627065009249054395 -1.2856408602210949166 -0.56013482283648952098 0.3742874317187747657 -0.37482162754009284988 0.31710769448487957645 0.75616818041109978843 0.90331037699165250832 0.55979781176556575595 -0.60494281616842593419 0.89359590265923571906 -1.5315459151552053285 -1.1951000713322046387 0.2728002783377067586 0.50001979118720529804 1.8110478783785353141 -0.59689427075731416039 0.15819567055894431795 -0.23613132121732943736 0.28078033286184850281 -0.18945621670507084566 -0.55646789976399402278 -0.73635049611217939791 -0.68857262951132736095 0.033742632358455849906 1.1439284017781221614 0.50516098904207984432 0.61191685744056345531 0.12272592176443920808 -1.3902777222819737712 -0.94748006014215835346 -1.2393192453603234515 -0.39554466521115183575 -1.0163313826301025866 -0.044827143939756758373 -1.6976514273845455527 0.9942665278799469597 1.2662669066695291242 0.7490408825108659796 1.3337475441277197863 1.0217359020018690341 0.38603349998443248214 -0.09955667469759009458 -0.15233979073361306189 -0.48872473701859814321 0.15803754516517493078 -0.58566578048023820724 0.59103486361408397176 1.0246046076141610559 0.79744566884305634336 -0.057285532375819833706 0.72736340451033809629 0.083070695621807036368 -0.36013593709489621908 0.44102215432181768318 -1.5469347219703901697 -1.6878132176323847879;-0.37090998959265786272 0.25778335115165701419 0.12552498470269121689 -0.42930678307214048539 0.49538195962306441622 -0.16463381153051750982 -0.13519328943138980703 0.42179173239353279223 -1.2716149921184949356 0.12744804995642344814 -0.45534178745044162628 -0.59021260310741296973 1.1666527867527392015 0.33198714866109024779 -0.57231329334646641183 0.072401851410140480314 0.38304613081538091413 0.81081241287676086849 -0.063350763569537102415 0.3420069054553284138 0.13835576820452674673 -0.14800500956369258554 1.1555360307620707871 -1.6161924416125645898 0.17460223652854639509 0.368849766459149353 0.49088916819977451711 -0.83338752555357042962 0.046401334344193495562 -1.5891420201135575407 0.6282862748677304765 0.37111285716598607642 0.90015328692917428999 -0.30886210909509898004 -0.2031396566650383595 -1.0106574931223701874 0.38136278913446186589 -0.26752029412699374067 0.86515449235335462053 1.1466461719410707687 0.351048511161011767 0.24742556721225256178 0.12557747897654078506 -0.74922590845957537375 0.32107441093341293481 0.8112876062892370177 -0.29149703427310202919 -0.92085318768118384902 0.50953889357571091612 -0.0095972323322486875752 0.06563247961364751526 -0.5920896414538465713 0.18950458566078606792 0.96448452693571284922 -0.51005550096689666884 -1.331513140696799713 0.20795140089117647442 -0.78696389863186011482 -0.21979810534293117708 0.98003950691363617143 -1.1676906231549959436 0.83002684683439498237 0.15023456823412079109 -0.034037508846634721704 -0.51150674036871890404 -0.63777781954693324451 0.030598644231728630571 0.33605839168193790689 -0.73221204160539998806 -0.53003321390123636636 0.2742835197495285815 0.71535006207306384152 -0.57309415333025759409 -0.47775641587353862016 0.43053578557054689169 0.888117723138207249 -0.2386200191746662147 0.046454280069808562281 -0.0039529844082579791709 0.6478890973022535249;-0.1773874894763194654 0.010392325529840902923 0.86060626752474755907 -0.16766046594776867762 0.43871347495929874372 -0.91412560838082435044 0.5256721708327681819 2.3176944437880475647 0.54923569583326314891 0.96476507549475953862 0.33868190988290036714 0.26367009747865338687 0.5846985077345268067 0.56335361503633041291 0.23117669491259046355 0.66164141024786216061 0.10782930868718591799 0.53369396855173356631 0.79606745868455386361 0.27749676433662734398 -1.0449210259496144459 0.10160347645676963413 1.2403755758140107002 0.17072180144599025109 -1.8053949210339141906 -1.0605098205025269564 -0.47394091452227737893 0.96216079147793598381 0.34253072302115289416 -1.6884740105177251657 -0.50592492484977624745 1.0152242284839385622 -0.17419997622570781992 -0.93982894080504342238 -0.46108617275833985172 0.61094123296608615625 1.6425961909221034052 0.90176169470417677498 -1.0007515247851841433 -1.373644704376121517 1.1555755792686022154 -0.39447065463538699692 0.48693452928309843841 0.70270079133604823607 0.20687484203456413256 -0.3972748895608490538 0.37898299304523436204 -0.37112775768658046172 -0.34043247656594621819 0.65479328324910002213 0.7742732249658189625 -0.59119564476217767446 0.20941796373738957859 1.4919038925645968785 -0.4774549223245638796 -1.326822863289997656 0.18933235027910863546 0.45644235072132061104 -0.31610516393718923744 -1.5104372883739747291 -0.81989027469273656479 -1.0938075590093185863 -1.1271833048305577307 -1.160574351430303075 -0.014333578338066102487 -0.3074240890402708537 -1.0517611908432378254 -0.9685168056913086021 -1.131279260997160474 -0.53752100474190223078 0.44401503417555748809 0.58565538673596484465 -0.053145966362374910674 0.77765732689307764947 -0.56896054286549657686 0.15052568663937973548 -1.0321034040748557903 0.62821267864245688983 0.19055038531598361695 -0.69302362525619132239;1.2380213187234245797 0.18509033602818358855 -0.0087523705356164632763 -1.1115151278690582615 -0.14887751287885792051 -0.71994461226883232907 0.21756403922290160069 0.11856691413456452167 0.22885013754430275079 0.61525637405894773035 1.2333993337517792366 -0.9430195634539678684 -0.10839253009204151412 1.2510741066742465666 1.100689086522062432 -0.09741176488387272292 1.841719669834953832 -1.3085191112335203822 0.24979671172453798977 -1.4051507932404356804 1.7989918160000697434 -0.68924931098570629828 -0.78418732915908073711 -0.78123103420701867083 -2.7560692527136412266 0.6457963325722465564 0.181049669037471328 0.18081480384647102833 0.79068096771586049432 -0.50310322579009569832 0.12958108284327823911 -0.092696662506774205048 -3.0469765937996271532 -1.8119966349015323992 1.136394614486778698 3.0598730200196073703 -1.4107074856969268328 1.9857188770168001657 0.59881946699418098223 0.94166039016165348219 3.0907443116580948228 -0.27004261691935405043 -1.3668528061659221962 -0.061561970149336280034 -0.52941534363074527203 -0.29513782946286426512 0.058125738055966755247 0.16174327957275347334 3.2062604794740701131 0.60254758491742144155 -1.6167102895278460117 0.013457500633156191383 -0.50307440486987264894 -0.88160935178193899908 -1.3685533793941848657 -0.41964347597697027048 -3.9173559348582038808 1.3591018136216823642 -0.65665196599550279544 -0.15979390681504065941 0.47279787331908978976 0.18769119328461320029 -0.24654076965248172826 0.2029285777605948915 0.50768635788593152736 0.1201170294266164229 1.0533182613080824819 0.86474423675108991194 0.34579169254208474982 -0.58979015400405232494 0.33862963576023147327 -0.48844832608417376729 0.22860888227413117546 0.042960026690102730285 -0.22109147825471214821 -0.65197921497043154204 -0.25533749733074506683 0.10392570512269343197 0.0024426424103078450689 0.57630799971150081795;0.59432453704143006767 0.66593314695035465967 0.37140406278402987583 -0.27343013979969055249 -0.16738489146792812079 0.41042986325987285134 0.22683735333286472735 0.34217583883134938816 -0.93104765491997998339 -0.56545250538487357161 -0.0034673486194444829919 -0.30852397798074632229 0.67350000076040195118 -0.53342314144425018174 0.86517450666591355635 -0.2643646787113902441 0.94190464965638909245 -0.097996386537566093633 -0.19819312576865302788 -0.63853130287477888327 -0.062650629295051399326 -1.1477045281771769414 0.16460690142040435013 -0.043490692901753488786 -0.31483721406592296566 1.126624788759551965 -0.46341099420132708664 0.71641291521727812341 0.07891935917918779797 -0.38622314385866263198 -0.66523116398921544601 0.26234214697567498353 -0.60823936650668131154 -0.14106798229009512302 0.47489031264722297854 0.75341837559361923837 0.66333282994239073371 0.11953729457156291038 -0.54853180585807892466 -0.55415655998766333301 0.43220270735823490549 